Profession,dim_0,dim_1,dim_2,dim_3,dim_4,dim_5,dim_6,dim_7,dim_8,dim_9,dim_10,dim_11,dim_12,dim_13,dim_14,dim_15,dim_16,dim_17,dim_18,dim_19,dim_20,dim_21,dim_22,dim_23,dim_24,dim_25,dim_26,dim_27,dim_28,dim_29,dim_30,dim_31,dim_32,dim_33,dim_34,dim_35,dim_36,dim_37,dim_38,dim_39,dim_40,dim_41,dim_42,dim_43,dim_44,dim_45,dim_46,dim_47,dim_48,dim_49,dim_50,dim_51,dim_52,dim_53,dim_54,dim_55,dim_56,dim_57,dim_58,dim_59,dim_60,dim_61,dim_62,dim_63,dim_64,dim_65,dim_66,dim_67,dim_68,dim_69,dim_70,dim_71,dim_72,dim_73,dim_74,dim_75,dim_76,dim_77,dim_78,dim_79,dim_80,dim_81,dim_82,dim_83,dim_84,dim_85,dim_86,dim_87,dim_88,dim_89,dim_90,dim_91,dim_92,dim_93,dim_94,dim_95,dim_96,dim_97,dim_98,dim_99,dim_100,dim_101,dim_102,dim_103,dim_104,dim_105,dim_106,dim_107,dim_108,dim_109,dim_110,dim_111,dim_112,dim_113,dim_114,dim_115,dim_116,dim_117,dim_118,dim_119,dim_120,dim_121,dim_122,dim_123,dim_124,dim_125,dim_126,dim_127,dim_128,dim_129,dim_130,dim_131,dim_132,dim_133,dim_134,dim_135,dim_136,dim_137,dim_138,dim_139,dim_140,dim_141,dim_142,dim_143,dim_144,dim_145,dim_146,dim_147,dim_148,dim_149,dim_150,dim_151,dim_152,dim_153,dim_154,dim_155,dim_156,dim_157,dim_158,dim_159,dim_160,dim_161,dim_162,dim_163,dim_164,dim_165,dim_166,dim_167,dim_168,dim_169,dim_170,dim_171,dim_172,dim_173,dim_174,dim_175,dim_176,dim_177,dim_178,dim_179,dim_180,dim_181,dim_182,dim_183,dim_184,dim_185,dim_186,dim_187,dim_188,dim_189,dim_190,dim_191,dim_192,dim_193,dim_194,dim_195,dim_196,dim_197,dim_198,dim_199,dim_200,dim_201,dim_202,dim_203,dim_204,dim_205,dim_206,dim_207,dim_208,dim_209,dim_210,dim_211,dim_212,dim_213,dim_214,dim_215,dim_216,dim_217,dim_218,dim_219,dim_220,dim_221,dim_222,dim_223,dim_224,dim_225,dim_226,dim_227,dim_228,dim_229,dim_230,dim_231,dim_232,dim_233,dim_234,dim_235,dim_236,dim_237,dim_238,dim_239,dim_240,dim_241,dim_242,dim_243,dim_244,dim_245,dim_246,dim_247,dim_248,dim_249,dim_250,dim_251,dim_252,dim_253,dim_254,dim_255,dim_256,dim_257,dim_258,dim_259,dim_260,dim_261,dim_262,dim_263,dim_264,dim_265,dim_266,dim_267,dim_268,dim_269,dim_270,dim_271,dim_272,dim_273,dim_274,dim_275,dim_276,dim_277,dim_278,dim_279,dim_280,dim_281,dim_282,dim_283,dim_284,dim_285,dim_286,dim_287,dim_288,dim_289,dim_290,dim_291,dim_292,dim_293,dim_294,dim_295,dim_296,dim_297,dim_298,dim_299,dim_300,dim_301,dim_302,dim_303,dim_304,dim_305,dim_306,dim_307,dim_308,dim_309,dim_310,dim_311,dim_312,dim_313,dim_314,dim_315,dim_316,dim_317,dim_318,dim_319,dim_320,dim_321,dim_322,dim_323,dim_324,dim_325,dim_326,dim_327,dim_328,dim_329,dim_330,dim_331,dim_332,dim_333,dim_334,dim_335,dim_336,dim_337,dim_338,dim_339,dim_340,dim_341,dim_342,dim_343,dim_344,dim_345,dim_346,dim_347,dim_348,dim_349,dim_350,dim_351,dim_352,dim_353,dim_354,dim_355,dim_356,dim_357,dim_358,dim_359,dim_360,dim_361,dim_362,dim_363,dim_364,dim_365,dim_366,dim_367,dim_368,dim_369,dim_370,dim_371,dim_372,dim_373,dim_374,dim_375,dim_376,dim_377,dim_378,dim_379,dim_380,dim_381,dim_382,dim_383,dim_384,dim_385,dim_386,dim_387,dim_388,dim_389,dim_390,dim_391,dim_392,dim_393,dim_394,dim_395,dim_396,dim_397,dim_398,dim_399,dim_400,dim_401,dim_402,dim_403,dim_404,dim_405,dim_406,dim_407,dim_408,dim_409,dim_410,dim_411,dim_412,dim_413,dim_414,dim_415,dim_416,dim_417,dim_418,dim_419,dim_420,dim_421,dim_422,dim_423,dim_424,dim_425,dim_426,dim_427,dim_428,dim_429,dim_430,dim_431,dim_432,dim_433,dim_434,dim_435,dim_436,dim_437,dim_438,dim_439,dim_440,dim_441,dim_442,dim_443,dim_444,dim_445,dim_446,dim_447,dim_448,dim_449,dim_450,dim_451,dim_452,dim_453,dim_454,dim_455,dim_456,dim_457,dim_458,dim_459,dim_460,dim_461,dim_462,dim_463,dim_464,dim_465,dim_466,dim_467,dim_468,dim_469,dim_470,dim_471,dim_472,dim_473,dim_474,dim_475,dim_476,dim_477,dim_478,dim_479,dim_480,dim_481,dim_482,dim_483,dim_484,dim_485,dim_486,dim_487,dim_488,dim_489,dim_490,dim_491,dim_492,dim_493,dim_494,dim_495,dim_496,dim_497,dim_498,dim_499,dim_500,dim_501,dim_502,dim_503,dim_504,dim_505,dim_506,dim_507,dim_508,dim_509,dim_510,dim_511,dim_512,dim_513,dim_514,dim_515,dim_516,dim_517,dim_518,dim_519,dim_520,dim_521,dim_522,dim_523,dim_524,dim_525,dim_526,dim_527,dim_528,dim_529,dim_530,dim_531,dim_532,dim_533,dim_534,dim_535,dim_536,dim_537,dim_538,dim_539,dim_540,dim_541,dim_542,dim_543,dim_544,dim_545,dim_546,dim_547,dim_548,dim_549,dim_550,dim_551,dim_552,dim_553,dim_554,dim_555,dim_556,dim_557,dim_558,dim_559,dim_560,dim_561,dim_562,dim_563,dim_564,dim_565,dim_566,dim_567,dim_568,dim_569,dim_570,dim_571,dim_572,dim_573,dim_574,dim_575,dim_576,dim_577,dim_578,dim_579,dim_580,dim_581,dim_582,dim_583,dim_584,dim_585,dim_586,dim_587,dim_588,dim_589,dim_590,dim_591,dim_592,dim_593,dim_594,dim_595,dim_596,dim_597,dim_598,dim_599,dim_600,dim_601,dim_602,dim_603,dim_604,dim_605,dim_606,dim_607,dim_608,dim_609,dim_610,dim_611,dim_612,dim_613,dim_614,dim_615,dim_616,dim_617,dim_618,dim_619,dim_620,dim_621,dim_622,dim_623,dim_624,dim_625,dim_626,dim_627,dim_628,dim_629,dim_630,dim_631,dim_632,dim_633,dim_634,dim_635,dim_636,dim_637,dim_638,dim_639,dim_640,dim_641,dim_642,dim_643,dim_644,dim_645,dim_646,dim_647,dim_648,dim_649,dim_650,dim_651,dim_652,dim_653,dim_654,dim_655,dim_656,dim_657,dim_658,dim_659,dim_660,dim_661,dim_662,dim_663,dim_664,dim_665,dim_666,dim_667,dim_668,dim_669,dim_670,dim_671,dim_672,dim_673,dim_674,dim_675,dim_676,dim_677,dim_678,dim_679,dim_680,dim_681,dim_682,dim_683,dim_684,dim_685,dim_686,dim_687,dim_688,dim_689,dim_690,dim_691,dim_692,dim_693,dim_694,dim_695,dim_696,dim_697,dim_698,dim_699,dim_700,dim_701,dim_702,dim_703,dim_704,dim_705,dim_706,dim_707,dim_708,dim_709,dim_710,dim_711,dim_712,dim_713,dim_714,dim_715,dim_716,dim_717,dim_718,dim_719,dim_720,dim_721,dim_722,dim_723,dim_724,dim_725,dim_726,dim_727,dim_728,dim_729,dim_730,dim_731,dim_732,dim_733,dim_734,dim_735,dim_736,dim_737,dim_738,dim_739,dim_740,dim_741,dim_742,dim_743,dim_744,dim_745,dim_746,dim_747,dim_748,dim_749,dim_750,dim_751,dim_752,dim_753,dim_754,dim_755,dim_756,dim_757,dim_758,dim_759,dim_760,dim_761,dim_762,dim_763,dim_764,dim_765,dim_766,dim_767
professor,-0.3325844705104828,-0.6821762323379517,-0.1769505888223648,0.09625621140003204,0.32783567905426025,-0.23465895652770996,0.23660650849342346,0.5752296447753906,0.41192299127578735,-0.07493214309215546,-0.23279449343681335,0.05611754208803177,0.1967804729938507,0.1791171282529831,-0.018983304500579834,0.14389950037002563,0.11261053383350372,-0.22770476341247559,-0.4938749074935913,0.6526965498924255,-1.007401704788208,0.14681726694107056,0.5213619470596313,0.21048487722873688,-0.41213274002075195,-0.09528471529483795,-0.6281850337982178,1.2222903966903687,-0.05877300351858139,0.2555704116821289,0.3888310492038727,-0.12331368029117584,-0.2767835259437561,0.13333693146705627,-0.3781035840511322,-0.22553035616874695,-0.23250702023506165,0.45683813095092773,-0.37282198667526245,0.08310810476541519,0.14006593823432922,-0.21761301159858704,-0.30773305892944336,0.761078417301178,-0.13534025847911835,0.19700250029563904,0.4569419324398041,0.2273683398962021,0.6635636687278748,-0.4903615117073059,-0.3687443733215332,0.42181652784347534,-0.19977852702140808,-0.1599906086921692,0.369668573141098,0.13467031717300415,-0.6767486333847046,-0.5468595027923584,0.458030641078949,-0.5735670328140259,0.0018595978617668152,0.21979257464408875,-0.020937129855155945,-0.44898873567581177,0.6686524152755737,0.20803676545619965,-0.23152165114879608,0.19027240574359894,-0.7985706925392151,-0.06300611048936844,0.1263515055179596,0.24204452335834503,0.17417669296264648,-0.23567470908164978,0.6570709347724915,-0.20110684633255005,-0.14945781230926514,0.0055479928851127625,0.008516322821378708,0.17811967432498932,-0.21055594086647034,0.6253870129585266,0.0673740804195404,0.291777640581131,-0.044364236295223236,-0.2202269285917282,0.0359746515750885,0.14020177721977234,0.34958145022392273,0.0939498320221901,-0.25400975346565247,-0.37044504284858704,-0.47332653403282166,0.22023189067840576,0.18734970688819885,-0.23201057314872742,0.019249998033046722,-0.4821755588054657,-0.20365184545516968,-0.3133653402328491,0.007808133959770203,-1.396453619003296,-0.19582240283489227,0.5526770353317261,-0.42192161083221436,-0.21424008905887604,-0.4462146461009979,0.23374512791633606,-0.07439589500427246,0.29714617133140564,-0.26140230894088745,-0.029921945184469223,-0.030528880655765533,-0.846188485622406,-0.21711862087249756,0.9535160064697266,0.6749906539916992,-0.8352770805358887,0.24520690739154816,0.027868105098605156,0.028988689184188843,0.13477975130081177,0.34790298342704773,0.5326923727989197,0.2417193353176117,-0.025176819413900375,0.12627071142196655,0.25815773010253906,0.11534766852855682,-0.24835264682769775,0.036759816110134125,0.06666436046361923,0.36754924058914185,0.12392479181289673,-0.4566704034805298,-0.1295129358768463,-0.6372831463813782,-0.09480448812246323,-0.8617241382598877,0.3760617673397064,0.3154602646827698,0.2982718050479889,-0.04850178584456444,-0.3977876305580139,-0.04485525190830231,0.012176215648651123,-0.3448795676231384,-0.12746299803256989,0.3839099407196045,0.003941940143704414,-0.04756933078169823,0.13220778107643127,0.25709646940231323,-0.4006251096725464,0.3852596580982208,0.24140775203704834,-0.33963286876678467,0.1042630523443222,-0.3359534442424774,-0.05467268079519272,0.5237240791320801,0.05343123525381088,-0.30623170733451843,0.842517614364624,-0.36317968368530273,-0.3310560882091522,-0.47777774930000305,0.14690908789634705,0.340597927570343,-0.2746778428554535,-0.3167197108268738,-0.05706644803285599,1.0730490684509277,-0.0829325020313263,0.13838741183280945,0.1538545936346054,0.006201721727848053,0.21048234403133392,0.6975337862968445,0.46173766255378723,0.032185740768909454,-0.022988855838775635,-0.13239257037639618,-0.4974309802055359,-0.0448397621512413,-0.04647393152117729,0.8897152543067932,0.29253000020980835,0.05578535422682762,-0.041652780026197433,-0.15617233514785767,-0.4509933292865753,-0.42580461502075195,0.32103556394577026,0.7269161343574524,0.2914580702781677,-0.10906098783016205,-0.10812687128782272,-0.2584359645843506,0.4222232699394226,0.06238561123609543,-0.6873091459274292,0.12007226049900055,0.27508172392845154,-0.008874073624610901,0.45836156606674194,0.05406418815255165,0.287194162607193,0.6082585453987122,0.05286972597241402,-0.4098305404186249,0.403833270072937,0.09601151943206787,0.2223903387784958,-0.07544098794460297,-0.12282569706439972,-0.4489131569862366,-0.30714648962020874,0.5507366061210632,0.29687097668647766,0.32374700903892517,-0.2761523723602295,-0.1983877420425415,0.390812486410141,-0.5759726166725159,0.8718796968460083,0.49791646003723145,-0.04597843065857887,0.2475980520248413,0.7310458421707153,0.3350895643234253,0.014437366276979446,0.35677817463874817,0.8579860329627991,-0.0659494623541832,0.0012508239597082138,-0.6454960107803345,0.19766533374786377,0.20177790522575378,0.38541528582572937,-0.29494908452033997,-0.10732090473175049,-0.0979333370923996,0.21977689862251282,0.29482781887054443,0.6218445897102356,-0.01835944503545761,0.18994417786598206,0.35807928442955017,-0.41527998447418213,-0.042452603578567505,-0.35031813383102417,-0.12520071864128113,0.11044632643461227,0.08079735189676285,0.5180647373199463,-0.2201482355594635,0.15741930902004242,-0.029926123097538948,-0.11750374734401703,0.48906421661376953,-0.0037229787558317184,0.16028854250907898,-0.2632759213447571,-0.20964355766773224,-0.129246324300766,0.3142952620983124,-0.1838972121477127,0.23474974930286407,0.18365177512168884,-0.23054827749729156,-0.21489906311035156,0.5499652028083801,0.14241436123847961,-0.9666227102279663,-0.30452293157577515,0.2966051697731018,-0.0415831059217453,0.09964556992053986,-0.16801662743091583,0.35141658782958984,0.14527378976345062,-0.4787595868110657,-0.22312040627002716,0.4078091084957123,-0.7026473879814148,0.3920646905899048,0.5065752863883972,0.39225709438323975,-0.26546382904052734,-0.2674528956413269,0.6254658102989197,-0.4348452091217041,-0.8612685799598694,0.540782630443573,-0.32689571380615234,0.15199297666549683,-0.19361093640327454,0.3223232328891754,0.2685723602771759,-0.83025062084198,0.23764245212078094,-0.36681312322616577,0.3697678744792938,0.05591462552547455,0.12324625998735428,-0.16075272858142853,-0.252830445766449,-5.999702453613281,-0.16043621301651,-0.40079420804977417,0.04722467064857483,0.4587051570415497,-0.15346108376979828,0.05209432542324066,0.12297295033931732,-0.5722886919975281,-0.04916217923164368,-0.15961559116840363,-0.6445177793502808,-0.22283834218978882,0.4095660448074341,-0.2274060994386673,-0.041503049433231354,-0.17826616764068604,-0.029544370248913765,-0.4315794110298157,0.514234721660614,-0.004713393747806549,0.03446059674024582,-0.3612402677536011,-0.14200156927108765,-0.03551866486668587,0.2539622187614441,-0.7817162275314331,0.1308431774377823,-0.586755096912384,0.02883887104690075,0.20858541131019592,-0.3336506485939026,0.41392073035240173,0.04558718204498291,0.00661449134349823,0.18769720196723938,-0.563190221786499,0.12170308828353882,0.15260787308216095,-0.03444492444396019,-0.10090675950050354,-0.2943532466888428,-0.0052528828382492065,1.3567768335342407,0.45655545592308044,-0.2926645874977112,-0.08481238782405853,-0.292812705039978,0.1948598325252533,0.04338190704584122,-0.165949285030365,-0.05096949636936188,0.7161803841590881,0.15301215648651123,-0.21712443232536316,0.1871420294046402,0.05482696741819382,0.862663984298706,-0.10066166520118713,-0.73764568567276,-0.39117851853370667,-0.08178913593292236,-0.2758999764919281,-0.02500002644956112,0.344159871339798,0.08926993608474731,-0.15546303987503052,-0.5769926309585571,-0.14621251821517944,0.08420313894748688,-0.27936166524887085,-0.0476619116961956,-0.7353489995002747,-1.0282772779464722,-0.5412119626998901,-0.1469978392124176,0.19657213985919952,-0.2675652801990509,-0.4626070261001587,0.16088755428791046,0.05965876579284668,-0.7748920917510986,1.1807169914245605,-0.09047913551330566,0.021845070645213127,-0.8441029191017151,-0.07353262603282928,-0.5441784858703613,0.31371015310287476,0.08781842887401581,0.7734483480453491,0.2654377222061157,0.6659021973609924,-0.32227274775505066,0.17071104049682617,0.6351102590560913,-0.31436142325401306,0.35437536239624023,0.4633040726184845,0.22957706451416016,-0.10273725539445877,-0.2812933325767517,0.3004196882247925,0.10732446610927582,0.5760555863380432,0.2716962695121765,-0.06954099237918854,0.6237984895706177,-0.073825903236866,0.6748490929603577,0.3037591576576233,-0.0728016123175621,-0.032826200127601624,0.02918998897075653,0.17439191043376923,-0.5007591247558594,0.32609060406684875,-0.21774300932884216,0.392292857170105,-0.21188832819461823,-0.09566369652748108,0.7426533102989197,-0.41834887862205505,0.12189044058322906,-0.5913662314414978,0.33705270290374756,-0.15858420729637146,-0.3159612715244293,0.4546807110309601,-0.10286817699670792,-0.09349390119314194,0.09546643495559692,0.3515308201313019,0.2404891848564148,0.151181161403656,0.37011823058128357,0.174231618642807,-0.004554413259029388,-0.4051368236541748,-0.048846837133169174,0.1558775156736374,-0.2072817087173462,0.14303259551525116,-0.19229267537593842,0.10666249692440033,-0.10465256124734879,-0.5744293928146362,0.5431676506996155,0.3474979102611542,0.17655572295188904,-0.1608544886112213,0.19135436415672302,-0.29768383502960205,-0.15664440393447876,0.3799475431442261,-0.479678213596344,0.3950361907482147,-0.18930882215499878,-0.40154460072517395,0.16443099081516266,-0.12232230603694916,-0.26461008191108704,0.03519676998257637,-0.04506306350231171,-0.6169187426567078,0.30248934030532837,-0.037954337894916534,0.6862139701843262,0.03751516342163086,0.3583964705467224,-0.14278796315193176,-0.13067764043807983,0.2947448492050171,0.1908087283372879,-0.6931971907615662,-0.03571918606758118,-0.4075508713722229,0.28568902611732483,-0.2999947965145111,0.45009613037109375,0.07849163562059402,0.24224303662776947,-0.5190287232398987,-0.372882604598999,0.0877269059419632,0.021164145320653915,-0.15484194457530975,0.09848831593990326,-0.13445217907428741,-0.15546855330467224,-1.0948090553283691,0.11375713348388672,-0.19141581654548645,0.183304101228714,-0.31784480810165405,-0.7356773018836975,-0.03991635888814926,0.189409077167511,0.06675796210765839,0.5055422782897949,-0.45867329835891724,0.521345853805542,0.09857530891895294,0.008353091776371002,-0.3092327117919922,0.4453677237033844,0.5415279269218445,-0.42879998683929443,-0.33567193150520325,0.18020160496234894,-0.5931193232536316,0.07815158367156982,-0.3434205949306488,-0.17718839645385742,0.22903408110141754,0.2627786099910736,0.23969759047031403,-0.17367614805698395,-0.2277681678533554,0.6053167581558228,-0.18920832872390747,0.29239389300346375,-0.38985884189605713,0.21013890206813812,-0.05279318243265152,-0.30537357926368713,-0.012759685516357422,0.3279392123222351,-0.9787275195121765,-0.3414227366447449,0.21316614747047424,-0.20383217930793762,-0.24044200778007507,0.1572221964597702,0.497994989156723,-0.1787232905626297,0.3487391769886017,-0.46574655175209045,-0.015387721359729767,-0.00238199345767498,0.5125231146812439,-0.051750849932432175,-0.4135059118270874,0.11590634286403656,0.19043710827827454,0.2654653489589691,0.3518247902393341,0.5739827752113342,0.24919113516807556,0.2618207037448883,0.046570003032684326,-0.30229511857032776,-0.08988333493471146,-0.22843506932258606,-0.06119498237967491,-0.362701416015625,-0.14006975293159485,-0.17268405854701996,0.026673629879951477,-0.027951713651418686,-0.3048252463340759,0.3470395803451538,-0.4450676739215851,0.0299677811563015,-0.44491884112358093,0.2958323657512665,-0.01063317246735096,-0.32701045274734497,0.45074474811553955,0.21016229689121246,-0.1348070651292801,-0.03899606317281723,-0.03232669085264206,-0.5998846888542175,-0.4658339321613312,0.12873631715774536,-0.25270143151283264,-0.22086550295352936,0.4693185091018677,0.2830764949321747,-0.5235803723335266,0.4831461012363434,0.188404381275177,0.2350265234708786,-0.027668463066220284,0.25772741436958313,-0.36031463742256165,0.5676674842834473,-0.2823711335659027,0.051197510212659836,-0.15904982388019562,0.19749756157398224,0.4085775315761566,0.23014786839485168,-0.12980614602565765,0.5856372117996216,0.4372729957103729,-0.2243625372648239,0.16662007570266724,-0.4706210196018219,-0.3087959289550781,0.01621396839618683,-0.11876356601715088,-0.08350446820259094,-0.08274035900831223,0.1156393364071846,0.29910290241241455,-0.43124109506607056,-0.061703987419605255,-0.34692826867103577,-0.0009805448353290558,0.07813544571399689,0.3347165584564209,0.04546872153878212,-0.08105386048555374,-0.34808510541915894,0.23081691563129425,0.09546224772930145,-0.7585636973381042,-0.4702158570289612,-0.16466929018497467,0.502984344959259,0.1714673787355423,0.02169341966509819,0.05976175144314766,0.09553518891334534,-0.33752667903900146,0.5467413067817688,0.4372664988040924,-0.012591124512255192,0.0701453909277916,0.49977967143058777,-0.1662311851978302,0.21142391860485077,0.400661826133728,-0.2342931032180786,0.07351827621459961,0.21707002818584442,0.28325599431991577,0.19488489627838135,-0.46143049001693726,0.2936418056488037,-0.21989043056964874,0.6921645402908325,-0.14255385100841522,0.007171247154474258,0.12366542220115662,-0.10683724284172058,-0.15304730832576752,-0.09025460481643677,-0.19677391648292542,-0.17838233709335327,-0.4127610921859741,-0.3588418960571289,-0.06655970215797424,0.12021827697753906,-0.11960047483444214,-0.012390883639454842,-0.1511640101671219,0.5041245222091675,0.17641675472259521,0.10682658106088638,0.7260299921035767,0.1908252090215683,0.007383264601230621,0.20874343812465668,-0.14435985684394836,-0.0009973086416721344,0.33646517992019653,-0.0679078996181488,0.03178603947162628,-0.7430220246315002,-0.13632537424564362,0.06761545687913895,-0.24013067781925201,0.21042662858963013,0.13259540498256683,-0.44100287556648254,0.11132871359586716,1.208036184310913,0.36803388595581055,0.22820797562599182,-0.38451701402664185,0.46710309386253357,0.16157367825508118,0.10751847177743912,-0.09731754660606384,0.05583827197551727,-0.5565847158432007,-0.16665279865264893,-0.17152586579322815,0.01503513753414154,0.16660508513450623,-0.1604616940021515,-0.40346115827560425,-0.3616131544113159,0.2881447672843933,-0.16186337172985077,-0.13109195232391357,0.05834110081195831,-0.20633843541145325,-0.416232168674469,-0.5153477787971497,-0.6960341930389404,-0.40792030096054077,0.4568314254283905,0.3706468939781189,0.004571177065372467,-0.1340288370847702,-0.192518413066864,0.727369487285614,0.04628723859786987,-0.23644471168518066,-0.2200995832681656,-0.5481534600257874,-0.24842816591262817,0.11496135592460632,-0.07026516646146774,0.023707037791609764,-0.16321784257888794,-0.15266472101211548,-0.3540857434272766,0.05548810586333275,-0.1101079210639,0.4366738796234131,-0.23672354221343994,-0.08041515946388245,0.09560012817382812,0.1982184201478958,-0.09831993281841278,0.30717694759368896,0.16890744864940643,-0.7558753490447998,-0.6464472413063049,0.12672698497772217,-0.25840961933135986,-0.05532871559262276,0.25186869502067566,-0.4336264729499817,-0.5482807755470276,0.12238474935293198,0.16093376278877258,-0.8468428254127502,-0.2107561081647873,0.45549213886260986,-0.43986499309539795,0.0925462618470192,-0.1410396844148636,0.055339351296424866,-0.24451030790805817,-0.4651440680027008,-0.37713101506233215,0.9865848422050476,-0.24706032872200012,0.04450937360525131,0.23799146711826324,-0.5261341333389282,-0.14478349685668945,-0.019749369472265244,0.2598591446876526
vet,0.6497238874435425,-0.1313025951385498,0.1411210596561432,-0.09126415103673935,0.335299551486969,-0.20517508685588837,0.3377821445465088,0.3017406165599823,0.5492745041847229,-0.12431125342845917,0.10080944001674652,0.10113055258989334,0.1154586672782898,-0.282018780708313,-0.14486797153949738,0.14744660258293152,0.03867407515645027,-0.024197451770305634,0.10936899483203888,0.8479296565055847,-0.3827832043170929,-0.5213413238525391,0.11832859367132187,0.08796952664852142,-0.3364256024360657,0.3865317404270172,-0.09479118883609772,0.6181602478027344,-0.4740094542503357,-0.09418237209320068,0.43612825870513916,-0.028020590543746948,-0.4536423087120056,-0.07768219709396362,0.01893240585923195,0.40168043971061707,-0.08372785896062851,0.6049427390098572,-0.6772014498710632,-0.034913770854473114,0.33215034008026123,-0.6150293350219727,-0.2436813861131668,0.5403754115104675,-0.08623874932527542,0.13297881186008453,0.3396061062812805,-0.30019062757492065,0.9435110688209534,-0.05985429137945175,-0.11606182157993317,-0.10932987928390503,-0.948603630065918,-0.2588677704334259,0.4461055099964142,0.20188987255096436,0.30377674102783203,-0.314190536737442,0.03481920808553696,0.08414659649133682,-0.28538942337036133,0.3739524185657501,0.29321104288101196,0.029937876388430595,0.33256372809410095,-0.3962973654270172,0.14426974952220917,0.188372403383255,-0.2376319319009781,0.08991988003253937,0.33505403995513916,0.5674629211425781,-0.017013151198625565,-0.3134230077266693,0.33422982692718506,0.18799588084220886,-0.26158878207206726,0.25018250942230225,0.03341685235500336,0.3555043637752533,-0.06359627097845078,-0.32579994201660156,-0.20982520282268524,0.962436854839325,0.15722274780273438,-0.2199750393629074,-0.1668587476015091,-0.013528584502637386,0.03439611569046974,0.5689822435379028,-0.17178583145141602,-0.29009607434272766,-0.5128874182701111,0.06650897860527039,0.12627145648002625,-0.22762051224708557,0.2306578904390335,-0.5821528434753418,-0.043102722615003586,-0.14960692822933197,0.1409042328596115,0.649551272392273,-0.07584082335233688,0.3193237781524658,-0.5984890460968018,-0.39188000559806824,-0.40129661560058594,-0.0807737484574318,-0.09061496704816818,0.1629355400800705,-0.3135056793689728,-0.014785721898078918,0.040898703038692474,-0.4238494038581848,-0.049679726362228394,0.7349036335945129,-0.05841686204075813,-0.9758499264717102,0.2351827621459961,-0.034010399132966995,-0.209075927734375,0.2198847532272339,0.07753727585077286,0.8362506031990051,0.10868725180625916,0.22060289978981018,-0.09449760615825653,0.01214700285345316,-0.025555917993187904,0.28713470697402954,-0.10339070856571198,0.22986969351768494,0.23886443674564362,-0.23161078989505768,-0.12380892783403397,-0.2735341191291809,-0.12064462900161743,-0.1988128423690796,-0.5642046332359314,0.18151409924030304,0.47614648938179016,0.5833596587181091,0.4088723659515381,0.5619826316833496,-0.1766839176416397,0.043619319796562195,-0.9874184131622314,-0.1096910610795021,-0.43686968088150024,-0.0676172748208046,0.14127515256404877,0.41797587275505066,0.1778462827205658,-0.9794910550117493,-0.07109284400939941,0.301770955324173,0.14628379046916962,-0.0010372698307037354,0.04781197011470795,0.06473106145858765,0.7590845823287964,-0.5109717845916748,0.10338771343231201,0.4825468063354492,-0.41558653116226196,-0.4788285791873932,-0.5241449475288391,0.11904094368219376,-0.15227915346622467,0.0027436241507530212,-0.34306615591049194,0.34885767102241516,0.9696508049964905,-0.18229243159294128,0.7144059538841248,0.18952691555023193,0.05627253279089928,-0.08711623400449753,0.4634564220905304,-0.021313190460205078,-0.09572157263755798,1.058508038520813,0.015541346743702888,0.059062305837869644,0.7252184748649597,0.3660142719745636,0.857659637928009,-0.043896716088056564,-0.22831782698631287,0.1286471039056778,-0.29262349009513855,-1.3203877210617065,-0.6441969871520996,0.5200513005256653,0.6283833384513855,-0.34020018577575684,0.34188011288642883,0.18045145273208618,-0.8968915939331055,-0.23673658072948456,-0.162570983171463,-0.9188922047615051,0.04430441930890083,0.3311077952384949,-0.36099013686180115,0.2998619079589844,0.07669375836849213,-0.19238458573818207,0.3307721018791199,0.2726094126701355,-0.43158331513404846,0.22128556668758392,-0.25450462102890015,0.12182439863681793,-0.002061066683381796,0.12352785468101501,-0.4340829849243164,-0.36930298805236816,0.2762001156806946,-0.0033406345173716545,0.2964395582675934,-0.3628815710544586,-0.08028723299503326,0.10732509195804596,0.07069840282201767,0.5883738398551941,0.1471434086561203,-0.3546169102191925,0.0042048245668411255,0.20538198947906494,0.09098370373249054,0.3828306198120117,-0.3857751488685608,0.46413087844848633,-0.04125089943408966,-0.10581424087285995,-0.4634063243865967,-0.11412516981363297,-0.19643007218837738,-0.0351860336959362,-0.40899476408958435,-0.21466326713562012,0.2896370589733124,0.46950286626815796,0.10871832072734833,0.5567030906677246,-0.08495752513408661,-0.11356014013290405,0.15942321717739105,-0.26197129487991333,0.10529197752475739,-0.4139443635940552,0.532993495464325,-0.20144379138946533,0.021020270884037018,-0.5084348917007446,-0.09103842079639435,0.3501996695995331,-0.2257809042930603,0.010296344757080078,-0.1741790622472763,-0.16542387008666992,0.6275543570518494,-0.5463285446166992,-0.44128671288490295,-0.5543026924133301,-0.1473677158355713,-0.011013183742761612,0.28537389636039734,0.352336585521698,-0.21164317429065704,-0.3358701765537262,0.6746384501457214,0.02504219114780426,-0.4745769798755646,-0.3668402135372162,0.41905295848846436,-0.005327238701283932,0.8716909885406494,-0.26500213146209717,0.2522319555282593,0.43136417865753174,-0.13858972489833832,-0.12496595084667206,-0.16177329421043396,-0.1375732570886612,-0.06514651328325272,0.32606378197669983,-0.30779269337654114,-0.7115960717201233,0.007629360072314739,0.4246967136859894,-0.5117054581642151,-0.22559323906898499,0.29391637444496155,0.0058882758021354675,0.006573604419827461,0.14782795310020447,0.13334780931472778,-0.2634890675544739,0.4521373510360718,0.6121314764022827,0.6233696937561035,-0.40897366404533386,0.4341173768043518,-0.17775267362594604,-0.1192302331328392,-0.2904604375362396,-5.9109110832214355,-0.17040222883224487,-0.4718562364578247,-0.4423884451389313,0.5252972841262817,-0.08487170189619064,0.3779159188270569,0.27527323365211487,-0.8622378706932068,0.08990807831287384,0.26406633853912354,-0.5628688335418701,0.36274805665016174,0.0115957111120224,0.057525262236595154,-0.16282141208648682,-0.17674323916435242,0.022925319150090218,-0.022570420056581497,0.49237820506095886,0.5948026180267334,-0.6208346486091614,-0.11078263819217682,0.06349648535251617,0.24453575909137726,0.9243659377098083,-0.3146349787712097,0.3147687315940857,-0.5292761921882629,0.18198701739311218,-0.3200356066226959,0.3934512138366699,0.23338209092617035,0.5415082573890686,0.12169605493545532,0.1970464587211609,-0.3249526619911194,0.1441946178674698,0.13212290406227112,-0.9223477840423584,0.028527909889817238,0.3960612416267395,0.006216555833816528,0.5948215126991272,-0.47013193368911743,-0.502146303653717,0.20867888629436493,0.5418451428413391,0.1236964762210846,0.3324197232723236,-0.46827787160873413,0.10721069574356079,-0.4259866774082184,0.19841957092285156,0.040744006633758545,-0.18537642061710358,0.28970393538475037,0.11119621992111206,-0.5327171683311462,-1.1004374027252197,-0.32687774300575256,-0.3212905526161194,-0.11932502686977386,-0.39093017578125,-0.35219424962997437,0.018907345831394196,-0.6963508129119873,-1.0090384483337402,-0.032209932804107666,0.14262330532073975,-0.5363650321960449,-0.643465518951416,-0.2773132622241974,-1.3047300577163696,-0.4664709270000458,-0.6725082993507385,0.3641512393951416,-0.2612815797328949,-0.08329841494560242,0.17168298363685608,-0.18707509338855743,-0.7697651386260986,0.3779086768627167,0.06087842583656311,0.2340831458568573,-0.8035469651222229,-0.05219234153628349,-0.046651873737573624,0.03978896141052246,-0.23798903822898865,0.29580193758010864,0.17268984019756317,0.48894622921943665,-0.17180050909519196,-0.47491875290870667,-0.05164819955825806,-0.28309646248817444,0.10516928881406784,0.715405285358429,-0.6876586079597473,0.8049785494804382,-0.7239846587181091,0.49758392572402954,-0.07346682250499725,-0.009981419891119003,-0.30365002155303955,-0.29996976256370544,0.08912265300750732,0.30448681116104126,0.2678716778755188,0.34571895003318787,-0.5212467312812805,0.6048858165740967,-0.33856213092803955,-0.1540290266275406,0.18647132813930511,0.4616946876049042,0.09778617322444916,0.06967096030712128,-0.40471410751342773,0.38112011551856995,0.24464359879493713,0.003169223666191101,0.1278325319290161,-0.4762077033519745,0.2589368522167206,0.46499398350715637,-0.2794171869754791,0.3004811406135559,-0.027391720563173294,0.4977893829345703,-0.3142080008983612,0.3354794681072235,0.043102771043777466,0.4978491961956024,0.48789867758750916,0.051916904747486115,-0.18042370676994324,-0.06934519112110138,0.09899793565273285,0.4481816291809082,0.3857870101928711,0.39573192596435547,0.23468264937400818,0.7240168452262878,-0.15275508165359497,0.136062353849411,0.5645599961280823,0.3205362558364868,0.17065685987472534,-0.24332895874977112,0.037112243473529816,-0.30495119094848633,-0.2928391695022583,0.2767525911331177,-0.17963363230228424,0.44874730706214905,-0.3830879032611847,-0.32444074749946594,-0.35100018978118896,-0.14766527712345123,-0.3432328999042511,0.48955556750297546,0.2776373624801636,-0.7454067468643188,-0.2956559658050537,0.13642461597919464,0.40270107984542847,-0.6608582735061646,0.3700311481952667,0.18805766105651855,0.13902191817760468,0.2585669159889221,0.5870534777641296,-0.46219512820243835,-0.05850115418434143,-0.1831384152173996,0.3252258598804474,-0.16874802112579346,0.7577215433120728,0.11117599159479141,-0.35433629155158997,0.18707887828350067,-0.23411227762699127,0.5044733881950378,-0.08139005303382874,-0.3627181947231293,-0.3753083050251007,-0.1149950623512268,0.2536303997039795,-0.5617877244949341,0.33710813522338867,0.06779982894659042,0.16895364224910736,-0.3512125611305237,-0.46794620156288147,-0.1745404154062271,-0.6657395362854004,0.021309886127710342,0.2814386188983917,-0.13668705523014069,0.3454386293888092,0.03463751822710037,0.09833274781703949,-0.5137695074081421,0.35260555148124695,0.10771539062261581,0.34035611152648926,-0.22433871030807495,0.2848055958747864,-0.0583045519888401,-0.18014848232269287,-0.08389723300933838,-0.3036726415157318,-0.3409160375595093,0.13770684599876404,0.23225708305835724,0.4490339457988739,-0.40475642681121826,0.271709144115448,-0.38204631209373474,0.5034694075584412,-0.5995587706565857,-0.0721554160118103,-0.9643765091896057,0.12901200354099274,0.18836982548236847,-0.08199809491634369,-0.8262333273887634,-0.16668114066123962,-0.5234099626541138,-0.3425706923007965,-0.29978805780410767,0.2531154751777649,0.07082496583461761,-0.044449128210544586,0.3292255997657776,-0.42780017852783203,0.38325464725494385,-0.021826371550559998,-0.026311293244361877,0.9783273339271545,0.2573363780975342,0.09723828732967377,-0.32396435737609863,-0.11178644001483917,0.4589873254299164,-0.13408634066581726,0.2585696280002594,0.6470710635185242,0.274667352437973,-0.4313986897468567,-0.21668429672718048,-0.26039057970046997,-0.5437120199203491,-0.4129486680030823,-0.1756424754858017,0.3691577911376953,0.11910047382116318,0.20646505057811737,0.04566160961985588,-0.03275550901889801,-0.3903779089450836,0.17787142097949982,-0.22336137294769287,-0.08607928454875946,-0.4215514659881592,-0.3752759099006653,-0.06471862643957138,0.13004353642463684,-0.0824340209364891,-0.31965962052345276,0.6023977994918823,-0.30935803055763245,0.32960355281829834,-0.2667181193828583,-0.40421411395072937,-0.2070409506559372,0.22298505902290344,-0.11856581270694733,-0.01841389387845993,0.26443448662757874,-0.0684899166226387,0.12864530086517334,-0.8813862800598145,0.2986127734184265,-0.3808269202709198,0.38379523158073425,-0.1929532289505005,0.610706627368927,0.5401641130447388,0.24128814041614532,-0.0420265719294548,0.3302302658557892,-0.1650826334953308,0.5011273622512817,0.12676720321178436,0.30896568298339844,0.4825410544872284,0.31100690364837646,-0.5885741114616394,0.8803689479827881,-0.30517664551734924,-0.06413060426712036,-0.2769421935081482,-0.2842923700809479,0.03280346095561981,-0.3800300657749176,-0.14042985439300537,0.6820768117904663,0.022288937121629715,-0.36347123980522156,0.2828969359397888,0.12396147847175598,-0.26915448904037476,0.15794038772583008,-0.07379937171936035,0.32582592964172363,-0.34124624729156494,-0.37333041429519653,-0.0648806020617485,0.09176240861415863,0.09562000632286072,-0.10675907135009766,0.24418571591377258,0.12112778425216675,-0.15996122360229492,0.7917804718017578,0.6701096892356873,-0.223811075091362,0.37689265608787537,0.7188693881034851,0.11824708431959152,0.2834727168083191,-0.10474693030118942,-0.4564222991466522,0.3433259427547455,0.24024300277233124,0.1026916429400444,0.09865991771221161,-0.17668387293815613,0.2659762501716614,-0.14049969613552094,0.9047996401786804,-0.32791566848754883,-0.1781899333000183,0.07827481627464294,-0.2515162527561188,0.594061017036438,0.18399788439273834,0.024166028946638107,-0.17595195770263672,-0.07245523482561111,-0.9505398869514465,-0.3541639447212219,-0.21997956931591034,-0.031227819621562958,-0.254121869802475,-0.5352439880371094,0.24091926217079163,-0.4363482594490051,-0.3266097903251648,0.17508642375469208,-0.44979220628738403,-0.09006376564502716,0.12568402290344238,-0.04231247305870056,-0.4221518039703369,0.5759024620056152,0.0681295245885849,0.13652941584587097,-0.6310989260673523,0.26483288407325745,0.531960666179657,-0.08172638714313507,-0.37723469734191895,0.20261532068252563,-0.4866707921028137,0.10886301100254059,0.4018747806549072,-0.3550964593887329,-0.003932937979698181,-0.1254115104675293,-0.4200620651245117,-0.04588719457387924,0.4159078598022461,-0.236776664853096,-0.04010895639657974,0.2068743109703064,0.11853467673063278,-0.08274033665657043,0.492713063955307,-0.7310858964920044,0.06280863285064697,-0.06397903710603714,-0.5434998869895935,0.791193962097168,-0.38860172033309937,-0.04401417821645737,-0.21022352576255798,0.221776083111763,0.18528679013252258,-0.020708786323666573,-0.0038261711597442627,0.19351531565189362,0.2765386402606964,-0.027574598789215088,0.14881540834903717,0.009214144200086594,0.006665833294391632,-0.11272765696048737,0.4571693539619446,-0.2754042148590088,0.5625801682472229,0.120335653424263,-0.5357967615127563,0.128599151968956,-0.8948783278465271,0.1761346161365509,0.0569094717502594,-0.19906312227249146,-0.09305526316165924,-0.16811464726924896,0.40739676356315613,0.17170901596546173,-0.2569371163845062,-0.2001125067472458,0.2675303816795349,0.28338760137557983,0.23090367019176483,-0.2759876847267151,0.20230667293071747,-0.8090539574623108,-0.8148321509361267,0.696423351764679,-0.42389655113220215,0.32967764139175415,0.33391666412353516,0.07847347110509872,-0.31934547424316406,0.15418356657028198,-0.5790995359420776,0.5154963731765747,0.2068728804588318,0.42055463790893555,-0.22886887192726135,-0.2497062087059021,-0.3647497892379761,-0.21775081753730774,-0.18740896880626678,-0.4919557273387909,0.11307444423437119,0.5282233953475952,0.18374459445476532,0.14612977206707,0.08925099670886993,-0.8688459992408752,-0.15350528061389923,0.2746676802635193,0.25550535321235657
paramedic,0.020324548706412315,-0.6010419726371765,0.5649856925010681,-0.06831934303045273,0.2500591278076172,0.13978661596775055,0.2446393221616745,0.5124557614326477,-0.1925029158592224,-0.11721844226121902,0.2501753866672516,-0.3912010192871094,-0.27110999822616577,0.21170039474964142,-0.10076902061700821,0.9757582545280457,0.002876063110306859,0.14501821994781494,-0.14785270392894745,0.264583557844162,-0.10731659084558487,-0.48498475551605225,-0.6195467114448547,0.19723381102085114,0.15798775851726532,0.17616939544677734,0.024600228294730186,0.5368339419364929,-0.25512102246284485,-0.5226873755455017,0.6554672122001648,-0.25520506501197815,-0.7524979114532471,0.2286069244146347,0.3759351670742035,0.4235915243625641,-0.28489673137664795,0.4961298406124115,-0.8625454902648926,-0.09843913465738297,-1.1126148700714111,-0.9068695902824402,0.30893781781196594,0.6412482261657715,0.05307633802294731,0.44765087962150574,1.1737051010131836,-0.8193021416664124,0.7465761303901672,0.09140018373727798,-0.8066506385803223,0.17717213928699493,-0.23238559067249298,-0.3559257984161377,0.3140515983104706,0.40781697630882263,0.18936865031719208,-0.631360650062561,-1.0235852003097534,0.03718678280711174,-0.35477474331855774,0.2958102226257324,0.32131046056747437,-0.8707423210144043,0.33228108286857605,-0.21896672248840332,-0.03643941506743431,0.8746776580810547,-0.9177730083465576,-0.15983018279075623,0.38155555725097656,-0.16072504222393036,0.013538497500121593,-0.49973776936531067,-0.4160761535167694,0.03683258593082428,-0.2865670621395111,-0.01572515070438385,-0.09307388216257095,0.356835275888443,-0.5828089118003845,0.6308162212371826,-0.29881903529167175,0.7493676543235779,0.4086271822452545,0.3930097818374634,-0.3493255376815796,0.32932138442993164,0.2545453608036041,0.78708416223526,-0.13291603326797485,0.1897112876176834,-0.31175360083580017,-0.10214009135961533,0.028735587373375893,-0.1936860829591751,0.7214495539665222,-0.8260597586631775,-0.9095789790153503,0.37747105956077576,0.7841532826423645,-0.33775973320007324,0.05434547737240791,0.0126958591863513,-0.3242468237876892,-0.0432615727186203,0.0215300340205431,0.575462818145752,0.033467572182416916,0.9595763087272644,0.5038392543792725,-0.34248170256614685,-0.12435704469680786,-0.8449599146842957,0.4995024502277374,0.6486353874206543,-0.31289663910865784,-0.26055100560188293,0.14461608231067657,-0.19821994006633759,0.2788986265659332,-0.5005065202713013,0.1006787121295929,1.5192722082138062,0.2372010499238968,0.6346416473388672,-0.3420492708683014,0.011086282320320606,0.5075072646141052,0.7177175879478455,0.9442245364189148,0.4656378924846649,0.28565558791160583,-1.0322597026824951,-0.2113620489835739,-0.4167037904262543,-0.11798197776079178,-0.33033668994903564,-0.956226646900177,0.8544142842292786,0.06604158133268356,0.1721254587173462,0.6603148579597473,1.1179238557815552,0.1445763260126114,-0.38530227541923523,-0.595982015132904,0.23490476608276367,-0.13411878049373627,0.18412482738494873,-0.4235430657863617,-0.10800931602716446,0.23699529469013214,-0.7666251063346863,-0.7544375061988831,-0.38251128792762756,-0.12162908911705017,0.1264030635356903,0.445159912109375,0.44978126883506775,0.4305674731731415,-0.32442229986190796,0.1474102884531021,-0.07245872169733047,-0.33292579650878906,0.5599091053009033,-0.23786671459674835,0.4333253800868988,-0.5124717354774475,0.6164328455924988,-0.38080039620399475,0.21459122002124786,1.1556404829025269,-0.6725983023643494,0.44918546080589294,0.16348065435886383,-0.18554121255874634,0.0845455452799797,0.44774436950683594,-0.050824567675590515,-0.15338006615638733,1.1942721605300903,0.15641020238399506,0.1053602397441864,0.5530629754066467,-0.09629689902067184,1.0811208486557007,0.3934096395969391,-0.5060836672782898,-0.43787363171577454,0.16014279425144196,-0.2228863388299942,-0.8383796811103821,0.46899154782295227,-0.013509809970855713,0.004737248178571463,0.06923273205757141,0.6142571568489075,-1.1006134748458862,-0.8034970164299011,0.057437554001808167,-0.2805808484554291,0.11815714091062546,0.6843948364257812,-0.300205796957016,-0.1735655814409256,0.32443562150001526,-0.15497802197933197,-0.1582491248846054,0.20158886909484863,-0.6364094614982605,0.40586578845977783,-0.6055364012718201,-0.02526613138616085,0.021351516246795654,-0.05854563042521477,-0.4349864423274994,-0.03646053001284599,0.17945200204849243,-0.39605697989463806,-0.1577879935503006,0.009431974031031132,-0.49154388904571533,-0.13088704645633698,0.23506295680999756,1.061442494392395,0.30231204628944397,-0.3956763446331024,-0.18023963272571564,0.23381483554840088,-0.04431942105293274,0.8134139180183411,0.02043066918849945,0.0699247419834137,-1.1887303590774536,-0.26896074414253235,-1.2399803400039673,-0.4446293115615845,0.7732084393501282,-0.27450835704803467,-0.9035590291023254,-0.04148348048329353,1.1994298696517944,0.26722460985183716,0.7114481329917908,0.4216671884059906,-0.34124577045440674,0.26032161712646484,0.271883487701416,-0.19172275066375732,-0.611390233039856,-0.495694637298584,-0.15571673214435577,-0.705117404460907,-0.019074099138379097,0.256036639213562,0.18551932275295258,0.10500440746545792,-0.5798844695091248,0.6997709274291992,-0.4532529413700104,0.023053361102938652,0.2694185674190521,0.25940850377082825,-0.8971326351165771,-1.245021104812622,-0.23659475147724152,0.6181724667549133,-0.3052670359611511,0.2796517312526703,-0.30362358689308167,-0.6798529028892517,-0.36882808804512024,0.26502642035484314,0.0760929137468338,0.20766369998455048,0.10721973329782486,0.20200985670089722,1.1101487874984741,-0.24226991832256317,0.5523812174797058,0.3281167447566986,-0.0967927798628807,-0.32624244689941406,-0.560465931892395,0.01672554947435856,-0.030218183994293213,0.5810964703559875,-0.9604269862174988,-0.18341214954853058,-0.5707610249519348,0.3748105764389038,-0.6978715062141418,-0.5580758452415466,0.23548515141010284,0.15089856088161469,-0.10591765493154526,0.16265179216861725,0.9381101131439209,-0.5529026985168457,-0.13317762315273285,0.09280228614807129,0.22590835392475128,0.1491525024175644,-0.44420310854911804,-0.0948670282959938,-0.07508260011672974,-0.7029414772987366,-2.651395082473755,0.04420537129044533,-0.5142061710357666,-0.2591094672679901,0.7608248591423035,0.17084211111068726,-0.2664271295070648,0.8233758807182312,-1.4027585983276367,0.13673317432403564,0.04184551164507866,-0.5752341151237488,0.6434817910194397,0.2981046140193939,-0.06744565814733505,0.02243802882730961,-0.1455579549074173,-0.40599122643470764,-0.27098965644836426,0.3481098413467407,0.5360972285270691,-1.4442640542984009,-0.15082494914531708,-0.08036226779222488,0.8780794143676758,0.4441811144351959,0.12890298664569855,0.523573100566864,-0.8348987698554993,-0.05872694030404091,1.0056077241897583,-0.3774082362651825,0.22629676759243011,0.1542419195175171,0.4536428451538086,0.26058268547058105,-0.4080207049846649,-0.3180941343307495,-0.563962996006012,-1.127395749092102,-0.6946614384651184,-0.3729024827480316,0.3073749542236328,0.19353842735290527,0.9682988524436951,-0.8146016001701355,0.14369618892669678,0.7620031237602234,-0.15640002489089966,0.23843002319335938,-0.3164772689342499,0.11207001656293869,-0.2926851212978363,0.07303958386182785,-0.35302603244781494,-0.052228037267923355,0.7426538467407227,1.017136573791504,-0.5463621020317078,-1.2378445863723755,0.3565744459629059,0.29889294505119324,-0.28733569383621216,-0.01989906094968319,-0.12116152793169022,0.0010191500186920166,-0.5800425410270691,-1.4062367677688599,-0.21551503241062164,-0.3276762068271637,-0.40310800075531006,0.1355854719877243,-1.1185634136199951,-0.5569176077842712,-0.8086593747138977,-0.1766660362482071,0.29989317059516907,-0.12483436614274979,0.05569051578640938,-0.6158599853515625,-0.4447804391384125,-0.11138875037431717,0.2584535479545593,-0.9767599105834961,-0.21569953858852386,-0.5153281092643738,-0.5408790707588196,-0.023221472278237343,0.18574245274066925,-0.3320449888706207,0.436225563287735,0.2235897034406662,0.23584775626659393,0.5460153818130493,-0.743105411529541,-0.5320699214935303,-0.4979017972946167,0.33748361468315125,0.6861605644226074,-0.9275123476982117,0.23947729170322418,-0.5108718872070312,1.1821168661117554,-0.13885189592838287,0.29492494463920593,-0.15358230471611023,-0.9566183090209961,-0.646812379360199,-0.48217153549194336,-0.09776525944471359,0.5532891750335693,-1.1427077054977417,1.5063928365707397,-0.716685950756073,-0.6000068783760071,0.5495407581329346,0.9414789080619812,0.33020612597465515,-0.07270214706659317,-0.7885305285453796,-0.039321042597293854,1.04318368434906,0.1903313547372818,0.18223150074481964,0.059491682797670364,0.5211159586906433,0.37218132615089417,0.4970283508300781,0.6326123476028442,-0.18417809903621674,0.2923605442047119,-0.6839684844017029,-0.46538248658180237,1.0969218015670776,0.7346467971801758,0.29733192920684814,0.17581868171691895,-0.6611654162406921,-0.35887250304222107,0.7829334139823914,0.7307302951812744,0.07693194597959518,-0.49484458565711975,-0.636841893196106,0.240787073969841,0.27972808480262756,-0.13450103998184204,0.1393178552389145,0.0436665415763855,0.25171297788619995,-0.9044110774993896,0.19833631813526154,-0.46525001525878906,-0.5606462359428406,0.3808184564113617,-0.17849065363407135,0.15548008680343628,-0.27074864506721497,-0.5061751008033752,-1.1736491918563843,-0.27198323607444763,-0.10724509507417679,0.33145222067832947,0.7076570391654968,-0.47902175784111023,0.33870208263397217,-0.4348248541355133,0.020863274112343788,-0.28686854243278503,0.3980728089809418,0.11004861444234848,0.22701716423034668,0.11725910753011703,0.2516344487667084,-0.32922032475471497,0.774677574634552,-0.19133959710597992,0.21577656269073486,-0.5308806300163269,1.226197600364685,-0.05497110262513161,-0.13776588439941406,-0.10837116092443466,0.022866269573569298,0.12105999141931534,0.1471533626317978,0.3282088339328766,-0.28921425342559814,-0.22636453807353973,-0.03744960203766823,-0.5805202126502991,0.9849410057067871,-0.4572577178478241,0.33253419399261475,-0.7048211097717285,-0.7733991742134094,-0.08542734384536743,-1.156802773475647,0.014216738753020763,0.47676512598991394,-0.11073517054319382,-0.24432919919490814,-0.03178111091256142,0.14852139353752136,-0.6811210513114929,0.09777173399925232,-0.6653148531913757,0.7599838376045227,-0.17489533126354218,0.8296822905540466,-0.18460775911808014,-0.3020896911621094,-0.26417434215545654,-0.10804858803749084,-0.26738253235816956,-0.2520236074924469,0.5247477889060974,-0.3415642976760864,-0.5679792165756226,0.24584078788757324,-0.6834766864776611,0.6365672945976257,-0.4735792577266693,0.3057405948638916,-1.186369776725769,0.21650128066539764,-0.2175540179014206,0.5542929768562317,-0.7725841403007507,0.050721313804388046,-0.7726874351501465,-0.4030238091945648,-0.5205898284912109,0.06857072561979294,0.005021043121814728,0.29080986976623535,0.16680537164211273,-0.44791245460510254,-0.014413207769393921,-0.08328473567962646,-0.5609490871429443,0.8165200352668762,-0.2186097353696823,-0.2562977373600006,-0.12388373166322708,0.057962995022535324,0.22577284276485443,-0.012607832439243793,0.24721145629882812,0.8532156944274902,0.30492863059043884,-0.31436964869499207,-0.07978890091180801,-0.7616673111915588,-0.16691367328166962,-0.8600842356681824,-0.010331402532756329,0.14825305342674255,0.12300995737314224,0.5815797448158264,0.17374439537525177,-0.2940176725387573,-0.16738517582416534,0.6154702305793762,0.3766130208969116,-0.4446142911911011,0.173508882522583,0.41635432839393616,-0.017021341249346733,-0.7526326179504395,0.2818843126296997,-0.08611653000116348,0.9153246879577637,-0.07579182833433151,0.15331101417541504,-0.29131990671157837,-0.3006788194179535,-0.6066563725471497,0.6605047583580017,-0.024921586737036705,0.09513378143310547,0.5125024318695068,-0.44929131865501404,0.7978567481040955,-0.45096468925476074,0.3662986755371094,-0.6725834012031555,0.5522223711013794,-0.025017911568284035,0.4886433184146881,0.7047431468963623,0.7710035443305969,0.07013390958309174,0.14347173273563385,0.5691579580307007,0.8460342288017273,0.5415197610855103,0.6095893979072571,0.2361534833908081,0.37334391474723816,-0.23225410282611847,-0.5192633271217346,-0.40948542952537537,-0.15015916526317596,0.1763809323310852,-0.033512551337480545,-0.21108655631542206,-0.5815278887748718,0.21517543494701385,0.5276205539703369,-0.484434574842453,-0.6938905715942383,0.7330424189567566,0.626234233379364,-0.8643106818199158,-0.08595424890518188,-0.12847919762134552,0.09955939650535583,-0.43359705805778503,0.030971461907029152,-0.24130935966968536,0.3130795657634735,0.4051019847393036,-0.30076828598976135,0.3475651443004608,0.3617793619632721,-0.5244066119194031,0.5939179062843323,0.2539198100566864,-0.13851724565029144,0.0961168110370636,0.16212402284145355,-0.03355367109179497,-0.20240576565265656,-0.19546204805374146,-0.5709932446479797,0.307951420545578,0.7544729113578796,0.226091206073761,-0.29315394163131714,-0.6649899482727051,0.11361054331064224,0.3485608994960785,1.2278729677200317,0.5304221510887146,0.4092954695224762,0.03168511763215065,-0.28832927346229553,0.6311283111572266,0.15817952156066895,0.014957927167415619,0.5911141037940979,0.531086266040802,-0.3542591631412506,-0.3401848375797272,-0.1680893450975418,-0.017091037705540657,0.06626543402671814,-0.028054384514689445,0.7130162119865417,-0.16660434007644653,-0.8405291438102722,0.5753827691078186,-1.187415599822998,-0.5700778365135193,0.023908236995339394,0.6867403388023376,-0.5530195832252502,0.0166915450245142,0.7307955622673035,-0.38708701729774475,-0.8154404163360596,-0.5828905701637268,0.6849034428596497,-0.5342917442321777,-0.24098539352416992,-0.08181441575288773,-0.06112295389175415,0.028515497222542763,-0.06842761486768723,0.05064500495791435,0.44664525985717773,-0.5310592651367188,0.33162054419517517,-0.45023927092552185,-0.07566975802183151,-0.1508093625307083,0.09973553568124771,0.6624298095703125,0.039564698934555054,0.1483132690191269,1.1776589155197144,-0.5564656257629395,-0.47863146662712097,-0.5252543091773987,-0.4822535514831543,0.4723559319972992,-0.4587615430355072,0.30271825194358826,-0.637506902217865,-0.27746763825416565,0.487661212682724,0.05875372886657715,0.04735901951789856,-0.06323341280221939,0.16518819332122803,0.5064153671264648,0.04266579821705818,0.05655789375305176,-0.1484583467245102,-0.23657779395580292,1.3511821031570435,-0.47563958168029785,0.6580128073692322,0.217665895819664,-0.2833843529224396,0.22192926704883575,-0.9300491213798523,-0.43629470467567444,0.36729446053504944,-0.48292383551597595,0.6204052567481995,-0.5264796018600464,0.5526001453399658,-0.6482022404670715,-0.27477750182151794,0.36767610907554626,0.6304776668548584,0.29197362065315247,0.516673743724823,0.012952595949172974,0.1321108192205429,-1.052164912223816,-0.17463131248950958,0.21706567704677582,-0.8406580090522766,-0.3885117471218109,0.24750696122646332,-0.9321624636650085,-0.5347874760627747,1.2775664329528809,-0.22804826498031616,0.7212278842926025,0.8385307788848877,1.1672526597976685,-0.04980253800749779,-1.2287304401397705,-0.10992169380187988,-0.3287728726863861,-0.46108153462409973,-0.738365888595581,-0.18497376143932343,0.42497026920318604,0.09934502840042114,0.22011274099349976,-0.22989784181118011,-0.6792547702789307,-0.28050804138183594,0.3542703688144684,0.0999845638871193
chef,0.6472675204277039,-0.20572291314601898,0.3223644495010376,0.0968683585524559,0.6114404797554016,-0.2920789420604706,0.173003688454628,-0.054118022322654724,0.6984013915061951,-0.5216761231422424,0.2946546971797943,-0.09999226778745651,-0.11715422570705414,-0.025297114625573158,-0.5753774642944336,0.14025172591209412,0.1129232868552208,0.3006601333618164,-0.3235042989253998,0.9661775231361389,-0.1579003483057022,-0.28499898314476013,-0.34786728024482727,0.23507775366306305,-0.3278611898422241,0.2910500168800354,-0.8810164928436279,0.6886629462242126,0.005246244370937347,-0.4403036832809448,0.6052575707435608,0.10537217557430267,0.12228505313396454,-0.2245856523513794,-0.3918505311012268,-0.09381477534770966,0.08044524490833282,0.5302727818489075,-0.503360390663147,0.23455220460891724,0.3022553324699402,-0.10785836726427078,0.9306150674819946,0.03120940923690796,-0.008812397718429565,0.36239540576934814,0.44251230359077454,0.09467452764511108,0.5244713425636292,-0.21668487787246704,-0.06080035865306854,0.07840405404567719,-0.33447179198265076,-0.5206292867660522,0.059813253581523895,0.5305655002593994,-0.56207275390625,-0.23550178110599518,0.04871205613017082,0.22634097933769226,-0.11995185911655426,0.804594874382019,0.2776672840118408,-0.5686149597167969,0.27825331687927246,0.01901571825146675,-0.3041418790817261,-0.048303887248039246,-0.5780286192893982,0.30423077940940857,-0.025260433554649353,0.08447808027267456,-0.1793813556432724,-0.11194447427988052,0.18949353694915771,0.25378888845443726,-0.18004602193832397,0.31092286109924316,0.1843283623456955,0.5979058742523193,-0.15772593021392822,-0.6753711700439453,-0.019749678671360016,0.8566931486129761,0.10714096575975418,0.6095560193061829,-0.46884801983833313,0.1461586356163025,0.06896327435970306,0.6401781439781189,-0.16592884063720703,-0.4167598485946655,0.12852215766906738,-0.17306236922740936,-0.007289808243513107,-0.013059325516223907,0.6482841968536377,-0.55878746509552,0.41069990396499634,0.15807577967643738,0.539752185344696,0.21688802540302277,-0.03950975462794304,0.8326647281646729,-0.6582752466201782,-0.33764275908470154,-0.509848415851593,0.6898998022079468,0.23922133445739746,-0.04958733916282654,-0.47161805629730225,-0.39882898330688477,-0.23423220217227936,-0.8448069095611572,-0.40376830101013184,0.21878547966480255,0.11391439288854599,-0.42201322317123413,0.18039672076702118,-0.5014781355857849,-0.07032506912946701,0.20481069386005402,0.16625167429447174,1.356857419013977,0.4448312222957611,-0.5830854177474976,0.27093178033828735,0.06257142126560211,-0.3925659656524658,-0.5345277190208435,0.09678231924772263,0.39302781224250793,0.18107497692108154,-0.08959604054689407,-0.5243319869041443,-0.38299626111984253,-0.008742447942495346,-0.13957147300243378,-0.3663075268268585,-0.06865876913070679,-0.25426456332206726,0.7298130989074707,0.16771487891674042,0.535770833492279,0.08756940066814423,-0.14873400330543518,-0.346535325050354,-0.6525084376335144,0.6245448589324951,-0.6547537446022034,-0.027717554941773415,0.28325989842414856,-0.1249241977930069,-1.1997476816177368,0.22565564513206482,0.48875051736831665,0.6991680860519409,0.21952933073043823,0.010947152972221375,-0.22767484188079834,0.2700960338115692,0.295844167470932,0.165808767080307,0.3220849335193634,0.2829058766365051,-0.5372933149337769,-0.387943834066391,0.4879595935344696,-0.15461666882038116,0.3461567759513855,-0.3500092327594757,0.004834670573472977,0.8269984722137451,0.01814470998942852,0.6603681445121765,0.12608014047145844,-0.1335504949092865,-0.01260749064385891,0.5551146864891052,0.5564997792243958,-0.09864377975463867,0.14569322764873505,0.29896628856658936,-0.5664883852005005,1.0598621368408203,0.020813893526792526,0.6164059042930603,-0.042452920228242874,0.24676787853240967,0.8319084644317627,-0.3619673252105713,-0.6283302903175354,-0.46213290095329285,0.20729482173919678,0.6429859399795532,0.3799717426300049,-0.2699672281742096,0.37213560938835144,-0.2889685034751892,-0.25229525566101074,-0.6717369556427002,-0.5887387990951538,0.059518761932849884,0.20940542221069336,-0.7528717517852783,0.35890430212020874,0.6017638444900513,-0.2877011299133301,0.3738805055618286,-0.07384543120861053,-0.28021231293678284,0.7278137803077698,0.2613588869571686,-0.10765290260314941,-0.34162232279777527,0.1723792999982834,-0.22015146911144257,-0.9800902605056763,0.43850648403167725,-0.09098566323518753,0.43143990635871887,0.3598424196243286,-0.535694420337677,0.816006600856781,-0.964374840259552,1.0092917680740356,0.37359631061553955,-0.02830500155687332,0.28689083456993103,0.8680213689804077,0.4003789722919464,0.4452410936355591,-0.12178468704223633,0.4155898690223694,0.24448934197425842,-0.21179643273353577,-0.25975412130355835,0.15575328469276428,0.6157333850860596,0.44154271483421326,-0.5397704839706421,-0.23577196896076202,0.06271357834339142,0.34186846017837524,-0.37797650694847107,0.8712363243103027,0.08850940316915512,0.01709195226430893,0.025338903069496155,-0.5508390069007874,0.17802518606185913,0.07061176002025604,0.3118174374103546,-0.4773353636264801,0.10689082741737366,0.0479724258184433,0.09723234921693802,0.39094334840774536,-0.202875018119812,0.49691393971443176,-0.14844736456871033,0.3031781315803528,0.7934428453445435,-0.2627926170825958,-0.7042845487594604,-0.10171157121658325,-0.21360717713832855,0.184451162815094,0.6737644672393799,-0.022593781352043152,-0.15837307274341583,-0.7440647482872009,-0.2573166787624359,0.07291179150342941,-1.0036386251449585,-0.28001147508621216,0.24415072798728943,0.15137484669685364,0.6289893388748169,-0.8523372411727905,0.4090266823768616,0.5250306725502014,0.06869722157716751,0.07426264882087708,-0.5081537961959839,-0.4442318081855774,-0.034564290195703506,-0.024289853870868683,-0.4680577218532562,-0.4721754193305969,-0.05321557819843292,0.4897683262825012,-1.0949575901031494,-1.1586284637451172,0.5530505776405334,-0.25345396995544434,0.3969828188419342,-0.3097977042198181,0.7459736466407776,-0.001139276660978794,0.3963204324245453,-0.11924633383750916,-0.00640115886926651,0.3597990870475769,0.05863086134195328,0.4691978991031647,-0.1111098900437355,0.32163384556770325,-5.39265251159668,-0.7027083039283752,-0.2576133608818054,0.18488724529743195,0.5405685305595398,-0.04623306542634964,-0.4537293314933777,-0.34941306710243225,-0.3017052412033081,0.287168025970459,-0.482339084148407,-0.7436524033546448,0.5101320147514343,0.34535276889801025,-0.30171385407447815,0.4235230088233948,-0.33657950162887573,0.047027938067913055,-0.17191718518733978,0.5566524863243103,0.6540794372558594,-0.19272875785827637,-0.05113007128238678,0.15898223221302032,0.04613019526004791,0.5828878879547119,-0.1795806586742401,0.5686507821083069,-1.16106116771698,-0.11142659187316895,0.4424584209918976,0.00925939530134201,0.2142077088356018,-0.2537655234336853,0.230534166097641,0.34935981035232544,-0.32720747590065,0.015821557492017746,0.3053417503833771,-0.229125514626503,0.524602472782135,0.37317511439323425,-0.4040321409702301,0.29902535676956177,0.9575504064559937,-0.4239157438278198,-0.38973650336265564,-0.15904581546783447,0.3402315080165863,0.10223662108182907,-0.2459840327501297,0.09599865227937698,-0.07091611623764038,0.4948062300682068,0.3252270817756653,-0.19447335600852966,0.20847514271736145,0.4624021351337433,0.3689435124397278,-0.4072767496109009,-0.2406896948814392,-0.00281777186319232,-0.3701287508010864,0.09452417492866516,0.03502107411623001,0.03870736062526703,-0.17844875156879425,-0.2955147922039032,-0.3170791268348694,-0.10054173320531845,0.012983513996005058,-0.7186979651451111,0.20951877534389496,-1.2356840372085571,-0.7045122981071472,-0.19143760204315186,0.21375234425067902,0.15086427330970764,-0.4058258533477783,-0.47201770544052124,0.420249342918396,-0.4695761799812317,0.12865249812602997,-0.4948919713497162,0.1238720640540123,-0.7096573114395142,-0.9030237197875977,-0.36420539021492004,-0.28642478585243225,0.5085494518280029,0.722947895526886,0.3966705799102783,0.7908175587654114,-0.03773857653141022,-0.2719070017337799,1.0276286602020264,-0.4791892468929291,0.20577755570411682,0.118933767080307,-0.37001001834869385,-0.614377498626709,-0.41682612895965576,1.2871357202529907,-0.06544475257396698,0.7273408770561218,-0.26774829626083374,0.4715642035007477,0.03483421728014946,-0.25639861822128296,0.5717107057571411,-0.038709841668605804,-0.5291324853897095,-0.28667956590652466,0.19199657440185547,-0.35773006081581116,-0.27228105068206787,0.2706562280654907,0.4737165868282318,-0.2342519760131836,0.25268688797950745,0.031929388642311096,0.6274693012237549,0.01707993447780609,-0.0006762426346540451,-0.8649612665176392,0.11239825189113617,0.1977960765361786,-0.23763243854045868,0.4476613402366638,0.1598803550004959,-0.16408203542232513,-0.31944817304611206,0.6705753207206726,0.03704502433538437,0.2192232459783554,0.4704890549182892,0.5828865170478821,-0.7082704305648804,-0.8852052688598633,0.3730921149253845,0.19749630987644196,0.37134867906570435,-0.43082723021507263,0.2810758352279663,-0.291287899017334,0.5311741828918457,-0.23115965723991394,0.38546454906463623,0.06390959024429321,0.5558371543884277,-0.9254392981529236,0.3713723421096802,0.38664954900741577,-0.08175629377365112,0.02705790102481842,-0.714825451374054,0.6465098261833191,-0.3073044419288635,-0.3540438413619995,0.11629918217658997,0.09285706281661987,-0.4473711848258972,-0.13210275769233704,0.6240596771240234,-0.6320248246192932,0.029322534799575806,-0.412331223487854,0.3646697998046875,-0.2765740156173706,0.6809218525886536,-0.28361496329307556,0.4656509757041931,0.38364166021347046,0.5784075260162354,-0.7411632537841797,-0.5178921222686768,-0.296316921710968,0.5283525586128235,-0.6409348845481873,0.8952502012252808,0.13433317840099335,-0.18259090185165405,0.3256176710128784,-0.08501951396465302,-0.2317543476819992,-0.7221549153327942,-0.35443592071533203,-0.23809567093849182,-0.07093702256679535,-0.2586647570133209,-1.0032862424850464,0.28957653045654297,-0.22630399465560913,0.09845823794603348,-0.056856729090213776,-1.0239360332489014,0.0371648408472538,0.18434511125087738,0.519117534160614,-0.26825112104415894,0.03961864858865738,0.4478490650653839,-0.11512227356433868,0.09209103882312775,0.5318416357040405,0.2491050660610199,0.1963847279548645,-0.023090854287147522,-0.32769107818603516,0.6049510836601257,-0.9621624946594238,-1.0640971660614014,0.482051819562912,-0.5906198024749756,-0.03219884634017944,0.43412142992019653,0.16968290507793427,0.028895314782857895,-0.4511229395866394,0.21529316902160645,-0.4068309962749481,0.15935954451560974,-0.7094089984893799,0.06529566645622253,-0.784385085105896,-0.3073001801967621,-0.12789234519004822,0.7169830203056335,-1.3701186180114746,0.09188105165958405,-0.4547400176525116,0.00484929233789444,-0.2692355215549469,-0.13120794296264648,0.26928606629371643,0.3610057234764099,0.5865024924278259,-0.43753838539123535,0.35794827342033386,0.17373472452163696,-0.2404230833053589,-0.005769289098680019,0.3113568425178528,0.06757812201976776,-0.30370238423347473,-0.4748480021953583,-0.10661681741476059,0.013880631886422634,-0.1713881492614746,0.13595953583717346,0.15898017585277557,-0.09931403398513794,-0.3931700587272644,-0.4673387110233307,-0.13274790346622467,-0.8933537006378174,0.2049020230770111,0.456889271736145,-0.2702946960926056,-0.19995664060115814,-0.24046511948108673,0.09202852845191956,0.15415091812610626,0.7196515202522278,-0.30692121386528015,-0.026366539299488068,0.313529372215271,0.20060738921165466,-0.025325089693069458,-0.0037395358085632324,0.48258674144744873,-0.6097265481948853,0.24037542939186096,-0.5386764407157898,0.6920375823974609,-0.1394915133714676,-0.35866594314575195,-0.15612013638019562,0.7825119495391846,-0.1965080350637436,-0.06867389380931854,0.1402755230665207,0.3536859154701233,0.1568790227174759,-0.3115226626396179,-0.0310257226228714,-0.5026431083679199,0.32987719774246216,-0.18780378997325897,0.6328081488609314,0.2887987494468689,0.2278057485818863,0.8014247417449951,-0.2302139699459076,0.06567677855491638,0.5628404021263123,0.06296264380216599,0.20030158758163452,-0.5828365087509155,0.004601866006851196,-0.6565554738044739,-0.5574982762336731,-0.38709643483161926,0.05783168226480484,-0.41390129923820496,0.0404464527964592,0.12480221688747406,-1.0050605535507202,-0.30032092332839966,-0.09062249958515167,-0.003598954528570175,-0.7925710082054138,0.6759406328201294,-0.08516325056552887,-0.20599454641342163,0.027208968997001648,-0.155140683054924,0.422369122505188,-0.7484266757965088,-0.16157406568527222,0.0363057479262352,-0.42082270979881287,0.09533503651618958,-0.03243204951286316,0.3953726887702942,0.6828268766403198,-0.42084771394729614,0.27645689249038696,-0.49222269654273987,-0.850595235824585,-0.3849613666534424,0.5055476427078247,-0.25867635011672974,0.09823828935623169,-0.4867730438709259,-0.1279750019311905,-0.1005927175283432,0.4670688509941101,-0.11089205741882324,0.6690866947174072,0.24095694720745087,0.3116563558578491,-0.12056658416986465,0.474270224571228,0.024667814373970032,0.006249208003282547,-0.3083769381046295,-0.3005751073360443,0.8171602487564087,0.21166636049747467,-0.1369246393442154,0.19935616850852966,0.35399511456489563,-0.29320770502090454,-0.4493441879749298,0.3108494281768799,-0.5016704797744751,-0.1363968551158905,-0.8566766977310181,-0.08242885768413544,-0.33444055914878845,0.028995554894208908,0.6609201431274414,-0.8134807348251343,0.170450821518898,0.25284111499786377,-0.762262761592865,-0.008165862411260605,-0.20735499262809753,0.45706382393836975,0.2548106014728546,-0.845451831817627,0.38471245765686035,0.09172625094652176,-0.11609086394309998,-0.021679138764739037,-0.2261763960123062,0.0653047040104866,0.20842550694942474,0.38526496291160583,0.6479114294052124,-0.4579063653945923,-0.6548724174499512,0.08062227815389633,-0.32496634125709534,0.6331503391265869,-0.19912080466747284,-0.2981090545654297,-0.44315460324287415,-0.17937318980693817,0.05521214008331299,0.6003645062446594,0.09571460634469986,-0.4224212169647217,-0.17139193415641785,-0.4569416642189026,-0.04244875907897949,-0.3595469892024994,0.11281013488769531,-0.4647570252418518,0.1996724158525467,0.10098384320735931,-0.140968456864357,-0.2735099792480469,0.08559875935316086,0.8281804323196411,0.23520232737064362,0.01781385764479637,-0.5697784423828125,-0.8615142703056335,-0.0354333370923996,0.16921134293079376,-0.2147102653980255,-0.34732070565223694,0.17890645563602448,-0.4759741723537445,-0.2950175106525421,-0.13432979583740234,-0.013991283252835274,0.03546513617038727,-0.45210883021354675,0.9356606602668762,-0.24194861948490143,0.2418954074382782,0.05746912956237793,-0.008627310395240784,-0.170355886220932,-0.14874793589115143,0.2824813425540924,-0.11919928342103958,0.22853267192840576,0.21341963112354279,-0.7240851521492004,-0.4626697599887848,0.034609608352184296,0.007686488330364227,0.38036486506462097,-0.13827401399612427,-0.004223959520459175,-0.5250816345214844,0.5362855792045593,0.4825471043586731,0.08613689988851547,0.2974517345428467,-0.5900267958641052,-0.2931063771247864,-0.3135389983654022,-0.3235997259616852,-0.03865872323513031,0.01641015335917473,0.12571609020233154,0.041396453976631165,0.459662526845932,0.1247769147157669,0.1985609084367752,0.4564700126647949,-0.3118003308773041,-0.4827377200126648,0.41384434700012207,0.013949571177363396
dentist,0.1783348023891449,0.07957419753074646,0.1415184736251831,-0.05667565017938614,0.7623658180236816,0.041995033621788025,0.4045206606388092,0.6521780490875244,0.4819515347480774,-0.1901354044675827,0.21700215339660645,0.16456526517868042,0.24336522817611694,0.15882878005504608,-0.1406179964542389,0.34532657265663147,-0.10608947277069092,0.18488925695419312,0.16960380971431732,0.5432124733924866,-0.172082781791687,-0.21314553916454315,-0.2507278323173523,0.08754704892635345,-0.3296055495738983,0.3238872289657593,-0.31689855456352234,1.0079536437988281,-0.2592354416847229,-0.6881007552146912,0.2929876148700714,0.1331411898136139,-0.32306355237960815,-0.06757313013076782,0.22528740763664246,-0.24128422141075134,0.10561107099056244,0.4419063925743103,-0.8437833786010742,0.2572651207447052,-0.0853545218706131,-0.3779122531414032,0.20244398713111877,0.7265086770057678,-0.2177278697490692,0.4498814642429352,0.08857110142707825,0.11840928345918655,0.5627844929695129,-0.4545334577560425,-0.19736157357692719,0.10245274752378464,-0.09684904664754868,-0.33908960223197937,0.2684812545776367,-0.022422444075345993,0.13055828213691711,-0.08728696405887604,-0.20429423451423645,-0.12576930224895477,0.03353327885270119,0.18452075123786926,0.32069021463394165,-0.27865973114967346,0.45830482244491577,0.10710306465625763,-0.16898129880428314,0.051663000136613846,-0.52415931224823,0.12479769438505173,0.43631693720817566,0.5061423778533936,-0.1807755082845688,-0.22461286187171936,0.14723804593086243,0.09862855821847916,-0.7125011682510376,-0.11338602751493454,0.19122867286205292,0.6005942821502686,-0.3711110055446625,-0.5505045652389526,0.3239431381225586,0.30526256561279297,0.329517662525177,-0.2404879629611969,0.2227223813533783,0.4971226155757904,0.2945980727672577,0.26316165924072266,-0.3230551779270172,-0.3020630478858948,-0.31153976917266846,-0.0803610160946846,-0.23008666932582855,-0.40874597430229187,0.24512062966823578,-0.5042974352836609,-0.08759702742099762,-0.14045941829681396,0.8954861164093018,-0.4796685576438904,-0.17830336093902588,0.355530709028244,-0.2719682455062866,-0.34231361746788025,-0.23288403451442719,0.37693101167678833,0.05039197951555252,0.32081225514411926,-0.3820391297340393,0.021654602140188217,0.16500815749168396,-0.8352144360542297,-0.3849521279335022,0.5701234340667725,-0.19308878481388092,-1.0255500078201294,-0.14262163639068604,-0.1408202201128006,-0.18722134828567505,0.1979581117630005,0.3181017339229584,0.8806284070014954,0.18437358736991882,0.18148131668567657,0.06115943193435669,0.12192143499851227,-0.18180590867996216,0.13388995826244354,0.43187934160232544,-0.10562283545732498,0.29761189222335815,-0.35966968536376953,-0.06835021823644638,-0.6176078915596008,-0.20629975199699402,-0.17575599253177643,-0.4052305221557617,0.22324725985527039,0.44498318433761597,0.5535839796066284,0.0012010373175144196,0.600498616695404,0.16305425763130188,-0.14203479886054993,-0.5540052056312561,0.0012687426060438156,-0.18119609355926514,-0.12258482724428177,-0.18840007483959198,0.6110816597938538,-0.08158767223358154,-0.9361183643341064,0.19048982858657837,0.4177304804325104,0.32155710458755493,0.020899251103401184,-0.1782514750957489,0.26891911029815674,0.5792765617370605,-0.36355629563331604,-0.30809715390205383,0.7529232501983643,-0.3848259449005127,-0.42328593134880066,-0.5612666606903076,0.002535402774810791,-0.2564390003681183,0.24405202269554138,-0.5641067028045654,0.18976612389087677,0.757525622844696,-0.16200684010982513,0.3460334539413452,0.23956388235092163,0.22005847096443176,-0.0633905827999115,0.5461923480033875,-0.06568527966737747,-0.05287337303161621,0.8924781084060669,-0.38957974314689636,-0.16265612840652466,0.6569846272468567,-0.16003340482711792,0.9651756882667542,0.42106491327285767,-0.12616895139217377,0.03858659043908119,-0.30359768867492676,-0.8629208207130432,-0.5383451581001282,0.35623523592948914,0.4776376187801361,0.2082836776971817,-0.6587176322937012,0.16276150941848755,-0.837996780872345,-0.27252131700515747,0.07443928718566895,-0.6534671187400818,0.09061506390571594,0.36868971586227417,-0.6062244772911072,-0.0443258062005043,0.02483401820063591,-0.0939924567937851,0.433067262172699,0.2695057988166809,-0.6063989400863647,0.08417455852031708,-0.28539133071899414,0.08634728193283081,-0.23906289041042328,0.13416162133216858,-0.46602863073349,-0.732667088508606,0.692094087600708,-0.2489881068468094,0.289686918258667,-0.4625624716281891,-0.450839638710022,0.1388189196586609,-0.3273382782936096,0.8056272864341736,0.38253259658813477,-0.3462201952934265,0.07744331657886505,0.3283523619174957,0.5118314623832703,0.7866932153701782,0.1817093789577484,0.33922266960144043,0.10211436450481415,-0.08735902607440948,-0.3476096987724304,-0.21448251605033875,0.2981303632259369,0.19130894541740417,-0.6798269748687744,-0.4006950855255127,0.4919561743736267,0.6951864957809448,0.20677073299884796,0.7087104916572571,-0.37829846143722534,0.1522483229637146,-0.03130219504237175,-0.38605910539627075,-0.38313573598861694,-0.1176544800400734,-0.07277587056159973,0.06973841041326523,0.6404525637626648,-0.08960898965597153,-0.04958640784025192,0.0887981504201889,-0.013524455949664116,0.1486068069934845,-0.3347906172275543,0.2822258472442627,1.0757396221160889,0.045994922518730164,-0.46784380078315735,-0.13806486129760742,-0.014685511589050293,0.15949074923992157,0.3142879903316498,0.5086455345153809,-0.2350003570318222,-0.2340380847454071,-0.05494360998272896,0.09955506771802902,-0.442419171333313,-0.15408138930797577,0.35028114914894104,0.17003901302814484,0.3800703287124634,-0.5896622538566589,0.01075129583477974,0.7622559070587158,-0.309461772441864,-0.20188330113887787,-0.35908499360084534,-0.11651420593261719,0.06532261520624161,0.8411337733268738,-0.3083639442920685,-0.3088586926460266,-0.10559652000665665,0.6813846230506897,-0.46901312470436096,-0.8653594851493835,0.7733818888664246,0.16555120050907135,0.12264678627252579,-0.38134142756462097,0.32781311869621277,-0.5720219612121582,0.6901251077651978,-0.08078113198280334,0.21866731345653534,-0.053196050226688385,0.175399050116539,0.30637192726135254,0.029920198023319244,-0.3721715211868286,-5.795778274536133,-0.3316933512687683,-0.850965142250061,-0.2162693291902542,0.5784960985183716,-0.21913351118564606,-0.3146129548549652,0.46224725246429443,-0.6615679264068604,0.24817152321338654,-0.2304236888885498,-0.32516440749168396,-0.008557073771953583,0.34313809871673584,-0.014177661389112473,-0.17876258492469788,-0.1719995141029358,0.2219744175672531,-0.2738841772079468,0.41794127225875854,0.4018810987472534,-0.9332063794136047,0.14395855367183685,0.07989567518234253,-0.027669422328472137,1.3521678447723389,-0.42148086428642273,0.2750583589076996,-0.4656202495098114,0.07311654835939407,-0.014594350010156631,0.3724556267261505,0.10011263936758041,0.3569551706314087,0.20562487840652466,0.3499026298522949,-0.333978533744812,0.0924895852804184,0.562688946723938,-0.7760059833526611,0.14596030116081238,0.37092325091362,-0.043861448764801025,0.6412001252174377,0.4385487139225006,-0.32207101583480835,-0.1962733268737793,0.6343885064125061,-0.0070443786680698395,0.47985658049583435,-0.2359984815120697,0.38632479310035706,-0.15350143611431122,0.5987574458122253,-0.13668373227119446,0.05612068995833397,-0.06512245535850525,0.6101616621017456,-0.566209614276886,-0.7131922245025635,-0.3003424406051636,-0.044260576367378235,-0.3476704955101013,-0.3546425998210907,-0.31442874670028687,0.13166381418704987,-0.32438626885414124,-0.9088402390480042,-0.6749540567398071,0.05511828884482384,-0.23297877609729767,-0.9170452952384949,-0.5051714777946472,-1.0463818311691284,-0.6868022084236145,-0.2542978525161743,-0.12757034599781036,-0.07895363867282867,-0.17953874170780182,0.3258432447910309,0.019280053675174713,-0.3613300919532776,0.5451697111129761,-0.29093271493911743,0.033966973423957825,-0.442907452583313,-0.11387266218662262,-0.2244804948568344,-0.052011024206876755,0.11484760046005249,0.2543763816356659,0.3393845558166504,0.14032483100891113,-0.3276558518409729,-0.3850409686565399,-0.03713729977607727,-0.46862950921058655,0.4768128991127014,0.8656797409057617,-0.32293134927749634,0.07420678436756134,-0.4799153208732605,0.6053873300552368,0.2415393739938736,-0.04455043375492096,-0.17849934101104736,-0.2763495445251465,0.024773750454187393,-0.5627734065055847,0.1824420690536499,0.32127898931503296,-0.6645419001579285,0.5623714327812195,-0.24572879076004028,-0.05344851687550545,-0.16482014954090118,0.44328197836875916,0.07244666665792465,0.3974083364009857,-0.391110897064209,0.015860289335250854,0.37464284896850586,0.4619375467300415,0.17508922517299652,-0.49744927883148193,0.4628525674343109,0.4001840353012085,0.2128126174211502,0.3674476444721222,0.3530479073524475,0.3160943388938904,0.002580968663096428,0.5632558465003967,0.0007949396967887878,0.2156125009059906,0.46312886476516724,0.18649178743362427,-0.5633318424224854,-0.5823958516120911,0.1810130625963211,0.4907793700695038,0.19101636111736298,0.058611899614334106,-0.05444527417421341,0.8861689567565918,0.025632813572883606,-0.5990550518035889,0.2417912781238556,0.3045576810836792,0.5102124810218811,-0.6248851418495178,0.12599872052669525,-0.07568656653165817,-0.18151730298995972,0.483167827129364,-0.3508899211883545,0.7367696762084961,-0.416462779045105,-0.6269288063049316,-0.14212965965270996,0.042980071157217026,-0.3900330364704132,0.5720183849334717,0.31890785694122314,-0.6181260943412781,0.20400738716125488,-0.1932457685470581,0.6443173289299011,-0.2021101415157318,0.1600828766822815,0.024112891405820847,0.3958408236503601,0.3582831919193268,0.6793836355209351,-0.5933535099029541,0.13102786242961884,-0.20628567039966583,0.8220330476760864,0.21449235081672668,0.3504146933555603,0.42286476492881775,-0.40414196252822876,0.09460234642028809,-0.5934492945671082,0.42860499024391174,-0.5498408675193787,-0.5427104234695435,-0.3499692678451538,-0.2621607780456543,0.08540773391723633,-0.5816363096237183,0.19890287518501282,-0.010899174958467484,0.14756229519844055,0.011129677295684814,-0.7115799188613892,-0.03251342475414276,0.16480347514152527,0.3649495244026184,0.33984890580177307,-0.3205065131187439,0.3260144591331482,-0.3092082738876343,-0.07957560569047928,-0.3718029856681824,0.4663200080394745,-0.08012936264276505,0.15884707868099213,-0.7013815641403198,0.4434889853000641,-0.11633305251598358,-0.18557170033454895,-0.04577579349279404,-0.352807879447937,-0.005839443765580654,0.04752572625875473,0.36242204904556274,0.27721741795539856,-0.3444286584854126,0.39530351758003235,-0.051683392375707626,0.09435771405696869,-1.0142323970794678,0.09104980528354645,-1.2476710081100464,0.098744697868824,-0.18692925572395325,0.2847689688205719,-0.9178531765937805,0.007803266402333975,-0.4629265069961548,-0.5589110255241394,-0.2367715835571289,0.1231549084186554,0.5152491331100464,0.3430550992488861,0.008373301476240158,-0.3720676302909851,0.12977716326713562,-0.14556308090686798,-0.272050678730011,0.33856984972953796,-0.3769737184047699,0.22927173972129822,-0.2443099021911621,0.14162474870681763,0.48157092928886414,-0.06599973887205124,-0.01915513351559639,0.45223236083984375,-0.017174910753965378,-0.17416173219680786,0.04462486505508423,-0.3575362265110016,-0.025230523198843002,-0.5492305159568787,-0.37898194789886475,-0.06831090897321701,-0.24170073866844177,0.3172000050544739,-0.13857440650463104,0.17589262127876282,0.18998877704143524,-0.004862967878580093,0.2512572407722473,0.18864202499389648,-0.008628815412521362,0.10497315227985382,-0.16049613058567047,-0.1436523050069809,0.33791226148605347,-0.42808055877685547,0.300846666097641,-0.49382153153419495,0.31874606013298035,-0.274509459733963,-0.2505333423614502,-0.29656413197517395,0.8255257606506348,0.06241605430841446,-0.4563135802745819,0.43707481026649475,-0.34595704078674316,0.10608315467834473,-0.7892425060272217,0.3512958884239197,-0.4421587884426117,0.5394563674926758,-0.37888386845588684,0.6804495453834534,0.3521988093852997,0.29210180044174194,-0.14456850290298462,0.7706626653671265,-0.28127521276474,0.8831800222396851,0.1888681948184967,0.2149452567100525,-0.04136545583605766,0.0049601830542087555,-0.29334384202957153,0.6059642434120178,-0.31519871950149536,-0.11651909351348877,-0.45206978917121887,0.037035904824733734,0.06717240810394287,-0.5499624609947205,0.23811091482639313,0.4506290853023529,-0.06927508115768433,-0.4283685088157654,0.49243438243865967,0.0758848637342453,-0.577381432056427,-0.09831353276968002,0.16415217518806458,0.614920973777771,-0.6155135035514832,-0.2733396887779236,-0.3279778063297272,-0.01573716104030609,0.12006105482578278,-0.45496365427970886,0.0647251158952713,0.010740071535110474,0.11636407673358917,0.7289919257164001,0.45672285556793213,-0.21837931871414185,0.37646055221557617,0.5748358964920044,0.5512844324111938,-0.03584267571568489,0.2925773859024048,-0.3111523687839508,0.22913993895053864,0.41148239374160767,0.32452571392059326,-0.2099332958459854,0.021936319768428802,0.5941177010536194,-0.8280060291290283,0.7556902170181274,0.13387680053710938,-0.2538246810436249,0.2287839949131012,-0.1066272109746933,0.29283156991004944,-0.1914612501859665,-0.049732714891433716,-0.47971850633621216,0.16115370392799377,-0.3420270085334778,-0.18377508223056793,0.07192736119031906,-0.2615842819213867,-0.21627187728881836,-0.6415467262268066,0.43182289600372314,-0.14331810176372528,-0.2864719033241272,0.2977274954319,-0.4439883232116699,-0.21266624331474304,0.046654704958200455,-0.24055828154087067,-0.6110637784004211,0.46282967925071716,0.36132991313934326,-0.15701773762702942,-0.515904426574707,0.25414013862609863,0.6112644672393799,-0.4081282317638397,-0.4549383521080017,-0.1469036191701889,-0.40238070487976074,0.19957906007766724,0.7493665814399719,0.48270928859710693,-0.032904207706451416,-0.40984487533569336,0.3718954622745514,-0.13555830717086792,-0.022726915776729584,0.24488595128059387,-0.05491923540830612,0.2354205846786499,0.01134253479540348,-0.3874689042568207,0.677801251411438,-0.5754286646842957,-0.28853169083595276,0.009485438466072083,-0.14564761519432068,0.08022193610668182,-0.6783788800239563,0.1782974898815155,-0.36322009563446045,-0.16617552936077118,0.28499332070350647,0.13684865832328796,-0.1401670128107071,0.033499669283628464,-0.06670109927654266,0.29456520080566406,-0.2055850774049759,-0.02656332030892372,-0.41266965866088867,0.29405999183654785,0.7641177177429199,-0.2831025719642639,-0.03004631958901882,0.23624740540981293,-0.5409374237060547,-0.2515108287334442,-0.6920982003211975,0.03182835876941681,-0.17106470465660095,-0.2692094147205353,0.20316177606582642,-0.10228345543146133,-0.23871195316314697,-0.24995845556259155,-0.11718656867742538,0.15000712871551514,0.09158524870872498,0.3355490267276764,-0.12999564409255981,-0.19512125849723816,0.07919114828109741,-0.24251213669776917,-0.49334171414375305,0.22522878646850586,-0.2717377543449402,0.1627752184867859,0.048199113458395004,0.15317273139953613,-0.6370310187339783,0.27996233105659485,-0.1567871868610382,0.28506144881248474,-0.014687540009617805,0.38034647703170776,-0.5095124244689941,-0.461774080991745,-0.5634013414382935,0.08287414908409119,-0.5600689053535461,-0.3448672294616699,0.1663571298122406,0.13908931612968445,-0.00015390105545520782,0.01232132501900196,0.14465835690498352,-0.5732326507568359,-0.049787960946559906,0.2030118852853775,-0.14571213722229004
maid,0.17226146161556244,-0.3623773157596588,0.4941350221633911,-0.285237580537796,0.7068305015563965,-0.356067955493927,1.030034065246582,-0.3966573476791382,0.16598357260227203,-0.5781805515289307,0.2504947781562805,-0.8190248608589172,0.3530888557434082,0.12796403467655182,-0.9980611205101013,-0.05495450645685196,0.06469925493001938,-0.2560053765773773,-0.028666388243436813,0.4750247895717621,-0.46614551544189453,0.3902086615562439,-0.2769695818424225,-0.0991550087928772,-0.241449236869812,0.19025367498397827,-0.28094297647476196,0.8102380633354187,-0.04069013148546219,-0.11768895387649536,0.504971444606781,0.0416901670396328,0.24261048436164856,0.2827758491039276,-0.6015793085098267,0.019047126173973083,0.06540415436029434,0.5621488094329834,-0.4107199013233185,-0.20023566484451294,-0.7343337535858154,-0.4903777241706848,0.4435150921344757,0.3481846749782562,-0.311398983001709,0.25950416922569275,0.6427255868911743,-0.17530398070812225,0.15173205733299255,0.19101287424564362,-0.5179940462112427,0.7787485718727112,0.5641409754753113,-0.5872169137001038,0.3039710819721222,1.0325658321380615,-0.3744927942752838,-0.44215020537376404,-0.30462807416915894,-0.12829148769378662,-0.534989058971405,0.3364723324775696,0.19675257802009583,-0.8204550743103027,0.0931413397192955,0.6251283288002014,0.2522149682044983,0.35265180468559265,-0.5406820178031921,0.2633174657821655,0.3749253451824188,0.21874457597732544,-0.10033481568098068,-0.12758778035640717,-0.6168614625930786,-0.03211374208331108,-0.8314958810806274,-0.2578982710838318,0.12744273245334625,0.21732302010059357,-0.7580302357673645,0.14422617852687836,0.252727746963501,0.9913454651832581,-0.2654864490032196,0.13336656987667084,-0.2830680012702942,0.42746105790138245,-0.046665534377098083,0.3154100775718689,-0.21671846508979797,-0.4415658712387085,-0.47104814648628235,-0.2894258499145508,0.03884859383106232,-0.2881913185119629,0.8524690866470337,-0.2997896671295166,-0.09672510623931885,0.4067544639110565,1.1648539304733276,-0.26544636487960815,0.35643792152404785,0.5890113115310669,-0.6426748037338257,-0.5802744030952454,-0.4818223714828491,0.02525833621621132,0.15288154780864716,0.23259450495243073,0.29066944122314453,-0.23326389491558075,-0.04637283831834793,-0.8185338973999023,0.02380172349512577,0.6270483136177063,-0.4768424928188324,-0.5835778117179871,0.269375741481781,0.15302738547325134,0.8286424279212952,-0.3363306224346161,0.30173587799072266,0.9877543449401855,0.1621979922056198,0.09282629191875458,0.34606677293777466,0.373553067445755,-0.1453658938407898,-0.10950423032045364,0.33104974031448364,0.13890214264392853,-0.0012124478816986084,-0.2996818423271179,-0.36614447832107544,-0.7254825830459595,-0.057575762271881104,-0.17936913669109344,-0.9743381142616272,0.464260071516037,0.034631937742233276,1.1481988430023193,0.6836634278297424,-0.06940833479166031,0.10068559646606445,0.4265874922275543,-0.3147532343864441,-0.4963148236274719,0.2654775083065033,-0.6174960136413574,0.1953677088022232,0.3309738337993622,0.059362221509218216,0.1277140974998474,0.10580568760633469,-0.08037731796503067,0.2508074641227722,0.38883352279663086,-0.44041943550109863,0.09978190064430237,-0.2835067808628082,-0.08868515491485596,-0.12391501665115356,0.20954197645187378,0.007280133664608002,0.06681761145591736,-0.4997752904891968,0.7872859239578247,-0.21242021024227142,-0.3107333779335022,-0.24642592668533325,0.08581478148698807,0.6423895359039307,-0.47466957569122314,0.5051630735397339,0.34339553117752075,0.11747308075428009,0.2972239851951599,0.8841993808746338,0.4707249104976654,0.14453446865081787,0.07917685061693192,0.1637314260005951,-0.10890771448612213,1.2427963018417358,0.32143691182136536,0.36830589175224304,-0.27287840843200684,0.38100898265838623,-0.17034760117530823,0.20154139399528503,-0.01663791388273239,-0.7694422006607056,0.29300642013549805,0.21017269790172577,0.13165391981601715,-0.2682352066040039,0.002119697630405426,-0.7082445621490479,-0.19182249903678894,-0.23121142387390137,-0.7057788968086243,-0.17229583859443665,0.42796438932418823,-0.5277456045150757,0.3681381940841675,0.2789914309978485,0.0771259218454361,0.4882597327232361,0.3704219162464142,-0.8368878960609436,0.11227147281169891,0.11495691537857056,-0.12095806002616882,-0.0020312482956796885,-0.18855302035808563,-0.013898767530918121,0.017910510301589966,0.877045214176178,0.039621368050575256,0.34823524951934814,0.028017975389957428,-0.36899927258491516,0.4193125367164612,-0.7371833324432373,1.2646242380142212,0.1027948185801506,-0.3959788978099823,0.08340862393379211,0.817503035068512,0.5308576822280884,0.10971622169017792,0.08711928129196167,0.37455031275749207,0.027880769222974777,-0.09734820574522018,-1.1462570428848267,0.40491750836372375,0.42409053444862366,0.2508721947669983,-0.5496217608451843,0.23860912024974823,0.734116792678833,0.3660885989665985,0.46092501282691956,0.494241327047348,-0.33766841888427734,-0.01896713301539421,0.15817177295684814,-0.7178580164909363,-0.07205713540315628,-0.11578939110040665,0.044892970472574234,-1.113093614578247,-0.5108345150947571,0.23166416585445404,-0.3104611039161682,0.14547954499721527,-0.5746950507164001,0.5019251108169556,-0.062393464148044586,0.429666131734848,0.6652270555496216,-0.09095308184623718,-0.4889751374721527,-0.3570057451725006,-0.00913296639919281,0.45195579528808594,0.31807398796081543,0.09469403326511383,0.36850476264953613,-0.16955389082431793,-0.17970632016658783,0.4412282705307007,-0.3866307735443115,0.3129711151123047,0.15715371072292328,0.2149864286184311,0.3212067782878876,-0.7824835181236267,0.3638191819190979,0.4168616831302643,-0.34705424308776855,-0.2183740735054016,0.07470125705003738,-0.7119669318199158,-0.009952385909855366,0.7112148404121399,-0.447153240442276,-0.18762704730033875,-0.18935461342334747,0.1824428141117096,-0.7513824701309204,-1.0717328786849976,0.8965132236480713,-0.2446548193693161,-0.06647884845733643,-0.011241890490055084,0.39571496844291687,0.03334963321685791,-0.11165662109851837,0.49499160051345825,0.4114695191383362,0.029871348291635513,0.28153127431869507,0.2760249972343445,-0.3623097538948059,0.3166061043739319,-5.060379505157471,-5.8025121688842773e-05,0.4573843479156494,-0.11091133952140808,0.2998102009296417,-0.06931373476982117,-0.153466135263443,-0.23715965449810028,-0.5398040413856506,0.8522685766220093,-0.08271896839141846,-0.8526941537857056,0.5388693809509277,0.4025201201438904,0.1763228178024292,-0.07433119416236877,-0.2558637857437134,-0.3540257513523102,-0.3630375564098358,0.565805971622467,0.30420100688934326,-0.2900668978691101,-0.32041695713996887,-0.013265915215015411,-0.04145281761884689,0.5765274167060852,0.03650069981813431,0.2580706775188446,-0.835423469543457,-0.3956701159477234,0.5618571043014526,-0.035072118043899536,0.819840669631958,-0.08070456981658936,0.5984298586845398,-0.20883864164352417,0.017613600939512253,-0.21664592623710632,0.2055850774049759,-1.0554094314575195,0.18747037649154663,0.12022959440946579,-0.14880625903606415,0.4768269658088684,0.2748868763446808,-0.3233826756477356,-0.6223375201225281,0.6381897330284119,0.2622784674167633,0.015193276107311249,-0.2622152268886566,0.48716092109680176,0.22489331662654877,-0.44887465238571167,-0.3052627146244049,0.12745937705039978,0.34212324023246765,1.0936352014541626,-0.10496771335601807,-0.2092648446559906,-0.6151105761528015,-0.08602739870548248,-0.3454189896583557,-0.31686824560165405,-0.050867870450019836,-0.5656782388687134,-0.6689833402633667,-0.31967008113861084,-0.0766495019197464,-0.28140968084335327,-0.5483274459838867,-0.845182478427887,-0.026323407888412476,-1.2377833127975464,-0.49357128143310547,0.6045207381248474,0.3650468587875366,-0.04269211366772652,-0.242743119597435,-1.2541873455047607,-0.09690479189157486,-0.984997034072876,0.8088067770004272,-0.6047802567481995,-0.08409500867128372,-1.0719572305679321,-0.9023204445838928,-0.8391622304916382,0.19826409220695496,-0.04700298234820366,0.18624071776866913,0.5390499830245972,0.5715653896331787,-0.30787256360054016,-0.16264988481998444,0.37059593200683594,-0.22505490481853485,0.29869911074638367,0.7083823084831238,-0.5686705708503723,-0.42544010281562805,-0.5382980704307556,1.1528595685958862,-0.5288207530975342,0.629728376865387,-0.01835295557975769,-0.16750040650367737,0.17735081911087036,0.13272175192832947,0.7788086533546448,0.5222223401069641,-0.7859047055244446,0.6315406560897827,0.06199757754802704,-0.7047650814056396,-0.8058014512062073,0.947158694267273,0.2475103735923767,0.35905659198760986,0.29199978709220886,0.19941723346710205,0.6118870973587036,0.14694447815418243,-0.08887523412704468,-0.3622414171695709,0.30341029167175293,0.5124988555908203,0.9848953485488892,-0.046984653919935226,-0.6050642728805542,-0.1822035014629364,-0.1563836634159088,-0.14686653017997742,0.07218018174171448,0.25140509009361267,0.014385748654603958,-0.09601761400699615,-0.5252953767776489,-0.5715195536613464,0.4364197254180908,0.20967309176921844,0.3048851490020752,-0.5176064968109131,0.07214416563510895,-0.08018545806407928,-0.683865487575531,0.06570202857255936,0.31455501914024353,0.14801892638206482,0.8495099544525146,-0.6299476623535156,0.24690558016300201,0.4683094620704651,0.0979703962802887,-0.1728363037109375,-1.06593656539917,0.5180935263633728,0.36524978280067444,-0.5364106297492981,0.14161063730716705,-0.4407956302165985,-0.6243706345558167,-0.18324290215969086,0.7753587961196899,-0.880225419998169,0.011857189238071442,-0.043630391359329224,-0.048715148121118546,-0.033752523362636566,1.0646049976348877,-0.11523059755563736,0.575869619846344,-0.12512648105621338,0.07688111066818237,-0.6427025198936462,0.10851031541824341,-0.36647719144821167,0.6781934499740601,-0.2503398656845093,1.2568161487579346,0.26375362277030945,0.019457772374153137,-0.12394305318593979,-0.28415507078170776,0.1363958865404129,0.2985742390155792,0.1293952912092209,-0.3253140151500702,0.2909033000469208,-0.11165458709001541,-0.6291666030883789,0.6802146434783936,-0.7954315543174744,-0.40820467472076416,-0.798535943031311,-1.2450499534606934,-0.051963672041893005,0.19562837481498718,0.3610404133796692,0.19513750076293945,-0.1069728434085846,0.027304792776703835,0.09197703003883362,-0.03450176119804382,0.10870090872049332,0.26952847838401794,0.36471182107925415,0.3775312304496765,-0.3610260486602783,0.48241010308265686,-0.6413509845733643,-0.648106575012207,-0.18576671183109283,-0.32812929153442383,-0.1026248037815094,-0.25319600105285645,0.16997402906417847,0.2767468988895416,-0.5013923048973083,0.2129960060119629,-0.8012555241584778,-0.2145220935344696,-0.42447543144226074,0.17337532341480255,-1.5228089094161987,-0.4388517141342163,-0.09669424593448639,0.17200545966625214,-0.7778537273406982,0.012500585056841373,-0.1996949017047882,0.3742130994796753,0.06010560691356659,-0.13802441954612732,0.09780308604240417,-0.29139119386672974,-0.2086457908153534,-0.7597325444221497,0.3449578881263733,0.364683598279953,0.18841025233268738,-0.03327937424182892,-0.1331055462360382,0.001971505582332611,-0.28335458040237427,-0.360963374376297,0.005654291715472937,-0.08912773430347443,0.09525610506534576,0.061564721167087555,0.21372546255588531,0.328019917011261,0.2414817363023758,-0.6298463940620422,0.27836334705352783,0.4603019058704376,0.20569093525409698,0.6879205107688904,-0.08817532658576965,-0.13795647025108337,-0.3807613253593445,-0.5379413366317749,0.1817072182893753,0.27260851860046387,-0.5034582614898682,0.11427249014377594,0.599924623966217,0.2075665295124054,-0.3305882215499878,-0.14086900651454926,0.3775344491004944,-0.11499060690402985,0.6908200979232788,-0.46507397294044495,0.5444910526275635,-0.25991591811180115,-0.5919378399848938,-0.4990672171115875,1.0370663404464722,-0.41197869181632996,-0.7538102865219116,0.05316866934299469,-0.11699502170085907,-0.13307955861091614,-0.6982513666152954,0.4117031693458557,-0.49584299325942993,-0.09519648551940918,-0.3944319486618042,0.47809964418411255,0.43379852175712585,0.4249829649925232,0.48554927110671997,0.5537190437316895,-0.4255151152610779,1.2009531259536743,0.013762863352894783,0.3976830542087555,-0.1028994619846344,0.11486978828907013,-0.6338196396827698,-0.3313690721988678,0.0804811343550682,0.13212597370147705,-0.08144685626029968,-0.26389309763908386,-0.015009216964244843,-1.0741866827011108,-0.6051414608955383,-0.4906999468803406,0.1540813148021698,-0.44438689947128296,1.0288543701171875,0.24709677696228027,-0.5743143558502197,0.08374795317649841,0.09377019107341766,0.5742751359939575,-0.3463318943977356,-0.2500990033149719,0.07107806205749512,0.030390523374080658,0.1000102162361145,0.12938356399536133,0.13980688154697418,0.7191908359527588,-0.21068942546844482,0.36650627851486206,0.7101973295211792,-0.9742878079414368,-0.041992370039224625,-0.10699209570884705,-0.4392135441303253,0.17788365483283997,0.06518173962831497,-0.3885082006454468,0.020278126001358032,0.5540947914123535,-0.2624621093273163,-0.2809189260005951,-0.06301368772983551,-0.21811120212078094,0.04152031987905502,0.2832832336425781,0.22779397666454315,0.013294517993927002,-0.1941138505935669,-0.3828030526638031,0.07752212882041931,-0.007173379883170128,-0.12579675018787384,0.1917603611946106,0.4223048686981201,-1.0728590488433838,-0.4305350184440613,0.6908654570579529,-0.4478572607040405,0.0623951181769371,-0.6870391964912415,0.44263559579849243,-0.7015863060951233,-0.422499418258667,0.709210991859436,-0.15063273906707764,0.0864349752664566,-0.25217586755752563,-0.27485498785972595,0.11163254082202911,0.025572869926691055,0.1326170116662979,0.22771137952804565,-0.1780015379190445,1.0225187540054321,0.7273679375648499,0.277126282453537,-0.13930386304855347,-0.3466333746910095,-0.6771097779273987,0.06075615435838699,0.30084142088890076,0.5515357851982117,-0.421060711145401,-0.16766586899757385,0.430495023727417,-0.4195233881473541,0.4535645842552185,-0.430071085691452,-0.20767700672149658,-0.5003886222839355,-0.2654673159122467,0.13574564456939697,0.5389922857284546,0.11452163010835648,0.021533634513616562,-0.20566901564598083,-1.139946460723877,0.8581869602203369,-0.3206256330013275,0.19703076779842377,0.09543870389461517,0.21531620621681213,0.28838229179382324,-0.39273783564567566,0.25885480642318726,-0.024449415504932404,0.7630113363265991,0.15181925892829895,0.3222489058971405,-0.22418050467967987,-0.6326135993003845,0.19971506297588348,0.5211949944496155,-0.6846392154693604,0.5610426664352417,0.0007950421422719955,-0.13199609518051147,-0.38916775584220886,-0.07250770181417465,0.31062668561935425,-0.34853851795196533,-0.5971255898475647,0.6054078936576843,0.6092247366905212,0.5083864331245422,0.10801636427640915,-0.40010079741477966,0.2542581260204315,-0.28676772117614746,0.5719038844108582,-0.4193771183490753,-0.4470677077770233,-0.24773547053337097,-0.33426910638809204,-0.12165722250938416,0.556878387928009,-0.15084044635295868,-0.12134357541799545,-0.567760705947876,0.10144289582967758,-0.5495198965072632,0.9152798056602478,0.18548673391342163,-0.4852089285850525,0.26961395144462585,0.20067806541919708,-0.5015320777893066,-0.16501928865909576,-0.4197740852832794,0.5239721536636353,-0.1978677213191986,0.31158190965652466,0.21024659276008606,0.3584873080253601,-0.4688611626625061,0.6554245948791504,0.029484417289495468,-0.25971323251724243,-0.5398409366607666,0.10638201981782913,-0.07048061490058899
