Profession,dim_0,dim_1,dim_2,dim_3,dim_4,dim_5,dim_6,dim_7,dim_8,dim_9,dim_10,dim_11,dim_12,dim_13,dim_14,dim_15,dim_16,dim_17,dim_18,dim_19,dim_20,dim_21,dim_22,dim_23,dim_24,dim_25,dim_26,dim_27,dim_28,dim_29,dim_30,dim_31,dim_32,dim_33,dim_34,dim_35,dim_36,dim_37,dim_38,dim_39,dim_40,dim_41,dim_42,dim_43,dim_44,dim_45,dim_46,dim_47,dim_48,dim_49,dim_50,dim_51,dim_52,dim_53,dim_54,dim_55,dim_56,dim_57,dim_58,dim_59,dim_60,dim_61,dim_62,dim_63,dim_64,dim_65,dim_66,dim_67,dim_68,dim_69,dim_70,dim_71,dim_72,dim_73,dim_74,dim_75,dim_76,dim_77,dim_78,dim_79,dim_80,dim_81,dim_82,dim_83,dim_84,dim_85,dim_86,dim_87,dim_88,dim_89,dim_90,dim_91,dim_92,dim_93,dim_94,dim_95,dim_96,dim_97,dim_98,dim_99,dim_100,dim_101,dim_102,dim_103,dim_104,dim_105,dim_106,dim_107,dim_108,dim_109,dim_110,dim_111,dim_112,dim_113,dim_114,dim_115,dim_116,dim_117,dim_118,dim_119,dim_120,dim_121,dim_122,dim_123,dim_124,dim_125,dim_126,dim_127,dim_128,dim_129,dim_130,dim_131,dim_132,dim_133,dim_134,dim_135,dim_136,dim_137,dim_138,dim_139,dim_140,dim_141,dim_142,dim_143,dim_144,dim_145,dim_146,dim_147,dim_148,dim_149,dim_150,dim_151,dim_152,dim_153,dim_154,dim_155,dim_156,dim_157,dim_158,dim_159,dim_160,dim_161,dim_162,dim_163,dim_164,dim_165,dim_166,dim_167,dim_168,dim_169,dim_170,dim_171,dim_172,dim_173,dim_174,dim_175,dim_176,dim_177,dim_178,dim_179,dim_180,dim_181,dim_182,dim_183,dim_184,dim_185,dim_186,dim_187,dim_188,dim_189,dim_190,dim_191,dim_192,dim_193,dim_194,dim_195,dim_196,dim_197,dim_198,dim_199,dim_200,dim_201,dim_202,dim_203,dim_204,dim_205,dim_206,dim_207,dim_208,dim_209,dim_210,dim_211,dim_212,dim_213,dim_214,dim_215,dim_216,dim_217,dim_218,dim_219,dim_220,dim_221,dim_222,dim_223,dim_224,dim_225,dim_226,dim_227,dim_228,dim_229,dim_230,dim_231,dim_232,dim_233,dim_234,dim_235,dim_236,dim_237,dim_238,dim_239,dim_240,dim_241,dim_242,dim_243,dim_244,dim_245,dim_246,dim_247,dim_248,dim_249,dim_250,dim_251,dim_252,dim_253,dim_254,dim_255,dim_256,dim_257,dim_258,dim_259,dim_260,dim_261,dim_262,dim_263,dim_264,dim_265,dim_266,dim_267,dim_268,dim_269,dim_270,dim_271,dim_272,dim_273,dim_274,dim_275,dim_276,dim_277,dim_278,dim_279,dim_280,dim_281,dim_282,dim_283,dim_284,dim_285,dim_286,dim_287,dim_288,dim_289,dim_290,dim_291,dim_292,dim_293,dim_294,dim_295,dim_296,dim_297,dim_298,dim_299,dim_300,dim_301,dim_302,dim_303,dim_304,dim_305,dim_306,dim_307,dim_308,dim_309,dim_310,dim_311,dim_312,dim_313,dim_314,dim_315,dim_316,dim_317,dim_318,dim_319,dim_320,dim_321,dim_322,dim_323,dim_324,dim_325,dim_326,dim_327,dim_328,dim_329,dim_330,dim_331,dim_332,dim_333,dim_334,dim_335,dim_336,dim_337,dim_338,dim_339,dim_340,dim_341,dim_342,dim_343,dim_344,dim_345,dim_346,dim_347,dim_348,dim_349,dim_350,dim_351,dim_352,dim_353,dim_354,dim_355,dim_356,dim_357,dim_358,dim_359,dim_360,dim_361,dim_362,dim_363,dim_364,dim_365,dim_366,dim_367,dim_368,dim_369,dim_370,dim_371,dim_372,dim_373,dim_374,dim_375,dim_376,dim_377,dim_378,dim_379,dim_380,dim_381,dim_382,dim_383,dim_384,dim_385,dim_386,dim_387,dim_388,dim_389,dim_390,dim_391,dim_392,dim_393,dim_394,dim_395,dim_396,dim_397,dim_398,dim_399,dim_400,dim_401,dim_402,dim_403,dim_404,dim_405,dim_406,dim_407,dim_408,dim_409,dim_410,dim_411,dim_412,dim_413,dim_414,dim_415,dim_416,dim_417,dim_418,dim_419,dim_420,dim_421,dim_422,dim_423,dim_424,dim_425,dim_426,dim_427,dim_428,dim_429,dim_430,dim_431,dim_432,dim_433,dim_434,dim_435,dim_436,dim_437,dim_438,dim_439,dim_440,dim_441,dim_442,dim_443,dim_444,dim_445,dim_446,dim_447,dim_448,dim_449,dim_450,dim_451,dim_452,dim_453,dim_454,dim_455,dim_456,dim_457,dim_458,dim_459,dim_460,dim_461,dim_462,dim_463,dim_464,dim_465,dim_466,dim_467,dim_468,dim_469,dim_470,dim_471,dim_472,dim_473,dim_474,dim_475,dim_476,dim_477,dim_478,dim_479,dim_480,dim_481,dim_482,dim_483,dim_484,dim_485,dim_486,dim_487,dim_488,dim_489,dim_490,dim_491,dim_492,dim_493,dim_494,dim_495,dim_496,dim_497,dim_498,dim_499,dim_500,dim_501,dim_502,dim_503,dim_504,dim_505,dim_506,dim_507,dim_508,dim_509,dim_510,dim_511,dim_512,dim_513,dim_514,dim_515,dim_516,dim_517,dim_518,dim_519,dim_520,dim_521,dim_522,dim_523,dim_524,dim_525,dim_526,dim_527,dim_528,dim_529,dim_530,dim_531,dim_532,dim_533,dim_534,dim_535,dim_536,dim_537,dim_538,dim_539,dim_540,dim_541,dim_542,dim_543,dim_544,dim_545,dim_546,dim_547,dim_548,dim_549,dim_550,dim_551,dim_552,dim_553,dim_554,dim_555,dim_556,dim_557,dim_558,dim_559,dim_560,dim_561,dim_562,dim_563,dim_564,dim_565,dim_566,dim_567,dim_568,dim_569,dim_570,dim_571,dim_572,dim_573,dim_574,dim_575,dim_576,dim_577,dim_578,dim_579,dim_580,dim_581,dim_582,dim_583,dim_584,dim_585,dim_586,dim_587,dim_588,dim_589,dim_590,dim_591,dim_592,dim_593,dim_594,dim_595,dim_596,dim_597,dim_598,dim_599,dim_600,dim_601,dim_602,dim_603,dim_604,dim_605,dim_606,dim_607,dim_608,dim_609,dim_610,dim_611,dim_612,dim_613,dim_614,dim_615,dim_616,dim_617,dim_618,dim_619,dim_620,dim_621,dim_622,dim_623,dim_624,dim_625,dim_626,dim_627,dim_628,dim_629,dim_630,dim_631,dim_632,dim_633,dim_634,dim_635,dim_636,dim_637,dim_638,dim_639,dim_640,dim_641,dim_642,dim_643,dim_644,dim_645,dim_646,dim_647,dim_648,dim_649,dim_650,dim_651,dim_652,dim_653,dim_654,dim_655,dim_656,dim_657,dim_658,dim_659,dim_660,dim_661,dim_662,dim_663,dim_664,dim_665,dim_666,dim_667,dim_668,dim_669,dim_670,dim_671,dim_672,dim_673,dim_674,dim_675,dim_676,dim_677,dim_678,dim_679,dim_680,dim_681,dim_682,dim_683,dim_684,dim_685,dim_686,dim_687,dim_688,dim_689,dim_690,dim_691,dim_692,dim_693,dim_694,dim_695,dim_696,dim_697,dim_698,dim_699,dim_700,dim_701,dim_702,dim_703,dim_704,dim_705,dim_706,dim_707,dim_708,dim_709,dim_710,dim_711,dim_712,dim_713,dim_714,dim_715,dim_716,dim_717,dim_718,dim_719,dim_720,dim_721,dim_722,dim_723,dim_724,dim_725,dim_726,dim_727,dim_728,dim_729,dim_730,dim_731,dim_732,dim_733,dim_734,dim_735,dim_736,dim_737,dim_738,dim_739,dim_740,dim_741,dim_742,dim_743,dim_744,dim_745,dim_746,dim_747,dim_748,dim_749,dim_750,dim_751,dim_752,dim_753,dim_754,dim_755,dim_756,dim_757,dim_758,dim_759,dim_760,dim_761,dim_762,dim_763,dim_764,dim_765,dim_766,dim_767
professor,-0.3062506318092346,-0.712698757648468,-0.2538018226623535,0.13437199592590332,0.39993613958358765,-0.21895836293697357,0.24621637165546417,0.5507348775863647,0.5102443099021912,-0.06230809539556503,-0.2024623155593872,0.08482486009597778,0.20838172733783722,0.09955166280269623,-0.07974790781736374,0.08868113160133362,0.16609108448028564,-0.2374340146780014,-0.4893038868904114,0.6935765743255615,-1.0869272947311401,0.179286926984787,0.514366626739502,0.15536940097808838,-0.45479828119277954,-0.07503074407577515,-0.6225687861442566,1.2293574810028076,-0.06151590123772621,0.24637557566165924,0.4378800392150879,-0.16893234848976135,-0.23155462741851807,0.12369045615196228,-0.3813444972038269,-0.2802278697490692,-0.20765821635723114,0.49170830845832825,-0.42502889037132263,0.04593980684876442,0.14121180772781372,-0.26118338108062744,-0.29561367630958557,0.758856475353241,-0.09222443401813507,0.16070477664470673,0.515491783618927,0.2224513441324234,0.6957136988639832,-0.5103789567947388,-0.3922629654407501,0.36274662613868713,-0.19826987385749817,-0.14927230775356293,0.43264299631118774,0.17916010320186615,-0.6887661814689636,-0.5265462398529053,0.5166251063346863,-0.5657778978347778,0.021885782480239868,0.21977689862251282,0.041540686041116714,-0.5249428749084473,0.6658106446266174,0.2532314658164978,-0.2537875175476074,0.25630053877830505,-0.7838237881660461,-0.12633664906024933,0.12132374197244644,0.2927188277244568,0.2498936653137207,-0.23354262113571167,0.6576796174049377,-0.16970470547676086,-0.12174838781356812,-0.06447269022464752,-0.009193602949380875,0.1790120154619217,-0.19785016775131226,0.5867866277694702,0.005304008722305298,0.31321537494659424,-0.039494097232818604,-0.21916984021663666,0.016903385519981384,0.1727696806192398,0.33446013927459717,0.08266930282115936,-0.23570026457309723,-0.4087670147418976,-0.45638954639434814,0.23172174394130707,0.16250015795230865,-0.22464865446090698,0.08659990131855011,-0.5356041193008423,-0.15710559487342834,-0.3210636079311371,0.019562646746635437,-1.3811393976211548,-0.236515611410141,0.5437789559364319,-0.46424180269241333,-0.26965731382369995,-0.419885516166687,0.18735793232917786,-0.1028977632522583,0.3178142309188843,-0.2444046139717102,-0.051400717347860336,0.06623844802379608,-0.862424373626709,-0.1547900140285492,1.0158003568649292,0.72896409034729,-0.8446090221405029,0.21797627210617065,-0.023140713572502136,0.053270988166332245,0.17623011767864227,0.349189430475235,0.514653742313385,0.1334412544965744,-0.027205850929021835,0.13301467895507812,0.28853461146354675,0.09858042001724243,-0.31448692083358765,0.03513634577393532,0.07412593066692352,0.32621505856513977,0.1453525573015213,-0.5264762043952942,-0.12174846231937408,-0.7073103189468384,-0.0952027440071106,-0.8965528011322021,0.4406387209892273,0.34406235814094543,0.36905115842819214,-0.04543663561344147,-0.4415375292301178,-0.04003710672259331,0.04570809751749039,-0.3187547028064728,-0.16583137214183807,0.34871989488601685,0.08192021399736404,0.03777581453323364,0.1028791218996048,0.242285817861557,-0.3875506520271301,0.4108922779560089,0.33965903520584106,-0.3337499797344208,0.15108639001846313,-0.34979671239852905,-0.018877819180488586,0.5599097013473511,0.06182793527841568,-0.3128173053264618,0.8982821106910706,-0.3847915232181549,-0.26343685388565063,-0.4167576730251312,0.17167788743972778,0.3207632005214691,-0.2456335872411728,-0.3349650800228119,-0.01945762149989605,1.0566465854644775,-0.0348418690264225,0.12686023116111755,0.17813098430633545,-0.0062943994998931885,0.27801385521888733,0.6641144752502441,0.46326830983161926,0.046882957220077515,0.00023100990802049637,-0.10625331848859787,-0.43105754256248474,-0.0011261235922574997,-0.08783581852912903,0.8844800591468811,0.2302464246749878,0.049364492297172546,-0.02280070260167122,-0.12020443379878998,-0.5363881587982178,-0.4732995629310608,0.28563615679740906,0.7592467069625854,0.3156353533267975,-0.10533785820007324,-0.17544296383857727,-0.3092246949672699,0.3851722180843353,0.005407277494668961,-0.6993054747581482,0.11587883532047272,0.30502352118492126,0.020782455801963806,0.43710726499557495,0.03629273548722267,0.2781966030597687,0.6413353085517883,0.025969550013542175,-0.34581121802330017,0.3570789694786072,0.013104239478707314,0.2132934331893921,-0.06307210773229599,-0.09374793618917465,-0.48475947976112366,-0.32896164059638977,0.5918046832084656,0.2295563817024231,0.32552745938301086,-0.2710903286933899,-0.28363344073295593,0.44798824191093445,-0.6175047159194946,0.9078589677810669,0.4861014187335968,-0.03128776699304581,0.2344646453857422,0.7363701462745667,0.3080595135688782,0.02479463815689087,0.40323418378829956,0.9268488883972168,-0.04124774783849716,0.04785464331507683,-0.6796056032180786,0.2030109167098999,0.18403324484825134,0.35206931829452515,-0.2560082972049713,-0.06518109887838364,-0.13409271836280823,0.23836833238601685,0.2942744791507721,0.6199050545692444,-0.033978503197431564,0.167963445186615,0.4470115005970001,-0.39894360303878784,-0.04978838190436363,-0.34402158856391907,-0.15354372560977936,0.07052440941333771,0.18362833559513092,0.5011013150215149,-0.23432233929634094,0.16795392334461212,-0.06646092236042023,-0.12068617343902588,0.4517365097999573,0.01555655524134636,0.22377909719944,-0.2294660061597824,-0.20685170590877533,-0.1704019010066986,0.3241477608680725,-0.1117711216211319,0.2084769457578659,0.18404066562652588,-0.23810648918151855,-0.21321575343608856,0.497852087020874,0.16331630945205688,-1.0028057098388672,-0.2966668903827667,0.3418262302875519,-0.03212721273303032,0.07763396203517914,-0.17007583379745483,0.34668904542922974,0.16795891523361206,-0.47340255975723267,-0.23362594842910767,0.3671455383300781,-0.7199745178222656,0.35836008191108704,0.5382846593856812,0.3588038980960846,-0.3521963357925415,-0.3512980341911316,0.5965284705162048,-0.4806441068649292,-0.8024846315383911,0.5474969744682312,-0.3502354919910431,0.1531233787536621,-0.18695443868637085,0.4153069257736206,0.25504857301712036,-0.7405648827552795,0.18512535095214844,-0.3968951404094696,0.38747894763946533,0.05329270660877228,0.13225208222866058,-0.1697811782360077,-0.2804398834705353,-5.936686038970947,-0.18495500087738037,-0.4349159002304077,0.038854531943798065,0.4286937713623047,-0.18804867565631866,0.059585656970739365,0.11654990911483765,-0.5391844511032104,-0.047378331422805786,-0.17073284089565277,-0.6319671869277954,-0.20303089916706085,0.3818250894546509,-0.21912692487239838,-0.03908531367778778,-0.19359758496284485,-0.05178890377283096,-0.4373754560947418,0.4957524240016937,0.018430247902870178,0.028496045619249344,-0.3813370168209076,-0.1680152863264084,-0.018989138305187225,0.22954341769218445,-0.860640823841095,0.11502601951360703,-0.5808930993080139,0.10923515260219574,0.2532871961593628,-0.32001572847366333,0.3941579759120941,0.07861144840717316,0.056458503007888794,0.13876855373382568,-0.6171922087669373,0.14360912144184113,0.13610723614692688,-0.05261998251080513,-0.11368796229362488,-0.21084919571876526,-0.02819901704788208,1.3404231071472168,0.46969395875930786,-0.2902871370315552,-0.13304823637008667,-0.4094178080558777,0.20646601915359497,0.03281451761722565,-0.14839644730091095,-0.08672162890434265,0.7365939617156982,0.21460960805416107,-0.1578119546175003,0.17282894253730774,0.05499313771724701,0.8653628826141357,-0.10732786357402802,-0.6748443245887756,-0.38271045684814453,-0.11299172788858414,-0.2683551609516144,-0.04137656092643738,0.36051055788993835,0.06393653899431229,-0.16960090398788452,-0.5516695976257324,-0.1671537309885025,0.10017886757850647,-0.2709845304489136,-0.07404454052448273,-0.6893469095230103,-1.020096778869629,-0.5330065488815308,-0.16094614565372467,0.22342084348201752,-0.28039446473121643,-0.47500789165496826,0.1374250054359436,0.04544874653220177,-0.7632437348365784,1.1854711771011353,-0.16791856288909912,0.057845283299684525,-0.8559134602546692,-0.028349675238132477,-0.530292272567749,0.35309287905693054,0.15474502742290497,0.8119415640830994,0.3154751658439636,0.7064715027809143,-0.4001081883907318,0.12693355977535248,0.5609493255615234,-0.3168761134147644,0.3329850435256958,0.4405253231525421,0.24161142110824585,-0.17805266380310059,-0.24065591394901276,0.2620683014392853,0.09022622555494308,0.6818499565124512,0.29085278511047363,-0.08332198113203049,0.5763728618621826,-0.11889355629682541,0.7801108956336975,0.3406972289085388,-0.14446449279785156,-0.01869925856590271,-0.009927526116371155,0.1735265552997589,-0.544674277305603,0.3662065863609314,-0.28249824047088623,0.3592037856578827,-0.19953887164592743,-0.0929860770702362,0.7057691812515259,-0.4528568983078003,0.09656664729118347,-0.576528012752533,0.31342950463294983,-0.14165157079696655,-0.28484249114990234,0.4306619465351105,-0.09031320363283157,-0.06937363743782043,0.0847485214471817,0.3144422471523285,0.1948750615119934,0.11948335915803909,0.39863157272338867,0.1745067536830902,-0.04767749458551407,-0.4277031123638153,-0.07789579778909683,0.18937408924102783,-0.19238895177841187,0.1358696073293686,-0.1924484670162201,0.09285918623209,-0.037032350897789,-0.6119012832641602,0.5272340178489685,0.3202134966850281,0.131232351064682,-0.18992412090301514,0.20614740252494812,-0.315956711769104,-0.2036394327878952,0.35741478204727173,-0.5172473192214966,0.44259268045425415,-0.20483802258968353,-0.3965722918510437,0.16498306393623352,-0.10586927831172943,-0.18985384702682495,0.07257382571697235,-0.0029568951576948166,-0.6658278107643127,0.30769816040992737,-0.02002338506281376,0.6926950812339783,0.03670860081911087,0.443469375371933,-0.11366049200296402,-0.10361392796039581,0.32077425718307495,0.12820608913898468,-0.7389254570007324,-0.051127173006534576,-0.39655792713165283,0.31463590264320374,-0.3468424379825592,0.3949269950389862,0.048309970647096634,0.19012653827667236,-0.5033901929855347,-0.3832632601261139,0.09817468374967575,0.017469599843025208,-0.20177394151687622,0.17183087766170502,-0.10493261367082596,-0.1373644471168518,-1.121713399887085,0.12056068331003189,-0.19639046490192413,0.15798714756965637,-0.34153124690055847,-0.8019495606422424,-0.11539338529109955,0.3132711946964264,0.04490947350859642,0.5756058096885681,-0.5000733733177185,0.5651190280914307,0.08655662089586258,-0.021570395678281784,-0.320864737033844,0.4111069142818451,0.5454269051551819,-0.4951457381248474,-0.3475184440612793,0.23113738000392914,-0.637982189655304,0.13024494051933289,-0.42632395029067993,-0.22819039225578308,0.17932720482349396,0.3015274405479431,0.2075183093547821,-0.10701009631156921,-0.16788986325263977,0.5281198024749756,-0.09540149569511414,0.3091968595981598,-0.4469224214553833,0.2345452755689621,-0.023981206119060516,-0.3603883385658264,-0.03620237484574318,0.28869038820266724,-1.012284755706787,-0.318186491727829,0.22779394686222076,-0.18150673806667328,-0.2814140021800995,0.08523080497980118,0.552902102470398,-0.14611896872520447,0.3549917936325073,-0.45523837208747864,0.07327070832252502,0.03918551653623581,0.4818018078804016,-0.005014841444790363,-0.39025044441223145,0.20060259103775024,0.1551416516304016,0.25326547026634216,0.33768153190612793,0.5223666429519653,0.16895373165607452,0.23853586614131927,0.07513633370399475,-0.2689089775085449,-0.10545504093170166,-0.2520679533481598,-0.014064306393265724,-0.291885107755661,-0.2088690996170044,-0.17519499361515045,0.050117649137973785,0.03160587698221207,-0.3082033097743988,0.36178454756736755,-0.4422880709171295,0.035279531031847,-0.4451678693294525,0.3863680958747864,-0.03778731822967529,-0.34449952840805054,0.46593284606933594,0.20496466755867004,-0.15590810775756836,-0.012991837225854397,-0.041254229843616486,-0.5187384486198425,-0.4617672860622406,0.15565454959869385,-0.21820510923862457,-0.22462350130081177,0.47026124596595764,0.3302744925022125,-0.5291285514831543,0.5068866610527039,0.26083698868751526,0.2721470594406128,-0.05840197205543518,0.3222244679927826,-0.3688790202140808,0.6263687610626221,-0.3523826599121094,0.05584714561700821,-0.1524258255958557,0.18916957080364227,0.4760790169239044,0.1757606863975525,-0.1691269874572754,0.5842674374580383,0.39407896995544434,-0.2345924824476242,0.17370787262916565,-0.45181044936180115,-0.3470170497894287,-0.04424244165420532,-0.13004258275032043,-0.07333020865917206,-0.059533461928367615,0.05185626074671745,0.294733464717865,-0.5197250247001648,-0.09980708360671997,-0.370920866727829,-0.04910235106945038,0.029486317187547684,0.33545026183128357,0.019315501675009727,-0.1089746505022049,-0.3750914931297302,0.2887685298919678,0.14497888088226318,-0.805723249912262,-0.43347349762916565,-0.1767713874578476,0.491976261138916,0.2003917098045349,0.013695858418941498,0.07475364208221436,0.06624913960695267,-0.34650251269340515,0.5328739881515503,0.44134560227394104,-0.04664578288793564,0.13211318850517273,0.45917174220085144,-0.1800316870212555,0.16530200839042664,0.3962794542312622,-0.19421018660068512,0.03882816433906555,0.20914983749389648,0.22667378187179565,0.11196541786193848,-0.49406811594963074,0.29173043370246887,-0.19238993525505066,0.7718228101730347,-0.10578186810016632,-0.08435440063476562,0.12620367109775543,-0.17264093458652496,-0.1422904133796692,-0.13434089720249176,-0.2617792785167694,-0.2552569508552551,-0.404117614030838,-0.3205651342868805,-0.06308499723672867,0.14826063811779022,-0.11922867596149445,-0.02696661837399006,-0.17684940993785858,0.4989415407180786,0.17266875505447388,0.17896533012390137,0.714301347732544,0.13107268512248993,0.026642771437764168,0.19868069887161255,-0.1542280614376068,-0.058716125786304474,0.34692996740341187,-0.036440566182136536,0.08364506810903549,-0.7064734697341919,-0.10877743363380432,0.09023824334144592,-0.19756831228733063,0.267419695854187,0.10476833581924438,-0.47086507081985474,0.1514284759759903,1.1690073013305664,0.45588570833206177,0.25297534465789795,-0.38300737738609314,0.36115580797195435,0.18125289678573608,0.12496140599250793,-0.09556331485509872,-0.01048077642917633,-0.4737829566001892,-0.17905113101005554,-0.20999550819396973,-0.031601909548044205,0.2063189446926117,-0.21251291036605835,-0.4066392481327057,-0.3422545790672302,0.3313700556755066,-0.19615574181079865,-0.14673800766468048,0.06012006103992462,-0.16169217228889465,-0.43347692489624023,-0.5055775046348572,-0.7778558135032654,-0.4309101700782776,0.4891812205314636,0.3981829285621643,0.08750323206186295,-0.11628547310829163,-0.1832064390182495,0.8561463952064514,0.04427463561296463,-0.17391492426395416,-0.1387588381767273,-0.49967706203460693,-0.28166136145591736,0.11357341706752777,-0.04039616137742996,0.011408273130655289,-0.20759570598602295,-0.1492302268743515,-0.3383808732032776,0.10159216821193695,-0.14126285910606384,0.4381293058395386,-0.34016239643096924,-0.058162622153759,0.055043429136276245,0.21328701078891754,-0.10748394578695297,0.24677366018295288,0.1067415177822113,-0.7171266078948975,-0.6535699367523193,0.11819304525852203,-0.30955246090888977,0.006810583174228668,0.2821580767631531,-0.34866949915885925,-0.5698723793029785,0.17975515127182007,0.1348809003829956,-0.7938113808631897,-0.16841855645179749,0.5011249780654907,-0.429561972618103,0.08292879164218903,-0.19256500899791718,0.11631796509027481,-0.2819017767906189,-0.5083646774291992,-0.47704780101776123,1.003005862236023,-0.1981056034564972,-0.006987004540860653,0.2856289744377136,-0.5817688703536987,-0.14209511876106262,-0.04034183546900749,0.3104671537876129
vet,0.6773530840873718,-0.11931373924016953,0.06192338839173317,-0.11103320121765137,0.41601812839508057,-0.1788395792245865,0.29373887181282043,0.3301185965538025,0.6608847379684448,-0.1600191593170166,0.07364658266305923,0.08241596072912216,0.11438637971878052,-0.38835597038269043,-0.2466280460357666,0.07856136560440063,0.11293995380401611,-0.04009762778878212,0.13357281684875488,0.9485483169555664,-0.47812291979789734,-0.4767077565193176,0.08461154997348785,0.055933088064193726,-0.373091459274292,0.3992215096950531,-0.07891415059566498,0.5818433165550232,-0.5035926699638367,-0.13322365283966064,0.513501763343811,-0.09122451394796371,-0.4869162440299988,-0.07688412070274353,-0.022097894921898842,0.3550015687942505,-0.04953552782535553,0.6225921511650085,-0.7210789918899536,-0.0785074532032013,0.31948667764663696,-0.6656813025474548,-0.21984949707984924,0.4932905435562134,-0.036570094525814056,0.0959354117512703,0.3723077178001404,-0.32700470089912415,0.9759571552276611,-0.09539404511451721,-0.1039271429181099,-0.2215033769607544,-0.9459171891212463,-0.24720434844493866,0.5288748145103455,0.24860143661499023,0.31119734048843384,-0.2450011968612671,0.06200269237160683,0.13392257690429688,-0.2747998833656311,0.40853774547576904,0.3885376751422882,-0.027484823018312454,0.32401469349861145,-0.38807740807533264,0.08359386771917343,0.19812195003032684,-0.19311901926994324,0.020871225744485855,0.3392145037651062,0.6265552639961243,0.011966370046138763,-0.36692410707473755,0.33883315324783325,0.24174261093139648,-0.19944073259830475,0.18940578401088715,-4.715844988822937e-05,0.339040607213974,-0.08856641501188278,-0.3771951496601105,-0.28349873423576355,0.9949960708618164,0.17376556992530823,-0.19229349493980408,-0.2017419934272766,-0.018371904268860817,0.021310903131961823,0.5507363080978394,-0.14271922409534454,-0.3111684322357178,-0.5346369743347168,0.08088663220405579,0.05930769443511963,-0.26715779304504395,0.27733585238456726,-0.5849937200546265,-0.005796285346150398,-0.1314423382282257,0.07724910974502563,0.7085741758346558,-0.14081162214279175,0.26863762736320496,-0.6800257563591003,-0.47118669748306274,-0.38801974058151245,-0.10716559737920761,-0.07145307213068008,0.17627933621406555,-0.2753460705280304,-0.02222796529531479,0.11586948484182358,-0.40656599402427673,0.030078276991844177,0.7760385274887085,-0.016727030277252197,-0.9911433458328247,0.2200981229543686,-0.05671830102801323,-0.19729012250900269,0.2727017402648926,0.1069401279091835,0.8440605998039246,-0.005527690052986145,0.22513195872306824,-0.02532593533396721,0.05630018189549446,-0.06779840588569641,0.2700050473213196,-0.11784288287162781,0.257945716381073,0.1638573259115219,-0.24795213341712952,-0.14984723925590515,-0.31250080466270447,-0.13412614166736603,-0.2247525006532669,-0.6188555359840393,0.21018552780151367,0.5109591484069824,0.6342123746871948,0.4324769973754883,0.5799941420555115,-0.19847910106182098,0.10024034231901169,-0.9844205379486084,-0.1505308896303177,-0.5062235593795776,0.0012052133679389954,0.22088970243930817,0.4031490087509155,0.15310326218605042,-0.9161083102226257,-0.07115811854600906,0.43730977177619934,0.1964682787656784,0.06893590837717056,0.11549844592809677,0.0422348752617836,0.839566707611084,-0.5068626999855042,0.12116905301809311,0.5183287262916565,-0.4995964467525482,-0.4524593651294708,-0.5091661810874939,0.1333608329296112,-0.1555887758731842,0.03654257580637932,-0.40492910146713257,0.34507089853286743,0.9661791324615479,-0.14923983812332153,0.7537563443183899,0.20428332686424255,0.04115300253033638,-0.047492243349552155,0.4945693612098694,-0.09291089326143265,-0.08823740482330322,1.158190131187439,0.06103087216615677,0.07129263132810593,0.7893563508987427,0.3493192195892334,0.8108931183815002,-0.12258197367191315,-0.21681423485279083,0.14505982398986816,-0.29065194725990295,-1.4261047840118408,-0.7561941146850586,0.5029302835464478,0.6412326097488403,-0.3672284483909607,0.36127769947052,0.06334295868873596,-0.959869384765625,-0.30027106404304504,-0.217239648103714,-0.9262742400169373,-0.011154484003782272,0.36063632369041443,-0.37910008430480957,0.25298836827278137,0.02951175719499588,-0.1432841718196869,0.34910568594932556,0.24513235688209534,-0.3599134385585785,0.13900956511497498,-0.3116738796234131,0.08198042958974838,0.07139359414577484,0.1577012985944748,-0.4608866274356842,-0.366423100233078,0.3427223861217499,-0.08745893836021423,0.33297237753868103,-0.3759552240371704,-0.16758237779140472,0.18958652019500732,0.02925603836774826,0.6351151466369629,0.1089840978384018,-0.3054558038711548,-0.05086706206202507,0.18663805723190308,0.0814342051744461,0.4122433662414551,-0.2942425608634949,0.5661247372627258,0.010206658393144608,-0.06629526615142822,-0.49759912490844727,-0.07421499490737915,-0.15621033310890198,-0.028667394071817398,-0.38996925950050354,-0.18019749224185944,0.2682288885116577,0.5059910416603088,0.017449434846639633,0.6042566299438477,-0.10833615064620972,-0.13821068406105042,0.24674662947654724,-0.167972132563591,0.11407962441444397,-0.4708419740200043,0.5048479437828064,-0.266153484582901,0.09554363042116165,-0.5506404042243958,-0.12399273365736008,0.38320043683052063,-0.24837380647659302,0.008524294942617416,-0.28263941407203674,-0.1372242122888565,0.7284367680549622,-0.48444294929504395,-0.4843652844429016,-0.6030747890472412,-0.21867842972278595,0.08774474263191223,0.27410241961479187,0.3842625319957733,-0.23608481884002686,-0.320615291595459,0.67169189453125,0.00865715742111206,-0.5209548473358154,-0.3539639711380005,0.4954238533973694,0.026634790003299713,0.8759579658508301,-0.25838369131088257,0.2829135060310364,0.5439268350601196,-0.1155470758676529,-0.11789149791002274,-0.22247377038002014,-0.1848764568567276,-0.12849858403205872,0.3889774680137634,-0.30497169494628906,-0.7948431372642517,-0.06402235478162766,0.3783993124961853,-0.5699931383132935,-0.1873502880334854,0.29220399260520935,0.0012307316064834595,-0.0026157479733228683,0.13990716636180878,0.2503708004951477,-0.2894779145717621,0.537947416305542,0.5418405532836914,0.6079073548316956,-0.39953672885894775,0.3931320607662201,-0.23922573029994965,-0.12694407999515533,-0.28625932335853577,-5.777927398681641,-0.18862509727478027,-0.5194929838180542,-0.42699363827705383,0.4650149345397949,-0.16252180933952332,0.38119032979011536,0.2492818534374237,-0.8299595713615417,0.07123309373855591,0.2955268919467926,-0.6063127517700195,0.40618032217025757,-0.02869885042309761,0.09815181791782379,-0.18291431665420532,-0.20710158348083496,-0.023674454540014267,0.002787470817565918,0.555461585521698,0.577889084815979,-0.6286813020706177,-0.13826416432857513,0.06841839849948883,0.3123941123485565,0.9382907152175903,-0.425763875246048,0.3021262586116791,-0.5501422882080078,0.23548051714897156,-0.32145270705223083,0.4516846537590027,0.21915364265441895,0.5408915281295776,0.17149125039577484,0.18578067421913147,-0.3846118450164795,0.17415620386600494,0.11568783968687057,-0.9410416483879089,0.02129805088043213,0.4673343002796173,0.012203231453895569,0.5830589532852173,-0.44690951704978943,-0.4810475707054138,0.19114802777767181,0.47230610251426697,0.15157538652420044,0.33171534538269043,-0.5070756077766418,0.07735677808523178,-0.4202406406402588,0.2509714365005493,0.1554798185825348,-0.16397467255592346,0.2905535399913788,0.08114474266767502,-0.53993821144104,-1.1197174787521362,-0.3302525281906128,-0.3721441924571991,-0.09442409873008728,-0.38821300864219666,-0.3583492636680603,0.021105028688907623,-0.7056183218955994,-0.98213130235672,-0.002053758129477501,0.11919514089822769,-0.5353000164031982,-0.673842191696167,-0.24091239273548126,-1.3162469863891602,-0.46612268686294556,-0.7115443348884583,0.3664127588272095,-0.3020016551017761,-0.04953552410006523,0.10025709122419357,-0.20424027740955353,-0.7907531261444092,0.3076478838920593,-0.025067292153835297,0.2556094527244568,-0.8430812358856201,0.0236528180539608,-0.014620782807469368,0.04593498259782791,-0.19994166493415833,0.33525779843330383,0.28047412633895874,0.567401647567749,-0.2021024227142334,-0.5167508721351624,-0.18225599825382233,-0.3031724989414215,0.036070145666599274,0.7020045518875122,-0.7272278070449829,0.7675206065177917,-0.738947331905365,0.511994481086731,-0.11535350233316422,0.06816251575946808,-0.3393908143043518,-0.31831029057502747,0.012352708727121353,0.2723347246646881,0.3020480275154114,0.37194201350212097,-0.6136664152145386,0.6495023369789124,-0.3855532109737396,-0.1144401878118515,0.22222179174423218,0.4611853361129761,0.016566000878810883,-0.02750564180314541,-0.4023450016975403,0.3744933009147644,0.1861480474472046,-0.02420961484313011,0.03286672383546829,-0.509978711605072,0.22820542752742767,0.4951649308204651,-0.2742724120616913,0.27796435356140137,-0.004845386371016502,0.5284956693649292,-0.30499982833862305,0.3301388919353485,-0.058236345648765564,0.4572146236896515,0.5181499719619751,0.019507266581058502,-0.1946893036365509,-0.13202333450317383,0.09329772740602493,0.5194122791290283,0.4377993643283844,0.3605865240097046,0.272578626871109,0.7445021271705627,-0.15491920709609985,0.09655959904193878,0.5298327803611755,0.2677253484725952,0.14325536787509918,-0.2748195230960846,0.042141832411289215,-0.27464526891708374,-0.3344578146934509,0.2390413135290146,-0.2835441529750824,0.5416869521141052,-0.44328010082244873,-0.3415067195892334,-0.3338525593280792,-0.1607341766357422,-0.27989304065704346,0.5500773191452026,0.3306466341018677,-0.7656357884407043,-0.31691503524780273,0.15514947474002838,0.397403359413147,-0.6652714014053345,0.4072512686252594,0.2674102187156677,0.11632650345563889,0.2912245988845825,0.4831724166870117,-0.4838331639766693,-0.04269275814294815,-0.15695472061634064,0.38448140025138855,-0.2277739942073822,0.6848993897438049,0.1158008947968483,-0.442457377910614,0.2278698831796646,-0.2511886954307556,0.4832781255245209,-0.10698257386684418,-0.4748711585998535,-0.3508304953575134,-0.04396286979317665,0.2793784439563751,-0.5455876588821411,0.42160552740097046,0.09612119197845459,0.12201675772666931,-0.3866451680660248,-0.4921649098396301,-0.24427488446235657,-0.5501096248626709,-0.002354421652853489,0.3403356671333313,-0.13472981750965118,0.33811071515083313,0.055187441408634186,0.08273515850305557,-0.4994626045227051,0.2978125214576721,0.15050746500492096,0.2507793605327606,-0.2761487364768982,0.34350717067718506,-0.11998053640127182,-0.15419021248817444,-0.13268236815929413,-0.296390175819397,-0.3812791109085083,0.1719312220811844,0.17946240305900574,0.522610604763031,-0.34267356991767883,0.1873568445444107,-0.2514898180961609,0.5284188985824585,-0.660205602645874,0.0051587894558906555,-0.9249863624572754,0.08711355924606323,0.16903570294380188,-0.16206948459148407,-0.9132040739059448,-0.1514817327260971,-0.4775663912296295,-0.3190673589706421,-0.36700963973999023,0.23883146047592163,0.1748681217432022,-0.0384790413081646,0.3494037985801697,-0.34897974133491516,0.4925715923309326,-0.020245149731636047,-0.07053902745246887,1.0788123607635498,0.3169288635253906,0.18316328525543213,-0.29532450437545776,-0.12211548537015915,0.4189467132091522,-0.20564302802085876,0.22064673900604248,0.6947184205055237,0.30151376128196716,-0.41668811440467834,-0.22847118973731995,-0.2878827750682831,-0.5385907292366028,-0.32460153102874756,-0.22805987298488617,0.4198891222476959,0.17413955926895142,0.29929083585739136,0.1090514212846756,-0.061422742903232574,-0.3529864549636841,0.18712283670902252,-0.16109338402748108,0.009443864226341248,-0.3943948745727539,-0.3687331974506378,-0.0847189873456955,0.18146708607673645,-0.10943968594074249,-0.3725561499595642,0.7028473019599915,-0.22957022488117218,0.28951209783554077,-0.20252001285552979,-0.3776022493839264,-0.2509358525276184,0.16446314752101898,-0.12540464103221893,0.006600532680749893,0.3618897795677185,-0.0016934126615524292,0.13534744083881378,-0.8920931220054626,0.3245985805988312,-0.36631032824516296,0.4909413754940033,-0.2417573481798172,0.5960704684257507,0.554469108581543,0.2579069435596466,0.013759223744273186,0.2450660914182663,-0.11842554807662964,0.47284671664237976,0.04753866046667099,0.24345915019512177,0.5425776243209839,0.34267282485961914,-0.6968325972557068,0.8432968258857727,-0.31624117493629456,-0.010483913123607635,-0.2874056398868561,-0.4251697361469269,0.018910134211182594,-0.41328009963035583,-0.18907107412815094,0.6551743149757385,0.018683193251490593,-0.3884828984737396,0.21776889264583588,0.09620273858308792,-0.2719597816467285,0.1314285546541214,-0.07289301604032516,0.4483295679092407,-0.35649847984313965,-0.316150963306427,-0.07018236815929413,0.046859920024871826,0.059911541640758514,-0.10547083616256714,0.28968584537506104,0.06670067459344864,-0.1630350798368454,0.7616332173347473,0.679868757724762,-0.24115398526191711,0.5136107206344604,0.699306845664978,0.14326250553131104,0.27305537462234497,-0.12021186202764511,-0.3768020570278168,0.31560149788856506,0.19987191259860992,0.03923363983631134,0.033683180809020996,-0.1581057459115982,0.26264655590057373,-0.11361998319625854,0.997808039188385,-0.3302440345287323,-0.2702820599079132,0.08643282204866409,-0.2718598544597626,0.6578941941261292,0.14783133566379547,-0.04060740768909454,-0.22754745185375214,-0.056414127349853516,-0.9170128703117371,-0.41378939151763916,-0.2128574699163437,-0.028342075645923615,-0.21632423996925354,-0.5375913381576538,0.16597174108028412,-0.4807777404785156,-0.2567594349384308,0.16935618221759796,-0.5550046563148499,-0.07899869233369827,0.1309710443019867,-0.10584595054388046,-0.4734008014202118,0.6135221123695374,0.060128103941679,0.1484050452709198,-0.6051322817802429,0.3117600083351135,0.5328201651573181,-0.063011035323143,-0.26207849383354187,0.14755547046661377,-0.5608038306236267,0.1645067185163498,0.3494885563850403,-0.28229641914367676,0.026043448597192764,-0.13564933836460114,-0.5616417527198792,-0.05640639737248421,0.4559757709503174,-0.2575784921646118,-0.11631655693054199,0.3161655068397522,0.09739693254232407,-0.013764839619398117,0.49833619594573975,-0.7571594715118408,0.0125686414539814,-0.07325830310583115,-0.5155680775642395,0.8390480279922485,-0.4321383833885193,-0.09434611350297928,-0.2251945585012436,0.2802962362766266,0.19089877605438232,-0.006406677886843681,-0.05245182290673256,0.2030813992023468,0.3367173671722412,-0.05222071707248688,0.23513448238372803,0.027364302426576614,-0.0010469332337379456,-0.021155741065740585,0.4591076374053955,-0.23136283457279205,0.6896554827690125,0.19577784836292267,-0.5351705551147461,0.09312541037797928,-0.9547134637832642,0.17824353277683258,-0.006861187517642975,-0.1811148226261139,-0.05410930514335632,-0.14186690747737885,0.3524535596370697,0.193378284573555,-0.3714282810688019,-0.2426680028438568,0.26083195209503174,0.3169577419757843,0.2162003219127655,-0.37676605582237244,0.1519126445055008,-0.727133572101593,-0.8529605269432068,0.703826367855072,-0.47041547298431396,0.42193809151649475,0.35684844851493835,0.18858833611011505,-0.3937457501888275,0.1848851889371872,-0.6028304100036621,0.5817936062812805,0.3026979863643646,0.43404385447502136,-0.23354683816432953,-0.28666970133781433,-0.4279818832874298,-0.11449995636940002,-0.1697637140750885,-0.49075207114219666,0.03232597932219505,0.6171282529830933,0.210555762052536,0.08358854800462723,0.14498496055603027,-0.9556429386138916,-0.12597618997097015,0.3562304377555847,0.35556483268737793
paramedic,0.10848664492368698,-0.5633377432823181,0.5381632447242737,-0.04885540530085564,0.29169371724128723,0.16700462996959686,0.26403534412384033,0.5570342540740967,-0.0683826431632042,-0.19327817857265472,0.24485556781291962,-0.39946475625038147,-0.27102574706077576,0.11870508641004562,-0.17631001770496368,0.9136901497840881,0.029952168464660645,0.10276728123426437,-0.20213569700717926,0.3174142837524414,-0.14883726835250854,-0.44367265701293945,-0.6332498788833618,0.10228300839662552,0.14624689519405365,0.20086733996868134,0.08551684767007828,0.4798506200313568,-0.27273204922676086,-0.47250330448150635,0.7497320175170898,-0.2610597312450409,-0.8252338767051697,0.23447056114673615,0.40895918011665344,0.3550366461277008,-0.24921131134033203,0.5006806254386902,-0.9398271441459656,-0.08436582237482071,-1.1365066766738892,-0.9280144572257996,0.3937813937664032,0.6275467276573181,0.12906065583229065,0.4171313941478729,1.229977011680603,-0.8056188225746155,0.7631400227546692,0.11925369501113892,-0.8246188163757324,0.09638938307762146,-0.21565894782543182,-0.3274237811565399,0.3653015196323395,0.5110669732093811,0.17255663871765137,-0.6059291958808899,-1.0143522024154663,0.08627209067344666,-0.3354926109313965,0.27979207038879395,0.35366570949554443,-0.9079458713531494,0.2990095317363739,-0.18716199696063995,-0.09860699623823166,0.9383699297904968,-0.9372139573097229,-0.2571580708026886,0.33473941683769226,-0.10133063048124313,0.030966876074671745,-0.47036829590797424,-0.43486130237579346,0.0847894474864006,-0.27692779898643494,-0.013260205276310444,-0.2003660947084427,0.3206193447113037,-0.6312140822410583,0.5939774513244629,-0.3313828408718109,0.7682404518127441,0.3836868703365326,0.4028265178203583,-0.3896164000034332,0.31449851393699646,0.19884580373764038,0.7864190936088562,-0.07831030339002609,0.1531248241662979,-0.3140751123428345,-0.1232067123055458,-0.0012466013431549072,-0.14373837411403656,0.7686543464660645,-0.7957674860954285,-0.8805736899375916,0.4500337541103363,0.7487785220146179,-0.26355817914009094,0.024726202711462975,-0.03646082803606987,-0.361199289560318,-0.058625269681215286,0.029300643131136894,0.5908566117286682,0.06431257724761963,1.0462620258331299,0.5806881785392761,-0.3861366808414459,-0.06267111003398895,-0.8378562331199646,0.5419451594352722,0.6492562890052795,-0.27512040734291077,-0.2185475379228592,0.1091412827372551,-0.2592353820800781,0.2674977481365204,-0.4974708557128906,0.09811487048864365,1.4778679609298706,0.18755079805850983,0.6319193840026855,-0.33271148800849915,0.050887513905763626,0.47240838408470154,0.655587911605835,0.9549919962882996,0.4910752475261688,0.2152753472328186,-1.0746041536331177,-0.26011672616004944,-0.434842586517334,-0.1832858771085739,-0.4082113206386566,-0.9820496439933777,0.9012886881828308,0.08710303902626038,0.1961599737405777,0.6790449619293213,1.1256701946258545,0.13451378047466278,-0.3646045923233032,-0.5055827498435974,0.1865304857492447,-0.1765642762184143,0.2422289103269577,-0.360724538564682,-0.1367601901292801,0.2609439790248871,-0.7464766502380371,-0.7877420783042908,-0.3181656301021576,-0.08048699051141739,0.21285200119018555,0.49827396869659424,0.4633309841156006,0.5053033828735352,-0.25056561827659607,0.14959630370140076,-0.04642297700047493,-0.3748188316822052,0.6066324710845947,-0.18882052600383759,0.44122934341430664,-0.5481250882148743,0.7093791365623474,-0.34787631034851074,0.2138708084821701,1.1471614837646484,-0.6360244750976562,0.47909703850746155,0.25328531861305237,-0.17202872037887573,0.1409934163093567,0.47206082940101624,-0.08674038201570511,-0.12790091335773468,1.2268340587615967,0.14908650517463684,0.11601948738098145,0.6560755372047424,-0.16140222549438477,0.9978732466697693,0.36362162232398987,-0.5445938110351562,-0.43939390778541565,0.15968935191631317,-0.22995775938034058,-0.8355632424354553,0.3790939748287201,-0.07728960365056992,-0.012334157712757587,0.005895207170397043,0.5617888569831848,-1.2006020545959473,-0.8346579670906067,0.08979621529579163,-0.2086215764284134,0.18226967751979828,0.7097311019897461,-0.3296974003314972,-0.233720064163208,0.3014085292816162,-0.1443191021680832,-0.13541625440120697,0.1798035353422165,-0.590623140335083,0.38670918345451355,-0.6814519762992859,-0.05788351222872734,0.06759289652109146,-0.00846631359308958,-0.38878950476646423,-0.007844517938792706,0.22801415622234344,-0.3774445354938507,-0.12551406025886536,-0.05606875941157341,-0.6116790175437927,-0.06762954592704773,0.2437199354171753,1.076615333557129,0.2638075649738312,-0.37236180901527405,-0.19368189573287964,0.3007872998714447,-0.05894090607762337,0.8311200141906738,0.05842709168791771,0.11304768174886703,-1.2220062017440796,-0.21814686059951782,-1.2327120304107666,-0.43953368067741394,0.7962942719459534,-0.3889337480068207,-0.9028367400169373,0.008207380771636963,1.197649598121643,0.26179516315460205,0.7218026518821716,0.4420175552368164,-0.38022398948669434,0.2652207314968109,0.38985610008239746,-0.18823979794979095,-0.646418035030365,-0.5492775440216064,-0.18465064465999603,-0.7339039444923401,0.012608577497303486,0.2060728520154953,0.19188310205936432,0.05666448175907135,-0.5339298844337463,0.6716192364692688,-0.4963957369327545,0.06431528180837631,0.2922399044036865,0.2858111560344696,-0.8993354439735413,-1.3265944719314575,-0.20636479556560516,0.7297530174255371,-0.35837265849113464,0.27245163917541504,-0.35684069991111755,-0.6640682816505432,-0.4510773718357086,0.285442978143692,0.08567190915346146,0.21172334253787994,0.16118551790714264,0.1825849413871765,1.1365538835525513,-0.2965482175350189,0.574330747127533,0.3425929546356201,-0.16109715402126312,-0.3347000181674957,-0.647915244102478,-0.020379601046442986,-0.12017647176980972,0.6653879880905151,-0.9979123473167419,-0.2017257660627365,-0.6941596865653992,0.3703269958496094,-0.723701536655426,-0.5268027782440186,0.16821074485778809,0.20318371057510376,-0.11478186398744583,0.2106257677078247,1.0341683626174927,-0.5910109281539917,-0.036226268857717514,-0.04789097234606743,0.26968228816986084,0.18134842813014984,-0.4716498851776123,-0.08794897794723511,-0.0355687141418457,-0.68746417760849,-2.398712396621704,0.07475099712610245,-0.54765385389328,-0.24286901950836182,0.6671276092529297,0.1143631711602211,-0.2888592779636383,0.7526161670684814,-1.376137137413025,0.08249227702617645,0.07674452662467957,-0.5820624828338623,0.7187943458557129,0.3014560043811798,-0.07572294026613235,0.0389644093811512,-0.18735051155090332,-0.4343620836734772,-0.24626898765563965,0.37358859181404114,0.5472314953804016,-1.4745020866394043,-0.2138308733701706,-0.15312206745147705,0.9689835906028748,0.3813682496547699,0.12897831201553345,0.5307309031486511,-0.8213755488395691,-0.04279596731066704,1.0595933198928833,-0.4280947148799896,0.2076442986726761,0.19624702632427216,0.48787257075309753,0.15552572906017303,-0.44357189536094666,-0.2803361713886261,-0.6037370562553406,-1.0992940664291382,-0.7082920074462891,-0.33721745014190674,0.3059087097644806,0.11039827018976212,1.0369280576705933,-0.7913808822631836,0.09781230241060257,0.7235185503959656,-0.14432232081890106,0.2611394226551056,-0.3427840769290924,0.08650743961334229,-0.3141828179359436,0.11787902563810349,-0.2919106185436249,-0.027271339669823647,0.7925448417663574,0.9540496468544006,-0.6040356755256653,-1.1571561098098755,0.39143070578575134,0.23734597861766815,-0.2704027593135834,-0.030278554186224937,-0.10496383160352707,-0.06237757205963135,-0.5733889937400818,-1.348191738128662,-0.2684102952480316,-0.31392303109169006,-0.4252195656299591,0.1359284669160843,-1.1160701513290405,-0.4780944287776947,-0.807002067565918,-0.19065962731838226,0.3473424017429352,-0.14896327257156372,0.06162117049098015,-0.6516009569168091,-0.4458603858947754,-0.07002678513526917,0.17568139731884003,-1.0540659427642822,-0.22442154586315155,-0.5334824919700623,-0.5034750699996948,0.06714622676372528,0.13847099244594574,-0.3232017457485199,0.4325850307941437,0.31622302532196045,0.22663766145706177,0.5121849179267883,-0.7412898540496826,-0.6532896757125854,-0.48083117604255676,0.26843568682670593,0.6203786134719849,-0.8783774375915527,0.20459793508052826,-0.4616936445236206,1.149276852607727,-0.1428087204694748,0.3556630313396454,-0.1962728351354599,-0.9713215827941895,-0.7039663195610046,-0.48173269629478455,0.0036495227832347155,0.5317710638046265,-1.2148246765136719,1.5065983533859253,-0.7596380710601807,-0.5940072536468506,0.5493625402450562,0.9931465983390808,0.3002203702926636,-0.11006227135658264,-0.7609407901763916,-0.06576115638017654,0.9786062240600586,0.17829370498657227,0.09492660313844681,-0.002461592433974147,0.46587106585502625,0.36256977915763855,0.47604474425315857,0.6431077122688293,-0.1612521857023239,0.2826085090637207,-0.6951048970222473,-0.4765107333660126,1.0537344217300415,0.7101776599884033,0.3202950060367584,0.1821100264787674,-0.6767533421516418,-0.41035082936286926,0.7553966641426086,0.7716277241706848,0.13244424760341644,-0.5471885204315186,-0.6603867411613464,0.19166617095470428,0.30750182271003723,-0.23500244319438934,0.1092841625213623,0.021596550941467285,0.1590699851512909,-0.972868025302887,0.16860197484493256,-0.4705985486507416,-0.5735899806022644,0.411386638879776,-0.25191977620124817,0.22464685142040253,-0.22700069844722748,-0.547194242477417,-1.209145426750183,-0.23493222892284393,-0.0673653855919838,0.3810896873474121,0.7989916205406189,-0.46904388070106506,0.3215441405773163,-0.45521649718284607,-0.029160887002944946,-0.27513203024864197,0.4450627267360687,0.14189110696315765,0.27006766200065613,0.11089637875556946,0.16331787407398224,-0.3580624759197235,0.8441848158836365,-0.19982385635375977,0.23514918982982635,-0.6422803401947021,1.204206109046936,-0.06893134862184525,-0.17307285964488983,-0.1146569475531578,0.04513430595397949,0.12926219403743744,0.116303950548172,0.22707420587539673,-0.2923983633518219,-0.22364585101604462,-0.03187397122383118,-0.552440345287323,1.0571101903915405,-0.4797545373439789,0.33281517028808594,-0.7376832365989685,-0.8028864860534668,-0.05362598970532417,-1.0465087890625,-0.031222352758049965,0.4579951763153076,-0.10717832297086716,-0.20698507130146027,-0.06085197255015373,0.07954489439725876,-0.6291792988777161,0.0892271101474762,-0.6523942351341248,0.6716959476470947,-0.16998164355754852,0.81984543800354,-0.2924550473690033,-0.342871755361557,-0.3186998665332794,-0.10337565094232559,-0.3226914703845978,-0.19312120974063873,0.5139727592468262,-0.2827363908290863,-0.5377423167228699,0.20952008664608002,-0.5271310210227966,0.6304957270622253,-0.505640983581543,0.3681485652923584,-1.1507821083068848,0.17023847997188568,-0.2299049347639084,0.5716871619224548,-0.7614652514457703,0.049261871725320816,-0.6981270909309387,-0.3694564402103424,-0.6228427290916443,-0.057058755308389664,0.042529720813035965,0.2992851436138153,0.25375673174858093,-0.427539199590683,0.04866332933306694,-0.08779527992010117,-0.6115038990974426,0.8396375775337219,-0.10317955166101456,-0.17225688695907593,-0.1517750769853592,0.07028710842132568,0.1991065889596939,-0.07311397045850754,0.16694147884845734,0.9147081971168518,0.32705479860305786,-0.29242417216300964,-0.0907801017165184,-0.7472052574157715,-0.06974618881940842,-0.7401060461997986,-0.05418781563639641,0.17832304537296295,0.1036715880036354,0.6444594264030457,0.17183393239974976,-0.2935612201690674,-0.17280907928943634,0.6861105561256409,0.46561479568481445,-0.3809884786605835,0.1958804875612259,0.47345101833343506,-0.027812516316771507,-0.7357907295227051,0.22092272341251373,-0.07621956616640091,0.9317691922187805,0.05824018642306328,0.10270123928785324,-0.20470069348812103,-0.2607943117618561,-0.6510430574417114,0.642448365688324,-0.010683417320251465,0.07299970835447311,0.5629574656486511,-0.3643408715724945,0.8148324489593506,-0.44604721665382385,0.37592029571533203,-0.6506046652793884,0.6029630899429321,-0.026945598423480988,0.5063198208808899,0.6696016192436218,0.6927706599235535,0.13538075983524323,0.03843400999903679,0.5892437100410461,0.7930890917778015,0.4681580066680908,0.5772323608398438,0.2703706920146942,0.368464857339859,-0.26357153058052063,-0.6334813833236694,-0.38206493854522705,-0.12970852851867676,0.17916558682918549,-0.11573195457458496,-0.24194465577602386,-0.567062497138977,0.1256895214319229,0.581292450428009,-0.5069613456726074,-0.7178337574005127,0.6659500002861023,0.6013515591621399,-0.8638486862182617,-0.12176457792520523,-0.11120747774839401,0.12556947767734528,-0.4701579809188843,0.06955259293317795,-0.20432162284851074,0.29974564909935,0.4461486041545868,-0.3237845003604889,0.3451426029205322,0.295141339302063,-0.5381326079368591,0.5934976935386658,0.21371130645275116,-0.16006915271282196,0.14063413441181183,0.08775750547647476,-0.029143115505576134,-0.2435157299041748,-0.1715836077928543,-0.5003960728645325,0.26822611689567566,0.7317953705787659,0.18266332149505615,-0.33949384093284607,-0.6658965945243835,0.14549711346626282,0.37406912446022034,1.2922643423080444,0.5212633609771729,0.34140869975090027,0.041676197201013565,-0.30129244923591614,0.6288277506828308,0.11088403314352036,-0.05374850332736969,0.5356904864311218,0.558128297328949,-0.32720693945884705,-0.333196759223938,-0.12815015017986298,-0.05919121578335762,0.12567155063152313,0.01871405728161335,0.6937101483345032,-0.12923893332481384,-0.7388665676116943,0.5360540747642517,-1.282840371131897,-0.5801776051521301,0.016633370891213417,0.6778185367584229,-0.6325966715812683,-0.05680612847208977,0.7763566374778748,-0.3906850814819336,-0.719193160533905,-0.5269110798835754,0.6592617630958557,-0.5420680046081543,-0.19162583351135254,-0.1302184760570526,-0.08481770008802414,0.0015845181187614799,-0.11171328276395798,0.09470847994089127,0.4219813346862793,-0.5480844974517822,0.2627081573009491,-0.4491739571094513,-0.062495190650224686,-0.13284488022327423,0.02904079295694828,0.7943220138549805,0.005889622028917074,0.1458076685667038,1.1106513738632202,-0.5702199935913086,-0.5590402483940125,-0.5376170873641968,-0.4751538336277008,0.4977928400039673,-0.5308589935302734,0.24718056619167328,-0.6644115447998047,-0.20693665742874146,0.4684727191925049,0.10945340245962143,0.007339517120271921,-0.06710147112607956,0.15044665336608887,0.5639020204544067,0.10878152400255203,0.09961292892694473,-0.14036788046360016,-0.18236584961414337,1.288712501525879,-0.4374069273471832,0.7312383651733398,0.2886127531528473,-0.3214148283004761,0.1621178537607193,-0.9219174981117249,-0.40584373474121094,0.3653494119644165,-0.42580685019493103,0.6696822643280029,-0.5577428936958313,0.5132749676704407,-0.6354416012763977,-0.3366098403930664,0.40625134110450745,0.6638935208320618,0.34282803535461426,0.5450987815856934,-0.06278593093156815,0.06304308772087097,-1.053109049797058,-0.10952192544937134,0.17184758186340332,-0.9294373393058777,-0.319405198097229,0.2748514711856842,-0.9161685109138489,-0.5613730549812317,1.3536256551742554,-0.21603094041347504,0.7912829518318176,0.9238600134849548,1.2289535999298096,-0.06589186936616898,-1.298230528831482,-0.12440931797027588,-0.2639009654521942,-0.45966020226478577,-0.7771306037902832,-0.2075541615486145,0.4463282525539398,0.1320476084947586,0.15797542035579681,-0.17951126396656036,-0.7701743245124817,-0.3283219635486603,0.3783125877380371,0.17068155109882355
chef,0.7075384855270386,-0.22442187368869781,0.2663145363330841,0.1136624813079834,0.7018024921417236,-0.25031787157058716,0.190932497382164,-0.043227553367614746,0.7649797201156616,-0.557040274143219,0.2871132791042328,-0.13760027289390564,-0.1340160071849823,-0.11205847561359406,-0.6712080240249634,0.09018974006175995,0.1737007349729538,0.2932693362236023,-0.3252986967563629,1.0176715850830078,-0.21293488144874573,-0.2421044111251831,-0.3829211890697479,0.15890677273273468,-0.3592756986618042,0.32346928119659424,-0.8898813724517822,0.6600690484046936,0.04401078075170517,-0.4454662799835205,0.6763993501663208,0.09135216474533081,0.05842617154121399,-0.2552034854888916,-0.37925171852111816,-0.20333382487297058,0.13884539902210236,0.5703751444816589,-0.5877724885940552,0.2019459307193756,0.3604501187801361,-0.058186277747154236,0.9744848608970642,-0.025731995701789856,0.12226185202598572,0.3196416199207306,0.52977454662323,0.04773731529712677,0.5711586475372314,-0.24772225320339203,-0.05967378243803978,0.013130858540534973,-0.3905223608016968,-0.5313921570777893,0.0896373838186264,0.568730890750885,-0.5889639258384705,-0.16717496514320374,0.10206886380910873,0.2895969748497009,-0.07534442842006683,0.8717942833900452,0.4052189886569977,-0.6394505500793457,0.19763723015785217,0.07618789374828339,-0.31344127655029297,-0.04734426736831665,-0.5294719934463501,0.28427746891975403,-0.03693144768476486,0.14216947555541992,-0.1405816674232483,-0.11438511312007904,0.18167315423488617,0.2293706238269806,-0.12343454360961914,0.2920452952384949,0.1547372043132782,0.5906471014022827,-0.1459484100341797,-0.7363077998161316,-0.11186856031417847,0.8890284299850464,0.10913170874118805,0.652496874332428,-0.5404014587402344,0.12429768592119217,0.09453319013118744,0.6002675294876099,-0.15598943829536438,-0.4375726580619812,0.14837300777435303,-0.16633646190166473,-0.05297234654426575,-0.017366155982017517,0.7098662257194519,-0.614595890045166,0.5414507985115051,0.10472039133310318,0.5095716714859009,0.2684686779975891,-0.12104087322950363,0.7988992929458618,-0.7425438165664673,-0.3518560230731964,-0.5072530508041382,0.6954209804534912,0.27903735637664795,-0.18174190819263458,-0.5126227736473083,-0.41512855887413025,-0.1636897474527359,-0.9212261438369751,-0.3466518223285675,0.2799004018306732,0.17452329397201538,-0.4058489501476288,0.1861148625612259,-0.5199486017227173,-0.11157024651765823,0.319175660610199,0.18260076642036438,1.3255897760391235,0.3945181965827942,-0.596799910068512,0.34438517689704895,0.12362248450517654,-0.45270538330078125,-0.5990398526191711,0.06900569051504135,0.4606144428253174,0.12469928711652756,-0.08095532655715942,-0.5801247358322144,-0.35724517703056335,-0.05884365737438202,-0.1457236111164093,-0.42039522528648376,-0.08148536831140518,-0.17082950472831726,0.7746250629425049,0.02937658503651619,0.5001183152198792,0.11967146396636963,-0.1250278651714325,-0.29862654209136963,-0.7494352459907532,0.5547582507133484,-0.5794311165809631,0.05683290958404541,0.2904028594493866,-0.10366862267255783,-1.1465275287628174,0.26410341262817383,0.5846318006515503,0.7437946796417236,0.2568971812725067,0.0672977939248085,-0.2126632183790207,0.32596343755722046,0.33834436535835266,0.1963324397802353,0.37681177258491516,0.23045194149017334,-0.5276793837547302,-0.3370775282382965,0.4989720284938812,-0.20518988370895386,0.3896804451942444,-0.3742668628692627,-0.010017374530434608,0.7836652994155884,0.10175324976444244,0.6398451328277588,0.18253710865974426,-0.1373119056224823,0.04308834671974182,0.5750021934509277,0.4832592308521271,-0.08928339183330536,0.2312365472316742,0.2868765890598297,-0.5858049392700195,1.1073453426361084,-0.026885390281677246,0.5990448594093323,-0.15022297203540802,0.24721720814704895,0.8712816834449768,-0.32389238476753235,-0.6948911547660828,-0.5403009057044983,0.20524361729621887,0.7113423347473145,0.32475975155830383,-0.3019980788230896,0.2942683696746826,-0.35589534044265747,-0.30368465185165405,-0.7061182856559753,-0.5892032384872437,0.08629107475280762,0.2276301234960556,-0.7804107666015625,0.48316916823387146,0.6090928316116333,-0.2574814558029175,0.3930997848510742,-0.10648082196712494,-0.18502438068389893,0.6699149012565613,0.20153218507766724,-0.16208156943321228,-0.32216355204582214,0.18386998772621155,-0.2304220348596573,-1.043073058128357,0.48666542768478394,-0.12737956643104553,0.48309385776519775,0.3717321753501892,-0.5675667524337769,0.8779338598251343,-0.9348855018615723,1.029803991317749,0.3756876289844513,0.09396650642156601,0.2919104993343353,0.8183735013008118,0.3881898522377014,0.5123841166496277,-0.09278842806816101,0.5201677083969116,0.2698473036289215,-0.21786728501319885,-0.25601089000701904,0.13856881856918335,0.668302595615387,0.43479764461517334,-0.5338940024375916,-0.19526170194149017,0.02609363943338394,0.35833778977394104,-0.436421662569046,0.9249938726425171,0.09658315777778625,-0.03553875908255577,0.13206681609153748,-0.5050996541976929,0.18563181161880493,0.053531013429164886,0.2314687818288803,-0.5446454286575317,0.2536811828613281,0.016620106995105743,0.11694566160440445,0.35958635807037354,-0.2226676344871521,0.5166248679161072,-0.29629677534103394,0.3696914315223694,0.8420538306236267,-0.28119105100631714,-0.72646564245224,-0.15497225522994995,-0.2867750823497772,0.26479920744895935,0.6211369633674622,-0.011340953409671783,-0.19398647546768188,-0.7119302153587341,-0.34868380427360535,-0.1951589584350586,-1.0022398233413696,-0.2937622666358948,0.2925276756286621,0.12879528105258942,0.6519477963447571,-0.8352168202400208,0.40760722756385803,0.6280640363693237,0.11306564509868622,0.13352125883102417,-0.5726869106292725,-0.5122907161712646,-0.05074835568666458,-0.019163325428962708,-0.4647639989852905,-0.4899076223373413,-0.14145053923130035,0.4450629949569702,-1.1648623943328857,-1.1615865230560303,0.5334529280662537,-0.24632659554481506,0.43479108810424805,-0.3734890818595886,0.8358458280563354,-0.017910942435264587,0.4626707136631012,-0.2567852735519409,0.0017029047012329102,0.35730743408203125,0.05754557251930237,0.43834367394447327,-0.11470405757427216,0.3306656777858734,-5.215575695037842,-0.7308178544044495,-0.30433234572410583,0.18815019726753235,0.4693375825881958,-0.089657261967659,-0.40698862075805664,-0.40993359684944153,-0.3051477074623108,0.2310003638267517,-0.5227692127227783,-0.7530715465545654,0.5418756008148193,0.3039911985397339,-0.2951381802558899,0.4051659405231476,-0.3913886249065399,0.0015739649534225464,-0.1421385258436203,0.5736667513847351,0.6960784792900085,-0.1907651573419571,-0.05633120238780975,0.11503365635871887,0.05131810903549194,0.5804324746131897,-0.26947975158691406,0.5598030686378479,-1.1619313955307007,-0.023558907210826874,0.46175214648246765,-0.010058924555778503,0.15204715728759766,-0.21300218999385834,0.3263774514198303,0.311510294675827,-0.40322139859199524,0.05403321236371994,0.2874497175216675,-0.22785593569278717,0.5062275528907776,0.48203209042549133,-0.4216507375240326,0.27314522862434387,1.0266762971878052,-0.38460883498191833,-0.41767990589141846,-0.2941395342350006,0.35224252939224243,0.08446003496646881,-0.28622671961784363,0.02634332701563835,-0.0860055536031723,0.5381032228469849,0.45560893416404724,-0.18420925736427307,0.17737174034118652,0.4287107586860657,0.4082787334918976,-0.3958771228790283,-0.2326485961675644,-0.025182917714118958,-0.34994861483573914,0.09899076819419861,0.07752224802970886,0.044233985245227814,-0.11434821784496307,-0.2343001365661621,-0.31800153851509094,-0.059721939265728,0.01564778946340084,-0.7702714800834656,0.2655610740184784,-1.2415318489074707,-0.7229255437850952,-0.1814267933368683,0.23008842766284943,0.18514245748519897,-0.4078051745891571,-0.5684884190559387,0.4163666367530823,-0.4517916738986969,0.06098730117082596,-0.5796290636062622,0.14701741933822632,-0.7452083826065063,-0.8580207228660583,-0.3492583930492401,-0.31365928053855896,0.5798571109771729,0.7477734088897705,0.4798780679702759,0.8482769131660461,-0.05811391398310661,-0.3033549189567566,0.9534991979598999,-0.4969790279865265,0.12616565823554993,0.10172080248594284,-0.3612323999404907,-0.7307025194168091,-0.42115646600723267,1.2758548259735107,-0.1295892894268036,0.8150390386581421,-0.26120224595069885,0.44433391094207764,-0.060949262231588364,-0.269840806722641,0.6552494168281555,-0.014670252799987793,-0.5921645164489746,-0.2483389526605606,0.21023814380168915,-0.3674008250236511,-0.2646380364894867,0.2781575620174408,0.4558338224887848,-0.2961917221546173,0.30514490604400635,0.06315883249044418,0.54727703332901,-0.0019224882125854492,-0.056778524070978165,-0.8866867423057556,0.056838709861040115,0.3019285500049591,-0.22206442058086395,0.40717658400535583,0.15932467579841614,-0.13335411250591278,-0.34916311502456665,0.6457656621932983,-0.060875337570905685,0.17365258932113647,0.45846760272979736,0.5799244046211243,-0.7062721848487854,-0.9311124682426453,0.38006266951560974,0.2507294714450836,0.38702982664108276,-0.4948999881744385,0.32858172059059143,-0.29455116391181946,0.5743204355239868,-0.23337583243846893,0.32176387310028076,0.047106627374887466,0.5363669395446777,-0.952599287033081,0.3566267788410187,0.41250038146972656,-0.13673824071884155,0.0430530309677124,-0.787229597568512,0.7155839800834656,-0.32166457176208496,-0.36662915349006653,0.15978991985321045,0.08372314274311066,-0.34238922595977783,-0.12219659984111786,0.6744216084480286,-0.631725549697876,0.03386664018034935,-0.38227611780166626,0.3460945785045624,-0.25387126207351685,0.7680075168609619,-0.24305564165115356,0.5139080882072449,0.3687479496002197,0.49384135007858276,-0.7927895784378052,-0.48892921209335327,-0.29316315054893494,0.5909856557846069,-0.7108020782470703,0.8138857483863831,0.1658356487751007,-0.24332791566848755,0.3203059434890747,-0.05922640860080719,-0.2799382507801056,-0.7473376989364624,-0.461030513048172,-0.2127109318971634,-0.03818817064166069,-0.19370076060295105,-0.9521710872650146,0.34403032064437866,-0.2572232484817505,0.03920669108629227,-0.0549754835665226,-1.0702145099639893,-0.07443162798881531,0.2700786590576172,0.4953797161579132,-0.21767936646938324,0.1023263931274414,0.5168609619140625,-0.1225304901599884,0.05802179127931595,0.59676194190979,0.23868265748023987,0.23509693145751953,-0.08010368049144745,-0.4246833324432373,0.7075365781784058,-1.064141869544983,-1.0645198822021484,0.4517116844654083,-0.6454192399978638,-0.023660868406295776,0.44241857528686523,0.16022270917892456,0.10731799900531769,-0.3660745620727539,0.13735871016979218,-0.28302520513534546,0.1735694259405136,-0.762748658657074,0.09733839333057404,-0.7327123284339905,-0.34449243545532227,-0.15412844717502594,0.7075605988502502,-1.4280675649642944,0.09369906783103943,-0.4443243741989136,0.01233750581741333,-0.30401843786239624,-0.1982164978981018,0.3237231373786926,0.35765376687049866,0.5757321119308472,-0.36460405588150024,0.4614750146865845,0.16745391488075256,-0.28189003467559814,0.05714549496769905,0.36233294010162354,0.1453063189983368,-0.31016767024993896,-0.5307234525680542,-0.14337994158267975,-0.013777587562799454,-0.1905384659767151,0.14723895490169525,0.1788991391658783,-0.13063077628612518,-0.4090515971183777,-0.4390396475791931,-0.0992482379078865,-0.7690483927726746,0.18867474794387817,0.44033101201057434,-0.24683326482772827,-0.14513102173805237,-0.18316052854061127,0.09607641398906708,0.12759248912334442,0.7430242896080017,-0.2733699381351471,0.08252962678670883,0.37965476512908936,0.24028877913951874,-0.07007730007171631,0.029125023633241653,0.39817824959754944,-0.6199141144752502,0.2471129596233368,-0.45512863993644714,0.6681511402130127,-0.12588411569595337,-0.2971666157245636,-0.0965607538819313,0.7064082026481628,-0.19311626255512238,0.048505332320928574,0.26117733120918274,0.45420172810554504,0.23354032635688782,-0.2899278402328491,0.07005847990512848,-0.4954845607280731,0.39400535821914673,-0.2334253340959549,0.6095911860466003,0.27134647965431213,0.19304588437080383,0.9231489300727844,-0.29081991314888,0.05815829336643219,0.46966353058815,-0.03462707996368408,0.15273013710975647,-0.5741956233978271,0.02722993679344654,-0.7328383326530457,-0.6114358901977539,-0.4196716845035553,0.09413675218820572,-0.4069770574569702,-0.06762060523033142,0.13968899846076965,-1.0527845621109009,-0.378028929233551,-0.10916482657194138,-0.014279264956712723,-0.8184980154037476,0.5950753688812256,-0.1614130437374115,-0.2272685170173645,0.017409324645996094,-0.13210192322731018,0.5060855746269226,-0.8149418234825134,-0.08734364062547684,0.005129938945174217,-0.4333665370941162,0.15829747915267944,-0.08897656202316284,0.4291849732398987,0.6339904069900513,-0.4523814916610718,0.2355230450630188,-0.5303424000740051,-0.9133186936378479,-0.3398606777191162,0.4367682635784149,-0.2696532905101776,0.11815866827964783,-0.5363157987594604,-0.02368752658367157,-0.05964968353509903,0.3942899703979492,-0.13974587619304657,0.6157288551330566,0.2501416504383087,0.3514336347579956,-0.07737213373184204,0.5228238701820374,0.021623559296131134,-0.1179962307214737,-0.3610224723815918,-0.3329593241214752,0.8545076847076416,0.2050095945596695,-0.16730085015296936,0.1744171530008316,0.3705092668533325,-0.2974245548248291,-0.4792325496673584,0.3361702263355255,-0.49060219526290894,-0.09633199125528336,-0.9151777029037476,-0.3117375373840332,-0.2986440360546112,0.15771347284317017,0.6290523409843445,-0.8887493014335632,0.25282022356987,0.2600027024745941,-0.8252079486846924,-0.03870983049273491,-0.2505454123020172,0.4790237843990326,0.3289240002632141,-0.7612741589546204,0.41465678811073303,0.09674519300460815,-0.09927505254745483,0.048136401921510696,-0.2558249831199646,-0.005712516605854034,0.28745129704475403,0.37162327766418457,0.775526225566864,-0.4317634701728821,-0.6326051354408264,-0.09852303564548492,-0.3013336956501007,0.6421094536781311,-0.1817779690027237,-0.328093022108078,-0.37402796745300293,-0.2066834419965744,0.134109228849411,0.572869062423706,0.1747511625289917,-0.4670964479446411,-0.1415041983127594,-0.4487285614013672,-0.03510133922100067,-0.40383580327033997,0.07954858243465424,-0.541476845741272,0.30192285776138306,0.05043967440724373,-0.12564733624458313,-0.35768747329711914,0.02766537480056286,0.9339262247085571,0.2537226676940918,0.10821393877267838,-0.5731193423271179,-0.898726224899292,0.08710399270057678,0.18424591422080994,-0.16677150130271912,-0.27275392413139343,0.22543023526668549,-0.47823333740234375,-0.31229960918426514,-0.12277371436357498,-0.024955561384558678,0.04134751856327057,-0.483104944229126,1.0268806219100952,-0.17520971596240997,0.16969937086105347,0.0871710479259491,-0.12481853365898132,-0.22300264239311218,-0.20828044414520264,0.29730215668678284,-0.1285768300294876,0.15662546455860138,0.1271207630634308,-0.6607710123062134,-0.46114581823349,-0.015693292021751404,-0.007882460951805115,0.44438913464546204,-0.12947621941566467,0.0992654487490654,-0.5308012962341309,0.5556972622871399,0.45502564311027527,0.14828677475452423,0.3825596272945404,-0.9867663383483887,-0.33252769708633423,-0.4143918752670288,-0.36654746532440186,0.13351091742515564,0.02984861470758915,0.1547187864780426,-0.01715790666639805,0.5445892214775085,0.15335294604301453,0.1437060534954071,0.4830319881439209,-0.4009909927845001,-0.4488292336463928,0.4607692062854767,0.15497271716594696
dentist,0.25010615587234497,0.09172944724559784,0.10353256016969681,-0.08073657751083374,0.8140936493873596,0.057853639125823975,0.4130469858646393,0.6809131503105164,0.5881367921829224,-0.23714196681976318,0.20046913623809814,0.1755335032939911,0.24230444431304932,0.03716046363115311,-0.251609206199646,0.29507651925086975,-0.08596428483724594,0.20821388065814972,0.167206808924675,0.5877365469932556,-0.2430524080991745,-0.19056715071201324,-0.2856414020061493,0.05946426838636398,-0.39353129267692566,0.37767213582992554,-0.326650470495224,1.0376781225204468,-0.22546496987342834,-0.6929505467414856,0.3827209770679474,0.07532976567745209,-0.35137805342674255,-0.028636425733566284,0.2345762401819229,-0.3399510383605957,0.1515747606754303,0.4452464282512665,-0.9320774674415588,0.24610978364944458,-0.04148454964160919,-0.41620972752571106,0.2737942636013031,0.6856415271759033,-0.1325945407152176,0.4270114004611969,0.13866984844207764,0.1299179643392563,0.6176026463508606,-0.5338620543479919,-0.1861708164215088,0.015365762636065483,-0.06525613367557526,-0.27504071593284607,0.339810848236084,0.009340163320302963,0.1032167449593544,-0.028675783425569534,-0.1983775794506073,-0.09334003925323486,0.005476146936416626,0.19390174746513367,0.4310762882232666,-0.34330734610557556,0.4298916757106781,0.1375947892665863,-0.21759317815303802,0.05448498949408531,-0.4815341532230377,0.04687787592411041,0.4345192313194275,0.605789840221405,-0.15180739760398865,-0.23857475817203522,0.12849898636341095,0.08412254601716995,-0.6704814434051514,-0.16777215898036957,0.14897269010543823,0.6155208349227905,-0.36886924505233765,-0.5952749252319336,0.2837749421596527,0.3047431409358978,0.3468123972415924,-0.18996399641036987,0.2246229648590088,0.4609943926334381,0.3698112368583679,0.20971715450286865,-0.28059306740760803,-0.3136349022388458,-0.30165398120880127,-0.06760433316230774,-0.29020702838897705,-0.4679426848888397,0.2896552085876465,-0.5497702360153198,0.05855852738022804,-0.16264280676841736,0.8714025020599365,-0.437209814786911,-0.26749494671821594,0.29565560817718506,-0.393978476524353,-0.41261693835258484,-0.21680304408073425,0.33546486496925354,0.09174984693527222,0.3274732828140259,-0.38852962851524353,0.010868169367313385,0.2598942816257477,-0.8798909187316895,-0.3290257751941681,0.5564377903938293,-0.16628241539001465,-1.0035107135772705,-0.1425948143005371,-0.1880536526441574,-0.17126119136810303,0.31266021728515625,0.31800782680511475,0.8654242753982544,0.12230658531188965,0.1496758610010147,0.09924143552780151,0.17756517231464386,-0.2670583724975586,0.051625773310661316,0.42052388191223145,-0.03353629633784294,0.19588036835193634,-0.3562995493412018,-0.08497020602226257,-0.6144397258758545,-0.29143187403678894,-0.19558067619800568,-0.4588587284088135,0.21849656105041504,0.4841559827327728,0.5866608023643494,-0.03704681247472763,0.5748573541641235,0.16119544208049774,-0.11396929621696472,-0.5061647891998291,-0.0472438707947731,-0.2295318841934204,-0.032709259539842606,-0.09187176823616028,0.5475743412971497,-0.10870399326086044,-0.9381733536720276,0.1929730623960495,0.5391616821289062,0.32014355063438416,0.09006775170564651,-0.12180238962173462,0.2767688035964966,0.6130321025848389,-0.3213646709918976,-0.2728060781955719,0.8158928155899048,-0.44729408621788025,-0.40972673892974854,-0.5610203742980957,-0.00779937207698822,-0.2428244948387146,0.2759554982185364,-0.626694917678833,0.18443581461906433,0.7465237379074097,-0.0793229341506958,0.36316370964050293,0.26323404908180237,0.2442885935306549,-0.0019523650407791138,0.5212037563323975,-0.1421375870704651,-0.03523637354373932,1.0112028121948242,-0.3533042073249817,-0.1909785270690918,0.7883769273757935,-0.19574180245399475,0.925337553024292,0.359122633934021,-0.1456666737794876,0.04560169577598572,-0.31092941761016846,-0.976031482219696,-0.5763154625892639,0.31063899397850037,0.5544991493225098,0.19497747719287872,-0.6431400775909424,0.051415786147117615,-0.8914825320243835,-0.3059402108192444,0.04474128782749176,-0.6867613196372986,0.09791256487369537,0.4004162847995758,-0.638134241104126,-0.05333543196320534,0.0019379109144210815,-0.06180312857031822,0.4459322690963745,0.23487180471420288,-0.5395745038986206,0.026135265827178955,-0.34321531653404236,-0.013821974396705627,-0.19303269684314728,0.18443718552589417,-0.5026271939277649,-0.7554121017456055,0.7873565554618835,-0.3134617805480957,0.39230072498321533,-0.47549569606781006,-0.5265665650367737,0.19896745681762695,-0.37434837222099304,0.8344117403030396,0.3792440891265869,-0.24323788285255432,0.05992046743631363,0.3355908691883087,0.5328655242919922,0.8228079676628113,0.24078413844108582,0.4334593415260315,0.14718952775001526,-0.019725406542420387,-0.34696272015571594,-0.19018176198005676,0.35771721601486206,0.2082647979259491,-0.637656033039093,-0.3847096562385559,0.4832262396812439,0.7694323062896729,0.1590823084115982,0.7669366002082825,-0.3779582381248474,0.1771371066570282,0.0680977925658226,-0.34321486949920654,-0.39680391550064087,-0.13924968242645264,-0.12302473187446594,-0.0021755732595920563,0.7925922274589539,-0.11640775203704834,-0.06664206087589264,0.1154012456536293,-0.014763390645384789,0.1702413111925125,-0.4365806579589844,0.31534522771835327,1.1979358196258545,0.0921400636434555,-0.5202182531356812,-0.20086327195167542,-0.08463022112846375,0.25632256269454956,0.25646451115608215,0.5469632148742676,-0.25142696499824524,-0.22196541726589203,-0.13543613255023956,0.08242174237966537,-0.4753645956516266,-0.1679191291332245,0.46650534868240356,0.1703551709651947,0.4013683497905731,-0.6442453265190125,-0.014703318476676941,0.8436427116394043,-0.2871953248977661,-0.22416383028030396,-0.4516957700252533,-0.15131860971450806,0.05368437618017197,0.9168654084205627,-0.3001219630241394,-0.33117687702178955,-0.19823876023292542,0.6500551700592041,-0.5410313606262207,-0.8741950988769531,0.7923625111579895,0.15814979374408722,0.11399262398481369,-0.428394615650177,0.4254792034626007,-0.6297460198402405,0.7919095158576965,-0.15279558300971985,0.1970175802707672,-0.04308877885341644,0.14790084958076477,0.30179062485694885,0.018482094630599022,-0.36414334177970886,-5.661705017089844,-0.37512272596359253,-0.9441694617271423,-0.21479162573814392,0.4960241913795471,-0.31570959091186523,-0.3165225386619568,0.4192764163017273,-0.6191509962081909,0.21076956391334534,-0.1996210813522339,-0.3638862073421478,0.004032149910926819,0.2670965790748596,-0.02832452766597271,-0.17229732871055603,-0.17271488904953003,0.20149850845336914,-0.2509382963180542,0.4369315207004547,0.3897005021572113,-0.9251360893249512,0.12924465537071228,0.04419996961951256,0.027730822563171387,1.3533339500427246,-0.5188634991645813,0.2148619294166565,-0.48225125670433044,0.14670270681381226,0.032339952886104584,0.38564765453338623,0.06732496619224548,0.3782190978527069,0.25200149416923523,0.3355778753757477,-0.3870599567890167,0.16345462203025818,0.5463507175445557,-0.8073635697364807,0.14136429131031036,0.4466188848018646,-0.07179566472768784,0.6134524941444397,0.5135146975517273,-0.3085829019546509,-0.22808733582496643,0.6168712973594666,0.0010827817022800446,0.5324259400367737,-0.2848614454269409,0.3241749703884125,-0.1678716093301773,0.6609798669815063,-0.012592874467372894,0.09766791015863419,-0.12245781719684601,0.5827726721763611,-0.5654294490814209,-0.6748018264770508,-0.32748499512672424,-0.07877806574106216,-0.3098496198654175,-0.2865387499332428,-0.30313587188720703,0.10151316970586777,-0.3270382881164551,-0.8735706210136414,-0.69267338514328,0.04333772510290146,-0.26063215732574463,-1.0014930963516235,-0.4343971908092499,-1.035366177558899,-0.7289776802062988,-0.2639046907424927,-0.10988043248653412,-0.08298197388648987,-0.21590359508991241,0.27799534797668457,-0.025306522846221924,-0.35617297887802124,0.5577720999717712,-0.39461463689804077,0.05245461314916611,-0.4897429347038269,-0.06755410134792328,-0.22454439103603363,-0.053088124841451645,0.1950378715991974,0.27365726232528687,0.476123571395874,0.18265381455421448,-0.33591440320014954,-0.42945292592048645,-0.1648249477148056,-0.46096473932266235,0.42986756563186646,0.8861432671546936,-0.3463401794433594,-0.03027605265378952,-0.5199000239372253,0.6220645904541016,0.15758934617042542,0.028135765343904495,-0.24110274016857147,-0.2523818016052246,-0.04100820794701576,-0.5992894172668457,0.24265199899673462,0.36718907952308655,-0.7634305357933044,0.5607643127441406,-0.2653898298740387,-0.06866467744112015,-0.15616124868392944,0.44340115785598755,0.04679369553923607,0.32394838333129883,-0.35662180185317993,-0.004170805215835571,0.33973562717437744,0.4189518094062805,0.13781724870204926,-0.5364564657211304,0.44333383440971375,0.49476078152656555,0.2533532977104187,0.37163233757019043,0.36531132459640503,0.30791547894477844,-0.007459755055606365,0.549480676651001,-0.10284583270549774,0.18611201643943787,0.4738461673259735,0.1484139859676361,-0.6172999739646912,-0.6555871963500977,0.18338796496391296,0.5683436393737793,0.2120726853609085,0.02007671818137169,-0.03626009076833725,0.8742696046829224,0.06842979788780212,-0.6490029096603394,0.1897968053817749,0.2945397198200226,0.5303136706352234,-0.6614048480987549,0.12431856989860535,-0.052931707352399826,-0.2005261778831482,0.47399139404296875,-0.4065619707107544,0.8588418364524841,-0.390921950340271,-0.6290146112442017,-0.12862297892570496,0.060170646756887436,-0.3863251209259033,0.615505576133728,0.36755529046058655,-0.6328006386756897,0.23679354786872864,-0.20542067289352417,0.6282585859298706,-0.15236309170722961,0.19696059823036194,0.03395223245024681,0.39805757999420166,0.3467300236225128,0.5656901597976685,-0.6157714128494263,0.16894029080867767,-0.1767517477273941,0.887908399105072,0.10323617607355118,0.23632606863975525,0.44701385498046875,-0.47909796237945557,0.1257636845111847,-0.6283785104751587,0.3948656916618347,-0.5601562261581421,-0.6613956093788147,-0.35224226117134094,-0.2109127789735794,0.12253916263580322,-0.5199925303459167,0.23768222332000732,0.01837865263223648,0.08590281009674072,0.002356484532356262,-0.7883139848709106,-0.124782033264637,0.28963702917099,0.34700727462768555,0.4206615388393402,-0.35604676604270935,0.36731287837028503,-0.3704874813556671,-0.15072688460350037,-0.3748589754104614,0.45952120423316956,0.015422210097312927,0.061238035559654236,-0.7606309652328491,0.5272729396820068,-0.2060748040676117,-0.1818244755268097,-0.09862090647220612,-0.35918647050857544,-0.01831343024969101,0.01964840292930603,0.3099694848060608,0.3486379384994507,-0.27442029118537903,0.2636219263076782,0.049816280603408813,0.11514700949192047,-1.103270411491394,0.17409300804138184,-1.217064619064331,0.0770416334271431,-0.19528469443321228,0.26786375045776367,-0.9809280633926392,0.03292416036128998,-0.423326313495636,-0.5795040130615234,-0.25576770305633545,0.09400487691164017,0.579490065574646,0.3977877199649811,0.0386679582297802,-0.30266883969306946,0.2338324338197708,-0.13576945662498474,-0.3448827266693115,0.38098469376564026,-0.34719958901405334,0.3242836892604828,-0.278253972530365,0.11412937194108963,0.46698546409606934,-0.12951362133026123,-0.040823884308338165,0.4955439567565918,-0.023930218070745468,-0.16850803792476654,0.06099622696638107,-0.3505166172981262,-0.0018191365525126457,-0.49333515763282776,-0.390738308429718,-0.050333403050899506,-0.19772878289222717,0.3931715786457062,-0.050602130591869354,0.17381884157657623,0.22270098328590393,0.010014508850872517,0.2910059094429016,0.28144729137420654,0.038859978318214417,0.08140845596790314,-0.20512312650680542,-0.13512012362480164,0.31564775109291077,-0.46550244092941284,0.353505402803421,-0.41234439611434937,0.3514643609523773,-0.20386503636837006,-0.24557512998580933,-0.31050124764442444,0.7910407185554504,0.07869057357311249,-0.45129477977752686,0.5144627094268799,-0.3188956379890442,0.14818160235881805,-0.8198608756065369,0.412455290555954,-0.4630858898162842,0.593199610710144,-0.4651608169078827,0.6868088841438293,0.3411276042461395,0.24964384734630585,-0.06964781135320663,0.7005913853645325,-0.3120192289352417,0.8649710416793823,0.13872814178466797,0.16211263835430145,-0.0030784159898757935,0.07175123691558838,-0.34460851550102234,0.5664758682250977,-0.3077889680862427,-0.05432528257369995,-0.47646811604499817,-0.06409814208745956,0.032750342041254044,-0.60317462682724,0.18029047548770905,0.4273574948310852,-0.0660061165690422,-0.4659641981124878,0.4447329342365265,0.015889478847384453,-0.5727649927139282,-0.08326108753681183,0.17680659890174866,0.7154111862182617,-0.6433180570602417,-0.22080890834331512,-0.3409484624862671,-0.07738281041383743,0.10844455659389496,-0.45634275674819946,0.12809880077838898,-0.07335024327039719,0.1174609512090683,0.7102660536766052,0.4239455461502075,-0.2774045467376709,0.46235284209251404,0.5179716348648071,0.5618148446083069,-0.06107279658317566,0.29154282808303833,-0.2325410395860672,0.2271871715784073,0.4083265960216522,0.2540092468261719,-0.26703882217407227,0.009050533175468445,0.5839311480522156,-0.8329249620437622,0.8129651546478271,0.16336756944656372,-0.3418952524662018,0.2411969006061554,-0.08724452555179596,0.30710887908935547,-0.2387387752532959,-0.12206465750932693,-0.5523303747177124,0.19219717383384705,-0.329770028591156,-0.23940975964069366,0.09388284385204315,-0.28431832790374756,-0.18915273249149323,-0.6709088087081909,0.3386586308479309,-0.14610004425048828,-0.20891514420509338,0.2907640039920807,-0.5540886521339417,-0.21138343214988708,0.02813933975994587,-0.2393566370010376,-0.639382004737854,0.4571913778781891,0.42449426651000977,-0.12054656445980072,-0.4464549422264099,0.29210302233695984,0.627468466758728,-0.4037374258041382,-0.3640892803668976,-0.1944698691368103,-0.4560249149799347,0.2604483962059021,0.7332593202590942,0.619437575340271,-0.0008887350559234619,-0.4242355525493622,0.2324921190738678,-0.11665773391723633,-0.01191171258687973,0.25942081212997437,-0.05645120143890381,0.31809020042419434,-0.028160104528069496,-0.35520148277282715,0.6232518553733826,-0.5866055488586426,-0.3687417507171631,0.03529222309589386,-0.1172899380326271,0.12853184342384338,-0.7390057444572449,0.12908534705638885,-0.3902876377105713,-0.09129871428012848,0.2957078814506531,0.15664023160934448,-0.23257377743721008,0.012525944970548153,-0.04355722665786743,0.29851487278938293,-0.1068997010588646,0.0002238042652606964,-0.44117873907089233,0.4269765615463257,0.7248310446739197,-0.2109968066215515,0.03329678624868393,0.333753377199173,-0.568847119808197,-0.2898961901664734,-0.7456063032150269,0.015466069802641869,-0.24363428354263306,-0.2834949493408203,0.25831764936447144,-0.08772063255310059,-0.2914171516895294,-0.18543323874473572,-0.1665607988834381,0.13231372833251953,0.10748254507780075,0.3366103768348694,-0.1421416997909546,-0.27234333753585815,0.01634826511144638,-0.15679900348186493,-0.4639773368835449,0.2009945958852768,-0.33469468355178833,0.23778170347213745,0.04828871786594391,0.24834157526493073,-0.6996261477470398,0.3869229853153229,-0.15324410796165466,0.3483293354511261,0.049405019730329514,0.2977394163608551,-0.4965193271636963,-0.5539200901985168,-0.6280316710472107,0.23204687237739563,-0.5638322830200195,-0.3091423213481903,0.07493318617343903,0.18063566088676453,0.053749725222587585,-0.05132528021931648,0.2005603313446045,-0.6321662068367004,-0.03465494513511658,0.2729738652706146,-0.07948260009288788
maid,0.24556557834148407,-0.3080061972141266,0.46893271803855896,-0.2875022292137146,0.8199389576911926,-0.27390480041503906,1.130843997001648,-0.4084068238735199,0.24211402237415314,-0.6490738987922668,0.2779776453971863,-0.866463840007782,0.33709782361984253,0.05533628165721893,-1.123880386352539,-0.12659448385238647,0.1139071136713028,-0.2710247337818146,-0.004194068722426891,0.5349358320236206,-0.5066855549812317,0.43895432353019714,-0.29050129652023315,-0.19794310629367828,-0.2823983430862427,0.1864147186279297,-0.27791184186935425,0.7814007997512817,-0.06675069779157639,-0.14842388033866882,0.5717445611953735,0.04720871523022652,0.210296630859375,0.255622535943985,-0.5691515803337097,-0.05301819369196892,0.10752539336681366,0.5940414071083069,-0.5156660676002502,-0.25271713733673096,-0.7751317024230957,-0.5295422673225403,0.529631495475769,0.35910555720329285,-0.24811801314353943,0.20058389008045197,0.7629446983337402,-0.1959521770477295,0.12376639991998672,0.13964995741844177,-0.5617855191230774,0.712984561920166,0.6297647953033447,-0.5699624419212341,0.3285302519798279,1.1346869468688965,-0.4390263855457306,-0.4330834746360779,-0.3180181086063385,-0.12469760328531265,-0.5080175399780273,0.3860699236392975,0.238798588514328,-0.9566453695297241,0.07601965963840485,0.7060782313346863,0.2055380493402481,0.4506101906299591,-0.5353034734725952,0.2117721438407898,0.3825528621673584,0.27865204215049744,-0.02194196730852127,-0.137760728597641,-0.654662013053894,0.0029674991965293884,-0.820113480091095,-0.2869287431240082,0.05485406517982483,0.20961323380470276,-0.7965653538703918,0.11821050941944122,0.17690438032150269,1.0013272762298584,-0.25819581747055054,0.16729524731636047,-0.32803353667259216,0.43811631202697754,-0.09300141036510468,0.3018873333930969,-0.2170311063528061,-0.4479828178882599,-0.5167949199676514,-0.26016637682914734,-0.04243076965212822,-0.24411872029304504,0.9283910989761353,-0.3024463355541229,-0.04723796248435974,0.4335808753967285,1.2146217823028564,-0.24347691237926483,0.3438986837863922,0.547244668006897,-0.6949188709259033,-0.6251592040061951,-0.47637754678726196,-0.0011703893542289734,0.17081443965435028,0.28161728382110596,0.27668291330337524,-0.2626274824142456,0.029385603964328766,-0.8704737424850464,0.06262065470218658,0.6556817293167114,-0.4923441410064697,-0.6090697050094604,0.2843864858150482,0.15450945496559143,0.8612798452377319,-0.29190343618392944,0.2560376226902008,1.0111465454101562,0.10880300402641296,0.124433234333992,0.42024579644203186,0.3728448748588562,-0.2223236858844757,-0.16725921630859375,0.29514190554618835,0.17199723422527313,0.00778380548581481,-0.3094945251941681,-0.4070413410663605,-0.7551647424697876,-0.10483431816101074,-0.20488521456718445,-1.0180243253707886,0.5044218897819519,0.06899751722812653,1.1454832553863525,0.6883343458175659,-0.06390020251274109,0.07392674684524536,0.524865448474884,-0.2559964060783386,-0.5475425720214844,0.20598188042640686,-0.6180555820465088,0.27884259819984436,0.3163130581378937,0.07555148750543594,0.161566823720932,0.1028425395488739,-0.04412151873111725,0.3052736818790436,0.447793573141098,-0.3936488926410675,0.11080560088157654,-0.2750999331474304,-0.05694316700100899,-0.09275307506322861,0.2547825872898102,-0.0539393424987793,0.10337216407060623,-0.4401059150695801,0.8381825685501099,-0.2765740156173706,-0.2627800703048706,-0.30814698338508606,0.05321483314037323,0.6178747415542603,-0.4200823903083801,0.538441002368927,0.34533247351646423,0.1320400983095169,0.38084647059440613,0.9091830253601074,0.38357266783714294,0.20288971066474915,0.11369222402572632,0.17152650654315948,-0.04523587226867676,1.303706169128418,0.24328511953353882,0.3635459840297699,-0.35056111216545105,0.3799251616001129,-0.1949021816253662,0.20877017080783844,-0.09869951754808426,-0.8811466097831726,0.1960321068763733,0.2800111174583435,0.12038567662239075,-0.28944218158721924,-0.028372935950756073,-0.7891438603401184,-0.21668541431427002,-0.27779409289360046,-0.7122688889503479,-0.16521430015563965,0.47672492265701294,-0.5505621433258057,0.34368932247161865,0.3021271526813507,0.07802923768758774,0.5118481516838074,0.3424527943134308,-0.7805837392807007,0.07314154505729675,0.07094200700521469,-0.12835584580898285,-0.010995699092745781,-0.11748786270618439,-0.0023458413779735565,0.00710345059633255,0.9357523918151855,-0.05642759054899216,0.33195316791534424,0.032545074820518494,-0.42740628123283386,0.5123274326324463,-0.7203842401504517,1.344731092453003,0.11079083383083344,-0.34743350744247437,0.08940308541059494,0.875391960144043,0.5738616585731506,0.16117256879806519,0.1159876212477684,0.43435996770858765,-0.002841264009475708,-0.11125718057155609,-1.1854805946350098,0.43354156613349915,0.47673800587654114,0.23689180612564087,-0.5502788424491882,0.26694202423095703,0.7146443128585815,0.3579917550086975,0.5126214027404785,0.5225551128387451,-0.40675461292266846,-0.009993687272071838,0.28253448009490967,-0.7106110453605652,-0.07972650974988937,-0.0821036696434021,0.03125879168510437,-1.220312476158142,-0.4136051535606384,0.2178047001361847,-0.3086439073085785,0.13747459650039673,-0.5521366000175476,0.47437191009521484,-0.11325778067111969,0.4973423480987549,0.7515312433242798,-0.05233386158943176,-0.525823712348938,-0.42106637358665466,-0.03624697029590607,0.5391889214515686,0.28331881761550903,0.07880226522684097,0.3588345944881439,-0.1653074473142624,-0.28805965185165405,0.3903571665287018,-0.41267865896224976,0.3229720890522003,0.23972681164741516,0.19345693290233612,0.3460753858089447,-0.7708935141563416,0.3362877070903778,0.5193579196929932,-0.33410853147506714,-0.2524338960647583,-0.03424391150474548,-0.7655124068260193,-0.07314847409725189,0.7244844436645508,-0.47875136137008667,-0.23193980753421783,-0.2769594192504883,0.12726432085037231,-0.839147686958313,-1.0889595746994019,0.9134856462478638,-0.24556326866149902,-0.1109447255730629,-0.051130764186382294,0.5230693817138672,0.016225481405854225,0.0007987990975379944,0.41546645760536194,0.4374169409275055,0.04343206435441971,0.257031112909317,0.2512965500354767,-0.41117021441459656,0.29677608609199524,-4.816190242767334,0.0075774118304252625,0.41981789469718933,-0.10335814952850342,0.2782554626464844,-0.10165463387966156,-0.13639438152313232,-0.2915041744709015,-0.5674881339073181,0.7886854410171509,-0.08282908797264099,-0.9275063872337341,0.6329808831214905,0.36625993251800537,0.1750374287366867,-0.11499925702810287,-0.3260256350040436,-0.42944616079330444,-0.371200829744339,0.5767132043838501,0.36877208948135376,-0.3099523186683655,-0.3925034999847412,-0.03954732045531273,0.016878880560398102,0.5981692671775818,-0.017517786473035812,0.2322489619255066,-0.8696415424346924,-0.3434707224369049,0.5848464369773865,-0.05241905152797699,0.7926039099693298,-0.07656746357679367,0.6900515556335449,-0.2134813368320465,-0.0359022356569767,-0.2120714783668518,0.1383315920829773,-1.1009502410888672,0.17124594748020172,0.226174995303154,-0.12609508633613586,0.3911873996257782,0.3844718933105469,-0.27350297570228577,-0.6981816291809082,0.5312495827674866,0.28389865159988403,-0.0027594640851020813,-0.25285595655441284,0.485107421875,0.2117088884115219,-0.4136827290058136,-0.2131483554840088,0.14800909161567688,0.3364972770214081,1.0775245428085327,-0.08895689249038696,-0.18548071384429932,-0.6205868721008301,-0.13464368879795074,-0.30912235379219055,-0.3426866829395294,-0.014607451856136322,-0.6244112849235535,-0.6737198829650879,-0.3086623549461365,-0.0916500836610794,-0.32239794731140137,-0.619434118270874,-0.8824915885925293,0.027940955013036728,-1.2382770776748657,-0.504246175289154,0.590722918510437,0.42865151166915894,-0.04090576246380806,-0.2804269790649414,-1.3698126077651978,-0.12822923064231873,-1.007617712020874,0.7460111379623413,-0.728666365146637,-0.07182790338993073,-1.1181533336639404,-0.8860059976577759,-0.8459810614585876,0.17864379286766052,-0.013767566531896591,0.18581996858119965,0.6401162147521973,0.6369590163230896,-0.3548322021961212,-0.1857500821352005,0.3199784755706787,-0.1722116470336914,0.21896111965179443,0.6480678915977478,-0.5951478481292725,-0.44773128628730774,-0.47813448309898376,1.209189772605896,-0.5623260140419006,0.7256375551223755,0.006684010848402977,-0.23927360773086548,0.08014422655105591,0.06927068531513214,0.8695489764213562,0.5163662433624268,-0.9459696412086487,0.630700945854187,0.03099857270717621,-0.7513400316238403,-0.8019043207168579,1.0152502059936523,0.24828840792179108,0.2657748758792877,0.346525639295578,0.21647173166275024,0.5317745804786682,0.1198863685131073,-0.1466168314218521,-0.37345415353775024,0.2648339867591858,0.5903313755989075,1.0861092805862427,-0.043804146349430084,-0.5814650058746338,-0.15587525069713593,-0.21001975238323212,-0.17728573083877563,0.05539282411336899,0.2725721597671509,-0.014461502432823181,-0.09470353275537491,-0.5483366847038269,-0.6663908958435059,0.453399658203125,0.2641008198261261,0.32186976075172424,-0.5609915852546692,0.06893904507160187,-0.1181962862610817,-0.6212434768676758,0.049876533448696136,0.29559850692749023,0.12731793522834778,0.8268654346466064,-0.7078559994697571,0.26573655009269714,0.5096661448478699,0.09471282362937927,-0.1880306750535965,-1.1186673641204834,0.5801962018013,0.4001518487930298,-0.6055884957313538,0.1613236516714096,-0.44167080521583557,-0.6100209355354309,-0.17191345989704132,0.8550728559494019,-0.9157504439353943,0.003885086625814438,-0.008391343057155609,-0.049796056002378464,-0.01435728371143341,1.153976559638977,-0.08341173082590103,0.6468875408172607,-0.10665544867515564,0.012884583324193954,-0.6790948510169983,0.1524982899427414,-0.38604938983917236,0.7243906259536743,-0.32919764518737793,1.2161897420883179,0.33248183131217957,-0.05327492579817772,-0.12001296132802963,-0.27387961745262146,0.1242193803191185,0.2910687327384949,0.03869631513953209,-0.2955687940120697,0.34569162130355835,-0.10282305628061295,-0.5798546075820923,0.7507641911506653,-0.8193129301071167,-0.48446980118751526,-0.846550703048706,-1.3267759084701538,-0.14245614409446716,0.3316890597343445,0.33918818831443787,0.23662208020687103,-0.04963735491037369,0.04135020822286606,0.09351221472024918,-0.08366785943508148,0.1329847276210785,0.24311372637748718,0.40602540969848633,0.3619535565376282,-0.3935353457927704,0.5520887970924377,-0.7218939065933228,-0.6584557890892029,-0.22605565190315247,-0.38370904326438904,-0.14225706458091736,-0.25000059604644775,0.148057222366333,0.3273502290248871,-0.4399360716342926,0.16328978538513184,-0.7146121263504028,-0.18074718117713928,-0.4745367169380188,0.2744922637939453,-1.4942115545272827,-0.47167885303497314,-0.09282176941633224,0.17526781558990479,-0.7790168523788452,0.03803616389632225,-0.17461290955543518,0.40396785736083984,0.05099339038133621,-0.2121199071407318,0.13892370462417603,-0.335340678691864,-0.20470291376113892,-0.7171890139579773,0.4327229857444763,0.40805912017822266,0.15606163442134857,0.01968204788863659,-0.0934138223528862,0.11973293870687485,-0.2824286222457886,-0.39839544892311096,0.003331377636641264,-0.08827125281095505,0.028068160638213158,0.0899650901556015,0.2059771716594696,0.3241638243198395,0.22235260903835297,-0.6479012966156006,0.3417213559150696,0.5478223562240601,0.20407234132289886,0.6876939535140991,-0.06807643175125122,-0.09397001564502716,-0.3524813950061798,-0.5448123812675476,0.19765685498714447,0.2801169753074646,-0.48579826951026917,0.16428273916244507,0.6061998009681702,0.2556260824203491,-0.3665897846221924,-0.15790119767189026,0.3295117914676666,-0.11543876677751541,0.7246292233467102,-0.3858413100242615,0.4943991005420685,-0.21212545037269592,-0.5780577063560486,-0.49669209122657776,1.0229201316833496,-0.41325777769088745,-0.7752836346626282,0.1447673738002777,-0.011153943836688995,-0.02730136178433895,-0.6380494236946106,0.4727541208267212,-0.5085679292678833,-0.0726323127746582,-0.4653528928756714,0.492816686630249,0.4721951186656952,0.3762798309326172,0.5493587255477905,0.490695983171463,-0.41937488317489624,1.1749240159988403,-0.06108791381120682,0.38886353373527527,-0.10328040271997452,0.08582772314548492,-0.6840315461158752,-0.42008307576179504,0.06830951571464539,0.18379932641983032,-0.07999531179666519,-0.3317791819572449,-0.004169135820120573,-1.1817570924758911,-0.6901441812515259,-0.5503418445587158,0.14606747031211853,-0.5002414584159851,1.0125516653060913,0.20945602655410767,-0.6242253184318542,0.07534568011760712,0.17681846022605896,0.6110805869102478,-0.39792513847351074,-0.14056769013404846,0.0014585675671696663,0.026733562350273132,0.16689208149909973,0.1312774121761322,0.1988203227519989,0.733377993106842,-0.2344300001859665,0.33934706449508667,0.7061836123466492,-1.0476945638656616,-0.017947088927030563,-0.15676048398017883,-0.4496905207633972,0.16271589696407318,0.07110029458999634,-0.29896289110183716,0.009988248348236084,0.558313250541687,-0.2942415177822113,-0.36575809121131897,-0.043963152915239334,-0.1816359907388687,0.07130800187587738,0.37061142921447754,0.21420042216777802,-0.08976024389266968,-0.22661109268665314,-0.4278092086315155,0.1133446991443634,-0.049912214279174805,-0.1762012243270874,0.16756069660186768,0.41104963421821594,-1.131803035736084,-0.4378754496574402,0.7493751049041748,-0.5018383264541626,0.07548769563436508,-0.7051563262939453,0.441954106092453,-0.7206377387046814,-0.3096877932548523,0.6701453328132629,-0.25161013007164,0.14295077323913574,-0.2696230113506317,-0.35527876019477844,0.059242065995931625,0.013556018471717834,0.18014472723007202,0.26236313581466675,-0.12123501300811768,1.1113243103027344,0.7762106657028198,0.2942594289779663,-0.012192804366350174,-0.42392486333847046,-0.7131430506706238,0.08043617010116577,0.27175506949424744,0.6789913773536682,-0.3925010859966278,-0.17184168100357056,0.311443030834198,-0.41269922256469727,0.49847495555877686,-0.39524203538894653,-0.22421321272850037,-0.3705718517303467,-0.2601619362831116,0.22290098667144775,0.5292948484420776,0.1903291642665863,-0.050872523337602615,-0.20314714312553406,-1.1502346992492676,0.9092792868614197,-0.3892388641834259,0.2101324200630188,0.04954889416694641,0.3239400386810303,0.241641104221344,-0.3949018120765686,0.2633550763130188,-0.09734447300434113,0.8478484153747559,0.14530424773693085,0.3937666118144989,-0.20697271823883057,-0.6549461483955383,0.3217770457267761,0.5084397196769714,-0.6606459021568298,0.6611381769180298,0.017625557258725166,-0.20892618596553802,-0.42520445585250854,-0.05714484304189682,0.2876126766204834,-0.3091977834701538,-0.610419750213623,0.6940690875053406,0.6653804779052734,0.4764973819255829,0.0831698402762413,-0.49425065517425537,0.2691398561000824,-0.3304269313812256,0.6023072600364685,-0.4549477994441986,-0.5289903283119202,-0.3456929326057434,-0.24169784784317017,-0.06243206933140755,0.5495321750640869,-0.1665143072605133,-0.1244330108165741,-0.6015555262565613,0.15680155158042908,-0.6189899444580078,0.9909212589263916,0.12374986708164215,-0.45097970962524414,0.336455762386322,0.1712033748626709,-0.5568937659263611,-0.20601163804531097,-0.5002930760383606,0.6393280625343323,-0.19881244003772736,0.35707464814186096,0.10534307360649109,0.41242045164108276,-0.45083123445510864,0.6040791869163513,0.03294867277145386,-0.3398948311805725,-0.5263392925262451,0.08064004778862,0.015838397666811943
