Profession,dim_0,dim_1,dim_2,dim_3,dim_4,dim_5,dim_6,dim_7,dim_8,dim_9,dim_10,dim_11,dim_12,dim_13,dim_14,dim_15,dim_16,dim_17,dim_18,dim_19,dim_20,dim_21,dim_22,dim_23,dim_24,dim_25,dim_26,dim_27,dim_28,dim_29,dim_30,dim_31,dim_32,dim_33,dim_34,dim_35,dim_36,dim_37,dim_38,dim_39,dim_40,dim_41,dim_42,dim_43,dim_44,dim_45,dim_46,dim_47,dim_48,dim_49,dim_50,dim_51,dim_52,dim_53,dim_54,dim_55,dim_56,dim_57,dim_58,dim_59,dim_60,dim_61,dim_62,dim_63,dim_64,dim_65,dim_66,dim_67,dim_68,dim_69,dim_70,dim_71,dim_72,dim_73,dim_74,dim_75,dim_76,dim_77,dim_78,dim_79,dim_80,dim_81,dim_82,dim_83,dim_84,dim_85,dim_86,dim_87,dim_88,dim_89,dim_90,dim_91,dim_92,dim_93,dim_94,dim_95,dim_96,dim_97,dim_98,dim_99,dim_100,dim_101,dim_102,dim_103,dim_104,dim_105,dim_106,dim_107,dim_108,dim_109,dim_110,dim_111,dim_112,dim_113,dim_114,dim_115,dim_116,dim_117,dim_118,dim_119,dim_120,dim_121,dim_122,dim_123,dim_124,dim_125,dim_126,dim_127,dim_128,dim_129,dim_130,dim_131,dim_132,dim_133,dim_134,dim_135,dim_136,dim_137,dim_138,dim_139,dim_140,dim_141,dim_142,dim_143,dim_144,dim_145,dim_146,dim_147,dim_148,dim_149,dim_150,dim_151,dim_152,dim_153,dim_154,dim_155,dim_156,dim_157,dim_158,dim_159,dim_160,dim_161,dim_162,dim_163,dim_164,dim_165,dim_166,dim_167,dim_168,dim_169,dim_170,dim_171,dim_172,dim_173,dim_174,dim_175,dim_176,dim_177,dim_178,dim_179,dim_180,dim_181,dim_182,dim_183,dim_184,dim_185,dim_186,dim_187,dim_188,dim_189,dim_190,dim_191,dim_192,dim_193,dim_194,dim_195,dim_196,dim_197,dim_198,dim_199,dim_200,dim_201,dim_202,dim_203,dim_204,dim_205,dim_206,dim_207,dim_208,dim_209,dim_210,dim_211,dim_212,dim_213,dim_214,dim_215,dim_216,dim_217,dim_218,dim_219,dim_220,dim_221,dim_222,dim_223,dim_224,dim_225,dim_226,dim_227,dim_228,dim_229,dim_230,dim_231,dim_232,dim_233,dim_234,dim_235,dim_236,dim_237,dim_238,dim_239,dim_240,dim_241,dim_242,dim_243,dim_244,dim_245,dim_246,dim_247,dim_248,dim_249,dim_250,dim_251,dim_252,dim_253,dim_254,dim_255,dim_256,dim_257,dim_258,dim_259,dim_260,dim_261,dim_262,dim_263,dim_264,dim_265,dim_266,dim_267,dim_268,dim_269,dim_270,dim_271,dim_272,dim_273,dim_274,dim_275,dim_276,dim_277,dim_278,dim_279,dim_280,dim_281,dim_282,dim_283,dim_284,dim_285,dim_286,dim_287,dim_288,dim_289,dim_290,dim_291,dim_292,dim_293,dim_294,dim_295,dim_296,dim_297,dim_298,dim_299,dim_300,dim_301,dim_302,dim_303,dim_304,dim_305,dim_306,dim_307,dim_308,dim_309,dim_310,dim_311,dim_312,dim_313,dim_314,dim_315,dim_316,dim_317,dim_318,dim_319,dim_320,dim_321,dim_322,dim_323,dim_324,dim_325,dim_326,dim_327,dim_328,dim_329,dim_330,dim_331,dim_332,dim_333,dim_334,dim_335,dim_336,dim_337,dim_338,dim_339,dim_340,dim_341,dim_342,dim_343,dim_344,dim_345,dim_346,dim_347,dim_348,dim_349,dim_350,dim_351,dim_352,dim_353,dim_354,dim_355,dim_356,dim_357,dim_358,dim_359,dim_360,dim_361,dim_362,dim_363,dim_364,dim_365,dim_366,dim_367,dim_368,dim_369,dim_370,dim_371,dim_372,dim_373,dim_374,dim_375,dim_376,dim_377,dim_378,dim_379,dim_380,dim_381,dim_382,dim_383,dim_384,dim_385,dim_386,dim_387,dim_388,dim_389,dim_390,dim_391,dim_392,dim_393,dim_394,dim_395,dim_396,dim_397,dim_398,dim_399,dim_400,dim_401,dim_402,dim_403,dim_404,dim_405,dim_406,dim_407,dim_408,dim_409,dim_410,dim_411,dim_412,dim_413,dim_414,dim_415,dim_416,dim_417,dim_418,dim_419,dim_420,dim_421,dim_422,dim_423,dim_424,dim_425,dim_426,dim_427,dim_428,dim_429,dim_430,dim_431,dim_432,dim_433,dim_434,dim_435,dim_436,dim_437,dim_438,dim_439,dim_440,dim_441,dim_442,dim_443,dim_444,dim_445,dim_446,dim_447,dim_448,dim_449,dim_450,dim_451,dim_452,dim_453,dim_454,dim_455,dim_456,dim_457,dim_458,dim_459,dim_460,dim_461,dim_462,dim_463,dim_464,dim_465,dim_466,dim_467,dim_468,dim_469,dim_470,dim_471,dim_472,dim_473,dim_474,dim_475,dim_476,dim_477,dim_478,dim_479,dim_480,dim_481,dim_482,dim_483,dim_484,dim_485,dim_486,dim_487,dim_488,dim_489,dim_490,dim_491,dim_492,dim_493,dim_494,dim_495,dim_496,dim_497,dim_498,dim_499,dim_500,dim_501,dim_502,dim_503,dim_504,dim_505,dim_506,dim_507,dim_508,dim_509,dim_510,dim_511,dim_512,dim_513,dim_514,dim_515,dim_516,dim_517,dim_518,dim_519,dim_520,dim_521,dim_522,dim_523,dim_524,dim_525,dim_526,dim_527,dim_528,dim_529,dim_530,dim_531,dim_532,dim_533,dim_534,dim_535,dim_536,dim_537,dim_538,dim_539,dim_540,dim_541,dim_542,dim_543,dim_544,dim_545,dim_546,dim_547,dim_548,dim_549,dim_550,dim_551,dim_552,dim_553,dim_554,dim_555,dim_556,dim_557,dim_558,dim_559,dim_560,dim_561,dim_562,dim_563,dim_564,dim_565,dim_566,dim_567,dim_568,dim_569,dim_570,dim_571,dim_572,dim_573,dim_574,dim_575,dim_576,dim_577,dim_578,dim_579,dim_580,dim_581,dim_582,dim_583,dim_584,dim_585,dim_586,dim_587,dim_588,dim_589,dim_590,dim_591,dim_592,dim_593,dim_594,dim_595,dim_596,dim_597,dim_598,dim_599,dim_600,dim_601,dim_602,dim_603,dim_604,dim_605,dim_606,dim_607,dim_608,dim_609,dim_610,dim_611,dim_612,dim_613,dim_614,dim_615,dim_616,dim_617,dim_618,dim_619,dim_620,dim_621,dim_622,dim_623,dim_624,dim_625,dim_626,dim_627,dim_628,dim_629,dim_630,dim_631,dim_632,dim_633,dim_634,dim_635,dim_636,dim_637,dim_638,dim_639,dim_640,dim_641,dim_642,dim_643,dim_644,dim_645,dim_646,dim_647,dim_648,dim_649,dim_650,dim_651,dim_652,dim_653,dim_654,dim_655,dim_656,dim_657,dim_658,dim_659,dim_660,dim_661,dim_662,dim_663,dim_664,dim_665,dim_666,dim_667,dim_668,dim_669,dim_670,dim_671,dim_672,dim_673,dim_674,dim_675,dim_676,dim_677,dim_678,dim_679,dim_680,dim_681,dim_682,dim_683,dim_684,dim_685,dim_686,dim_687,dim_688,dim_689,dim_690,dim_691,dim_692,dim_693,dim_694,dim_695,dim_696,dim_697,dim_698,dim_699,dim_700,dim_701,dim_702,dim_703,dim_704,dim_705,dim_706,dim_707,dim_708,dim_709,dim_710,dim_711,dim_712,dim_713,dim_714,dim_715,dim_716,dim_717,dim_718,dim_719,dim_720,dim_721,dim_722,dim_723,dim_724,dim_725,dim_726,dim_727,dim_728,dim_729,dim_730,dim_731,dim_732,dim_733,dim_734,dim_735,dim_736,dim_737,dim_738,dim_739,dim_740,dim_741,dim_742,dim_743,dim_744,dim_745,dim_746,dim_747,dim_748,dim_749,dim_750,dim_751,dim_752,dim_753,dim_754,dim_755,dim_756,dim_757,dim_758,dim_759,dim_760,dim_761,dim_762,dim_763,dim_764,dim_765,dim_766,dim_767
professor,-0.2630232870578766,-0.714464545249939,-0.2596495747566223,0.16883927583694458,0.4283158779144287,-0.17582951486110687,0.24876229465007782,0.6110167503356934,0.4963743984699249,-0.07211893796920776,-0.25087064504623413,0.02745990827679634,0.2245519608259201,0.17186735570430756,-0.07320134341716766,0.12127458304166794,0.14852848649024963,-0.2861989140510559,-0.4964675307273865,0.7172250747680664,-1.0916236639022827,0.14862443506717682,0.5584371089935303,0.158626988530159,-0.4554719030857086,-0.07806147634983063,-0.6284292936325073,1.2598732709884644,-0.0748758614063263,0.2704493999481201,0.4337543845176697,-0.1383465826511383,-0.23967750370502472,0.11957069486379623,-0.3807711601257324,-0.2588505148887634,-0.23180630803108215,0.4427334666252136,-0.4648750126361847,0.03559822589159012,0.1322566270828247,-0.24558374285697937,-0.2979212701320648,0.8225992918014526,-0.09462563693523407,0.13763417303562164,0.5609289407730103,0.20558205246925354,0.6999050378799438,-0.5231863260269165,-0.3423234224319458,0.3820151686668396,-0.18808618187904358,-0.22103166580200195,0.41734805703163147,0.20030134916305542,-0.7382529377937317,-0.5778281688690186,0.4496551752090454,-0.5661004781723022,0.01135614886879921,0.21267381310462952,-0.013941982761025429,-0.5596200227737427,0.6831793785095215,0.24851523339748383,-0.2665124237537384,0.25301891565322876,-0.8586767911911011,-0.1385241150856018,0.07617992162704468,0.28506189584732056,0.22647139430046082,-0.28454291820526123,0.6712948083877563,-0.1821865737438202,-0.15073588490486145,-0.035385385155677795,0.0044724345207214355,0.15869204699993134,-0.21647274494171143,0.6250454783439636,0.04588914290070534,0.3159184157848358,-0.026548216119408607,-0.18198162317276,0.0454447902739048,0.1913861781358719,0.30698683857917786,0.10502217710018158,-0.23182596266269684,-0.3857608735561371,-0.4729267954826355,0.25041133165359497,0.1895342767238617,-0.19742140173912048,0.08564594388008118,-0.4998258054256439,-0.22569870948791504,-0.3241748511791229,0.034911058843135834,-1.3944529294967651,-0.20181488990783691,0.5468722581863403,-0.4580095410346985,-0.21412494778633118,-0.43628689646720886,0.19295242428779602,-0.12123194336891174,0.37472206354141235,-0.2596784830093384,-0.05861831456422806,0.06215810030698776,-0.9014446139335632,-0.21623802185058594,1.0423483848571777,0.7191842198371887,-0.8844929337501526,0.1792464703321457,-0.012375620193779469,0.04312361776828766,0.19093409180641174,0.40976306796073914,0.5782935619354248,0.1178668960928917,0.035565875470638275,0.11274031549692154,0.31023576855659485,0.06642158329486847,-0.30959928035736084,0.11706473678350449,0.08158017694950104,0.37225425243377686,0.13817086815834045,-0.5370608568191528,-0.15837353467941284,-0.7017935514450073,-0.12549825012683868,-0.9764827489852905,0.44474172592163086,0.3602522909641266,0.3436468541622162,-0.022134695202112198,-0.42201077938079834,-0.02780233323574066,0.05035290867090225,-0.3857085704803467,-0.1308155357837677,0.3820708692073822,0.05224734544754028,0.01836804300546646,0.13038596510887146,0.19921493530273438,-0.4025301933288574,0.39468440413475037,0.34758689999580383,-0.3616516590118408,0.15080083906650543,-0.38673800230026245,-0.03835586830973625,0.5226626992225647,0.035991933196783066,-0.35709986090660095,0.9124652147293091,-0.3867734372615814,-0.19883757829666138,-0.43910297751426697,0.18156561255455017,0.2968440651893616,-0.29415297508239746,-0.3365616202354431,-0.020513728260993958,1.090175747871399,-0.06094334274530411,0.14857575297355652,0.18948745727539062,0.014107182621955872,0.2830186188220978,0.6918960213661194,0.4550415873527527,0.07755223661661148,0.025021176785230637,-0.09556277096271515,-0.3792929947376251,-0.0015718499198555946,-0.09527620673179626,0.8972474932670593,0.23990868031978607,0.06643285602331161,-0.06317029148340225,-0.09857778251171112,-0.5151874423027039,-0.44159460067749023,0.28776174783706665,0.7629939913749695,0.31008315086364746,-0.13371796905994415,-0.16891008615493774,-0.32188302278518677,0.3927323818206787,0.036000851541757584,-0.6778756976127625,0.1572490930557251,0.28551170229911804,0.019372090697288513,0.43785539269447327,0.03192410245537758,0.29048407077789307,0.6411162614822388,0.05348135530948639,-0.36821481585502625,0.36877620220184326,0.05278103053569794,0.25297945737838745,-0.06359092146158218,-0.16307766735553741,-0.5216559171676636,-0.2762635052204132,0.5737713575363159,0.23052310943603516,0.30999305844306946,-0.29160818457603455,-0.25212016701698303,0.4628886580467224,-0.6038955450057983,0.9505788087844849,0.512287437915802,-0.03985944390296936,0.2229355275630951,0.7552552223205566,0.2906152307987213,0.08476889878511429,0.4006875455379486,0.9128121137619019,-0.08796822279691696,-0.0002952050417661667,-0.7618094086647034,0.1538059115409851,0.19625797867774963,0.35517454147338867,-0.28517958521842957,-0.08606117218732834,-0.14141340553760529,0.24213629961013794,0.37911587953567505,0.6682012677192688,-0.006616774946451187,0.20586007833480835,0.409124493598938,-0.382011353969574,-0.07360916584730148,-0.3508862555027008,-0.1422111690044403,0.07195693254470825,0.15495187044143677,0.5499319434165955,-0.23170724511146545,0.21870258450508118,-0.07119939476251602,-0.09253937005996704,0.4490220546722412,0.05876612290740013,0.2065523862838745,-0.23466122150421143,-0.24404124915599823,-0.22260719537734985,0.2653658390045166,-0.15466967225074768,0.17042167484760284,0.15780706703662872,-0.24604570865631104,-0.2596030831336975,0.5173448920249939,0.19160400331020355,-1.0148749351501465,-0.3026220500469208,0.3603551983833313,-0.01293474156409502,0.07506963610649109,-0.18004900217056274,0.3943325877189636,0.21130232512950897,-0.5159124732017517,-0.24903681874275208,0.34901952743530273,-0.7320420742034912,0.38228002190589905,0.5750387907028198,0.3794861137866974,-0.3746171295642853,-0.30357447266578674,0.6636610627174377,-0.534661054611206,-0.8424170613288879,0.5400084257125854,-0.3750210404396057,0.1497926414012909,-0.1889631301164627,0.4580608606338501,0.19011013209819794,-0.773784875869751,0.23378632962703705,-0.33896297216415405,0.3890984356403351,0.056492798030376434,0.1392294466495514,-0.14905214309692383,-0.34956127405166626,-5.843053340911865,-0.1676790863275528,-0.41678622364997864,0.06797215342521667,0.4856712520122528,-0.10187814384698868,0.05032229423522949,0.1123720332980156,-0.5706555247306824,-0.016900580376386642,-0.19012244045734406,-0.6398341655731201,-0.20037375390529633,0.4275093376636505,-0.18076743185520172,-0.03620845079421997,-0.2057407945394516,-0.05551913008093834,-0.4464862048625946,0.5047480463981628,0.006685487926006317,0.026017233729362488,-0.409345418214798,-0.15601271390914917,-0.010702639818191528,0.3045765459537506,-0.8329039216041565,0.1025669276714325,-0.6128589510917664,0.10193068534135818,0.23581933975219727,-0.327470600605011,0.4363826811313629,0.027778897434473038,0.015432149171829224,0.15572205185890198,-0.6522371768951416,0.156133234500885,0.11372768133878708,-0.039622917771339417,-0.11231959611177444,-0.21680781245231628,-0.046188339591026306,1.2884348630905151,0.4798906743526459,-0.25470346212387085,-0.08421248197555542,-0.37638986110687256,0.19799154996871948,0.058260075747966766,-0.12812627851963043,-0.1315312385559082,0.7793118953704834,0.19238878786563873,-0.18903431296348572,0.15284566581249237,0.06685315817594528,0.9168843030929565,-0.16772785782814026,-0.7158994078636169,-0.3908412754535675,-0.12443853914737701,-0.2846352458000183,-0.07417504489421844,0.3198509216308594,0.028929047286510468,-0.1991977095603943,-0.5497695207595825,-0.19885146617889404,0.1474023014307022,-0.2660972774028778,-0.08331087976694107,-0.7840894460678101,-1.0439841747283936,-0.47397491335868835,-0.14873658120632172,0.2300788015127182,-0.2654533386230469,-0.4949236810207367,0.12945155799388885,0.05426906794309616,-0.7919763922691345,1.2167831659317017,-0.16414225101470947,0.05561327561736107,-0.8899924159049988,-0.06257513165473938,-0.5227312445640564,0.37858980894088745,0.11654973775148392,0.8215348124504089,0.33790457248687744,0.742504894733429,-0.36090564727783203,0.15812891721725464,0.6181669235229492,-0.3318573832511902,0.3438672423362732,0.4726308286190033,0.23398035764694214,-0.14414548873901367,-0.20516520738601685,0.29634058475494385,0.0896816998720169,0.7093554735183716,0.29563120007514954,-0.08395394682884216,0.6417285203933716,-0.15112286806106567,0.7683348059654236,0.37655821442604065,-0.16284100711345673,-0.012512266635894775,0.02215215563774109,0.15682102739810944,-0.5815796852111816,0.3587196469306946,-0.255356103181839,0.35514286160469055,-0.25599053502082825,-0.08476424962282181,0.7282230257987976,-0.43287748098373413,0.08167445659637451,-0.6244460344314575,0.32440805435180664,-0.17579704523086548,-0.30728161334991455,0.48609140515327454,-0.10365786403417587,-0.07069443166255951,0.11312257498502731,0.30738118290901184,0.24849528074264526,0.14192980527877808,0.37361201643943787,0.14527809619903564,-0.028213899582624435,-0.43127667903900146,-0.07377791404724121,0.14722777903079987,-0.19303423166275024,0.14016039669513702,-0.25634390115737915,0.0703260749578476,-0.03789385035634041,-0.6332883834838867,0.5036601424217224,0.3268105983734131,0.1706806868314743,-0.20895060896873474,0.21267877519130707,-0.2925126552581787,-0.1797882318496704,0.37383055686950684,-0.4988324046134949,0.4632517993450165,-0.20728573203086853,-0.4239724576473236,0.12599588930606842,-0.12203657627105713,-0.2393946647644043,0.10537014901638031,0.01920558325946331,-0.7069919109344482,0.3095099925994873,-0.06200157105922699,0.6972073912620544,0.021551430225372314,0.4782997667789459,-0.12151972949504852,-0.11900699138641357,0.32576537132263184,0.18275558948516846,-0.7333534955978394,-0.07475868612527847,-0.39506813883781433,0.25977903604507446,-0.33965829014778137,0.39563196897506714,0.07361338287591934,0.20702055096626282,-0.560309886932373,-0.4455064833164215,0.10928031802177429,-0.02080554887652397,-0.19018299877643585,0.13809917867183685,-0.13799478113651276,-0.22532609105110168,-1.1310126781463623,0.14272280037403107,-0.2163780778646469,0.19182245433330536,-0.3349178433418274,-0.809485137462616,-0.0759783536195755,0.2965224087238312,0.0836121216416359,0.5624780058860779,-0.49911442399024963,0.598584771156311,0.09123371541500092,-0.0008712038397789001,-0.314630925655365,0.4061863124370575,0.5901198387145996,-0.49704477190971375,-0.3773737847805023,0.2630109190940857,-0.5987768173217773,0.1063322126865387,-0.4265410900115967,-0.24457085132598877,0.150033637881279,0.22996410727500916,0.2682145833969116,-0.10850070416927338,-0.21622885763645172,0.5743599534034729,-0.16404345631599426,0.3079625070095062,-0.40856924653053284,0.2019536942243576,-0.07300835847854614,-0.34562087059020996,-0.010539423674345016,0.27974453568458557,-1.041489839553833,-0.31967151165008545,0.2089139223098755,-0.21201488375663757,-0.31133833527565,0.05966262146830559,0.5825127959251404,-0.13540078699588776,0.3257702589035034,-0.5425018668174744,0.11235260963439941,0.005764932371675968,0.5034329295158386,0.028170989826321602,-0.400566965341568,0.20953360199928284,0.16356658935546875,0.2536037564277649,0.32611164450645447,0.6054165959358215,0.20292533934116364,0.2535097897052765,0.025398319587111473,-0.26840901374816895,-0.1087372824549675,-0.288341760635376,-0.09045085310935974,-0.34667089581489563,-0.2223254293203354,-0.2217315435409546,0.018853608518838882,0.005219493061304092,-0.3314545750617981,0.37963345646858215,-0.4775863289833069,0.04636508226394653,-0.4537549614906311,0.3714561462402344,-0.049018122255802155,-0.34111207723617554,0.47381505370140076,0.1782642900943756,-0.1714276522397995,-0.030409395694732666,-0.049244362860918045,-0.5901318192481995,-0.4745732545852661,0.17296147346496582,-0.2969963550567627,-0.23829901218414307,0.41266345977783203,0.3293510675430298,-0.568481981754303,0.5312372446060181,0.23303525149822235,0.26262950897216797,-0.0408899150788784,0.36759722232818604,-0.3748374879360199,0.6021395921707153,-0.31819039583206177,0.11258138716220856,-0.20037125051021576,0.2199183851480484,0.47138047218322754,0.14941619336605072,-0.15324504673480988,0.5931594967842102,0.44046831130981445,-0.2520853877067566,0.22927570343017578,-0.4838985502719879,-0.34422168135643005,-0.008028395473957062,-0.10033455491065979,-0.04517138749361038,-0.12756778299808502,0.11620432883501053,0.31248998641967773,-0.48963892459869385,-0.07986555248498917,-0.3380829095840454,-0.02555927261710167,0.031441669911146164,0.3592493236064911,0.03875160217285156,-0.1564231514930725,-0.3965258002281189,0.2817443609237671,0.08628060668706894,-0.7771402597427368,-0.46800386905670166,-0.14645177125930786,0.4909983277320862,0.21945050358772278,0.007038930431008339,0.06225188076496124,0.07864140719175339,-0.37015044689178467,0.5460458397865295,0.4485130310058594,-0.021304190158843994,0.1321803629398346,0.5076704621315002,-0.17201724648475647,0.19065913558006287,0.3816315829753876,-0.232887402176857,0.01589416339993477,0.2544463872909546,0.23067206144332886,0.16387978196144104,-0.5213631987571716,0.24059578776359558,-0.23933595418930054,0.7923241257667542,-0.0972062349319458,-0.060989271849393845,0.1465177983045578,-0.1928064227104187,-0.09863127022981644,-0.11924801766872406,-0.23915894329547882,-0.261614054441452,-0.3911672830581665,-0.3388722538948059,-0.026524197310209274,0.16478818655014038,-0.09933407604694366,0.03378712013363838,-0.13039371371269226,0.5499666929244995,0.19920118153095245,0.18735823035240173,0.7337889671325684,0.08771608769893646,0.01797218807041645,0.2062351256608963,-0.13915473222732544,-0.09588997066020966,0.34230437874794006,-0.004775829613208771,0.05701487883925438,-0.7512592077255249,-0.10648228228092194,0.0824710875749588,-0.25324299931526184,0.3004249036312103,0.11272887885570526,-0.4623851478099823,0.1942671537399292,1.1914690732955933,0.3911341428756714,0.2674987018108368,-0.38157594203948975,0.3992135226726532,0.167719766497612,0.1444505900144577,-0.11516374349594116,-0.006621889770030975,-0.5097209215164185,-0.14196355640888214,-0.26339268684387207,-0.0024981126189231873,0.21602481603622437,-0.23439456522464752,-0.4332486391067505,-0.4029079079627991,0.29967957735061646,-0.18934690952301025,-0.07232005894184113,0.015096792951226234,-0.16770143806934357,-0.4388202726840973,-0.5374795198440552,-0.7170984148979187,-0.45477572083473206,0.49366435408592224,0.4147246479988098,0.04633233696222305,-0.09259768575429916,-0.15800592303276062,0.9039753675460815,0.11366420984268188,-0.18634337186813354,-0.17568080127239227,-0.4951213002204895,-0.3010496497154236,0.14108645915985107,-0.09749629348516464,0.028730815276503563,-0.14090563356876373,-0.11797056347131729,-0.3131844103336334,0.09513358771800995,-0.14146190881729126,0.41781631112098694,-0.3618163466453552,-0.0349217914044857,0.07241243124008179,0.18361686170101166,-0.09866169095039368,0.27545154094696045,0.14667825400829315,-0.7484651207923889,-0.6179408431053162,0.12382788211107254,-0.34664586186408997,-0.08232177048921585,0.27240198850631714,-0.3824233412742615,-0.5909074544906616,0.23756760358810425,0.1207641214132309,-0.7697622179985046,-0.1903282254934311,0.5427775382995605,-0.3934118151664734,0.09228753298521042,-0.14960534870624542,0.10740049183368683,-0.32419639825820923,-0.5603789687156677,-0.4384036660194397,1.0193761587142944,-0.1863013207912445,0.022787204012274742,0.3027239739894867,-0.6056017279624939,-0.15896205604076385,-0.06983090937137604,0.3061088025569916
vet,0.7052743434906006,-0.11093471944332123,0.06085067614912987,-0.07618888467550278,0.4263077974319458,-0.13616473972797394,0.296671986579895,0.3116910457611084,0.6165701150894165,-0.1674777716398239,0.03922506049275398,0.06165190041065216,0.09091919660568237,-0.33315855264663696,-0.245254248380661,0.12899962067604065,0.08657881617546082,-0.07822313159704208,0.129317507147789,0.9448811411857605,-0.4892842769622803,-0.5418486595153809,0.1306331753730774,0.01504455879330635,-0.35068342089653015,0.41157975792884827,-0.06922496855258942,0.5730955004692078,-0.5282515287399292,-0.15502327680587769,0.4957706332206726,-0.08732233941555023,-0.46211254596710205,-0.10111153870820999,0.0011056140065193176,0.3510097563266754,-0.03435191139578819,0.5906444787979126,-0.7611497640609741,-0.0931592807173729,0.35255470871925354,-0.6590105891227722,-0.22318798303604126,0.5822368264198303,-0.028077751398086548,0.05834265053272247,0.4057689905166626,-0.37603065371513367,1.0070734024047852,-0.0730336531996727,-0.0619928315281868,-0.25497645139694214,-0.9419500231742859,-0.32003116607666016,0.5111943483352661,0.26631903648376465,0.2653351128101349,-0.26755404472351074,-0.03382226079702377,0.16778212785720825,-0.26053571701049805,0.3842175304889679,0.352757066488266,-0.059782274067401886,0.2846234142780304,-0.4023967981338501,0.09969689697027206,0.22432678937911987,-0.23859161138534546,0.03951973468065262,0.30640947818756104,0.6415753960609436,-0.001063123345375061,-0.39218759536743164,0.346017062664032,0.22639873623847961,-0.19466261565685272,0.2210671305656433,-0.009464945644140244,0.3549667000770569,-0.06985780596733093,-0.3113307058811188,-0.2815582752227783,1.0063891410827637,0.20743241906166077,-0.13411666452884674,-0.21533511579036713,-0.023886986076831818,0.002731744199991226,0.6053939461708069,-0.12640731036663055,-0.2918454706668854,-0.5367621183395386,0.11483731865882874,0.08975045382976532,-0.23496514558792114,0.24720104038715363,-0.5369880199432373,-0.04999513924121857,-0.14689144492149353,0.1580766886472702,0.6866887211799622,-0.08203794062137604,0.30976298451423645,-0.6673969626426697,-0.4191422760486603,-0.395473837852478,-0.16256625950336456,-0.1128075122833252,0.26332181692123413,-0.3131334185600281,-0.05638522282242775,0.1092926636338234,-0.4244128465652466,-0.01252275425940752,0.8313069939613342,-0.021045655012130737,-1.0403344631195068,0.1894538253545761,-0.044742122292518616,-0.22470930218696594,0.2973756492137909,0.1524750143289566,0.94289630651474,-0.05248422920703888,0.2841517925262451,-0.0937088131904602,0.10252019017934799,-0.05699879676103592,0.2501784563064575,-0.07468744367361069,0.24571126699447632,0.16344669461250305,-0.24549129605293274,-0.15614551305770874,-0.368339478969574,-0.08853045105934143,-0.2540584206581116,-0.6543196439743042,0.24410977959632874,0.4869559705257416,0.634371280670166,0.49321284890174866,0.5773364901542664,-0.148642435669899,0.11860921233892441,-1.0136120319366455,-0.1270391345024109,-0.47075629234313965,-0.04726899042725563,0.2418050616979599,0.4057251214981079,0.14429377019405365,-0.9437337517738342,-0.10656631737947464,0.43774449825286865,0.18086275458335876,0.03536199778318405,0.06582024693489075,0.016372080892324448,0.8124243021011353,-0.5409241914749146,0.10140826553106308,0.5255279541015625,-0.48524725437164307,-0.40354326367378235,-0.5263147354125977,0.12623324990272522,-0.20682917535305023,-0.02545810490846634,-0.3908306658267975,0.3920193016529083,0.9960953593254089,-0.15212392807006836,0.7075177431106567,0.16077321767807007,0.02556569129228592,-0.023974191397428513,0.5091626644134521,-0.10679687559604645,-0.06690956652164459,1.190858244895935,0.09141264855861664,0.10353808104991913,0.7884383201599121,0.3496242165565491,0.8692692518234253,-0.09817581623792648,-0.23685424029827118,0.12462007254362106,-0.24716605246067047,-1.4211570024490356,-0.7106844782829285,0.49140042066574097,0.6430003046989441,-0.3878248929977417,0.34777259826660156,0.07031700015068054,-0.9772046208381653,-0.29040583968162537,-0.1749587506055832,-0.9423675537109375,0.05841892585158348,0.34227296710014343,-0.38474056124687195,0.28951704502105713,0.03580121695995331,-0.18227152526378632,0.38808050751686096,0.27069002389907837,-0.3902601897716522,0.12028685957193375,-0.31062015891075134,0.1314004361629486,0.06343463063240051,0.07856257259845734,-0.4710000157356262,-0.333400160074234,0.2921983003616333,-0.07058032602071762,0.30196163058280945,-0.4079262316226959,-0.12112780660390854,0.2338818609714508,0.03897026926279068,0.6821693778038025,0.10519091784954071,-0.32892680168151855,-0.06775885820388794,0.21521133184432983,0.10890311747789383,0.47006458044052124,-0.2847440242767334,0.5257551670074463,-0.02754225581884384,-0.11449077725410461,-0.5643162727355957,-0.15245777368545532,-0.17468969523906708,-0.0769524872303009,-0.407094269990921,-0.21240149438381195,0.27645304799079895,0.45925089716911316,0.06447777152061462,0.6132254600524902,-0.08105489611625671,-0.12527146935462952,0.18969285488128662,-0.16384688019752502,0.0825958102941513,-0.42535945773124695,0.5378742814064026,-0.3031763732433319,0.08268307149410248,-0.529910147190094,-0.09010888636112213,0.43873944878578186,-0.2774257957935333,0.02856127917766571,-0.267220675945282,-0.07780502736568451,0.7197199463844299,-0.5224205255508423,-0.48677858710289,-0.681248128414154,-0.29137009382247925,0.04110098257660866,0.2506348192691803,0.35940656065940857,-0.2223752737045288,-0.3439319133758545,0.6573415398597717,0.05898241698741913,-0.530145525932312,-0.35038310289382935,0.4717811346054077,0.02205362543463707,0.8501212000846863,-0.2523164451122284,0.30604755878448486,0.5777363181114197,-0.15016120672225952,-0.12277466058731079,-0.2254004180431366,-0.1874682605266571,-0.14106841385364532,0.38721078634262085,-0.32033002376556396,-0.8341203331947327,-0.004440702497959137,0.4220791757106781,-0.6560876369476318,-0.2063286453485489,0.2394188642501831,0.00256936252117157,-0.0596386156976223,0.16619235277175903,0.2957795560359955,-0.3372691571712494,0.5477291941642761,0.5747247338294983,0.6567873358726501,-0.451715350151062,0.37312766909599304,-0.20169715583324432,-0.13572761416435242,-0.32527709007263184,-5.699510097503662,-0.14499551057815552,-0.4807492792606354,-0.4207308888435364,0.5505868196487427,-0.067195825278759,0.3985346555709839,0.25342708826065063,-0.8458045721054077,0.11145108938217163,0.28377246856689453,-0.6291638612747192,0.4195750951766968,-0.0006829239428043365,0.14904852211475372,-0.21358150243759155,-0.20461991429328918,-0.043463096022605896,-0.014702098444104195,0.5361097455024719,0.5556865334510803,-0.652648389339447,-0.148384690284729,0.08651136606931686,0.3169819414615631,1.0265936851501465,-0.3919725716114044,0.3020435869693756,-0.6192983388900757,0.22546637058258057,-0.403502494096756,0.4665626883506775,0.24673983454704285,0.5084149837493896,0.10497695207595825,0.16355136036872864,-0.3760091960430145,0.19196553528308868,0.10790068656206131,-0.929983913898468,0.03783322498202324,0.48377329111099243,-0.0006071329116821289,0.5535265207290649,-0.4141933023929596,-0.4507967233657837,0.19991549849510193,0.4765392541885376,0.1550290882587433,0.3529464602470398,-0.45908233523368835,0.023536572232842445,-0.4316478967666626,0.20955000817775726,0.14600864052772522,-0.23563459515571594,0.3326665163040161,0.1110125407576561,-0.5810763239860535,-1.1157418489456177,-0.3201809823513031,-0.41002628207206726,-0.09110643714666367,-0.38770291209220886,-0.40525245666503906,-0.027856644243001938,-0.755895733833313,-0.9440376162528992,-0.04732384532690048,0.15719902515411377,-0.5464089512825012,-0.6815226078033447,-0.29796531796455383,-1.324702501296997,-0.4018343985080719,-0.7133208513259888,0.4148293137550354,-0.29263564944267273,-0.055417075753211975,0.1524430364370346,-0.19305551052093506,-0.7958148717880249,0.2911258339881897,0.014434490352869034,0.2652181088924408,-0.8837836384773254,-0.03229997679591179,0.0025661936961114407,0.05991977080702782,-0.22545823454856873,0.31398069858551025,0.3069380521774292,0.5880846381187439,-0.16744965314865112,-0.5125367641448975,-0.10496251285076141,-0.28389880061149597,0.053927987813949585,0.7159563899040222,-0.7143173217773438,0.8373615741729736,-0.726146399974823,0.5297890901565552,-0.0951944962143898,0.06229891628026962,-0.35229092836380005,-0.3358876407146454,0.04240366071462631,0.26490142941474915,0.25812050700187683,0.43029525876045227,-0.6593517065048218,0.6635246872901917,-0.3858957290649414,-0.1398841291666031,0.2305251508951187,0.4203668236732483,0.03180953115224838,-0.04387238994240761,-0.4419543147087097,0.4250108003616333,0.17373904585838318,-0.011464007198810577,0.021458109840750694,-0.5131105184555054,0.2134236991405487,0.5025532245635986,-0.3350340723991394,0.2682287395000458,0.02616574615240097,0.5559458136558533,-0.2663918435573578,0.2913539409637451,0.004476174712181091,0.4349914491176605,0.5268422961235046,0.011233970522880554,-0.18581761419773102,-0.09073002636432648,0.10262589901685715,0.5002753734588623,0.45046794414520264,0.35784924030303955,0.22640405595302582,0.6922008991241455,-0.1638295203447342,0.11515659093856812,0.49407321214675903,0.24665917456150055,0.1680549830198288,-0.30931445956230164,0.04205324873328209,-0.28017351031303406,-0.31307971477508545,0.2510719299316406,-0.278540700674057,0.5378385782241821,-0.4830790162086487,-0.3754527270793915,-0.36744916439056396,-0.15518169105052948,-0.2747833728790283,0.5379081964492798,0.332145631313324,-0.8009315729141235,-0.31476035714149475,0.13248692452907562,0.39815619587898254,-0.6972512006759644,0.43433722853660583,0.26883798837661743,0.13320335745811462,0.29910045862197876,0.5943098664283752,-0.4725199043750763,-0.08654307574033737,-0.17427951097488403,0.32975584268569946,-0.1880846917629242,0.6825554370880127,0.10732554644346237,-0.429777055978775,0.1967947781085968,-0.28563210368156433,0.49791982769966125,-0.12088547646999359,-0.44733926653862,-0.356672465801239,-0.047475993633270264,0.2290586233139038,-0.5896553993225098,0.41166093945503235,0.07848905026912689,0.15167082846164703,-0.36576715111732483,-0.4833930432796478,-0.22979578375816345,-0.5775365233421326,0.03546877205371857,0.3493415415287018,-0.10742202401161194,0.39364197850227356,0.07559488713741302,0.09301313012838364,-0.4909442663192749,0.3109097182750702,0.1738128662109375,0.2498219907283783,-0.3052077889442444,0.42108213901519775,-0.08676191419363022,-0.1541176587343216,-0.08968717604875565,-0.3188786506652832,-0.41967466473579407,0.1109878346323967,0.2572360336780548,0.5350931286811829,-0.3829951286315918,0.2693512439727783,-0.3466324210166931,0.4939872622489929,-0.6101478934288025,-0.034302011132240295,-0.9941825270652771,0.13804471492767334,0.1775030791759491,-0.18974319100379944,-0.9148098230361938,-0.13001731038093567,-0.5145819783210754,-0.36458906531333923,-0.35046693682670593,0.2117149382829666,0.19886910915374756,0.008466633968055248,0.2745424509048462,-0.42975127696990967,0.49973589181900024,-0.02163853496313095,-0.050358593463897705,1.1100609302520752,0.3299669027328491,0.16757804155349731,-0.29167839884757996,-0.14665620028972626,0.4231972098350525,-0.1154775470495224,0.2562263011932373,0.7246111035346985,0.26683488488197327,-0.38157394528388977,-0.1579870730638504,-0.31971216201782227,-0.6191527247428894,-0.3706614673137665,-0.26315850019454956,0.3744233250617981,0.15412509441375732,0.26891735196113586,0.06698375195264816,-0.02946590445935726,-0.38727831840515137,0.2138526737689972,-0.2147335410118103,-0.03862002491950989,-0.4574197232723236,-0.38371068239212036,-0.10261084139347076,0.15247997641563416,-0.11958955228328705,-0.3469296991825104,0.6550868153572083,-0.315653532743454,0.28730055689811707,-0.20672133564949036,-0.4323182702064514,-0.28808435797691345,0.13768264651298523,-0.1181647777557373,-0.004493210464715958,0.3503575325012207,-0.036146000027656555,0.11199522018432617,-0.8689735531806946,0.3560921251773834,-0.37892842292785645,0.4535910487174988,-0.23948074877262115,0.6691129207611084,0.5744662880897522,0.2702067494392395,-0.03842836618423462,0.25986698269844055,-0.13617925345897675,0.4609358012676239,0.059959881007671356,0.23868396878242493,0.5779106616973877,0.3542216122150421,-0.6700506806373596,0.9013434052467346,-0.29876309633255005,0.05821041762828827,-0.3376874029636383,-0.3543408513069153,0.017326705157756805,-0.38897645473480225,-0.18492020666599274,0.7532361745834351,0.043242089450359344,-0.410003125667572,0.26416751742362976,0.11469879746437073,-0.3353230059146881,0.10158203542232513,-0.06387209892272949,0.3575330674648285,-0.3282678723335266,-0.36325958371162415,-0.056572169065475464,0.059467948973178864,0.07183841615915298,-0.1396944671869278,0.27269306778907776,0.13186222314834595,-0.20267868041992188,0.785062849521637,0.6795606017112732,-0.23322737216949463,0.49875327944755554,0.7226783633232117,0.11505129933357239,0.3049679100513458,-0.1361568123102188,-0.38634324073791504,0.30167365074157715,0.2606853246688843,0.022537268698215485,0.06551779061555862,-0.1817968487739563,0.1781291961669922,-0.18643665313720703,1.0104155540466309,-0.31048715114593506,-0.23320811986923218,0.09954017400741577,-0.29081857204437256,0.7017515301704407,0.17096975445747375,0.02522728592157364,-0.24850590527057648,-0.04842843860387802,-0.9309033751487732,-0.35116490721702576,-0.18763642013072968,-0.005992360413074493,-0.19155192375183105,-0.4856741726398468,0.24137112498283386,-0.4343504309654236,-0.2902209758758545,0.16079844534397125,-0.5542758107185364,-0.0898880586028099,0.1755126267671585,-0.12425069510936737,-0.515043318271637,0.6566241979598999,0.07233954221010208,0.13134418427944183,-0.6360266208648682,0.3040658235549927,0.5284296870231628,-0.09619666635990143,-0.24376192688941956,0.1868382692337036,-0.5570165514945984,0.18640640377998352,0.3806907832622528,-0.36418890953063965,0.031126119196414948,-0.14461976289749146,-0.5353769063949585,-0.07352052628993988,0.4732510447502136,-0.2741623818874359,-0.11976034939289093,0.3227755129337311,0.1431356519460678,-0.07471770793199539,0.5382853746414185,-0.729493260383606,-0.004899464547634125,-0.0836031585931778,-0.6024892926216125,0.830024003982544,-0.43977493047714233,-0.01864764653146267,-0.24937716126441956,0.2345397174358368,0.20249176025390625,0.001723824068903923,0.05464558303356171,0.20873814821243286,0.3478751480579376,-0.037297118455171585,0.20174168050289154,0.05246800184249878,0.015238631516695023,-0.010202564299106598,0.5652670860290527,-0.2583012878894806,0.6848089694976807,0.15654270350933075,-0.5595965385437012,0.13386787474155426,-0.9658727645874023,0.1643044650554657,0.05991504341363907,-0.09289693832397461,-0.02892889268696308,-0.16182544827461243,0.37390655279159546,0.16399790346622467,-0.425312340259552,-0.22309382259845734,0.2841864228248596,0.2603912055492401,0.21533158421516418,-0.3642248213291168,0.16143007576465607,-0.797827422618866,-0.8664764761924744,0.7128952741622925,-0.5048052072525024,0.34433701634407043,0.32828834652900696,0.21317791938781738,-0.38538551330566406,0.21346452832221985,-0.6243411302566528,0.5869250297546387,0.2409926801919937,0.5162754654884338,-0.20003467798233032,-0.2657031714916229,-0.4302498996257782,-0.12490573525428772,-0.20435276627540588,-0.5235909223556519,0.09065774083137512,0.6097368597984314,0.24297568202018738,0.12725362181663513,0.1822492480278015,-0.9513041973114014,-0.1525944024324417,0.28238531947135925,0.32678887248039246
paramedic,0.14355848729610443,-0.5638177990913391,0.5343533158302307,-0.07189164310693741,0.28781262040138245,0.19809490442276,0.2304883450269699,0.5703002214431763,-0.09824375063180923,-0.20860855281352997,0.20260852575302124,-0.4272659718990326,-0.30415794253349304,0.21502254903316498,-0.1339835673570633,0.9363119006156921,0.03657424449920654,0.051757264882326126,-0.19042392075061798,0.33283543586730957,-0.17453719675540924,-0.48553434014320374,-0.5759483575820923,0.08324798196554184,0.14576782286167145,0.21448670327663422,0.10327544808387756,0.4804457724094391,-0.2865506112575531,-0.5002159476280212,0.7353432774543762,-0.2937025725841522,-0.7540199160575867,0.22179198265075684,0.38466134667396545,0.34635767340660095,-0.25601768493652344,0.4747220575809479,-0.9400426745414734,-0.15928147733211517,-1.1357394456863403,-0.939467191696167,0.3605455458164215,0.6939617991447449,0.1237587034702301,0.4184204638004303,1.240786075592041,-0.8803224563598633,0.804879903793335,0.07702314853668213,-0.7889523506164551,0.05834590271115303,-0.18410052359104156,-0.39141735434532166,0.3563878536224365,0.47287848591804504,0.12038611620664597,-0.6157956123352051,-1.0538538694381714,0.1316404491662979,-0.3183823227882385,0.219045951962471,0.33820846676826477,-0.9311933517456055,0.2873851954936981,-0.2048226147890091,-0.09378089755773544,0.9146801829338074,-0.9392179846763611,-0.19295628368854523,0.32645848393440247,-0.0816178098320961,0.005150755401700735,-0.5532464981079102,-0.38298532366752625,0.08406700938940048,-0.25562354922294617,-0.030118683353066444,-0.1474648416042328,0.3431139290332794,-0.6463635563850403,0.6653444766998291,-0.296735942363739,0.78737473487854,0.4669756591320038,0.4652150571346283,-0.3911971151828766,0.3603239953517914,0.18945197761058807,0.8150205016136169,-0.06735611706972122,0.1768205165863037,-0.32156625390052795,-0.13938270509243011,0.020420799031853676,-0.15204782783985138,0.7351781725883484,-0.7440878748893738,-0.9255509972572327,0.3895486295223236,0.8071327209472656,-0.28263285756111145,0.07982566952705383,0.006291091442108154,-0.3225512206554413,-0.04935315251350403,0.015839822590351105,0.5206115245819092,0.021099666133522987,1.0949478149414062,0.5418424010276794,-0.41824427247047424,-0.05538242682814598,-0.8797733187675476,0.49388620257377625,0.7231166362762451,-0.26352566480636597,-0.24185454845428467,0.06357980519533157,-0.2258087396621704,0.24661217629909515,-0.46717819571495056,0.15513014793395996,1.5494076013565063,0.16083258390426636,0.6816306114196777,-0.31666454672813416,0.11060455441474915,0.4828759729862213,0.6705725789070129,0.9707233905792236,0.47613248229026794,0.21330112218856812,-1.0302977561950684,-0.25497904419898987,-0.5155448913574219,-0.1385616660118103,-0.4539659023284912,-1.0061804056167603,0.9287698268890381,0.08664707094430923,0.18852706253528595,0.7047436833381653,1.1513887643814087,0.15656186640262604,-0.3379195034503937,-0.5358714461326599,0.23541347682476044,-0.18810398876667023,0.1897125095129013,-0.3557542860507965,-0.1592329889535904,0.22939477860927582,-0.7866005301475525,-0.7818922996520996,-0.2892187535762787,-0.09346979856491089,0.16581588983535767,0.4309159815311432,0.43352922797203064,0.4964773654937744,-0.29715386033058167,0.15056391060352325,-0.021338114514946938,-0.390712171792984,0.6267240643501282,-0.22457380592823029,0.4381009638309479,-0.5593410134315491,0.6235092282295227,-0.3222266435623169,0.22854363918304443,1.1780809164047241,-0.6763036251068115,0.4438363015651703,0.22821585834026337,-0.16530750691890717,0.1654069721698761,0.4682374894618988,-0.09964334219694138,-0.08871563524007797,1.2653017044067383,0.21032260358333588,0.16350431740283966,0.6111823916435242,-0.13996611535549164,1.032349705696106,0.37605831027030945,-0.5549414157867432,-0.4441382884979248,0.18264509737491608,-0.2258187085390091,-0.8182026743888855,0.3905230760574341,-0.049752313643693924,-0.04346616938710213,-0.008249114267528057,0.5567587614059448,-1.1730095148086548,-0.8824548125267029,0.09796645492315292,-0.23898321390151978,0.21793048083782196,0.7105166912078857,-0.32359781861305237,-0.20114509761333466,0.29607143998146057,-0.13097362220287323,-0.09787694364786148,0.15074430406093597,-0.6140362024307251,0.32912635803222656,-0.6708313822746277,-0.011174440383911133,0.0684446319937706,-0.09899371862411499,-0.45858725905418396,0.03627687692642212,0.18505699932575226,-0.38897380232810974,-0.1832277923822403,-0.05437595769762993,-0.5146744251251221,-0.03295428678393364,0.1963844746351242,1.080191731452942,0.2562616467475891,-0.3786570131778717,-0.23802824318408966,0.27697405219078064,-0.04303659126162529,0.9073243737220764,0.04983970522880554,0.03700324520468712,-1.2194334268569946,-0.24744921922683716,-1.2763776779174805,-0.500339925289154,0.7828988432884216,-0.36415600776672363,-0.9619638323783875,-0.02446185238659382,1.1691868305206299,0.246794655919075,0.8025562167167664,0.4624595642089844,-0.3286016583442688,0.26465269923210144,0.2995944023132324,-0.1184047982096672,-0.6629584431648254,-0.4715462625026703,-0.1602194905281067,-0.7396343350410461,0.04064803943037987,0.26922789216041565,0.182636097073555,0.10748114436864853,-0.5727269053459167,0.6974284052848816,-0.5077201724052429,0.09978210926055908,0.2823730409145355,0.2691807448863983,-0.9064761996269226,-1.3825849294662476,-0.3140735924243927,0.6877977848052979,-0.3917427062988281,0.2422679215669632,-0.36444711685180664,-0.6877492070198059,-0.44646012783050537,0.3154127597808838,0.09217821806669235,0.2348070740699768,0.1499376744031906,0.1975765973329544,1.1383633613586426,-0.2899450361728668,0.5846924185752869,0.3950139582157135,-0.16261091828346252,-0.3425541818141937,-0.627996027469635,0.0028247337322682142,-0.10892973095178604,0.6275048851966858,-0.9082697033882141,-0.21866096556186676,-0.6141431927680969,0.37852606177330017,-0.7600114345550537,-0.5354043841362,0.1717820018529892,0.16919760406017303,-0.15483339130878448,0.21190471947193146,1.0281316041946411,-0.6526324152946472,-0.0426151417195797,0.014896239154040813,0.24436485767364502,0.1640690714120865,-0.4794236719608307,-0.03897620737552643,-0.044298205524683,-0.7267303466796875,-2.2916667461395264,0.10778412967920303,-0.48885247111320496,-0.22983978688716888,0.7712440490722656,0.22287648916244507,-0.25007539987564087,0.7851495742797852,-1.3849411010742188,0.13742004334926605,0.09533872455358505,-0.5616481304168701,0.6965709328651428,0.2757047116756439,-0.029268110170960426,-0.00806946586817503,-0.15959376096725464,-0.483067125082016,-0.26577815413475037,0.31070777773857117,0.5573428273200989,-1.5022516250610352,-0.1981344074010849,-0.10458146780729294,0.9846944212913513,0.45695269107818604,0.15056240558624268,0.5274363160133362,-0.893957793712616,0.004132916685193777,0.9941579699516296,-0.4099414050579071,0.20957881212234497,0.18302394449710846,0.42429956793785095,0.1765727549791336,-0.46266841888427734,-0.2807294428348541,-0.5830444097518921,-1.094516396522522,-0.6926622986793518,-0.34864541888237,0.2871182858943939,0.05422265827655792,1.0161489248275757,-0.7876575589179993,0.1516714245080948,0.6851444244384766,-0.13205628097057343,0.2621805667877197,-0.2750774621963501,0.058696258813142776,-0.2810456156730652,0.048601675778627396,-0.2949310541152954,-0.08525413274765015,0.7692263722419739,1.0048589706420898,-0.6551688313484192,-1.1732851266860962,0.37557902932167053,0.2140478938817978,-0.2784862518310547,-0.049048442393541336,-0.17533166706562042,-0.07557011395692825,-0.6080814003944397,-1.3122586011886597,-0.29096123576164246,-0.23858416080474854,-0.41498303413391113,0.1293150931596756,-1.1765800714492798,-0.46600213646888733,-0.7249984741210938,-0.1943911910057068,0.34116122126579285,-0.12298038601875305,0.06228676810860634,-0.6738577485084534,-0.44574594497680664,-0.0905291736125946,0.16909299790859222,-1.0499335527420044,-0.18522751331329346,-0.5647187829017639,-0.5612335801124573,0.10907887667417526,0.16532295942306519,-0.3325306475162506,0.4568965435028076,0.30680400133132935,0.2570701837539673,0.530832052230835,-0.7821564674377441,-0.5436078310012817,-0.49268051981925964,0.27848419547080994,0.6447679400444031,-0.8747422695159912,0.2547604441642761,-0.42934882640838623,1.1588454246520996,-0.13613349199295044,0.3080766797065735,-0.1684228628873825,-1.0026646852493286,-0.6401746273040771,-0.519116222858429,-0.07230594754219055,0.6017869114875793,-1.2757500410079956,1.5278520584106445,-0.796722948551178,-0.5999179482460022,0.5654687881469727,0.9171695113182068,0.30002453923225403,-0.07170464843511581,-0.8052157759666443,-0.04209548234939575,0.9867485165596008,0.17539291083812714,0.09807214885950089,0.029525896534323692,0.46534737944602966,0.35793694853782654,0.4455552101135254,0.6338930726051331,-0.10166492313146591,0.29927709698677063,-0.6569580435752869,-0.5068206787109375,1.0752898454666138,0.7106267809867859,0.3262941837310791,0.1609620451927185,-0.6549311876296997,-0.38511011004447937,0.7695396542549133,0.7362337708473206,0.09745562076568604,-0.5717890858650208,-0.6773934364318848,0.16919036209583282,0.2867054343223572,-0.20015506446361542,0.06744306534528732,0.027627626433968544,0.19736135005950928,-0.9679612517356873,0.19389724731445312,-0.44342008233070374,-0.587279736995697,0.375293105840683,-0.24501191079616547,0.2532980144023895,-0.2675635814666748,-0.5696890950202942,-1.2236138582229614,-0.23878417909145355,-0.03177236393094063,0.3919912278652191,0.7858734130859375,-0.49768638610839844,0.33102747797966003,-0.44758155941963196,-0.03285660222172737,-0.2908010482788086,0.43425217270851135,0.1632848083972931,0.2716057002544403,0.14757050573825836,0.2687093913555145,-0.3403371572494507,0.7602198123931885,-0.19536149501800537,0.21054816246032715,-0.6040876507759094,1.1364108324050903,-0.04570217430591583,-0.15345893800258636,-0.14650002121925354,0.015258063562214375,0.16966001689434052,0.07826555520296097,0.2563956081867218,-0.24474425613880157,-0.2069331258535385,-0.07947032898664474,-0.587333083152771,1.031866192817688,-0.47091010212898254,0.3232996463775635,-0.7133233547210693,-0.8298237919807434,-0.06901586055755615,-1.053936243057251,0.011151690967381,0.4816332757472992,-0.0839669331908226,-0.1614498645067215,0.009981225244700909,0.0801149383187294,-0.6320070028305054,0.100870780646801,-0.5765283703804016,0.6993744373321533,-0.2164626270532608,0.8855274319648743,-0.23465906083583832,-0.31733641028404236,-0.31353622674942017,-0.12477018684148788,-0.3822292387485504,-0.30250608921051025,0.5693459510803223,-0.28031083941459656,-0.544411838054657,0.2645348310470581,-0.6089065670967102,0.622138500213623,-0.4823959171772003,0.33665576577186584,-1.173183560371399,0.21732844412326813,-0.22674448788166046,0.5326413512229919,-0.7650051116943359,0.07369575649499893,-0.7846406102180481,-0.39580950140953064,-0.5967996120452881,-0.06224172189831734,0.04796159639954567,0.3130958378314972,0.19591479003429413,-0.5048900246620178,0.06949881464242935,-0.06695408374071121,-0.5878552794456482,0.8657957911491394,-0.15783222019672394,-0.14922866225242615,-0.14150290191173553,0.05765879154205322,0.16886992752552032,0.007414070423692465,0.1824352741241455,0.8961005210876465,0.2583417594432831,-0.29265841841697693,-0.03973105177283287,-0.7734231352806091,-0.15377627313137054,-0.7729564309120178,-0.09364631026983261,0.11774617433547974,0.09217331558465958,0.577275276184082,0.1564638465642929,-0.2569573223590851,-0.21552598476409912,0.6161178350448608,0.3994814455509186,-0.37694883346557617,0.1587838977575302,0.44483497738838196,-0.033681947737932205,-0.7398200631141663,0.21655432879924774,-0.05194371938705444,0.894189178943634,-0.03368769958615303,0.09051775187253952,-0.222711443901062,-0.3064675033092499,-0.6899388432502747,0.5792943835258484,-0.01202674675732851,0.07207563519477844,0.5403575301170349,-0.4436909854412079,0.787327766418457,-0.39491769671440125,0.4165557324886322,-0.6444645524024963,0.5732601284980774,-0.008671899326145649,0.5367162823677063,0.6806364059448242,0.7739238739013672,0.12112263590097427,0.005619774106889963,0.5743669867515564,0.785052478313446,0.43517789244651794,0.5399861335754395,0.3550929129123688,0.3969074487686157,-0.2572886049747467,-0.5760653018951416,-0.36518025398254395,-0.08539842814207077,0.10553848743438721,-0.047575969249010086,-0.25879397988319397,-0.5744338035583496,0.15664468705654144,0.6474124789237976,-0.4581556022167206,-0.6943274140357971,0.72359299659729,0.6035941243171692,-0.9572622179985046,-0.1397898644208908,-0.07059033960103989,0.07486177980899811,-0.41599583625793457,0.03764164075255394,-0.21901138126850128,0.33067628741264343,0.43428078293800354,-0.3317798674106598,0.3198062479496002,0.3279323875904083,-0.5497530102729797,0.591053307056427,0.23023009300231934,-0.1351308822631836,0.1488223373889923,0.14788706600666046,-0.04590584710240364,-0.20639562606811523,-0.17362594604492188,-0.5213792324066162,0.26135122776031494,0.7516723275184631,0.1955191045999527,-0.3256016969680786,-0.6841896176338196,0.05377174913883209,0.2688678503036499,1.2928234338760376,0.5222370028495789,0.3999779224395752,0.08464065194129944,-0.31263285875320435,0.6806774139404297,0.10635479539632797,0.04462467506527901,0.5249089598655701,0.5734491944313049,-0.3211252689361572,-0.30024394392967224,-0.0934239998459816,-0.006460973527282476,0.13111470639705658,0.04235916957259178,0.7256447672843933,-0.1609964221715927,-0.7634739875793457,0.5399434566497803,-1.2750085592269897,-0.5921227335929871,0.08079586178064346,0.6194218993186951,-0.6681360602378845,0.020462920889258385,0.8070416450500488,-0.38007763028144836,-0.8162941932678223,-0.5411639213562012,0.6749668717384338,-0.5639250874519348,-0.19379349052906036,-0.13780492544174194,-0.08849650621414185,0.08503057807683945,-0.0832485556602478,0.08168388158082962,0.44989922642707825,-0.542186439037323,0.30446183681488037,-0.48104128241539,0.013088499195873737,-0.16148416697978973,0.03334376588463783,0.7476344108581543,0.03373395651578903,0.0665329322218895,1.1373577117919922,-0.56268709897995,-0.5542199015617371,-0.5054728388786316,-0.5426403880119324,0.4631071984767914,-0.5312319397926331,0.3267882466316223,-0.6976469159126282,-0.2883915901184082,0.4971700608730316,0.12197376042604446,0.08205248415470123,-0.09410449862480164,0.18479889631271362,0.551430881023407,0.047286391258239746,0.14024923741817474,-0.14486706256866455,-0.17099814116954803,1.4509954452514648,-0.4836403429508209,0.7455997467041016,0.25001731514930725,-0.34607306122779846,0.17995642125606537,-0.9558963179588318,-0.4001515805721283,0.3876168429851532,-0.41758856177330017,0.7084483504295349,-0.5377170443534851,0.5510091781616211,-0.6778238415718079,-0.40315890312194824,0.37661388516426086,0.6601588129997253,0.274271696805954,0.5489342212677002,-0.060657307505607605,0.05212825909256935,-1.0580252408981323,-0.14430809020996094,0.16936485469341278,-0.9274418950080872,-0.36845827102661133,0.208134725689888,-0.8742892742156982,-0.5744633078575134,1.3248727321624756,-0.2765028476715088,0.8045374751091003,0.8368139863014221,1.2494244575500488,-0.017451660707592964,-1.256083369255066,-0.10808434337377548,-0.27944424748420715,-0.47786733508110046,-0.7965652346611023,-0.185990571975708,0.4441056251525879,0.14211629331111908,0.1903119683265686,-0.1294059008359909,-0.7297828197479248,-0.316677451133728,0.3314901292324066,0.15461112558841705
chef,0.7433685064315796,-0.2263655811548233,0.2656269371509552,0.11415477097034454,0.7499738335609436,-0.21234358847141266,0.16821680963039398,0.025236863642930984,0.7660078406333923,-0.5828278660774231,0.2525886595249176,-0.18266363441944122,-0.1376478672027588,-0.039285581558942795,-0.6651651859283447,0.12070957571268082,0.18113629519939423,0.2806699872016907,-0.328102171421051,1.0355572700500488,-0.21395325660705566,-0.28454819321632385,-0.3818032741546631,0.08981427550315857,-0.30749183893203735,0.2999914288520813,-0.9033152461051941,0.677597165107727,0.03055870532989502,-0.4265860617160797,0.6542730331420898,0.09472452849149704,0.11552071571350098,-0.23707741498947144,-0.3831520080566406,-0.18813036382198334,0.1668088734149933,0.5519633293151855,-0.646320641040802,0.19541862607002258,0.3506191074848175,-0.11031080037355423,1.0077141523361206,0.06885414570569992,0.09794692695140839,0.29242920875549316,0.6026968955993652,0.0182277113199234,0.5528621673583984,-0.2663741111755371,-0.023841820657253265,-0.03179261460900307,-0.3838047385215759,-0.5775969624519348,0.13933292031288147,0.605590283870697,-0.6742720603942871,-0.197810560464859,-0.009110009297728539,0.30134522914886475,-0.08652828633785248,0.897896409034729,0.36724817752838135,-0.6759312152862549,0.2026558816432953,0.04915792867541313,-0.3353515863418579,-0.0186140276491642,-0.5885873436927795,0.2919444739818573,-0.05062051862478256,0.15581421554088593,-0.17350605130195618,-0.14684011042118073,0.16201643645763397,0.21968647837638855,-0.11566640436649323,0.35403716564178467,0.11367589980363846,0.6109434366226196,-0.1746429204940796,-0.7157342433929443,-0.06480295211076736,0.930300235748291,0.14151474833488464,0.7176030874252319,-0.5446599721908569,0.08883725106716156,0.03492632880806923,0.6575585603713989,-0.1480526179075241,-0.4536777138710022,0.09791381657123566,-0.1685473769903183,-0.039159491658210754,0.021885491907596588,0.7266067266464233,-0.5518997311592102,0.4986976683139801,0.14545828104019165,0.5595146417617798,0.2617341876029968,-0.05366174876689911,0.8315344452857971,-0.7390317916870117,-0.3082551658153534,-0.5517269372940063,0.6641117930412292,0.2512977719306946,-0.0015126746147871017,-0.5468916893005371,-0.4374978244304657,-0.17673680186271667,-0.9129016995429993,-0.3971216678619385,0.3285912871360779,0.14173546433448792,-0.4283580482006073,0.14829865097999573,-0.5320431590080261,-0.089046910405159,0.3033885359764099,0.24052144587039948,1.4138447046279907,0.33726966381073,-0.5662741661071777,0.34162843227386475,0.15579470992088318,-0.4810463488101959,-0.5858467221260071,0.11531270295381546,0.48745080828666687,0.1492825746536255,-0.07221285253763199,-0.5772776007652283,-0.4065924882888794,-0.05801024287939072,-0.17189684510231018,-0.4652324616909027,-0.07302959263324738,-0.20060569047927856,0.7978425025939941,0.11859414726495743,0.5445222854614258,0.13698190450668335,-0.16076159477233887,-0.32304731011390686,-0.7259378433227539,0.6059167385101318,-0.6558538675308228,0.05162619426846504,0.28031641244888306,-0.15956750512123108,-1.2172856330871582,0.24329127371311188,0.5761495232582092,0.7075389623641968,0.2350047081708908,0.002953171730041504,-0.24146226048469543,0.2794681787490845,0.3198997974395752,0.18920578062534332,0.3568885922431946,0.26889845728874207,-0.4965403974056244,-0.3304142951965332,0.5470594763755798,-0.2313268780708313,0.39021846652030945,-0.3879014551639557,0.04313478618860245,0.8349711298942566,0.06488459557294846,0.6372789144515991,0.16526423394680023,-0.12966501712799072,0.06795138120651245,0.58990478515625,0.522777795791626,-0.06104961037635803,0.2726735770702362,0.3341290056705475,-0.5370489954948425,1.1063846349716187,-0.052875205874443054,0.608421266078949,-0.11234000325202942,0.25528132915496826,0.8583784103393555,-0.3088306188583374,-0.6812437176704407,-0.4865150451660156,0.18861016631126404,0.6694348454475403,0.35963451862335205,-0.3358779549598694,0.34086817502975464,-0.34948280453681946,-0.33456727862358093,-0.7099242210388184,-0.5649070143699646,0.1353730708360672,0.23195987939834595,-0.7926414012908936,0.39484161138534546,0.5971840620040894,-0.30092236399650574,0.39774903655052185,-0.08757998049259186,-0.23030097782611847,0.6734414100646973,0.23395627737045288,-0.10999057441949844,-0.32312673330307007,0.15967413783073425,-0.25751712918281555,-1.0315407514572144,0.44062530994415283,-0.1586635410785675,0.4408072233200073,0.3222011923789978,-0.5700874924659729,0.9001701474189758,-0.9670073986053467,1.0434238910675049,0.36382243037223816,0.08302637189626694,0.27751755714416504,0.885460615158081,0.380902498960495,0.5422906279563904,-0.07920058816671371,0.48114699125289917,0.22669273614883423,-0.24051134288311005,-0.32112520933151245,0.12353359162807465,0.6792311668395996,0.4160754680633545,-0.5607527494430542,-0.22491592168807983,0.019020654261112213,0.33648309111595154,-0.3629487156867981,0.9366499781608582,0.13849055767059326,-0.008106090128421783,0.10979168862104416,-0.5138776302337646,0.1709858924150467,0.10621408373117447,0.2952669560909271,-0.5573648810386658,0.1961260586977005,0.05595799535512924,0.11017194390296936,0.44679462909698486,-0.22850333154201508,0.5279614329338074,-0.23049373924732208,0.4404961168766022,0.8311847448348999,-0.29270118474960327,-0.7476345896720886,-0.2569444179534912,-0.32711970806121826,0.25437888503074646,0.6033390164375305,-0.03424515575170517,-0.20558443665504456,-0.7359524369239807,-0.38942191004753113,0.011834867298603058,-1.0218595266342163,-0.32341858744621277,0.25294625759124756,0.1797269731760025,0.6345164179801941,-0.8805723190307617,0.43279939889907837,0.618892252445221,0.07945656776428223,0.11941007524728775,-0.5862870812416077,-0.560849130153656,-0.07278145104646683,-0.01866225153207779,-0.4811757206916809,-0.5017856359481812,-0.10075563192367554,0.4417290985584259,-1.233546257019043,-1.2388237714767456,0.5815852880477905,-0.2900179326534271,0.3898053765296936,-0.3050219416618347,0.8746817111968994,-0.07323989272117615,0.4879090189933777,-0.2290736883878708,0.0889548733830452,0.37129688262939453,0.012755157425999641,0.47209542989730835,-0.11472274363040924,0.2622912526130676,-5.113708972930908,-0.7112013101577759,-0.2799626290798187,0.21032612025737762,0.5152032375335693,-0.018241550773382187,-0.40623754262924194,-0.4251786172389984,-0.30600833892822266,0.3026304543018341,-0.5704594254493713,-0.7743770480155945,0.5520368218421936,0.31735551357269287,-0.2928788363933563,0.44294142723083496,-0.3504646420478821,-0.04259827360510826,-0.13419696688652039,0.5676842331886292,0.669062077999115,-0.23646050691604614,-0.0559612438082695,0.16819384694099426,0.05276207625865936,0.6352593898773193,-0.2526630461215973,0.5316300988197327,-1.2516136169433594,-0.0225475262850523,0.4409925043582916,-0.01414971798658371,0.15277919173240662,-0.26703155040740967,0.271572083234787,0.30020925402641296,-0.45925483107566833,0.061737410724163055,0.2743496596813202,-0.24387429654598236,0.5270326733589172,0.48262691497802734,-0.4357640743255615,0.2128361463546753,1.079463005065918,-0.40134137868881226,-0.3935427963733673,-0.2461017668247223,0.3599357008934021,0.12423210591077805,-0.2090541273355484,-0.0015391595661640167,-0.05047442018985748,0.5092979073524475,0.43893784284591675,-0.2601194381713867,0.20854973793029785,0.4745309352874756,0.3576447665691376,-0.41711005568504333,-0.212646484375,-0.01663467101752758,-0.333528995513916,0.08515673875808716,0.01833534985780716,0.005749464500695467,-0.14230170845985413,-0.23306632041931152,-0.34983599185943604,-0.05964146554470062,0.02063731476664543,-0.7344129085540771,0.21459342539310455,-1.224227786064148,-0.661811888217926,-0.23002053797245026,0.24458448588848114,0.19170966744422913,-0.4051864743232727,-0.5370820164680481,0.432455837726593,-0.45386290550231934,0.04699230194091797,-0.5759886503219604,0.14628824591636658,-0.7877074480056763,-0.8871487379074097,-0.329958438873291,-0.31590452790260315,0.5520097017288208,0.7612622976303101,0.4895879030227661,0.8970215320587158,-0.006800515577197075,-0.3171325922012329,1.0216188430786133,-0.5105794668197632,0.1540268361568451,0.11978080868721008,-0.3460608124732971,-0.6961398124694824,-0.41380739212036133,1.30963933467865,-0.1197192370891571,0.7952240705490112,-0.30308109521865845,0.44842034578323364,0.0005124248564243317,-0.24909773468971252,0.6225401163101196,0.05375094711780548,-0.6440432071685791,-0.21714499592781067,0.1909169852733612,-0.38377565145492554,-0.2815709710121155,0.26987403631210327,0.48148441314697266,-0.32927826046943665,0.2448805868625641,0.09457052499055862,0.5771380066871643,0.0033222362399101257,-0.06127529591321945,-0.9372158050537109,0.0875108614563942,0.26874101161956787,-0.2454308569431305,0.4501798748970032,0.208462655544281,-0.10894230008125305,-0.3181561231613159,0.6515781879425049,0.02358386665582657,0.18110549449920654,0.4661760926246643,0.5352625846862793,-0.716736376285553,-0.9096067547798157,0.3677789568901062,0.22851930558681488,0.39771172404289246,-0.551494836807251,0.2871052920818329,-0.3174416422843933,0.5738247036933899,-0.24815422296524048,0.2999194860458374,0.07380328327417374,0.5794914960861206,-1.0136886835098267,0.3643999695777893,0.43304866552352905,-0.1092260330915451,0.022105813026428223,-0.7918080687522888,0.7360439300537109,-0.36251160502433777,-0.3813234567642212,0.14732852578163147,0.0947817862033844,-0.38126781582832336,-0.10451183468103409,0.6977481245994568,-0.6843775510787964,0.06916627287864685,-0.43426746129989624,0.3031701445579529,-0.28499025106430054,0.8061395883560181,-0.26835209131240845,0.5370045304298401,0.40046927332878113,0.5648674964904785,-0.7859723567962646,-0.5257983803749084,-0.3091304898262024,0.5182560682296753,-0.7203313708305359,0.8456802368164062,0.16921652853488922,-0.2349754422903061,0.2858940064907074,-0.10836833715438843,-0.22378548979759216,-0.8012813329696655,-0.4355393648147583,-0.25028637051582336,-0.03837471827864647,-0.3084557354450226,-0.9902901649475098,0.3494461178779602,-0.2659515142440796,0.07755666971206665,-0.06545513868331909,-1.0809303522109985,-0.05452771857380867,0.24742260575294495,0.5342720150947571,-0.23210562765598297,0.09744157642126083,0.5574805736541748,-0.10668732970952988,0.09580839425325394,0.6069313883781433,0.22285763919353485,0.25275468826293945,-0.07904205471277237,-0.456467866897583,0.7309061288833618,-1.0805023908615112,-1.0963231325149536,0.48800310492515564,-0.6644760966300964,-0.08869395405054092,0.38797321915626526,0.21460965275764465,0.11323335021734238,-0.4133604168891907,0.2063348889350891,-0.3713136911392212,0.15021121501922607,-0.7286011576652527,0.07673917710781097,-0.7910915017127991,-0.2862588167190552,-0.12962684035301208,0.7409738898277283,-1.4471142292022705,0.09454011172056198,-0.46599289774894714,0.019359353929758072,-0.3117069602012634,-0.20651157200336456,0.3394504487514496,0.38464486598968506,0.5654506087303162,-0.48075082898139954,0.46810829639434814,0.1538289487361908,-0.26652824878692627,0.10913530737161636,0.36136114597320557,0.14922946691513062,-0.32707658410072327,-0.5404879450798035,-0.14792406558990479,0.03790251910686493,-0.18106931447982788,0.1351410150527954,0.11024997383356094,-0.11214163899421692,-0.39108574390411377,-0.48798125982284546,-0.16848555207252502,-0.865582287311554,0.1531347632408142,0.40694159269332886,-0.30790773034095764,-0.18159984052181244,-0.2205018699169159,0.11711583286523819,0.12471894919872284,0.739272952079773,-0.2791023254394531,0.0670546367764473,0.3321894407272339,0.23738330602645874,-0.047433335334062576,-0.04139018803834915,0.46483296155929565,-0.6360053420066833,0.24055889248847961,-0.5369288325309753,0.696489691734314,-0.11860692501068115,-0.3483378291130066,-0.16478261351585388,0.705293595790863,-0.20618291199207306,-0.023717708885669708,0.2342878133058548,0.4408506155014038,0.20319733023643494,-0.275703102350235,0.08181501924991608,-0.5135825276374817,0.3822561502456665,-0.2416430562734604,0.6780247688293457,0.255786657333374,0.2199958711862564,0.8966702222824097,-0.2885056138038635,0.06262048333883286,0.47669413685798645,0.017386918887495995,0.145139679312706,-0.4842313230037689,0.023661570623517036,-0.7224066853523254,-0.6296684741973877,-0.3975646495819092,0.13632720708847046,-0.46218451857566833,0.009436380118131638,0.1418788880109787,-1.0692918300628662,-0.39294588565826416,-0.0335141196846962,0.01409844309091568,-0.8636002540588379,0.6334177851676941,-0.10595625638961792,-0.2706395089626312,-0.037811726331710815,-0.10051573812961578,0.44140949845314026,-0.8100787401199341,-0.09286053478717804,0.06726797670125961,-0.460784375667572,0.16730934381484985,-0.08454269170761108,0.42239469289779663,0.6964121460914612,-0.4944933354854584,0.29395487904548645,-0.5292419195175171,-0.9348365068435669,-0.36454886198043823,0.4904800057411194,-0.33093440532684326,0.1551005244255066,-0.5839338302612305,-0.03746388480067253,-0.10010065883398056,0.44075411558151245,-0.18558907508850098,0.6359332799911499,0.2307790070772171,0.269027441740036,-0.17437052726745605,0.5442572832107544,0.06866315752267838,-0.049490831792354584,-0.3219904899597168,-0.34689196944236755,0.9326303601264954,0.23705345392227173,-0.13583987951278687,0.18689097464084625,0.38650640845298767,-0.3033064901828766,-0.4024013578891754,0.3616979718208313,-0.5432151556015015,-0.050630345940589905,-0.8712691068649292,-0.1208072379231453,-0.29785656929016113,0.11261051893234253,0.6185025572776794,-0.9335095286369324,0.24537979066371918,0.27380847930908203,-0.8440434336662292,-0.11952333152294159,-0.1798657476902008,0.5257141590118408,0.3270057737827301,-0.8505019545555115,0.33725398778915405,0.12790316343307495,-0.14448514580726624,0.062378451228141785,-0.27347099781036377,0.06005939468741417,0.32249537110328674,0.41190358996391296,0.6633175015449524,-0.41955333948135376,-0.6678717136383057,-0.03077215887606144,-0.3428681492805481,0.6781104207038879,-0.21695451438426971,-0.34269481897354126,-0.3867515027523041,-0.20508328080177307,0.08914091438055038,0.6032074093818665,0.21287664771080017,-0.49548834562301636,-0.14923466742038727,-0.5273323059082031,-0.06989538669586182,-0.41294512152671814,0.14865055680274963,-0.5830910205841064,0.23971888422966003,0.05366675555706024,-0.13506153225898743,-0.25923147797584534,0.0537920780479908,0.9151293039321899,0.2594277560710907,0.07508871704339981,-0.562586784362793,-0.8400364518165588,0.05690646171569824,0.2641996145248413,-0.19723454117774963,-0.3020296096801758,0.20894137024879456,-0.5219665765762329,-0.29637759923934937,-0.14264169335365295,0.011533766053617,0.06119247525930405,-0.4428681433200836,1.0521824359893799,-0.19087132811546326,0.18663185834884644,0.05927310138940811,-0.15780922770500183,-0.18805599212646484,-0.21118766069412231,0.24291977286338806,-0.08909474313259125,0.1885250210762024,0.17198863625526428,-0.6879740953445435,-0.4685511291027069,-0.031145736575126648,-0.020290397107601166,0.3949805200099945,-0.1570962369441986,0.09258699417114258,-0.5560400485992432,0.62477046251297,0.46078160405158997,0.14279380440711975,0.3540365695953369,-0.6840863227844238,-0.2934513986110687,-0.3495832681655884,-0.34405362606048584,0.08527158200740814,0.0005529541522264481,0.11552345752716064,0.01981538161635399,0.5275166630744934,0.20489418506622314,0.13995572924613953,0.5280835628509521,-0.40053898096084595,-0.49081671237945557,0.42599090933799744,0.12386845052242279
dentist,0.2886870205402374,0.07512567937374115,0.09835890680551529,-0.04515499994158745,0.8087170720100403,0.09556195139884949,0.3900383710861206,0.7184460759162903,0.5241222977638245,-0.23334330320358276,0.1625780165195465,0.1444372683763504,0.2266017645597458,0.11922498792409897,-0.20441995561122894,0.35960841178894043,-0.07773086428642273,0.1666288673877716,0.18442405760288239,0.5979496240615845,-0.23745927214622498,-0.2071283459663391,-0.24729442596435547,0.004458345472812653,-0.35672512650489807,0.3547792136669159,-0.33018043637275696,1.0091415643692017,-0.27796536684036255,-0.7093931436538696,0.34808820486068726,0.08422449976205826,-0.2816254794597626,-0.01939699426293373,0.25456932187080383,-0.31743326783180237,0.16661302745342255,0.4067782759666443,-0.9427841305732727,0.22003066539764404,-0.048494916409254074,-0.38736680150032043,0.27918320894241333,0.7629219889640808,-0.18255561590194702,0.4213370978832245,0.17384006083011627,0.08635211735963821,0.625286340713501,-0.535554826259613,-0.15178489685058594,-0.015940655022859573,-0.04973027482628822,-0.34804534912109375,0.34431204199790955,0.03498217463493347,0.050276465713977814,-0.04549596458673477,-0.259583443403244,-0.06219646334648132,0.032805345952510834,0.17456784844398499,0.41498854756355286,-0.36705663800239563,0.423049658536911,0.1135389655828476,-0.20112712681293488,0.07486770302057266,-0.5300286412239075,0.06099382042884827,0.4054664969444275,0.6326677203178406,-0.20061327517032623,-0.2537563443183899,0.16943809390068054,0.07272567600011826,-0.658222496509552,-0.152729332447052,0.16586549580097198,0.5916958451271057,-0.39040932059288025,-0.5513184070587158,0.2964375913143158,0.3251115083694458,0.36361098289489746,-0.17038019001483917,0.21653372049331665,0.484291672706604,0.3036481738090515,0.2479681521654129,-0.27701660990715027,-0.2998647391796112,-0.3113809823989868,-0.04542311653494835,-0.2524743378162384,-0.43055108189582825,0.2584664225578308,-0.4994245171546936,-0.0400925874710083,-0.1821477711200714,0.9637144804000854,-0.4215068221092224,-0.19465109705924988,0.34399765729904175,-0.3115995526313782,-0.36945027112960815,-0.22856245934963226,0.33144432306289673,0.05804549902677536,0.4195970296859741,-0.4166509211063385,-0.012954548001289368,0.2708336114883423,-0.925441563129425,-0.3785068988800049,0.5900684595108032,-0.1949092447757721,-1.0500012636184692,-0.19564150273799896,-0.19297383725643158,-0.19057323038578033,0.323279470205307,0.36717918515205383,0.9570363759994507,0.07574020326137543,0.18838366866111755,0.05520870164036751,0.2232121378183365,-0.2673789858818054,0.07653817534446716,0.47714895009994507,-0.06233866140246391,0.20700810849666595,-0.3558212220668793,-0.0874306932091713,-0.686082124710083,-0.253243088722229,-0.23165196180343628,-0.4908417761325836,0.24758687615394592,0.48300701379776,0.6024255156517029,0.014416351914405823,0.6098299026489258,0.1933242678642273,-0.09456044435501099,-0.5133481025695801,0.006484052166342735,-0.20829075574874878,-0.08597734570503235,-0.09921997040510178,0.5819482207298279,-0.13038507103919983,-0.9575299620628357,0.1977425217628479,0.5443244576454163,0.32152852416038513,0.07146331667900085,-0.22445455193519592,0.26747310161590576,0.5886467099189758,-0.3714783787727356,-0.30355745553970337,0.811373233795166,-0.4212586283683777,-0.37019506096839905,-0.5864444971084595,0.003795117139816284,-0.2932881712913513,0.2473321557044983,-0.5810177326202393,0.21477974951267242,0.7782498002052307,-0.1468576192855835,0.3482280671596527,0.2607623040676117,0.2542583644390106,0.01962297409772873,0.5606244802474976,-0.15840211510658264,-0.01601797342300415,1.0425481796264648,-0.317617267370224,-0.12470497190952301,0.7462997436523438,-0.2386493682861328,0.9717731475830078,0.3794482946395874,-0.14953821897506714,0.015995696187019348,-0.2894977629184723,-0.9593751430511475,-0.5720540881156921,0.31619465351104736,0.5605504512786865,0.21198046207427979,-0.6805705428123474,0.06712645292282104,-0.8913374543190002,-0.31931132078170776,0.07090361416339874,-0.6850602626800537,0.12559178471565247,0.3707510232925415,-0.6671035289764404,-0.05535975098609924,-0.000797957181930542,-0.10291515290737152,0.4915100336074829,0.25688737630844116,-0.5658079385757446,0.02028447389602661,-0.2957644760608673,0.06891582906246185,-0.1977769136428833,0.131454199552536,-0.5225290060043335,-0.7400722503662109,0.7282646298408508,-0.3256230056285858,0.34756675362586975,-0.5215085744857788,-0.49055933952331543,0.23281803727149963,-0.3811420202255249,0.8809047937393188,0.3569292724132538,-0.2670515477657318,0.03531065583229065,0.36476120352745056,0.5634170174598694,0.8919206261634827,0.2636882960796356,0.39397040009498596,0.1029621809720993,-0.07985195517539978,-0.4157457649707794,-0.26062142848968506,0.3247842788696289,0.17289404571056366,-0.6815716028213501,-0.4342472553253174,0.5098802447319031,0.7118732333183289,0.2151065170764923,0.7799575328826904,-0.37450626492500305,0.15652889013290405,0.01670476794242859,-0.33978015184402466,-0.419344961643219,-0.10158954560756683,-0.09649773687124252,0.021290084347128868,0.7646785378456116,-0.08917400240898132,-0.03927907347679138,0.1613021194934845,-0.045596443116664886,0.16963648796081543,-0.439502477645874,0.37817540764808655,1.178128719329834,0.07187366485595703,-0.5279054045677185,-0.26300621032714844,-0.15215905010700226,0.24754513800144196,0.23213069140911102,0.5064723491668701,-0.23538771271705627,-0.2141685038805008,-0.1621159017086029,0.17077794671058655,-0.5009341239929199,-0.16351105272769928,0.4324767291545868,0.1856224536895752,0.3657270669937134,-0.6356208324432373,0.0035355202853679657,0.8816339373588562,-0.34488818049430847,-0.25469470024108887,-0.4465830326080322,-0.15792913734912872,0.03322184458374977,0.9239690899848938,-0.3387155532836914,-0.3924342095851898,-0.1346767693758011,0.6848892569541931,-0.6054869294166565,-0.9097388386726379,0.780962347984314,0.1570357084274292,0.08756861835718155,-0.38042551279067993,0.492903470993042,-0.6667357087135315,0.8023988604545593,-0.1555546224117279,0.28956565260887146,-0.06794117391109467,0.08371559530496597,0.30400118231773376,0.036198604851961136,-0.4158053994178772,-5.575947284698486,-0.341022253036499,-0.9107714891433716,-0.21262142062187195,0.5746520757675171,-0.22251775860786438,-0.29327642917633057,0.44986075162887573,-0.6297926902770996,0.2633382976055145,-0.2295697182416916,-0.3716667592525482,0.023969992995262146,0.30234667658805847,0.02166944183409214,-0.18996933102607727,-0.16126492619514465,0.17404776811599731,-0.27155280113220215,0.4172098934650421,0.3500445783138275,-0.9464162588119507,0.13640598952770233,0.07646571099758148,0.034715861082077026,1.4455605745315552,-0.46832531690597534,0.21533381938934326,-0.5353579521179199,0.13364070653915405,-0.022867200896143913,0.400120347738266,0.09000414609909058,0.3369387686252594,0.20275022089481354,0.31750941276550293,-0.3852441906929016,0.1607280969619751,0.552866518497467,-0.803501307964325,0.15376047790050507,0.45808732509613037,-0.05722680315375328,0.569813072681427,0.5310185551643372,-0.3074420988559723,-0.22922688722610474,0.6040329933166504,0.00877341628074646,0.5583418607711792,-0.19826075434684753,0.31665071845054626,-0.1359989196062088,0.6222499012947083,-0.050212305039167404,0.027716733515262604,-0.08059476315975189,0.6466034650802612,-0.6370401978492737,-0.6692025065422058,-0.28710654377937317,-0.08921690285205841,-0.32655927538871765,-0.3411969542503357,-0.3531299829483032,0.07752177119255066,-0.34229424595832825,-0.8511844277381897,-0.7143903970718384,0.08239230513572693,-0.2565791606903076,-0.9669956564903259,-0.5312106013298035,-1.0446974039077759,-0.639436662197113,-0.2781964838504791,-0.11594676971435547,-0.05133546516299248,-0.17715677618980408,0.3232249617576599,0.013834960758686066,-0.3726513087749481,0.5227463841438293,-0.38035809993743896,0.0687769427895546,-0.5301758050918579,-0.10820165276527405,-0.18707191944122314,-0.0269110556691885,0.16195735335350037,0.2628971338272095,0.4812455177307129,0.1946416050195694,-0.3441593050956726,-0.4134030342102051,-0.1083393394947052,-0.46259352564811707,0.43109139800071716,0.9199507236480713,-0.30657535791397095,0.04018004238605499,-0.47179412841796875,0.5972832441329956,0.21363264322280884,-0.0029219724237918854,-0.23029227554798126,-0.2764259874820709,0.003774452954530716,-0.628857433795929,0.18505245447158813,0.42699921131134033,-0.7987213730812073,0.6098288297653198,-0.2751837968826294,-0.08636787533760071,-0.15933483839035034,0.3871445655822754,0.05897287279367447,0.32311585545539856,-0.42860615253448486,0.020073994994163513,0.32392650842666626,0.4470984935760498,0.12329250574111938,-0.5382934212684631,0.44910696148872375,0.4368036389350891,0.1909325122833252,0.34909647703170776,0.3979801833629608,0.3434782028198242,0.0590285062789917,0.5528699159622192,-0.024039775133132935,0.15092036128044128,0.47613322734832764,0.11981860548257828,-0.603808581829071,-0.6482884287834167,0.19567742943763733,0.5338375568389893,0.21325761079788208,-0.011529872193932533,-0.05510515347123146,0.8729024529457092,0.041597478091716766,-0.6520258188247681,0.14214523136615753,0.28515034914016724,0.566878080368042,-0.6795916557312012,0.11452950537204742,-0.0475725382566452,-0.17856411635875702,0.4834827184677124,-0.4152742028236389,0.8606724739074707,-0.44006675481796265,-0.7076437473297119,-0.11904795467853546,0.07007770240306854,-0.3738054037094116,0.6370999217033386,0.375922828912735,-0.6895297765731812,0.246482715010643,-0.2563626766204834,0.6119385957717896,-0.1959327757358551,0.23679780960083008,0.034887105226516724,0.40691855549812317,0.3965129256248474,0.6904615759849548,-0.5664068460464478,0.10872936248779297,-0.20630475878715515,0.8524653911590576,0.13456858694553375,0.2579948604106903,0.41902098059654236,-0.4873062074184418,0.08331353962421417,-0.656370997428894,0.44301414489746094,-0.6034743189811707,-0.6175292134284973,-0.34728601574897766,-0.22997382283210754,0.028391923755407333,-0.5840286612510681,0.23602476716041565,0.03838745132088661,0.13168345391750336,0.007141169160604477,-0.7754830718040466,-0.10659128427505493,0.23881888389587402,0.39132165908813477,0.4168078601360321,-0.3418162167072296,0.4266739785671234,-0.33638811111450195,-0.14145106077194214,-0.3743119537830353,0.45127853751182556,0.018684707581996918,0.05650113523006439,-0.747565746307373,0.5883208513259888,-0.17900815606117249,-0.1897520124912262,-0.0811861902475357,-0.3740701675415039,-0.06408815085887909,-0.024335376918315887,0.4088617265224457,0.3628229796886444,-0.31609147787094116,0.3544829487800598,-0.03588242456316948,0.10316981375217438,-1.0643941164016724,0.13344576954841614,-1.273925542831421,0.137160524725914,-0.16127772629261017,0.2589174509048462,-0.9831734895706177,0.05769569054245949,-0.4813337028026581,-0.6214690208435059,-0.2703379988670349,0.06311678886413574,0.6008189916610718,0.44844159483909607,-0.008162520825862885,-0.41411954164505005,0.22609920799732208,-0.15409649908542633,-0.3407329022884369,0.43262219429016113,-0.3480640649795532,0.3178577721118927,-0.2858997881412506,0.10485956072807312,0.4696858823299408,-0.05468561127781868,-0.04068674519658089,0.4992411732673645,-0.04386948049068451,-0.16376672685146332,0.07717724144458771,-0.40481728315353394,-0.09341105073690414,-0.5378644466400146,-0.43386831879615784,-0.09757974743843079,-0.22732385993003845,0.34994834661483765,-0.10225190967321396,0.20167739689350128,0.2004575878381729,-0.019264932721853256,0.28779274225234985,0.26343590021133423,0.010416030883789062,0.0779571682214737,-0.18354439735412598,-0.15779316425323486,0.33146926760673523,-0.45980027318000793,0.3546537756919861,-0.4786374270915985,0.32082441449165344,-0.2067001760005951,-0.3090328872203827,-0.3546792268753052,0.7487571239471436,0.08851098269224167,-0.4953935146331787,0.4990944266319275,-0.33007651567459106,0.08728837966918945,-0.7655214071273804,0.43348467350006104,-0.4571801424026489,0.5815039277076721,-0.4840163290500641,0.6980237364768982,0.34026968479156494,0.3006499409675598,-0.1135680079460144,0.7271332144737244,-0.3017517030239105,0.8511822819709778,0.13899843394756317,0.1585327684879303,0.034996192902326584,0.05295255780220032,-0.3102705478668213,0.6248084306716919,-0.3214537501335144,0.0060500577092170715,-0.506630003452301,0.02136952430009842,0.023267943412065506,-0.6155679225921631,0.18663619458675385,0.5083807110786438,-0.04373011365532875,-0.48272383213043213,0.48110488057136536,0.0672234296798706,-0.6615039706230164,-0.13913261890411377,0.2072233408689499,0.6273934245109558,-0.6205456852912903,-0.2720751464366913,-0.3191043436527252,-0.05469696968793869,0.13417693972587585,-0.4672746956348419,0.09427838027477264,-0.04709074646234512,0.09622669965028763,0.7384076714515686,0.41162803769111633,-0.25940680503845215,0.46207934617996216,0.567101240158081,0.5658679008483887,-0.037315208464860916,0.2683303654193878,-0.2719176411628723,0.20183439552783966,0.42063310742378235,0.2529996633529663,-0.2654227316379547,-0.014212310314178467,0.5066301226615906,-0.9456111192703247,0.8443685173988342,0.19793736934661865,-0.3000250458717346,0.2729133665561676,-0.13677683472633362,0.36123496294021606,-0.22564272582530975,-0.03202094882726669,-0.5634889602661133,0.1937737762928009,-0.30661943554878235,-0.1710026115179062,0.11536233127117157,-0.27284353971481323,-0.16917331516742706,-0.6030939817428589,0.45719143748283386,-0.09727935492992401,-0.2453310191631317,0.2797028422355652,-0.5593988299369812,-0.20881390571594238,0.0683005303144455,-0.3159361481666565,-0.6997370719909668,0.49474185705184937,0.45899277925491333,-0.15184563398361206,-0.48548001050949097,0.24732787907123566,0.6259613633155823,-0.456472247838974,-0.3613109290599823,-0.183066263794899,-0.45842623710632324,0.2893439829349518,0.7687597870826721,0.507244348526001,0.0072004534304142,-0.4314822852611542,0.2924077808856964,-0.12698011100292206,-0.004232250154018402,0.2561052441596985,-0.07162050902843475,0.2996203899383545,-0.004022687673568726,-0.4049583375453949,0.6726678013801575,-0.5784119367599487,-0.3873599171638489,0.021166592836380005,-0.192977175116539,0.09682635962963104,-0.7160310745239258,0.19932103157043457,-0.42058447003364563,-0.1698971539735794,0.2966422736644745,0.1456330269575119,-0.1450006514787674,0.024344267323613167,-0.04305894672870636,0.3406457304954529,-0.15121717751026154,0.040241338312625885,-0.3734060227870941,0.45697087049484253,0.8314899206161499,-0.25168660283088684,0.013979529961943626,0.3011365532875061,-0.575928807258606,-0.26401758193969727,-0.7941165566444397,0.03783005475997925,-0.1637277603149414,-0.20338839292526245,0.27792611718177795,-0.08103145658969879,-0.3089628517627716,-0.22974719107151031,-0.24970489740371704,0.14810331165790558,0.1309136301279068,0.2957702577114105,-0.12917247414588928,-0.2939561903476715,0.019387636333703995,-0.18565033376216888,-0.47309809923171997,0.20944581925868988,-0.33604782819747925,0.16471335291862488,0.006462030112743378,0.29107949137687683,-0.7035099267959595,0.38633233308792114,-0.1775815784931183,0.34141695499420166,0.004070809110999107,0.4485280513763428,-0.4827445447444916,-0.5055726170539856,-0.6045341491699219,0.16785797476768494,-0.590212881565094,-0.3507862091064453,0.13165949285030365,0.14906084537506104,0.08701618015766144,-0.044811345636844635,0.22560688853263855,-0.6569569706916809,-0.03620443493127823,0.20723885297775269,-0.09051087498664856
maid,0.30015695095062256,-0.3080708980560303,0.5060186386108398,-0.3042116165161133,0.7945844531059265,-0.23378144204616547,1.0975147485733032,-0.3861030340194702,0.20766527950763702,-0.6107851266860962,0.21661093831062317,-0.8808644413948059,0.3627485930919647,0.13339373469352722,-1.1549280881881714,-0.08433419466018677,0.13400332629680634,-0.2877102494239807,0.0001987740397453308,0.5419691205024719,-0.506735622882843,0.4216579496860504,-0.2649594843387604,-0.22130879759788513,-0.23283551633358002,0.19254884123802185,-0.24663715064525604,0.7921812534332275,-0.06957241892814636,-0.15082961320877075,0.5791394710540771,0.06531302630901337,0.24349097907543182,0.24464452266693115,-0.5820842385292053,-0.01365947350859642,0.10609833896160126,0.551371693611145,-0.5529561638832092,-0.23817873001098633,-0.7781382203102112,-0.5566555261611938,0.5151653289794922,0.44407376646995544,-0.2757042348384857,0.17833077907562256,0.7965682744979858,-0.24610267579555511,0.18688072264194489,0.13546934723854065,-0.5338855385780334,0.6757972240447998,0.6564153432846069,-0.6438300609588623,0.34466806054115295,1.1471508741378784,-0.4990091323852539,-0.47247329354286194,-0.3937627375125885,-0.12322892993688583,-0.5515252947807312,0.37118569016456604,0.21425776183605194,-0.9368062615394592,0.08665717393159866,0.7034604549407959,0.22515904903411865,0.4467141032218933,-0.5618507266044617,0.215024933218956,0.3451034128665924,0.31285905838012695,-0.04564398527145386,-0.18229946494102478,-0.6584417819976807,-0.00738988071680069,-0.8234224319458008,-0.2920427918434143,0.07823847234249115,0.2085658311843872,-0.7893087267875671,0.17566537857055664,0.24537473917007446,1.028245449066162,-0.21526330709457397,0.2247106432914734,-0.31542322039604187,0.4621450901031494,-0.10968317091464996,0.36796969175338745,-0.1878805309534073,-0.42034783959388733,-0.5519356727600098,-0.22506597638130188,-0.005493286997079849,-0.2103668749332428,0.9390685558319092,-0.23618993163108826,-0.09792274981737137,0.44276881217956543,1.2764285802841187,-0.2348911166191101,0.4148602783679962,0.5573713779449463,-0.6554263830184937,-0.6278070211410522,-0.4737803637981415,-0.031647395342588425,0.1475178599357605,0.357723206281662,0.3051629662513733,-0.2889684736728668,0.041434504091739655,-0.8826411366462708,0.020229414105415344,0.7132152915000916,-0.5099062323570251,-0.6015737056732178,0.24474170804023743,0.17504346370697021,0.8469739556312561,-0.2775609493255615,0.3452613353729248,1.0379749536514282,0.056267958134412766,0.15194104611873627,0.37234318256378174,0.4340447187423706,-0.2010764330625534,-0.1841219663619995,0.35523995757102966,0.1833227425813675,-0.04162890464067459,-0.31388190388679504,-0.4098832309246063,-0.8080369234085083,-0.06261949241161346,-0.26552441716194153,-1.081006407737732,0.501655101776123,0.03365394473075867,1.1918320655822754,0.743333637714386,-0.052521489560604095,0.11555831879377365,0.5141576528549194,-0.2755441963672638,-0.529876172542572,0.24534812569618225,-0.6343199610710144,0.24997520446777344,0.3271551728248596,0.061961203813552856,0.12525656819343567,0.03621039539575577,-0.05305669456720352,0.2941550314426422,0.4650806188583374,-0.47112369537353516,0.07948005944490433,-0.29276278614997864,-0.11198738217353821,-0.12729182839393616,0.2330273985862732,-0.04157133027911186,0.15106621384620667,-0.44473081827163696,0.8688676953315735,-0.28879356384277344,-0.3178139626979828,-0.3315240144729614,0.07588070631027222,0.6482546329498291,-0.4662659764289856,0.5388245582580566,0.3457781672477722,0.13282527029514313,0.3586764633655548,0.9057052135467529,0.3876003324985504,0.19722947478294373,0.16052325069904327,0.22180812060832977,-0.031390152871608734,1.274382472038269,0.27446413040161133,0.36371129751205444,-0.3148346245288849,0.3800743520259857,-0.21224644780158997,0.2715981602668762,-0.08509422093629837,-0.8307992219924927,0.26537296175956726,0.2596173882484436,0.11263221502304077,-0.30712249875068665,0.004665501415729523,-0.8043345808982849,-0.22266057133674622,-0.269535630941391,-0.692470908164978,-0.1271231323480606,0.5024064779281616,-0.5649699568748474,0.3124390244483948,0.32124701142311096,0.07845141738653183,0.5041612982749939,0.3562341630458832,-0.8401301503181458,0.0631835088133812,0.07679571211338043,-0.0813484862446785,-0.024263329803943634,-0.17864327132701874,-0.06796011328697205,0.05235515534877777,0.9278438687324524,-0.027685118839144707,0.28861933946609497,-0.009006723761558533,-0.40070921182632446,0.5193309187889099,-0.7330130934715271,1.321485996246338,0.09989134967327118,-0.3748090863227844,0.033508799970149994,0.9057296514511108,0.537727415561676,0.2196817398071289,0.12647981941699982,0.4112728238105774,-0.028847508132457733,-0.1557026505470276,-1.2341704368591309,0.37509697675704956,0.458429753780365,0.19669251143932343,-0.5719907283782959,0.2645522654056549,0.7186191082000732,0.3472895622253418,0.5871423482894897,0.5279967188835144,-0.3404870927333832,0.022098056972026825,0.25647759437561035,-0.7004383206367493,-0.09011220932006836,-0.10405522584915161,0.07924234867095947,-1.2355190515518188,-0.4200105369091034,0.22713220119476318,-0.29540830850601196,0.20143915712833405,-0.5722428560256958,0.520106315612793,-0.07042168825864792,0.5247570276260376,0.7263852953910828,-0.06655667722225189,-0.5163945555686951,-0.4937438666820526,-0.10095961391925812,0.5267981290817261,0.2799327075481415,0.03687708452343941,0.3555240333080292,-0.19380046427249908,-0.282224178314209,0.5039913654327393,-0.3957253694534302,0.3172488510608673,0.2019546926021576,0.21449269354343414,0.31497877836227417,-0.7904058694839478,0.36692535877227783,0.5201241970062256,-0.38184621930122375,-0.28131183981895447,-0.04094567149877548,-0.7632395625114441,-0.06980467587709427,0.7329228520393372,-0.4604436755180359,-0.26756784319877625,-0.21880902349948883,0.173654705286026,-0.8781449198722839,-1.1068915128707886,0.8964917063713074,-0.29515931010246277,-0.13492295145988464,-0.002919130027294159,0.5894230604171753,-0.04706459864974022,0.010411970317363739,0.4536100924015045,0.49879002571105957,0.012773625552654266,0.24289563298225403,0.28459709882736206,-0.384093314409256,0.25763681530952454,-4.723036766052246,0.054192960262298584,0.4554821848869324,-0.09878525882959366,0.31685125827789307,-0.034421660006046295,-0.10529002547264099,-0.2876405119895935,-0.5517848134040833,0.8869030475616455,-0.10178481042385101,-0.91215580701828,0.5838173627853394,0.3741190731525421,0.21672047674655914,-0.09324678033590317,-0.269784152507782,-0.4737430810928345,-0.3573068380355835,0.5594973564147949,0.3517048954963684,-0.30376145243644714,-0.37897124886512756,-0.025896470993757248,0.03478953242301941,0.6598402857780457,-0.006802428513765335,0.23400242626667023,-0.9330132007598877,-0.3062683045864105,0.5492234230041504,-0.04360780119895935,0.7890676259994507,-0.09391284734010696,0.6608014106750488,-0.24051117897033691,-0.05469850078225136,-0.20284774899482727,0.1416093409061432,-1.1124324798583984,0.17045314610004425,0.23585566878318787,-0.10999777913093567,0.3600785434246063,0.39147499203681946,-0.2760005593299866,-0.6708269119262695,0.5126203894615173,0.27816131711006165,0.001204468309879303,-0.19955721497535706,0.48339635133743286,0.23586969077587128,-0.46117061376571655,-0.24265161156654358,0.09586668014526367,0.38233864307403564,1.1244224309921265,-0.14813971519470215,-0.1873411238193512,-0.5974562764167786,-0.16128379106521606,-0.2929997444152832,-0.38068145513534546,-0.049339521676301956,-0.6693539023399353,-0.7041752338409424,-0.3025820255279541,-0.14561378955841064,-0.3045819103717804,-0.6549355983734131,-0.850396990776062,-0.04122304171323776,-1.2338733673095703,-0.4392305016517639,0.5727236270904541,0.42481744289398193,-0.03934594243764877,-0.2662920653820038,-1.3564069271087646,-0.09675001353025436,-1.017008662223816,0.7709141969680786,-0.7173326015472412,-0.08326628059148788,-1.1374620199203491,-0.9336783289909363,-0.8303818702697754,0.17467136681079865,-0.06749515235424042,0.19871661067008972,0.6625153422355652,0.6546900868415833,-0.32090234756469727,-0.18895494937896729,0.36129269003868103,-0.16503916680812836,0.21349212527275085,0.6660560369491577,-0.5836736559867859,-0.4155527651309967,-0.4854655861854553,1.216788649559021,-0.5878675580024719,0.747908353805542,-0.03381093591451645,-0.21252769231796265,0.1286938488483429,0.08423076570034027,0.8049367666244507,0.5841549634933472,-0.9659802913665771,0.6780038475990295,0.018807366490364075,-0.7691296339035034,-0.8287376761436462,1.0166720151901245,0.26061558723449707,0.2656586468219757,0.3094525933265686,0.2342546284198761,0.5490677952766418,0.12533317506313324,-0.1343005746603012,-0.4581071734428406,0.29453182220458984,0.5478782653808594,1.0235071182250977,-0.03405506908893585,-0.5782663822174072,-0.15541419386863708,-0.13539868593215942,-0.18345791101455688,0.06206558644771576,0.24010713398456573,-0.01781357079744339,-0.13739469647407532,-0.5520563721656799,-0.6204637289047241,0.4721698462963104,0.22595547139644623,0.2898521423339844,-0.5766425728797913,0.025554660707712173,-0.14082695543766022,-0.6534900665283203,0.044381238520145416,0.25370877981185913,0.13253608345985413,0.8766761422157288,-0.734695553779602,0.25755029916763306,0.5235615968704224,0.0890444666147232,-0.18406853079795837,-1.1335903406143188,0.5943130254745483,0.37577131390571594,-0.611243724822998,0.1180463582277298,-0.4500674307346344,-0.60978764295578,-0.1297939419746399,0.8803021311759949,-0.9562280178070068,-0.006329800933599472,-0.02961367927491665,-0.0584116131067276,-0.028019987046718597,1.1920973062515259,-0.09535491466522217,0.6260637044906616,-0.09393741190433502,0.10845005512237549,-0.6828955411911011,0.15606263279914856,-0.3659214377403259,0.6482359766960144,-0.3133832514286041,1.21864652633667,0.29869699478149414,-0.06341990828514099,-0.18045930564403534,-0.3013213574886322,0.16922999918460846,0.27594882249832153,0.05699421465396881,-0.3217505216598511,0.32455962896347046,-0.15905898809432983,-0.6183629631996155,0.7668198347091675,-0.8312011957168579,-0.45810750126838684,-0.8821493983268738,-1.2846639156341553,-0.10379255563020706,0.2738783359527588,0.35428017377853394,0.22925513982772827,-0.04969261586666107,0.06632547825574875,0.1172228753566742,-0.031370650976896286,0.12520655989646912,0.21730537712574005,0.4585883617401123,0.3637273907661438,-0.4448847472667694,0.5903713703155518,-0.6881248354911804,-0.6431218385696411,-0.17651915550231934,-0.39211201667785645,-0.17612549662590027,-0.29966869950294495,0.22784459590911865,0.33613163232803345,-0.47559064626693726,0.22834977507591248,-0.8291049003601074,-0.2719195485115051,-0.44650378823280334,0.25419560074806213,-1.5612941980361938,-0.4179858863353729,-0.05651833862066269,0.1707586646080017,-0.807509183883667,0.05145004019141197,-0.18474255502223969,0.377043217420578,0.0532938577234745,-0.2552112936973572,0.17162051796913147,-0.29303714632987976,-0.23280327022075653,-0.8526131510734558,0.4548429250717163,0.40728968381881714,0.17574718594551086,0.04858624190092087,-0.10057191550731659,0.10209160298109055,-0.2754538059234619,-0.415086567401886,0.01375584676861763,-0.060021888464689255,0.06265562772750854,0.08355285972356796,0.1720137596130371,0.36844944953918457,0.2559621334075928,-0.6605868935585022,0.2447880208492279,0.4621342420578003,0.15751014649868011,0.7137479186058044,-0.08127361536026001,-0.13929595053195953,-0.3786298334598541,-0.5656024813652039,0.15038932859897614,0.24954503774642944,-0.5110663771629333,0.17984768748283386,0.5832651257514954,0.2656950354576111,-0.3448028564453125,-0.21973490715026855,0.3328150808811188,-0.11651507765054703,0.7321036458015442,-0.45769211649894714,0.5003367066383362,-0.1992749273777008,-0.635613739490509,-0.5505862832069397,1.0056736469268799,-0.418378621339798,-0.7977302074432373,0.10767006129026413,-0.08820567280054092,-0.05782799422740936,-0.621955931186676,0.482375830411911,-0.5138317346572876,-0.1107926070690155,-0.4484350085258484,0.5229169726371765,0.4461313486099243,0.4244840145111084,0.5371775031089783,0.5084936022758484,-0.4102678596973419,1.2127959728240967,-0.020727500319480896,0.37235546112060547,-0.012695850804448128,0.10069699585437775,-0.6984602808952332,-0.39045339822769165,0.04795766621828079,0.19349998235702515,-0.09811855852603912,-0.28149524331092834,0.030230168253183365,-1.2026687860488892,-0.7102227807044983,-0.4648406505584717,0.14540597796440125,-0.5122308731079102,1.0589852333068848,0.24987509846687317,-0.6538112759590149,0.0020610839128494263,0.16922920942306519,0.5185282826423645,-0.42984145879745483,-0.18607819080352783,0.023832695558667183,0.03102055937051773,0.1541932225227356,0.15706045925617218,0.17278507351875305,0.7818668484687805,-0.2640129029750824,0.36982905864715576,0.7263336777687073,-1.0676580667495728,-0.06382086873054504,-0.1264243870973587,-0.4536489248275757,0.20730583369731903,0.03519176319241524,-0.3509654700756073,-0.028567982837557793,0.6185720562934875,-0.2606588900089264,-0.33501556515693665,-0.07096806913614273,-0.26997312903404236,-0.01606645993888378,0.3816255033016205,0.25526171922683716,-0.01870930939912796,-0.18819192051887512,-0.45510783791542053,0.12152856588363647,-0.042606741189956665,-0.13403674960136414,0.17938311398029327,0.4348171651363373,-1.1238572597503662,-0.3895072042942047,0.7612848877906799,-0.4642050564289093,0.12438187003135681,-0.6802397966384888,0.5082310438156128,-0.7456545829772949,-0.33141833543777466,0.6569556593894958,-0.2642303705215454,0.1242065355181694,-0.2304370403289795,-0.36171862483024597,0.008869878947734833,0.03514961153268814,0.20669887959957123,0.26163268089294434,-0.15138065814971924,1.0410667657852173,0.7532426118850708,0.2604829668998718,-0.0292830690741539,-0.40128839015960693,-0.6902525424957275,0.12640058994293213,0.2721037268638611,0.567685604095459,-0.3995358645915985,-0.16520419716835022,0.360008180141449,-0.4550058841705322,0.49649548530578613,-0.45636433362960815,-0.22559413313865662,-0.39432063698768616,-0.2771468460559845,0.1692175269126892,0.5422719717025757,0.211345374584198,-0.028641698881983757,-0.21172817051410675,-1.2147197723388672,0.87525874376297,-0.3485340178012848,0.26475822925567627,-0.012125769630074501,0.26906368136405945,0.2740263044834137,-0.4186880886554718,0.3710158169269562,-0.09952787309885025,0.8100217580795288,0.16512525081634521,0.3659319579601288,-0.1582372486591339,-0.5950086116790771,0.3379342555999756,0.5788671374320984,-0.681454598903656,0.6682230234146118,-0.001339007169008255,-0.23695912957191467,-0.42489010095596313,-0.08793739974498749,0.3033596873283386,-0.2941146790981293,-0.5605082511901855,0.6883898377418518,0.6500679850578308,0.4511339068412781,0.07199312746524811,-0.5211086273193359,0.2677600681781769,-0.3204587697982788,0.5837035179138184,-0.41823917627334595,-0.49232766032218933,-0.33582013845443726,-0.31174930930137634,-0.07238505035638809,0.5621970891952515,-0.15896254777908325,-0.2024277150630951,-0.6198081970214844,0.18479186296463013,-0.621788740158081,1.0052253007888794,0.11703173816204071,-0.4319681227207184,0.2881188690662384,0.3133176863193512,-0.5063979029655457,-0.18232327699661255,-0.4802637994289398,0.6135485172271729,-0.24223491549491882,0.32446053624153137,0.19068533182144165,0.3966221213340759,-0.4146759808063507,0.6216513514518738,0.0702396035194397,-0.3411988914012909,-0.5719937086105347,0.06011834740638733,-0.00019567832350730896
