Profession,dim_0,dim_1,dim_2,dim_3,dim_4,dim_5,dim_6,dim_7,dim_8,dim_9,dim_10,dim_11,dim_12,dim_13,dim_14,dim_15,dim_16,dim_17,dim_18,dim_19,dim_20,dim_21,dim_22,dim_23,dim_24,dim_25,dim_26,dim_27,dim_28,dim_29,dim_30,dim_31,dim_32,dim_33,dim_34,dim_35,dim_36,dim_37,dim_38,dim_39,dim_40,dim_41,dim_42,dim_43,dim_44,dim_45,dim_46,dim_47,dim_48,dim_49,dim_50,dim_51,dim_52,dim_53,dim_54,dim_55,dim_56,dim_57,dim_58,dim_59,dim_60,dim_61,dim_62,dim_63,dim_64,dim_65,dim_66,dim_67,dim_68,dim_69,dim_70,dim_71,dim_72,dim_73,dim_74,dim_75,dim_76,dim_77,dim_78,dim_79,dim_80,dim_81,dim_82,dim_83,dim_84,dim_85,dim_86,dim_87,dim_88,dim_89,dim_90,dim_91,dim_92,dim_93,dim_94,dim_95,dim_96,dim_97,dim_98,dim_99,dim_100,dim_101,dim_102,dim_103,dim_104,dim_105,dim_106,dim_107,dim_108,dim_109,dim_110,dim_111,dim_112,dim_113,dim_114,dim_115,dim_116,dim_117,dim_118,dim_119,dim_120,dim_121,dim_122,dim_123,dim_124,dim_125,dim_126,dim_127,dim_128,dim_129,dim_130,dim_131,dim_132,dim_133,dim_134,dim_135,dim_136,dim_137,dim_138,dim_139,dim_140,dim_141,dim_142,dim_143,dim_144,dim_145,dim_146,dim_147,dim_148,dim_149,dim_150,dim_151,dim_152,dim_153,dim_154,dim_155,dim_156,dim_157,dim_158,dim_159,dim_160,dim_161,dim_162,dim_163,dim_164,dim_165,dim_166,dim_167,dim_168,dim_169,dim_170,dim_171,dim_172,dim_173,dim_174,dim_175,dim_176,dim_177,dim_178,dim_179,dim_180,dim_181,dim_182,dim_183,dim_184,dim_185,dim_186,dim_187,dim_188,dim_189,dim_190,dim_191,dim_192,dim_193,dim_194,dim_195,dim_196,dim_197,dim_198,dim_199,dim_200,dim_201,dim_202,dim_203,dim_204,dim_205,dim_206,dim_207,dim_208,dim_209,dim_210,dim_211,dim_212,dim_213,dim_214,dim_215,dim_216,dim_217,dim_218,dim_219,dim_220,dim_221,dim_222,dim_223,dim_224,dim_225,dim_226,dim_227,dim_228,dim_229,dim_230,dim_231,dim_232,dim_233,dim_234,dim_235,dim_236,dim_237,dim_238,dim_239,dim_240,dim_241,dim_242,dim_243,dim_244,dim_245,dim_246,dim_247,dim_248,dim_249,dim_250,dim_251,dim_252,dim_253,dim_254,dim_255,dim_256,dim_257,dim_258,dim_259,dim_260,dim_261,dim_262,dim_263,dim_264,dim_265,dim_266,dim_267,dim_268,dim_269,dim_270,dim_271,dim_272,dim_273,dim_274,dim_275,dim_276,dim_277,dim_278,dim_279,dim_280,dim_281,dim_282,dim_283,dim_284,dim_285,dim_286,dim_287,dim_288,dim_289,dim_290,dim_291,dim_292,dim_293,dim_294,dim_295,dim_296,dim_297,dim_298,dim_299,dim_300,dim_301,dim_302,dim_303,dim_304,dim_305,dim_306,dim_307,dim_308,dim_309,dim_310,dim_311,dim_312,dim_313,dim_314,dim_315,dim_316,dim_317,dim_318,dim_319,dim_320,dim_321,dim_322,dim_323,dim_324,dim_325,dim_326,dim_327,dim_328,dim_329,dim_330,dim_331,dim_332,dim_333,dim_334,dim_335,dim_336,dim_337,dim_338,dim_339,dim_340,dim_341,dim_342,dim_343,dim_344,dim_345,dim_346,dim_347,dim_348,dim_349,dim_350,dim_351,dim_352,dim_353,dim_354,dim_355,dim_356,dim_357,dim_358,dim_359,dim_360,dim_361,dim_362,dim_363,dim_364,dim_365,dim_366,dim_367,dim_368,dim_369,dim_370,dim_371,dim_372,dim_373,dim_374,dim_375,dim_376,dim_377,dim_378,dim_379,dim_380,dim_381,dim_382,dim_383,dim_384,dim_385,dim_386,dim_387,dim_388,dim_389,dim_390,dim_391,dim_392,dim_393,dim_394,dim_395,dim_396,dim_397,dim_398,dim_399,dim_400,dim_401,dim_402,dim_403,dim_404,dim_405,dim_406,dim_407,dim_408,dim_409,dim_410,dim_411,dim_412,dim_413,dim_414,dim_415,dim_416,dim_417,dim_418,dim_419,dim_420,dim_421,dim_422,dim_423,dim_424,dim_425,dim_426,dim_427,dim_428,dim_429,dim_430,dim_431,dim_432,dim_433,dim_434,dim_435,dim_436,dim_437,dim_438,dim_439,dim_440,dim_441,dim_442,dim_443,dim_444,dim_445,dim_446,dim_447,dim_448,dim_449,dim_450,dim_451,dim_452,dim_453,dim_454,dim_455,dim_456,dim_457,dim_458,dim_459,dim_460,dim_461,dim_462,dim_463,dim_464,dim_465,dim_466,dim_467,dim_468,dim_469,dim_470,dim_471,dim_472,dim_473,dim_474,dim_475,dim_476,dim_477,dim_478,dim_479,dim_480,dim_481,dim_482,dim_483,dim_484,dim_485,dim_486,dim_487,dim_488,dim_489,dim_490,dim_491,dim_492,dim_493,dim_494,dim_495,dim_496,dim_497,dim_498,dim_499,dim_500,dim_501,dim_502,dim_503,dim_504,dim_505,dim_506,dim_507,dim_508,dim_509,dim_510,dim_511,dim_512,dim_513,dim_514,dim_515,dim_516,dim_517,dim_518,dim_519,dim_520,dim_521,dim_522,dim_523,dim_524,dim_525,dim_526,dim_527,dim_528,dim_529,dim_530,dim_531,dim_532,dim_533,dim_534,dim_535,dim_536,dim_537,dim_538,dim_539,dim_540,dim_541,dim_542,dim_543,dim_544,dim_545,dim_546,dim_547,dim_548,dim_549,dim_550,dim_551,dim_552,dim_553,dim_554,dim_555,dim_556,dim_557,dim_558,dim_559,dim_560,dim_561,dim_562,dim_563,dim_564,dim_565,dim_566,dim_567,dim_568,dim_569,dim_570,dim_571,dim_572,dim_573,dim_574,dim_575,dim_576,dim_577,dim_578,dim_579,dim_580,dim_581,dim_582,dim_583,dim_584,dim_585,dim_586,dim_587,dim_588,dim_589,dim_590,dim_591,dim_592,dim_593,dim_594,dim_595,dim_596,dim_597,dim_598,dim_599,dim_600,dim_601,dim_602,dim_603,dim_604,dim_605,dim_606,dim_607,dim_608,dim_609,dim_610,dim_611,dim_612,dim_613,dim_614,dim_615,dim_616,dim_617,dim_618,dim_619,dim_620,dim_621,dim_622,dim_623,dim_624,dim_625,dim_626,dim_627,dim_628,dim_629,dim_630,dim_631,dim_632,dim_633,dim_634,dim_635,dim_636,dim_637,dim_638,dim_639,dim_640,dim_641,dim_642,dim_643,dim_644,dim_645,dim_646,dim_647,dim_648,dim_649,dim_650,dim_651,dim_652,dim_653,dim_654,dim_655,dim_656,dim_657,dim_658,dim_659,dim_660,dim_661,dim_662,dim_663,dim_664,dim_665,dim_666,dim_667,dim_668,dim_669,dim_670,dim_671,dim_672,dim_673,dim_674,dim_675,dim_676,dim_677,dim_678,dim_679,dim_680,dim_681,dim_682,dim_683,dim_684,dim_685,dim_686,dim_687,dim_688,dim_689,dim_690,dim_691,dim_692,dim_693,dim_694,dim_695,dim_696,dim_697,dim_698,dim_699,dim_700,dim_701,dim_702,dim_703,dim_704,dim_705,dim_706,dim_707,dim_708,dim_709,dim_710,dim_711,dim_712,dim_713,dim_714,dim_715,dim_716,dim_717,dim_718,dim_719,dim_720,dim_721,dim_722,dim_723,dim_724,dim_725,dim_726,dim_727,dim_728,dim_729,dim_730,dim_731,dim_732,dim_733,dim_734,dim_735,dim_736,dim_737,dim_738,dim_739,dim_740,dim_741,dim_742,dim_743,dim_744,dim_745,dim_746,dim_747,dim_748,dim_749,dim_750,dim_751,dim_752,dim_753,dim_754,dim_755,dim_756,dim_757,dim_758,dim_759,dim_760,dim_761,dim_762,dim_763,dim_764,dim_765,dim_766,dim_767
professor,-0.4457015097141266,-0.5577961206436157,-0.41625794768333435,-0.009729631245136261,0.34676018357276917,-0.12757577002048492,0.32840001583099365,0.9211241602897644,0.5348311066627502,-0.16401520371437073,-0.2551901638507843,-0.30598631501197815,0.1144590675830841,0.575614333152771,0.15384745597839355,-0.06617329269647598,0.07446172833442688,-0.3286013603210449,-0.854962170124054,0.6796748638153076,-1.1268188953399658,0.04498247802257538,0.26780620217323303,0.2206619679927826,-0.4274883270263672,-0.2604714632034302,-0.5819087624549866,1.3174821138381958,-0.12647445499897003,0.44551917910575867,0.30286648869514465,-0.03106377273797989,-0.27747708559036255,0.019526854157447815,-0.37926724553108215,-0.2986125946044922,-0.1249568909406662,0.42478591203689575,-0.31616899371147156,0.08006492257118225,0.09024854004383087,-0.24377287924289703,-0.3328801989555359,0.8814666271209717,-0.18031229078769684,-0.12624143064022064,0.5739991068840027,0.23670431971549988,0.9887696504592896,-0.7204943895339966,-0.6374198198318481,0.3266642987728119,-0.3692156970500946,-0.13825233280658722,0.2519713044166565,0.15056972205638885,-0.8479667901992798,-0.503921627998352,0.43831244111061096,-0.8548418283462524,-0.1323840320110321,0.39577364921569824,-0.06612591445446014,-0.7079747915267944,0.7236206531524658,0.511107861995697,-0.6619976758956909,0.38545989990234375,-0.9917341470718384,-0.2449430227279663,-0.13225029408931732,0.20517322421073914,0.23879003524780273,-0.039930351078510284,0.7529868483543396,-0.1365526020526886,0.07109814137220383,0.2537074387073517,-0.059961993247270584,-0.0882849246263504,-0.33518481254577637,0.8045177459716797,0.07538599520921707,0.13428568840026855,-0.10656324028968811,-0.0628730058670044,0.1144602969288826,0.4658154845237732,0.432792991399765,0.23753830790519714,-0.32095909118652344,-0.3583201766014099,-0.34833356738090515,0.062067534774541855,0.23591797053813934,-0.1998659074306488,0.2840679883956909,-0.3631986379623413,-0.3466268479824066,-0.41332441568374634,0.13571852445602417,-1.8331550359725952,-0.03643851727247238,0.4721561074256897,-0.3648380935192108,-0.09329193830490112,-0.5972886085510254,0.23267169296741486,-0.14144544303417206,0.5037174224853516,-0.13606344163417816,0.21285057067871094,-0.08270275592803955,-1.2250535488128662,-0.23377367854118347,1.0016423463821411,0.6677924990653992,-0.899470865726471,0.06613282114267349,0.22011688351631165,0.0744120255112648,-0.09030382335186005,0.5516303777694702,0.6623186469078064,0.09348702430725098,0.1310233771800995,0.07027345150709152,0.3431165814399719,-0.06498368829488754,-0.475957453250885,0.42323821783065796,0.18971402943134308,0.49246469140052795,-0.1956768035888672,-0.6125493049621582,0.04081495851278305,-0.6485195159912109,-0.022930720821022987,-1.2687559127807617,0.4082489013671875,0.18165141344070435,0.23579084873199463,-0.09017804265022278,-0.46019619703292847,-0.1358082890510559,0.34132739901542664,-0.3349206745624542,-0.04425276070833206,0.6536206007003784,0.05016006529331207,0.05690427124500275,0.13180454075336456,0.050926968455314636,-0.6836114525794983,0.41142621636390686,0.1625235676765442,-0.4421480596065521,0.4028765559196472,-0.3213319182395935,0.05209996551275253,0.5398250222206116,-0.149472177028656,-0.35792407393455505,1.1192851066589355,-0.5078080892562866,-0.19084620475769043,-0.19656002521514893,0.2951124310493469,0.3452845513820648,-0.44726303219795227,-0.2770933508872986,-0.2621295154094696,1.182673692703247,-0.05642421916127205,0.35009998083114624,0.2345253974199295,-0.09803488105535507,0.4629358649253845,0.96156245470047,0.5199815630912781,0.09770312905311584,-0.25728538632392883,-0.10995014011859894,-0.38410481810569763,-0.015301182866096497,-0.14813381433486938,1.095388412475586,0.40333235263824463,-0.1696978658437729,-0.23442697525024414,-0.05200605094432831,-0.3657325208187103,-0.43725764751434326,-0.06943260133266449,0.9364925026893616,0.2150554060935974,-0.2911696434020996,-0.3656100332736969,-0.21953228116035461,0.48782268166542053,0.15273326635360718,-0.7376915812492371,0.0009329579770565033,0.39038005471229553,0.1652245819568634,0.5784611701965332,-0.03067260980606079,0.1709427833557129,0.8445814251899719,-0.25504329800605774,-0.2838432788848877,0.6567502617835999,0.044460881501436234,0.5591091513633728,-0.06755422055721283,-0.19336412847042084,-0.5633769631385803,-0.45071813464164734,0.5032241344451904,0.4020533859729767,0.38699871301651,-0.05720687285065651,-0.06974676996469498,0.7288484573364258,-0.6511884331703186,1.2543344497680664,0.5240543484687805,0.17314663529396057,0.15865787863731384,0.6498170495033264,0.40978679060935974,0.019430849701166153,0.6062692999839783,0.996899425983429,-0.4070635437965393,-0.2970409393310547,-0.7919088006019592,0.1453767865896225,0.20343054831027985,0.479994535446167,-0.37837541103363037,-0.09307818859815598,-0.06659246236085892,0.10263149440288544,0.49590906500816345,0.5359396934509277,0.005348760634660721,0.2901288568973541,0.5406113266944885,-0.404643714427948,-0.02804410830140114,-0.8174331784248352,-0.1555958241224289,0.05315660685300827,0.11904602497816086,0.6363615393638611,-0.11626023054122925,0.3877255618572235,-0.10157643258571625,-0.20733386278152466,0.7863357663154602,0.13234946131706238,0.08504484593868256,-0.07995323836803436,-0.34006908535957336,-0.05583818256855011,0.3506651520729065,0.008905090391635895,0.3055746555328369,0.3676804304122925,-0.38933974504470825,-0.21151351928710938,0.6784971952438354,0.18790343403816223,-0.9577493667602539,-0.3751267194747925,0.3359750211238861,0.11102493107318878,-0.1499304622411728,-0.07004713267087936,0.6248152852058411,0.22789837419986725,-0.8724176287651062,0.0009750649333000183,0.18117982149124146,-0.8910806775093079,0.508655846118927,0.6509609222412109,0.5191478729248047,-0.3618185222148895,-0.3734889030456543,0.47527387738227844,-0.4380800426006317,-1.0296800136566162,0.46443283557891846,-0.6257767081260681,0.2914324104785919,-0.055819183588027954,0.3457440733909607,0.29633715748786926,-1.1296119689941406,0.0983993411064148,-0.03340773656964302,0.5958313345909119,-0.26397189497947693,0.004774276167154312,-0.12059517204761505,-0.02741866745054722,-5.125168323516846,-0.24552322924137115,-0.5612165927886963,0.06854292005300522,0.4741336405277252,-0.22136709094047546,0.02503858134150505,0.028657298535108566,-0.5993057489395142,-0.47386762499809265,-0.2101457566022873,-0.8836138248443604,-0.25382402539253235,0.5424955487251282,-0.3355942964553833,-0.0723455548286438,-0.15489709377288818,0.13628195226192474,-0.32153376936912537,0.6043462753295898,0.13279235363006592,-0.012647289782762527,-0.7784708738327026,-0.0773511677980423,0.055488914251327515,0.4331398010253906,-1.0107914209365845,0.16453367471694946,-0.4896858334541321,-0.12386653572320938,0.1405671387910843,-0.4099529981613159,0.5183789730072021,-0.006254184991121292,-0.30377429723739624,0.2590060532093048,-0.6212066411972046,0.358333557844162,0.1709204912185669,-0.13593316078186035,-0.3233230710029602,-0.28636977076530457,0.22656351327896118,1.4180132150650024,0.852557897567749,-0.22609034180641174,-0.3127387762069702,-0.7478511929512024,0.12849101424217224,0.09617426991462708,-0.17091116309165955,-0.021820399910211563,0.9565442204475403,0.06416063010692596,-0.3196539878845215,0.17909002304077148,0.05843420326709747,1.0537911653518677,-0.033030107617378235,-0.5879282355308533,-0.39456984400749207,-0.10417212545871735,-0.4573112726211548,-0.0630696564912796,0.5323205590248108,0.03142230957746506,-0.13934876024723053,-0.7510918378829956,-0.4619615972042084,0.11991040408611298,-0.39726394414901733,0.16670860350131989,-0.9054567813873291,-1.2925676107406616,-0.6056579351425171,-0.10922231525182724,0.003442276269197464,-0.4443027079105377,-0.48645099997520447,-0.008918222971260548,0.06041407212615013,-1.1814323663711548,1.3989603519439697,-0.29755574464797974,0.02616177685558796,-0.8667725920677185,-0.13007508218288422,-0.6308125853538513,0.40397074818611145,-0.11316666752099991,0.9470392465591431,0.2615790069103241,0.7226865291595459,-0.6430874466896057,0.37618884444236755,0.41730690002441406,-0.21377399563789368,0.33358559012413025,0.46423548460006714,0.5317264795303345,-0.44935908913612366,-0.30609482526779175,0.20340082049369812,0.24080537259578705,0.6412680745124817,0.36900097131729126,-0.15956977009773254,0.8305701613426208,-0.01704699546098709,0.9491508603096008,0.4499676525592804,-0.12410100549459457,0.05268165096640587,0.12849389016628265,0.034091539680957794,-0.5141310691833496,0.535362184047699,-0.031698182225227356,0.6713555455207825,-0.12592928111553192,-0.12300436943769455,0.9682676792144775,-0.5315520167350769,0.07814925909042358,-0.44038742780685425,0.3740544617176056,-0.1616099327802658,-0.4641193747520447,0.3629847466945648,-0.1340578943490982,-0.13905230164527893,0.16191726922988892,0.3450508117675781,0.3280918598175049,0.10020230710506439,0.24712300300598145,0.3633427619934082,0.13121169805526733,-0.4196082651615143,0.005544528365135193,-0.06380563229322433,0.08800016343593597,0.10373367369174957,-0.42731013894081116,-0.03892231360077858,-0.05325668677687645,-0.5690935850143433,0.5933717489242554,0.2215782105922699,0.10426297038793564,-0.21355660259723663,0.225922629237175,-0.15899619460105896,-0.20258763432502747,0.604438841342926,-0.558984100818634,0.3470011353492737,-0.33268189430236816,-0.30451157689094543,0.14918923377990723,-0.16167668998241425,-0.12992529571056366,0.1434282809495926,-0.09525301307439804,-0.45784300565719604,0.4552278220653534,0.12712177634239197,0.3226722776889801,0.1864212155342102,0.5287811160087585,-0.3156874179840088,-0.3967975378036499,0.1465151160955429,0.13943006098270416,-0.7950400114059448,-0.1341361701488495,-0.4924268424510956,0.250717431306839,-0.3965906500816345,0.37136128544807434,0.26858654618263245,0.2929980456829071,-0.6643931269645691,-0.5452168583869934,0.12000329792499542,0.15307335555553436,-0.14201092720031738,-0.06345620006322861,0.25657522678375244,-0.1924712359905243,-1.191909670829773,0.10520097613334656,-0.5926039814949036,0.17488591372966766,-0.6786402463912964,-1.0579166412353516,-0.07074277102947235,0.31800466775894165,0.054619356989860535,0.5764057636260986,-0.4812178611755371,0.8688687682151794,0.36526575684547424,0.1383230984210968,-0.41781169176101685,0.3857278525829315,0.5995410680770874,-0.38503575325012207,-0.3085406720638275,0.2753055691719055,-0.8158648610115051,-0.09564372152090073,-0.4583715498447418,-0.3056083023548126,0.2754860520362854,0.3541814088821411,0.1387319266796112,-0.16213275492191315,-0.12869568169116974,0.7857792973518372,-0.5238189101219177,0.11713489890098572,-0.6225827932357788,0.4206574559211731,-0.1845303773880005,-0.49484413862228394,-0.20718754827976227,0.5035231113433838,-1.357472538948059,-0.5138537883758545,0.17372296750545502,0.03819931671023369,-0.27085810899734497,0.23907174170017242,0.6290663480758667,-0.2630977928638458,0.1668747365474701,-0.5901492834091187,-0.09888233244419098,-0.14479079842567444,0.6671240329742432,-0.3680843710899353,-0.5604687333106995,0.27013543248176575,0.18816405534744263,0.5522456765174866,0.4249126613140106,0.6331132054328918,0.30755800008773804,0.4023175537586212,-0.013182960450649261,-0.15478777885437012,-0.38122016191482544,-0.41962793469429016,0.008334241807460785,-0.07887346297502518,-0.1632823944091797,-0.22731253504753113,0.27921634912490845,-0.12560410797595978,-0.1705365777015686,0.6767613291740417,-0.5811856389045715,0.04016764461994171,-0.36609092354774475,0.23793551325798035,0.01877763494849205,-0.19337932765483856,0.4394379258155823,0.27304527163505554,-0.5476828813552856,0.06594331562519073,-0.03206859901547432,-0.6635881066322327,-0.7450376749038696,0.25072771310806274,-0.3132178485393524,-0.40877869725227356,0.4787423312664032,0.19934312999248505,-0.8566902875900269,0.708057165145874,0.2460557222366333,0.004236359149217606,-0.12077641487121582,0.29581114649772644,-0.5059689879417419,0.5869110822677612,-0.6273579001426697,0.13717225193977356,-0.38799235224723816,0.13911095261573792,0.5914366841316223,0.5977190732955933,-0.03766896575689316,0.6513388156890869,0.33995306491851807,-0.11289667338132858,0.11298415809869766,-0.7189382910728455,-0.25981876254081726,0.12961097061634064,0.03492271527647972,-0.034483641386032104,0.06405842304229736,0.21833643317222595,0.3484969735145569,-0.4753566384315491,-0.037220269441604614,-0.5315975546836853,-0.31473976373672485,-0.14921703934669495,0.2896657884120941,0.1706293523311615,-0.20362794399261475,-0.1561092734336853,0.2503020763397217,-0.261837363243103,-0.9865423440933228,-0.33242368698120117,-0.2665695250034332,0.4577982425689697,0.5080521702766418,0.12444683164358139,0.01907927915453911,0.35004833340644836,-0.4094927906990051,0.45485860109329224,0.6820988059043884,0.11787952482700348,0.1537177860736847,0.5163135528564453,-0.27711254358291626,0.6193723082542419,0.29075053334236145,-0.3361039161682129,0.1351499706506729,0.3603806793689728,0.6325050592422485,-0.08785777539014816,-0.4025149643421173,0.3271125853061676,-0.09920762479305267,0.6099794507026672,-0.17829585075378418,-0.021991852670907974,0.27603307366371155,-0.06829365342855453,-0.027034346014261246,-0.28397518396377563,-0.4620739221572876,-0.21808578073978424,-0.4736793339252472,-0.11586218327283859,0.059649720788002014,0.15888842940330505,0.18706539273262024,0.17442207038402557,-0.05726679414510727,0.8452884554862976,0.21800781786441803,0.1652757078409195,0.9038017988204956,0.25576052069664,0.2488972246646881,0.2782798111438751,-0.21397753059864044,-0.292043000459671,-0.037396639585494995,-0.012933183461427689,0.1433393508195877,-0.7088385820388794,-0.018181972205638885,0.20130425691604614,-0.1663588583469391,0.2112467736005783,0.0931704044342041,-0.46478381752967834,0.02980518341064453,1.1811927556991577,0.14033958315849304,0.13905233144760132,-0.41098225116729736,0.5764226913452148,0.23287050426006317,0.09517352283000946,-0.09905163198709488,0.03968249633908272,-0.5215612053871155,-0.015299305319786072,-0.11069456487894058,-0.19718554615974426,0.23095449805259705,-0.32163798809051514,-0.6572046279907227,-0.41582047939300537,0.4167473316192627,-0.14102372527122498,0.023075362667441368,0.19511282444000244,-0.2532515227794647,-0.7249752879142761,-0.6559507250785828,-0.6235561966896057,-0.4025532007217407,0.4338659346103668,0.5195493698120117,-0.007450489327311516,-0.12756845355033875,-0.20791804790496826,1.0500043630599976,0.024103503674268723,-0.4026212990283966,-0.2956748306751251,-0.7332206964492798,-0.09589961171150208,0.16652627289295197,-0.05728936195373535,0.0330294594168663,0.052241139113903046,-0.05152016505599022,-0.38154277205467224,0.09528344869613647,0.11240535974502563,0.4006994664669037,-0.4496315121650696,-0.018746037036180496,0.2752683758735657,0.2975960969924927,-0.2489037811756134,0.2542005479335785,0.07147730886936188,-0.7279698252677917,-0.6293980479240417,0.1401432603597641,-0.3082262873649597,-0.1664576530456543,0.44214779138565063,-0.6939873099327087,-0.8028097152709961,0.21404364705085754,0.19536429643630981,-1.2456039190292358,-0.24662742018699646,0.41992202401161194,-0.7022800445556641,0.09906525909900665,-0.09719430655241013,0.007301196455955505,-0.1608460545539856,-0.37535360455513,-0.40678563714027405,1.0080240964889526,-0.33885687589645386,-0.06335140764713287,0.4419839084148407,-0.3843884766101837,-0.13522033393383026,0.1548379361629486,0.34333348274230957
vet,0.6353272199630737,0.09068599343299866,0.10559412837028503,-0.18440848588943481,0.4055385887622833,-0.06266658753156662,0.45337650179862976,0.5369613766670227,0.5839735269546509,-0.2844194769859314,0.022374331951141357,-0.11026700586080551,-0.024464068934321404,-0.33507487177848816,-0.1096431165933609,-0.016620058566331863,-0.046955522149801254,-0.1958848536014557,-0.03606352210044861,0.8498735427856445,-0.6696587800979614,-0.9396978616714478,-0.12976795434951782,0.040894269943237305,-0.3611469864845276,0.618410050868988,0.13242441415786743,0.6752424836158752,-0.6135277152061462,-0.15691688656806946,0.7083108425140381,-0.22258330881595612,-0.523673415184021,-0.30064791440963745,0.2655945420265198,0.5972469449043274,-0.004899078980088234,0.8107388615608215,-0.9796928763389587,-0.22757402062416077,0.3127524256706238,-0.7384874820709229,-0.25440409779548645,0.5327439308166504,-0.11977218091487885,-0.3120824098587036,0.31913405656814575,-0.4494837522506714,1.4480561017990112,-0.4601150453090668,-0.15265057981014252,-0.5640836358070374,-1.2563917636871338,-0.11849825084209442,0.6389777660369873,0.3392612338066101,0.22699424624443054,-0.18177466094493866,-0.1690555214881897,0.1226000040769577,-0.5979040861129761,0.5633947253227234,0.33744245767593384,-0.02051440253853798,0.167236328125,-0.2777842581272125,-0.059633418917655945,0.31342047452926636,-0.1288347691297531,0.10607754439115524,0.1195487380027771,0.5547673106193542,0.0804356187582016,-0.4561678171157837,0.2263416200876236,0.2757379412651062,0.01938777230679989,0.45469921827316284,0.07265809178352356,0.24874858558177948,0.03536682203412056,-0.431718111038208,-0.3805803954601288,1.1013031005859375,0.23333579301834106,-0.09234164655208588,-0.2512511909008026,0.03573550283908844,0.015812907367944717,0.7721250653266907,-0.09939749538898468,-0.1727566123008728,-0.5622552633285522,-0.06017141416668892,0.09806933999061584,-0.30181771516799927,0.3524686396121979,-0.7440400123596191,-0.22810319066047668,-0.05402505025267601,0.31403955817222595,0.6430933475494385,-0.03462548553943634,0.03586430102586746,-0.632118284702301,-0.6387001872062683,-0.48963654041290283,-0.2123377025127411,-0.34786108136177063,0.2830907702445984,-0.1095716655254364,-0.020083559677004814,-0.11186163872480392,-0.6466705203056335,-0.20563191175460815,0.9579441547393799,0.021187415346503258,-1.1765403747558594,0.11523617804050446,0.26503604650497437,-0.26205310225486755,0.13828660547733307,0.2220209687948227,0.850656270980835,-0.08418622612953186,0.39949172735214233,-0.1433330774307251,0.18452608585357666,-0.1825622022151947,0.24162393808364868,0.0009980136528611183,0.5312539339065552,0.2268904149532318,-0.4693774878978729,-0.15506377816200256,-0.10326371341943741,0.06258159130811691,-0.3169839680194855,-0.9681085348129272,0.2503984868526459,0.31494200229644775,0.6895279288291931,0.5127513408660889,0.7502394318580627,-0.3460148274898529,0.33491355180740356,-1.0385284423828125,-0.05025988072156906,-0.44832831621170044,-0.2631068229675293,0.3870225250720978,0.5090574026107788,0.21011465787887573,-1.2009122371673584,-0.20552918314933777,0.07350947707891464,0.3224303126335144,0.31796422600746155,0.23848533630371094,-0.08998952805995941,0.8536010384559631,-0.976378858089447,0.139634370803833,0.7284929752349854,-0.663223385810852,-0.49415919184684753,-0.5057483315467834,0.17949122190475464,-0.3900628685951233,0.021082129329442978,-0.3787555694580078,0.32022494077682495,1.115393042564392,-0.17746585607528687,0.7543899416923523,0.16229039430618286,-0.0874268040060997,0.1286502331495285,0.7750374674797058,0.09340035170316696,-0.2156495302915573,1.3655279874801636,0.06996994465589523,0.11541566252708435,1.1104165315628052,0.4729684591293335,0.9990120530128479,-0.22429467737674713,-0.4013434648513794,0.3600720465183258,-0.22708144783973694,-1.6419076919555664,-0.7547121644020081,0.27590411901474,0.7963942289352417,-0.8496652841567993,0.27399885654449463,-0.019654370844364166,-1.0794957876205444,-0.2894004285335541,-0.3290786147117615,-1.3708888292312622,-0.12911434471607208,0.4494742453098297,-0.5116514563560486,0.4906352758407593,-0.15932689607143402,-0.1985880434513092,0.46818116307258606,0.12199832499027252,-0.19435010850429535,0.38330572843551636,-0.3915135860443115,0.2027098387479782,0.2125297635793686,0.13595321774482727,-0.37315964698791504,-0.49923592805862427,0.13417939841747284,-0.003809655085206032,0.47342485189437866,-0.14032095670700073,0.11893128603696823,0.46619346737861633,0.3421701192855835,0.9686766266822815,0.0996941477060318,-0.31016820669174194,-0.289151668548584,0.2616788446903229,0.15657660365104675,0.3846059739589691,-0.10459483414888382,0.7370832562446594,-0.2278868407011032,-0.3379705250263214,-0.6361680626869202,-0.21978020668029785,-0.2101253718137741,-0.01670212671160698,-0.4784587025642395,-0.20712918043136597,0.6115160584449768,0.3434826135635376,0.1458057165145874,0.3379036486148834,-0.1495618373155594,-0.09228590130805969,0.4093850553035736,-0.105349600315094,0.5092397332191467,-0.7110798954963684,0.5523772835731506,-0.4463442862033844,0.023271311074495316,-0.631026029586792,-0.14808565378189087,0.5895696878433228,-0.5529525876045227,0.003963809460401535,-0.12915152311325073,-0.017853377386927605,0.5623568296432495,-0.3497265577316284,-0.5460381507873535,-0.7806107997894287,-0.7282432913780212,0.3407852351665497,0.16500705480575562,0.3984876871109009,-0.28179746866226196,-0.2146148830652237,0.8819831013679504,-0.1221887394785881,-0.6323709487915039,-0.24876531958580017,0.588032066822052,0.34199416637420654,0.8611798882484436,0.17723527550697327,0.3891225755214691,0.5566174983978271,-0.4659237563610077,-0.00832301378250122,-0.43548181653022766,-0.07897362858057022,-0.014324185438454151,0.24399137496948242,-0.2157498449087143,-1.0709373950958252,-0.007412491366267204,0.24661096930503845,-0.3960531949996948,0.02700643613934517,0.4013930559158325,-0.2162286937236786,0.11775778234004974,0.5703728199005127,0.5194461345672607,-0.2180285006761551,0.6466987133026123,0.5720723271369934,1.083081841468811,-0.6725537776947021,0.24298977851867676,-0.36082807183265686,0.030551578849554062,-0.15574222803115845,-4.603601932525635,-0.11698994785547256,-0.5088703036308289,-0.7546985745429993,0.5392693877220154,-0.07835838198661804,0.5548092126846313,0.30978095531463623,-1.120302677154541,-0.10283058881759644,0.3255481421947479,-1.071692705154419,0.6453319191932678,-0.15044327080249786,0.2590102553367615,-0.3152170181274414,-0.3286779224872589,0.29602307081222534,0.18157631158828735,0.5034611821174622,0.671665608882904,-0.7919677495956421,-0.5549536347389221,0.14232628047466278,0.2273942530155182,1.1813504695892334,-0.44383496046066284,0.5583241581916809,-0.7681856155395508,0.21675899624824524,-0.6322339177131653,0.6783220171928406,0.35963737964630127,0.4987804591655731,-0.1409558355808258,0.0989409014582634,-0.39204275608062744,0.46847450733184814,-0.05010465905070305,-0.8206477761268616,-0.06970736384391785,0.6876294612884521,0.3841973543167114,0.45216864347457886,-0.38963553309440613,-0.15575191378593445,0.378428190946579,0.1936861276626587,0.3943554759025574,0.4808495044708252,-0.5166947245597839,0.12924766540527344,-0.7327704429626465,0.13661178946495056,0.06174401938915253,-0.2850663661956787,0.45091503858566284,-0.014498441480100155,-0.6580789089202881,-1.2251205444335938,-0.529287576675415,-0.5580678582191467,-0.3194717466831207,-0.43661296367645264,-0.27469712495803833,-0.18335607647895813,-0.8490710258483887,-1.4052822589874268,-0.2508854866027832,-0.07871834933757782,-0.7451745271682739,-0.6680214405059814,-0.5010333061218262,-1.6492829322814941,-0.4003765881061554,-0.7650391459465027,0.37107032537460327,-0.3465144634246826,-0.04405449330806732,0.14138838648796082,-0.40171900391578674,-1.156059980392456,0.31532371044158936,-0.06809642165899277,0.1470836102962494,-1.0632461309432983,-0.06262311339378357,0.045055091381073,-0.13475240767002106,-0.4023404121398926,0.2573663294315338,0.13310691714286804,0.44544923305511475,-0.36446142196655273,-0.5460990071296692,-0.2928701639175415,-0.2324897199869156,0.0317896232008934,0.872204601764679,-0.4517222046852112,0.760425329208374,-0.7084846496582031,0.2583187222480774,-0.31289249658584595,-0.025986451655626297,-0.33460503816604614,-0.39872080087661743,0.04056257754564285,0.5890265703201294,0.17023637890815735,0.5049924850463867,-0.8731288909912109,0.823951244354248,-0.45676469802856445,-0.17638176679611206,0.6537172794342041,0.8148502111434937,0.047495827078819275,0.10402902960777283,-0.4482848048210144,0.7358726859092712,0.33369120955467224,-0.25386446714401245,0.20949015021324158,-0.39619702100753784,0.12873724102973938,0.652872622013092,-0.6454651951789856,0.050516802817583084,0.31509095430374146,0.7277563214302063,-0.36869683861732483,0.12929372489452362,-0.002319030463695526,0.4054243564605713,0.598997175693512,0.26752451062202454,-0.22869914770126343,0.2112523317337036,0.39668601751327515,0.3709258437156677,0.9822985529899597,0.6033615469932556,0.04407962039113045,0.5800192356109619,-0.2546301782131195,0.250730961561203,0.652090311050415,0.1267090141773224,0.14050735533237457,-0.3457433581352234,0.0009343437850475311,-0.198554128408432,-0.4519137442111969,0.3005627393722534,-0.2313229739665985,0.580628514289856,-0.6067013740539551,-0.41557493805885315,-0.6333919167518616,-0.258940190076828,-0.24860835075378418,0.633773922920227,0.2582772672176361,-0.5110083818435669,-0.1948283612728119,0.3569326102733612,0.10886178910732269,-0.9653835296630859,0.5536225438117981,0.27804580330848694,0.12129911035299301,0.07728280127048492,0.7693606615066528,-0.5455272197723389,-0.13489305973052979,-0.1806286722421646,0.36618247628211975,-0.2513754069805145,0.9070943593978882,0.2384871244430542,-0.42742908000946045,0.23445440828800201,-0.43126457929611206,0.602433443069458,0.11276444792747498,-0.6001381874084473,-0.6329079866409302,0.15486936271190643,0.5458939075469971,-0.8297732472419739,0.4854027330875397,-0.2679297626018524,0.22640909254550934,-0.6834139823913574,-0.4614981710910797,-0.30751466751098633,-0.7476410865783691,0.10935764014720917,0.3021509051322937,0.07666638493537903,0.7287005186080933,0.2851371169090271,0.12545454502105713,-0.8398416042327881,0.30649226903915405,0.17204147577285767,0.6490530371665955,-0.3161943852901459,0.4592137932777405,0.030131518840789795,-0.4305237829685211,-0.06570710241794586,-0.3161567449569702,-0.6770798563957214,0.25882917642593384,0.12709929049015045,0.7113885879516602,-0.5377746224403381,0.33835119009017944,-0.9374121427536011,0.33544793725013733,-0.6717861294746399,0.021471062675118446,-1.3061023950576782,0.35399168729782104,0.05143224447965622,-0.12535934150218964,-1.1455700397491455,-0.278041809797287,-0.608242928981781,-0.21268996596336365,-0.5345892906188965,0.6423441171646118,0.2753587067127228,0.052195969969034195,-0.054929282516241074,-0.5025884509086609,0.5947129726409912,0.028832558542490005,0.061795808374881744,1.2343772649765015,0.6026412844657898,0.48065945506095886,-0.5062316060066223,0.19978100061416626,0.5759656429290771,-0.3308619260787964,0.3374280035495758,0.843567967414856,0.04736437648534775,-0.4081583321094513,-0.33910736441612244,-0.35461267828941345,-0.6501634120941162,-0.19716981053352356,-0.16489273309707642,0.6216592788696289,0.4038741886615753,0.4452246129512787,0.25323835015296936,0.05626028776168823,-0.5783390402793884,0.4682648777961731,-0.1792927384376526,-0.05424804240465164,-0.6661790013313293,-0.40107858180999756,-0.42481762170791626,0.056796759366989136,-0.645537793636322,-0.3612309396266937,0.8476632833480835,-0.24381789565086365,0.4395819306373596,-0.18947017192840576,-0.47882476449012756,-0.5697940587997437,0.08194128423929214,-0.41185009479522705,0.19782231748104095,0.5385648608207703,-0.37824249267578125,-0.059971921145915985,-1.210054636001587,0.3318513333797455,-0.4558348059654236,0.3287869095802307,-0.36238893866539,0.9079079627990723,0.7209845185279846,0.21178579330444336,-0.21926596760749817,0.4810613989830017,0.03545008599758148,0.409092515707016,0.21909484267234802,0.449826180934906,0.6150455474853516,0.34854140877723694,-0.7394395470619202,1.1818881034851074,-0.4282243251800537,0.06192167103290558,-0.1380457878112793,-0.6200059056282043,-0.049358729273080826,-0.6562713384628296,-0.12622559070587158,0.860216498374939,-0.012990046292543411,-0.7725105881690979,0.5782095193862915,0.31564000248908997,-0.46260493993759155,0.3177001476287842,0.10306416451931,0.04992146044969559,-0.6464616060256958,-0.2085404247045517,-0.10790222138166428,-0.012331850826740265,0.26154887676239014,-0.17164823412895203,0.20771139860153198,0.27656853199005127,-0.5984781980514526,0.8754507303237915,0.9148650169372559,-0.10422956943511963,0.6513143181800842,0.7789005637168884,0.0732746347784996,0.6717575192451477,-0.22956737875938416,-0.397094190120697,0.3679714500904083,0.3833447992801666,0.4729248285293579,-0.12427040934562683,-0.30860796570777893,0.47952938079833984,0.19935111701488495,0.9749770760536194,-0.44337812066078186,-0.18184900283813477,0.09231002628803253,-0.34480252861976624,0.8029399514198303,0.02925211749970913,-0.1291957050561905,-0.3144247829914093,-0.07963486015796661,-0.9610013365745544,-0.289093554019928,-0.26650476455688477,0.3621041178703308,-0.34485548734664917,-0.5677809119224548,0.5317645072937012,-0.4747108221054077,-0.28433892130851746,0.31089723110198975,-0.4468790888786316,0.2859424650669098,0.44204607605934143,0.234843909740448,-0.9108878970146179,0.6197645664215088,0.1577393263578415,0.28624439239501953,-0.48395055532455444,0.44943949580192566,0.7302291989326477,-0.10291991382837296,-0.503308117389679,0.2343691736459732,-0.8209518790245056,0.13920608162879944,0.03443270921707153,-0.5681489109992981,-0.18550556898117065,-0.1891757696866989,-0.5085052847862244,0.013516737148165703,0.21412169933319092,-0.2173243761062622,-0.06717734038829803,0.366155743598938,0.25469842553138733,-0.11450807750225067,0.7094061970710754,-0.7592111825942993,-0.25192445516586304,-0.17862069606781006,-0.9388464093208313,1.0292099714279175,-0.36185264587402344,0.2190249264240265,-0.14249584078788757,0.24924379587173462,0.2957592010498047,-0.08894725143909454,0.2420952022075653,0.320092111825943,0.24147602915763855,0.07699059695005417,0.29425451159477234,0.028986312448978424,0.18123260140419006,-0.23981158435344696,0.7146771550178528,-0.4323621094226837,0.7731939554214478,0.2711355984210968,-0.5973075032234192,0.4670018255710602,-1.2285518646240234,0.05646456778049469,0.2620808184146881,-0.13503722846508026,-0.26450517773628235,-0.16436660289764404,0.5550374388694763,-0.04179154336452484,-0.4120970368385315,-0.008873187005519867,0.6073064208030701,0.26194050908088684,0.30393755435943604,-0.5120030641555786,0.15313421189785004,-0.9294973611831665,-1.012976884841919,0.5992739796638489,-0.5111713409423828,0.3392367362976074,0.5474266409873962,-0.018223606050014496,-0.617098331451416,0.49008920788764954,-0.890155017375946,0.4253404438495636,0.2882668972015381,0.25896355509757996,-0.41777318716049194,-0.20946863293647766,-0.6472968459129333,-0.6754214763641357,-0.12513460218906403,-0.6405624151229858,0.106956847012043,0.5555807948112488,0.06853631138801575,0.30692383646965027,0.22116704285144806,-1.0624432563781738,0.11358298361301422,0.7843539714813232,0.4573718011379242
paramedic,0.08020779490470886,-0.5987933278083801,0.6326895356178284,-0.21232102811336517,0.1316579431295395,0.012213945388793945,0.27815595269203186,0.8283867835998535,-0.039817214012145996,-0.15290187299251556,0.2450770139694214,-0.40043315291404724,-0.4622926414012909,0.25968676805496216,-0.0520152784883976,0.6495485901832581,-0.06926516443490982,0.015815356746315956,-0.3206639587879181,0.2933330833911896,-0.06563681364059448,-0.6195781826972961,-0.8609312176704407,0.04436862841248512,0.15853087604045868,0.16218972206115723,0.06569737941026688,0.2427392452955246,-0.040851153433322906,-0.4236958920955658,0.718249499797821,-0.32787245512008667,-0.7017557621002197,0.11537086218595505,0.49972882866859436,0.4247647225856781,-0.031165698543190956,0.5220821499824524,-1.105996012687683,-0.10249736905097961,-1.1500071287155151,-0.8429966568946838,0.5123304128646851,0.5624038577079773,0.10107523202896118,0.05104723572731018,1.1988565921783447,-0.805425226688385,0.7421362996101379,-0.12708868086338043,-0.9628246426582336,-0.0027425140142440796,-0.2735595703125,-0.12182652950286865,0.3076030910015106,0.3593248128890991,0.08532264083623886,-0.6560975909233093,-0.9729048609733582,0.00766270374879241,-0.7200390696525574,0.2770228683948517,0.37650665640830994,-1.3031635284423828,0.14677394926548004,0.07704130560159683,-0.396022766828537,1.0410428047180176,-0.8415072560310364,-0.22089238464832306,0.210412859916687,-0.06141167879104614,0.12090026587247849,-0.5323149561882019,-0.5267884135246277,0.08331980556249619,-0.12790699303150177,0.09430281072854996,-0.2186700850725174,0.08105852454900742,-0.6776894927024841,0.699612557888031,-0.24573135375976562,0.8126581311225891,0.511448323726654,0.6723246574401855,-0.3976539671421051,0.5309945940971375,0.1492190659046173,0.9470465779304504,-0.012211528606712818,0.32075822353363037,-0.3443368673324585,-0.25788217782974243,0.18941980600357056,-0.23618030548095703,0.88057541847229,-0.8909786343574524,-1.0807007551193237,0.2200847715139389,0.8390698432922363,-0.3816871643066406,0.282470166683197,-0.23413187265396118,-0.09129071235656738,-0.05097966268658638,0.030962249264121056,0.6520159244537354,-0.011343677528202534,1.1854342222213745,0.6659132838249207,-0.27461913228034973,-0.06110041216015816,-0.8088483810424805,0.23937030136585236,0.7086779475212097,-0.13823017477989197,-0.2323152869939804,-0.0768711194396019,-0.0626048669219017,0.26831236481666565,-0.6866128444671631,0.10599574446678162,1.4000836610794067,0.04895192012190819,0.6611927151679993,-0.5619240403175354,0.005030957516282797,0.41405728459358215,0.6659626960754395,0.9306080937385559,0.5178013443946838,0.27912044525146484,-1.2839937210083008,-0.40435031056404114,-0.2863824665546417,-0.06102954223752022,-0.21120892465114594,-1.1701103448867798,0.9240598678588867,0.04887257143855095,0.022297831252217293,0.6994076371192932,1.0677045583724976,0.0161010529845953,-0.26022112369537354,-0.4541262686252594,0.32873964309692383,0.04230763390660286,0.10951974987983704,-0.35866641998291016,-0.11304227262735367,0.2549656331539154,-0.7639925479888916,-0.7381836771965027,-0.31628844141960144,0.1294076293706894,0.371561735868454,0.6076758503913879,0.4638718068599701,0.3583419620990753,-0.6123773455619812,0.07375496625900269,0.09183571487665176,-0.4929051399230957,0.7705490589141846,-0.004224886652082205,0.7007746696472168,-0.5885717868804932,0.7083582878112793,-0.4265206754207611,0.16867534816265106,1.1600617170333862,-0.675441563129425,0.4589993953704834,0.2630630433559418,-0.37524986267089844,0.3343481719493866,0.5561946034431458,-0.06012265011668205,-0.2635623514652252,1.1618489027023315,0.10927063226699829,0.19981598854064941,0.7584481239318848,-0.2095106691122055,0.9484303593635559,0.44428038597106934,-0.6360542178153992,-0.3144270181655884,0.28462478518486023,0.046552542597055435,-0.7963706851005554,-0.01462178397923708,-0.1534387171268463,-0.11239254474639893,-0.19546759128570557,0.3609025776386261,-1.0459479093551636,-0.7673576474189758,0.1236259937286377,-0.3617328703403473,-0.04474427178502083,0.7939231395721436,-0.20476193726062775,0.004081571940332651,0.3458850383758545,-0.11569005250930786,-0.25506162643432617,0.08503777533769608,-0.6008028984069824,0.7108517289161682,-0.7367277145385742,0.10363356024026871,0.20568786561489105,-0.14115968346595764,-0.43984267115592957,-0.046995341777801514,0.014134983532130718,-0.4086644947528839,-0.1309036761522293,-0.002781153889372945,-0.4125697910785675,0.17266428470611572,0.3784914016723633,1.3179091215133667,0.31920263171195984,0.07999518513679504,-0.3757392466068268,0.08236295729875565,-0.00873797107487917,0.6101418733596802,0.1155920922756195,0.05521154776215553,-1.4623290300369263,-0.5248668193817139,-1.4434150457382202,-0.5096845030784607,0.6585209369659424,-0.3846615254878998,-0.7668797373771667,-0.26609715819358826,1.229132056236267,0.14141012728214264,0.8113727569580078,0.2088521271944046,-0.3974747657775879,0.31977659463882446,0.5864182710647583,-0.028756968677043915,-0.47427597641944885,-0.6766188144683838,-0.393657922744751,-0.777876079082489,-0.02750309370458126,0.25325533747673035,0.3442118465900421,0.2788865268230438,-0.9635457992553711,0.6856160163879395,-0.16193296015262604,0.07549383491277695,0.16988307237625122,0.5040510892868042,-0.8626675605773926,-1.349891185760498,-0.36761748790740967,0.823096752166748,-0.561873733997345,0.12397142499685287,-0.35298123955726624,-0.7389779686927795,-0.26013433933258057,0.37342336773872375,0.252953439950943,0.30682554841041565,0.12775783240795135,0.2412915974855423,1.0135658979415894,-0.03614505007863045,0.7678731083869934,0.27878081798553467,-0.4043738543987274,-0.2043652981519699,-0.6643698811531067,0.09732114523649216,-0.07794424146413803,0.457263708114624,-0.7852466106414795,-0.5093803405761719,-0.8736910820007324,0.03497116640210152,-0.46522006392478943,-0.39207735657691956,0.0509711317718029,0.014448476023972034,-0.03167302533984184,0.313148558139801,1.0662695169448853,-0.6298922300338745,-0.08086778968572617,0.07573538273572922,0.33463534712791443,0.2996613085269928,-0.6572576761245728,-0.030090846121311188,-0.042640578001737595,-0.4683706760406494,-0.4403429329395294,0.08255460858345032,-0.68263179063797,-0.4065993130207062,0.6144325733184814,0.15776564180850983,-0.23148410022258759,0.8723613619804382,-1.5193394422531128,-0.19286198914051056,0.1174846664071083,-0.7106616497039795,0.5984344482421875,0.27020004391670227,0.24807167053222656,0.08162476867437363,-0.07554993778467178,-0.32470378279685974,0.08450724929571152,0.3793371915817261,0.6350589394569397,-1.5533663034439087,-0.4640420377254486,-0.22508667409420013,0.9257128238677979,0.5096964240074158,0.2522833049297333,0.5729759335517883,-0.7849977612495422,-0.134998619556427,1.0649458169937134,-0.2618056833744049,0.17149288952350616,-0.03806516155600548,0.05244624242186546,0.2629353702068329,-0.5526769161224365,-0.1285380721092224,-0.6002575159072876,-0.8090537190437317,-0.9102132320404053,-0.44057968258857727,0.4486498534679413,0.05644427612423897,1.11542809009552,-0.6354909539222717,0.08673644065856934,0.5246136784553528,-0.15766291320323944,0.34064552187919617,-0.3736223876476288,0.02060157060623169,-0.5328790545463562,-0.012186959385871887,-0.26775437593460083,-0.007103701587766409,0.7142782211303711,0.8053515553474426,-0.5567976832389832,-0.9649247527122498,0.35173550248146057,0.21344546973705292,-0.32586589455604553,0.00810087751597166,-0.03707422688603401,-0.1833896040916443,-0.49447646737098694,-1.390561580657959,-0.5007484555244446,-0.4465077817440033,-0.5160913467407227,0.38432690501213074,-1.46088707447052,-0.4147234261035919,-0.7396863102912903,-0.3067663908004761,0.3189767897129059,-0.19944871962070465,0.12122400850057602,-0.4369677007198334,-0.6080825328826904,-0.3560976982116699,0.16479681432247162,-1.308835506439209,-0.2710658609867096,-0.42092910408973694,-0.5429030060768127,0.10082737356424332,0.11389476805925369,-0.3911043107509613,0.2609225809574127,0.5211175680160522,0.25300076603889465,0.33581897616386414,-0.8287655711174011,-0.7815964818000793,-0.45541512966156006,0.05761459097266197,0.5804802775382996,-0.7208854556083679,-0.055246610194444656,-0.4085169732570648,0.8569536209106445,-0.11114171892404556,0.3073195219039917,-0.07061740010976791,-1.2592560052871704,-0.7928800582885742,-0.3730868995189667,0.0029079716186970472,0.5225574970245361,-1.4255720376968384,1.7514638900756836,-0.7983271479606628,-0.7583134770393372,0.9501463770866394,1.3415158987045288,0.3644132614135742,-0.1576572209596634,-0.7397778630256653,0.10203012824058533,1.134854793548584,-0.12343046814203262,0.1499483287334442,0.12561778724193573,0.40918514132499695,0.5570458769798279,0.46817007660865784,0.44298115372657776,-0.23220199346542358,0.2611027956008911,-0.720836341381073,-0.6191950440406799,1.2523692846298218,0.5488311648368835,0.17236103117465973,0.28577759861946106,-0.6635560393333435,-0.13059476017951965,0.9319371581077576,0.5702493190765381,0.34549954533576965,-0.711402952671051,-0.7153575420379639,0.05222102999687195,0.4496603012084961,-0.23011279106140137,0.0894727036356926,-0.2810441553592682,0.2997227907180786,-0.9830418229103088,0.07194361835718155,-0.37036576867103577,-0.5464445948600769,0.5362536311149597,-0.24662025272846222,0.2733847200870514,-0.24667870998382568,-0.7811617851257324,-1.2939202785491943,-0.38518252968788147,0.006304621696472168,0.5525398254394531,0.8274450898170471,-0.22485195100307465,0.4086647927761078,-0.379495769739151,-0.3271677494049072,-0.3516005575656891,0.46666255593299866,0.1577431559562683,0.12074103206396103,0.0579206645488739,0.3008837401866913,-0.11578243970870972,0.8713607788085938,-0.30717733502388,0.27629804611206055,-0.5442168116569519,1.282434344291687,-0.12342257052659988,-0.2049558162689209,-0.5140329003334045,0.03680837154388428,0.21319587528705597,0.291547566652298,0.20130829513072968,-0.47389134764671326,0.06859558075666428,0.09162771701812744,-0.7223193049430847,1.1307202577590942,-0.6497701406478882,0.31690362095832825,-1.0837054252624512,-0.986706554889679,-0.023709723725914955,-0.9627704620361328,0.03449057415127754,0.42648041248321533,-0.06895647943019867,-0.011176069267094135,0.2862934172153473,0.09699141979217529,-0.8334090113639832,-0.19694769382476807,-0.5638551115989685,0.954472541809082,-0.10045504570007324,0.823864221572876,-0.08448359370231628,-0.37958022952079773,-0.06131784990429878,-0.05029178783297539,-0.43645286560058594,-0.0824204683303833,0.6030756235122681,-0.36404553055763245,-0.49735209345817566,0.26355376839637756,-0.9358887672424316,0.384223610162735,-0.47004660964012146,0.390634149312973,-1.2811940908432007,0.468703955411911,-0.45668813586235046,0.8965824246406555,-0.7688267230987549,-0.11927195638418198,-0.8294685482978821,-0.0945732370018959,-0.6973956227302551,0.42163515090942383,0.04446486011147499,0.49761518836021423,-0.19231410324573517,-0.5725574493408203,0.17644934356212616,-0.1552204042673111,-0.4320335388183594,0.6823837161064148,0.09473773837089539,-0.1184973493218422,-0.2879568338394165,0.188032329082489,0.43632280826568604,-0.07657501101493835,0.06985747069120407,0.9652277827262878,0.4019836485385895,-0.21725666522979736,-0.17036503553390503,-0.8657927513122559,-0.04524040222167969,-0.7968146800994873,-0.1336158961057663,0.11480549722909927,0.3071385324001312,0.7780864238739014,0.3196413516998291,-0.14502690732479095,-0.2557612657546997,0.7479774951934814,0.5413810610771179,-0.30510348081588745,-0.020382404327392578,0.5417265295982361,-0.12811331450939178,-0.7744833827018738,-0.04142676666378975,-0.028666382655501366,0.7298669815063477,-0.1814918965101242,-0.08636683970689774,-0.046129245311021805,-0.3209870159626007,-0.921487033367157,0.32765695452690125,0.040745049715042114,-0.02137094736099243,0.6871883273124695,-0.7351763844490051,0.5450776219367981,-0.6121513247489929,0.2611144185066223,-0.793380081653595,0.5276064872741699,-0.366697758436203,0.5278918743133545,0.7367779612541199,0.6641203165054321,0.12719731032848358,0.2354106903076172,0.7992933392524719,0.5041510462760925,0.6623057126998901,0.6161494851112366,0.08674681931734085,0.38731610774993896,-0.08752276748418808,-0.5499083399772644,-0.4566394090652466,-0.02786441706120968,0.44314536452293396,-0.2533608078956604,-0.4463728368282318,-0.6890485882759094,0.3000307083129883,0.7449535727500916,-0.762927234172821,-1.0538567304611206,0.959295928478241,0.8316571712493896,-1.0826081037521362,-0.034558214247226715,-0.2447490245103836,-0.3518383204936981,-0.7114042639732361,0.39503923058509827,-0.32676929235458374,0.40515974164009094,0.6141295433044434,-0.35938215255737305,0.36966845393180847,0.5177397727966309,-0.6897957921028137,0.5796799659729004,0.2578345835208893,0.06380882114171982,0.07894868403673172,-0.015128602273762226,-0.23823921382427216,-0.046392858028411865,-0.31305351853370667,-0.512898862361908,0.4432516098022461,0.7414138913154602,0.4543105363845825,-0.5208607912063599,-0.8141936659812927,0.22134970128536224,0.5405187010765076,1.0452975034713745,0.5041478276252747,0.4207216203212738,-0.20094352960586548,-0.2648411691188812,0.829820454120636,-0.10460325330495834,-0.04613804444670677,0.7428429126739502,0.7353661060333252,-0.2736159861087799,-0.17870695888996124,-0.18785060942173004,0.2868562936782837,0.2143358439207077,0.2002900391817093,1.0601524114608765,-0.2903371751308441,-0.7528371810913086,0.6435605883598328,-1.2849818468093872,-0.25626638531684875,-0.07975783944129944,0.6972317695617676,-0.8067861199378967,-0.3457163870334625,0.7273253798484802,-0.3084685206413269,-0.5147624611854553,-0.4295187294483185,0.848088800907135,-0.4075995683670044,-0.29372748732566833,-0.24800127744674683,-0.11108788847923279,0.15710921585559845,-0.19162917137145996,0.0587020106613636,0.1664396971464157,-0.5299646854400635,0.2186049371957779,-0.40324532985687256,-0.2889479696750641,-0.1257397085428238,0.14147764444351196,0.8055922985076904,0.0019595858175307512,0.010324369184672832,1.0830682516098022,-0.4328787624835968,-0.7060990333557129,-0.47382569313049316,-0.797912061214447,0.4089299142360687,-0.4491429626941681,0.5676739811897278,-0.8096988201141357,-0.15673066675662994,0.4877217710018158,-0.022393206134438515,0.1376974731683731,-0.06819120049476624,0.19938147068023682,0.5968425869941711,0.15774235129356384,0.14190150797367096,-0.10120203346014023,-0.25625547766685486,1.2615803480148315,-0.6541748046875,0.682590901851654,0.23187784850597382,-0.2193087786436081,0.41886821389198303,-1.0258088111877441,-0.3510371744632721,0.5524212718009949,-0.6039014458656311,0.7269501090049744,-0.5235104560852051,0.4641449451446533,-0.6741799712181091,-0.45892977714538574,0.43837347626686096,0.9089756011962891,0.3115268349647522,0.6080993413925171,-0.21579809486865997,-0.027991974726319313,-1.019255518913269,-0.20151066780090332,0.08641647547483444,-0.8347015380859375,-0.39185214042663574,0.27683091163635254,-0.9606241583824158,-0.7858896851539612,1.6517924070358276,-0.38906002044677734,0.5404945015907288,0.6873462200164795,1.2579983472824097,-0.2814619243144989,-1.3296374082565308,-0.12296915054321289,-0.3044097125530243,-0.4100734293460846,-0.6704841256141663,-0.27835777401924133,0.26687660813331604,-0.11190623044967651,-0.0403941310942173,0.08001361042261124,-0.6013039946556091,-0.14477954804897308,0.7206299304962158,0.3330249488353729
chef,0.7584622502326965,-0.15079888701438904,0.3173221945762634,-0.04476851969957352,0.8837569952011108,-0.16804049909114838,0.19834643602371216,0.44588279724121094,0.7337461709976196,-0.8082928657531738,0.2620998024940491,-0.2004893720149994,-0.18998803198337555,0.1292635202407837,-0.6180926561355591,-0.03505566716194153,0.3395983576774597,0.35331207513809204,-0.3678029775619507,0.8891881108283997,-0.16055190563201904,-0.5280699729919434,-0.9601631760597229,-0.018553370609879494,-0.1299147754907608,0.3653463125228882,-0.8145015239715576,0.6537633538246155,0.09880196303129196,-0.2214147448539734,0.7440694570541382,-0.0033835768699645996,0.408101886510849,-0.6777257323265076,-0.2342333197593689,0.04217171669006348,0.6585627794265747,0.7048038244247437,-0.8007444143295288,0.13060562312602997,0.3611350655555725,-0.060912780463695526,1.3042088747024536,0.12472379952669144,0.09586912393569946,0.12410563230514526,0.6350926756858826,0.0713697299361229,0.6892867088317871,-0.4609251022338867,-0.02901783585548401,-0.4896739721298218,-0.5318528413772583,-0.4294344186782837,0.17733678221702576,0.6362756490707397,-0.9878156781196594,-0.13073934614658356,-0.21745754778385162,0.1971464604139328,-0.3301638960838318,1.270206093788147,0.33314892649650574,-0.8272749185562134,0.16735383868217468,0.2068282663822174,-0.7600644826889038,-0.011245187371969223,-0.35602301359176636,0.3288900554180145,-0.3530530631542206,-0.04438326507806778,-0.05565215274691582,0.04813520237803459,-0.009633643552660942,0.4281899929046631,0.031248336657881737,0.6620460748672485,-0.020390745252370834,0.5156776905059814,-0.38338711857795715,-0.9680101275444031,0.05989925563335419,1.1095460653305054,0.13760584592819214,0.8899787664413452,-0.45893529057502747,0.09185490757226944,-0.06619249284267426,0.8588699102401733,-0.3139874041080475,-0.41944998502731323,0.000889018177986145,-0.17939287424087524,-0.09991295635700226,0.10332539677619934,0.9985610246658325,-0.4307706654071808,0.2615942060947418,0.4174577593803406,0.6801540851593018,0.24486687779426575,0.03651045262813568,0.7485225796699524,-0.5442431569099426,-0.13537244498729706,-0.7125913500785828,0.7363249659538269,0.05101291462779045,0.1854848712682724,-0.41563862562179565,-0.4085257053375244,-0.4742026627063751,-0.9603770971298218,-0.8502445220947266,0.2924392521381378,-0.19731655716896057,-0.5175290703773499,0.046787455677986145,-0.495311439037323,0.10130441933870316,-0.015375733375549316,0.38183897733688354,1.7764880657196045,0.3988721966743469,-0.7128048539161682,0.3477391004562378,0.1881059855222702,-0.5552415251731873,-0.7061129212379456,0.36007025837898254,0.9198907017707825,0.34924206137657166,-0.30250170826911926,-0.7340295314788818,-0.10855697095394135,-0.04123497009277344,-0.23896077275276184,-0.763282060623169,-0.14834415912628174,-0.5323845148086548,0.6820576786994934,0.37655770778656006,0.6655528545379639,-0.16932052373886108,-0.07239219546318054,-0.060306351631879807,-0.628062903881073,0.8480736613273621,-0.8758823871612549,0.1545354127883911,0.4211844205856323,-0.41136813163757324,-1.3648698329925537,0.17311185598373413,0.24462425708770752,0.8053224682807922,0.453125923871994,0.034751422703266144,-0.300852507352829,0.09663282334804535,0.08456794917583466,0.22658571600914001,0.3239949345588684,0.34599924087524414,-0.5256935358047485,-0.13590145111083984,0.857062816619873,-0.31568101048469543,0.4057774841785431,-0.6131339073181152,0.23697584867477417,0.9363635778427124,0.04386192932724953,0.8880932331085205,0.25893259048461914,-0.17663729190826416,0.2327648103237152,0.885796070098877,1.0071920156478882,-0.09762468934059143,0.0020120879635214806,0.33338606357574463,-0.6983151435852051,1.5249557495117188,-0.11679504811763763,0.5376799702644348,0.13981318473815918,0.043964285403490067,0.9307073950767517,-0.24165485799312592,-0.6283754110336304,-0.6165875792503357,-0.3351118862628937,0.5411146283149719,0.2501511871814728,-0.7089792490005493,0.3937976062297821,-0.21446707844734192,-0.5676521062850952,-0.9498469829559326,-0.5665201544761658,0.2522997260093689,0.3724181652069092,-0.8645409345626831,-0.0090574249625206,0.6266070604324341,-0.37004393339157104,0.42681312561035156,-0.23159164190292358,-0.010112273506820202,0.8369869589805603,0.34915536642074585,0.2061963528394699,-0.29510605335235596,0.12190593779087067,-0.18336260318756104,-1.4258410930633545,0.38859254121780396,-0.20359057188034058,0.5715897083282471,0.5481922626495361,-0.5393645167350769,1.312263011932373,-0.8879935145378113,1.3025166988372803,0.44345375895500183,0.22119596600532532,0.36028051376342773,1.107825756072998,0.4405243396759033,0.22071053087711334,0.11483532935380936,0.37454721331596375,0.09696187824010849,-0.4842153489589691,-0.23196275532245636,0.2654503583908081,0.745497465133667,0.50350022315979,-0.2254868894815445,-0.3401697874069214,-0.06644757091999054,0.10777430236339569,-0.3213837742805481,0.5734568238258362,0.10163119435310364,0.33537358045578003,0.44466546177864075,-0.430296391248703,0.3662123680114746,-0.16227930784225464,0.31575655937194824,-0.600303053855896,0.0291585773229599,0.10904226452112198,0.07603903859853745,0.677680253982544,-0.5044754147529602,0.50815349817276,0.10639255493879318,0.6438851952552795,0.7783463597297668,-0.14852845668792725,-0.7042959332466125,-0.28864049911499023,-0.39804041385650635,0.6556357741355896,0.5677213668823242,-0.10928046703338623,-0.2467844933271408,-0.6064921617507935,-0.5119520425796509,0.3416959345340729,-1.0033985376358032,-0.32085904479026794,-0.014716379344463348,0.30798083543777466,0.41755691170692444,-0.6690433025360107,0.6450057029724121,0.43712684512138367,-0.3231832981109619,0.3780757784843445,-0.8018178939819336,-0.7187274098396301,-0.0924856960773468,-0.2520767152309418,-0.6521511077880859,-0.4526563286781311,-0.21244503557682037,-0.03451472893357277,-1.1957337856292725,-1.730254888534546,0.5866538286209106,-0.5137156248092651,0.707667350769043,-0.011556603014469147,0.9351059794425964,-0.12842166423797607,0.5668455362319946,-0.4370328485965729,0.4357760548591614,0.3518616557121277,-0.34032344818115234,0.4925280511379242,0.04843699187040329,0.5324485301971436,-3.674044370651245,-0.8356893062591553,-0.345480740070343,0.09334538877010345,0.4291743040084839,0.03848962485790253,-0.37725669145584106,-0.7743154168128967,-0.20069542527198792,0.22271545231342316,-0.9665339589118958,-1.3175767660140991,0.7020303606987,0.353618323802948,-0.40606051683425903,0.4740884304046631,-0.44243356585502625,-0.046936653554439545,0.007576897740364075,0.7311186790466309,0.8383665680885315,-0.36594563722610474,-0.27688339352607727,0.4303521513938904,0.09871424734592438,1.0001795291900635,-0.1762058436870575,0.8532238602638245,-1.5184775590896606,-0.1764603704214096,0.4514513611793518,0.12394743412733078,0.14144088327884674,-0.5697827339172363,0.06316111981868744,0.21448680758476257,-0.6580547094345093,0.06928937137126923,0.22644853591918945,-0.1539086103439331,0.3647342324256897,0.5822170972824097,-0.21262776851654053,-0.09047789871692657,1.2814122438430786,-0.43641507625579834,-0.5570013523101807,-0.5756588578224182,0.5484811663627625,0.24349729716777802,0.05034146457910538,0.21792718768119812,-0.17205768823623657,0.33025699853897095,0.5222824215888977,-0.216304749250412,0.2269030213356018,0.6748349666595459,0.41924363374710083,-0.12680454552173615,-0.2415688931941986,0.024695029482245445,-0.332557737827301,-0.28459838032722473,0.22210149466991425,0.02690650150179863,-0.1965339630842209,-0.3308268189430237,-0.757025420665741,-0.26193100214004517,-0.11701317876577377,-0.7497332692146301,0.20489215850830078,-1.2592177391052246,-0.5713156461715698,-0.33774304389953613,-0.03303918242454529,0.3385350704193115,-0.5010987520217896,-0.5742989778518677,0.23858687281608582,-0.7716598510742188,-0.15329498052597046,-0.8438116908073425,0.07041151076555252,-0.7974238395690918,-1.0490155220031738,-0.423673540353775,-0.5550674796104431,0.45040297508239746,0.7519930005073547,0.6100612878799438,0.9726131558418274,-0.2513221502304077,-0.38163965940475464,1.0337711572647095,-0.5996126532554626,0.08345472067594528,0.07458500564098358,-0.14409372210502625,-1.087561011314392,-0.6040530800819397,1.1819127798080444,-0.17729534208774567,0.8119527697563171,-0.3671073317527771,0.616969108581543,0.17263680696487427,-0.10014591366052628,0.8979349732398987,0.05790600925683975,-0.9369011521339417,-0.24038629233837128,0.29210495948791504,-0.35207003355026245,-0.12832742929458618,0.6582644581794739,0.5689185261726379,-0.31157875061035156,0.4076727032661438,0.054890431463718414,0.7544082403182983,-0.3031901717185974,0.1056368499994278,-1.1910827159881592,-0.13873767852783203,0.36528143286705017,-0.2585289180278778,0.6538501977920532,0.37084299325942993,-0.10271449387073517,-0.33000537753105164,0.6515725255012512,0.283949077129364,0.06647755205631256,0.23319701850414276,0.8765817880630493,-0.6810046434402466,-0.5745596885681152,0.6330335736274719,0.0964435338973999,0.9406954646110535,-0.6171863675117493,0.09425768256187439,-0.8467392325401306,0.6549795866012573,-0.22622735798358917,0.3090960383415222,0.07598737627267838,0.9242782592773438,-1.3241928815841675,0.4645107388496399,0.5895966291427612,-0.06223735585808754,0.08639007806777954,-0.9785262942314148,0.6669825315475464,-0.362548291683197,-0.36885082721710205,-0.02445100247859955,0.18564563989639282,-0.37663477659225464,0.03617815300822258,0.9228621125221252,-0.4972965121269226,0.19410111010074615,-0.39225369691848755,-0.15366926789283752,-0.22921964526176453,1.1270153522491455,-0.5382944941520691,0.6152123808860779,0.28265708684921265,0.7249565720558167,-0.9997363090515137,-0.6719236373901367,-0.20124372839927673,0.5932439565658569,-0.9062157273292542,0.7590489983558655,0.36763712763786316,-0.3737623691558838,0.24106496572494507,-0.23479343950748444,-0.10846655815839767,-0.8825439214706421,-0.3905718922615051,-0.5447699427604675,0.23056381940841675,-0.6347600817680359,-1.308593511581421,0.33381959795951843,-0.5452682375907898,-0.06671258062124252,-0.4579492509365082,-1.25968599319458,-0.07910440117120743,0.3228355050086975,0.602226197719574,-0.5886222720146179,0.12274923175573349,0.8517965078353882,-0.050491031259298325,0.3533693552017212,0.6230019330978394,0.12333143502473831,0.27805566787719727,0.13632376492023468,-0.3345834016799927,0.7608471512794495,-1.4115478992462158,-1.486125111579895,0.7648389339447021,-0.8634335994720459,-0.15834787487983704,0.7299604415893555,0.1344088613986969,-0.013682061806321144,-0.5327838659286499,0.4418472945690155,-0.7018752098083496,-0.09576602280139923,-0.6438161730766296,0.25482574105262756,-1.2066662311553955,-0.3612443208694458,-0.23296919465065002,1.1872481107711792,-1.6404396295547485,-0.06075987219810486,-0.7313877940177917,0.46283063292503357,-0.37626466155052185,0.05031026527285576,0.4935815632343292,0.31438300013542175,0.34037086367607117,-0.9473134279251099,0.5989553928375244,0.2565948963165283,-0.3355264365673065,-0.12037918716669083,0.6402157545089722,0.25013768672943115,-0.47791388630867004,-0.17970073223114014,-0.19135530292987823,0.07384700328111649,-0.21305741369724274,0.027757316827774048,-0.153283029794693,-0.11361195147037506,-0.5548890829086304,-0.8830163478851318,-0.22012096643447876,-0.8336257934570312,0.13017380237579346,0.4365599751472473,-0.33368808031082153,0.12006053328514099,-0.17411787807941437,0.5082641243934631,0.2780117690563202,0.9640599489212036,-0.07700354605913162,-0.0602402463555336,0.24163292348384857,0.3518452048301697,0.05567619204521179,-0.21200577914714813,0.16715426743030548,-0.8362745046615601,0.39373335242271423,-0.6177867650985718,0.9073138236999512,0.15759217739105225,-0.3967556357383728,-0.7094977498054504,1.0325803756713867,-0.34472063183784485,-0.1046314388513565,0.15375074744224548,0.3036700189113617,-0.20732524991035461,-0.376497358083725,-0.031164348125457764,-0.7763997316360474,0.19367650151252747,-0.5845855474472046,0.9858072400093079,0.3141043186187744,0.1315707564353943,1.0440081357955933,0.0665050595998764,0.10591594874858856,0.32712027430534363,0.25390690565109253,0.3402022421360016,-0.7664315104484558,-0.029328586533665657,-0.6905593872070312,-0.8600533604621887,-0.48069965839385986,0.19009919464588165,-0.3294326663017273,0.05454583466053009,0.10871224105358124,-1.4027737379074097,-0.4160800278186798,-0.11501806974411011,-0.2342768758535385,-1.3559507131576538,0.9488440752029419,0.2928882837295532,-0.6044366955757141,0.09202399849891663,0.10251010954380035,0.07941928505897522,-1.1405833959579468,0.2389013022184372,0.159980908036232,-0.7207745909690857,0.3955995440483093,0.015290951356291771,0.33978885412216187,0.8612250089645386,-0.721267819404602,0.14291605353355408,-0.5553788542747498,-1.036407470703125,-0.5176602602005005,0.653934895992279,-0.6204400658607483,0.44546976685523987,-0.7932190895080566,-0.030977340415120125,0.024012114852666855,0.5325905084609985,0.14572706818580627,0.5666059255599976,0.25389575958251953,0.3686978220939636,-0.4224603474140167,0.37875601649284363,-0.03042687475681305,0.07650478184223175,-0.21651026606559753,-0.3870220482349396,1.066614031791687,0.1360175460577011,-0.5671365261077881,0.448382705450058,0.49575552344322205,-0.41925355792045593,-0.13179054856300354,0.2296649068593979,-0.5593076944351196,0.18221335113048553,-1.0550843477249146,0.4927142858505249,-0.43604499101638794,0.07370802760124207,0.7497336864471436,-0.914369523525238,0.3176441788673401,0.5247963070869446,-0.8585718870162964,-0.5298462510108948,-0.3998126983642578,0.47815725207328796,0.5322401523590088,-0.7143594026565552,0.6751300096511841,0.25167566537857056,-0.044800881296396255,0.011805910617113113,-0.4948890805244446,0.03574473410844803,0.29063451290130615,0.13270451128482819,0.6317844986915588,-0.6619492173194885,-0.8233296275138855,0.21872077882289886,-0.36490654945373535,0.789222240447998,-0.1406756490468979,-0.2021738588809967,-0.5108363628387451,-0.0021262764930725098,0.05214846134185791,0.6161084175109863,0.3431624174118042,-0.6528885960578918,-0.12555405497550964,-0.7590761184692383,0.13438580930233002,-0.33954256772994995,0.4521111249923706,-0.6301040649414062,0.2925589382648468,0.028471097350120544,-0.11228056252002716,0.15982961654663086,0.29165175557136536,0.9119042158126831,0.39961081743240356,0.009542573243379593,-0.9482630491256714,-0.9546496272087097,0.07533928751945496,0.29211506247520447,-0.36123770475387573,-0.39948421716690063,0.09685025364160538,-0.4024941921234131,-0.07656116783618927,-0.16494470834732056,0.018207797780632973,0.18254175782203674,-0.5095595121383667,0.9944512248039246,-0.02307102084159851,0.22644858062267303,-0.054958343505859375,-0.021113820374011993,-0.023846719413995743,-0.19474244117736816,0.27356457710266113,0.06494972109794617,0.2186974585056305,0.11592648923397064,-0.8187594413757324,-0.278873473405838,-0.20782679319381714,-0.1628132313489914,0.5664705038070679,-0.10064603388309479,-0.10319086909294128,-0.7038017511367798,0.8447721600532532,0.6819998621940613,-0.24068701267242432,0.20307083427906036,-0.5530797839164734,-0.2248530089855194,-0.14185692369937897,-0.552190363407135,-0.11129741370677948,0.1349538117647171,0.14744551479816437,0.03204857558012009,0.4162771999835968,0.008346011862158775,0.06242840364575386,0.8776792883872986,-0.10347603261470795,-0.6668516993522644,0.6234292984008789,0.0955943837761879
dentist,0.19186601042747498,0.3124375343322754,0.10837645828723907,-0.2321511059999466,0.940671980381012,0.19966179132461548,0.48481428623199463,1.1586921215057373,0.5695763230323792,-0.3678741157054901,0.18482525646686554,0.04193567484617233,0.3076963722705841,0.2940554618835449,-0.15416443347930908,0.2696441411972046,-0.26773905754089355,0.13601019978523254,0.2287805825471878,0.5711995363235474,-0.20955312252044678,-0.40251925587654114,-0.5944519639015198,-0.19481897354125977,-0.304006427526474,0.3992777466773987,-0.21038997173309326,1.1748794317245483,-0.3859361708164215,-0.9102205634117126,0.3415936827659607,-0.17518460750579834,-0.23113295435905457,-0.09706719219684601,0.3791344165802002,-0.13848954439163208,0.23967400193214417,0.5024314522743225,-1.138141393661499,0.24865885078907013,-0.16256728768348694,-0.35707688331604004,0.2712092399597168,0.7604551911354065,-0.2869088649749756,0.24983163177967072,0.01483277976512909,0.01308246050029993,0.7948682904243469,-0.8039484620094299,-0.27325668931007385,-0.14183267951011658,-0.0037069804966449738,-0.09744037687778473,0.3096446096897125,-0.22694340348243713,-0.06552480906248093,0.15014459192752838,-0.3989409804344177,-0.11419966071844101,-0.2945953905582428,0.41057872772216797,0.48957064747810364,-0.5672894716262817,0.3860354721546173,0.42838701605796814,-0.42200303077697754,-0.008909761905670166,-0.35059788823127747,0.16076824069023132,0.29256540536880493,0.4916364848613739,-0.22235222160816193,-0.08911047875881195,-0.048614270985126495,0.10472516715526581,-0.48977339267730713,0.057701967656612396,0.2850068211555481,0.35003018379211426,-0.4517908990383148,-0.8046241998672485,0.4954055845737457,0.3048056960105896,0.32689565420150757,-0.15300019085407257,0.276545912027359,0.8885290622711182,0.2325899302959442,0.30004340410232544,-0.39039984345436096,-0.15963639318943024,-0.3245517313480377,-0.2539628744125366,-0.20998574793338776,-0.7170106768608093,0.25136762857437134,-0.7236647009849548,-0.18253926932811737,-0.33883941173553467,1.223138451576233,-0.6804566383361816,0.023360460996627808,0.09911294281482697,-0.31616756319999695,-0.5429561734199524,-0.26080650091171265,0.5519556999206543,-0.19732394814491272,0.28913548588752747,-0.3575759530067444,0.1289708912372589,0.13356103003025055,-1.224149465560913,-0.6618008613586426,0.6682044863700867,-0.37840914726257324,-1.1639361381530762,-0.5312460660934448,-0.062261033803224564,-0.3172853887081146,0.21715743839740753,0.5938599705696106,0.9469418525695801,-0.1457398533821106,0.575439453125,0.029718518257141113,0.16699156165122986,-0.32603588700294495,0.16918456554412842,0.8007296323776245,0.09039287269115448,0.21921931207180023,-0.567540168762207,-0.00878491997718811,-0.6551626324653625,-0.1767452359199524,-0.22519299387931824,-0.5866186022758484,0.31192442774772644,0.6176965832710266,0.6389500498771667,-0.3109774887561798,0.849358081817627,-0.12656302750110626,-0.06521578133106232,-0.4810963571071625,0.265677273273468,-0.3140113949775696,-0.08246088027954102,-0.14181679487228394,0.8303189277648926,-0.3174062967300415,-1.2746485471725464,0.2648167610168457,0.346540242433548,0.5746825337409973,0.35578179359436035,-0.1989867091178894,0.3950834572315216,0.5803244709968567,-0.7267159819602966,-0.43452543020248413,1.0724462270736694,-0.5742010474205017,-0.35856685042381287,-0.5673685669898987,-0.01620671898126602,-0.3004485070705414,0.3865301012992859,-0.7177539467811584,0.07887344062328339,0.6382119059562683,-0.15621601045131683,0.4154784679412842,0.3448609709739685,0.22560888528823853,0.10428686439990997,0.8486292362213135,-0.11420516669750214,-0.11356338858604431,1.194288730621338,-0.6038547158241272,-0.08378835022449493,0.9033202528953552,-0.33153703808784485,1.1488741636276245,0.5775842070579529,-0.16253939270973206,0.07072839885950089,-0.23055581748485565,-0.9125860929489136,-0.7477383613586426,-0.005789006128907204,0.5962782502174377,0.019602105021476746,-1.1502575874328613,-0.3238889276981354,-1.0992367267608643,-0.48466959595680237,0.003457978367805481,-1.0110946893692017,0.062354907393455505,0.5428236126899719,-0.6468147039413452,0.2824710011482239,-0.2588955760002136,-0.08990053832530975,0.6350889205932617,0.01751229539513588,-0.44308117032051086,0.15604376792907715,-0.41513681411743164,-0.021159127354621887,-0.018409445881843567,0.2436653971672058,-0.5363068580627441,-0.8676273822784424,0.5946469902992249,-0.32662421464920044,0.6426858901977539,-0.4178577661514282,-0.5780767202377319,0.41921377182006836,-0.42789873480796814,1.3802043199539185,0.43843212723731995,-0.056735049933195114,-0.18842682242393494,0.39552971720695496,0.7439903616905212,0.8568755388259888,0.4723889231681824,0.5306820273399353,0.03363329544663429,-0.4137965440750122,-0.5123738646507263,-0.3997236490249634,0.3172498941421509,0.42499840259552,-0.8312674164772034,-0.7230508327484131,0.6500504612922668,0.739188015460968,0.25043195486068726,0.6676488518714905,-0.5475891828536987,0.3623649477958679,0.21821096539497375,-0.21488064527511597,-0.3313915431499481,-0.40961915254592896,-0.1866864562034607,0.018833905458450317,0.9714714288711548,0.1516607105731964,0.003747936338186264,0.2743481397628784,-0.3493039608001709,0.17306721210479736,-0.6210687756538391,0.578020453453064,1.2022383213043213,0.3547990918159485,-0.5712473392486572,-0.2737058401107788,-0.3506421446800232,0.5505080223083496,0.25437477231025696,0.581981360912323,-0.25567078590393066,-0.15778213739395142,0.08438389748334885,-0.36400604248046875,-0.4147014617919922,-0.03470677137374878,0.3494556248188019,0.3942979872226715,0.20764531195163727,-0.1414855718612671,0.09290710091590881,0.9147912263870239,-0.7105824947357178,-0.041350483894348145,-0.6121630668640137,-0.08658314496278763,0.15192794799804688,0.9458068609237671,-0.3313919007778168,-0.43754109740257263,-0.31798604130744934,0.42063024640083313,-0.46509867906570435,-1.0398513078689575,0.8804841637611389,0.051755860447883606,0.45817261934280396,-0.2570991516113281,0.6233547329902649,-0.702930748462677,0.8952239155769348,-0.3335549533367157,0.4620457887649536,-0.038395822048187256,-0.17181755602359772,0.28273704648017883,0.17457258701324463,-0.18354982137680054,-4.488531112670898,-0.49153488874435425,-1.1861004829406738,-0.4095743000507355,0.5697429180145264,-0.3638842701911926,-0.03741028159856796,0.7839646935462952,-0.6380000114440918,0.028517715632915497,-0.07900651544332504,-0.738853394985199,-0.01086815819144249,0.5111137628555298,0.12453097105026245,-0.22841106355190277,-0.23091793060302734,0.5220087766647339,-0.015438653528690338,0.4430481791496277,0.5415621399879456,-1.1751530170440674,-0.0038524512201547623,0.2351336032152176,-0.10224563628435135,1.9245411157608032,-0.5481623411178589,0.28794559836387634,-0.5061564445495605,0.09434442967176437,-0.1314084529876709,0.6968457698822021,0.0981670469045639,0.3502271771430969,-0.09573402255773544,0.2979278564453125,-0.5088333487510681,0.2425605058670044,0.7357538342475891,-0.6050235033035278,0.022867372259497643,0.7740539908409119,0.4568461775779724,0.44902512431144714,0.8018276691436768,-0.05811630189418793,-0.19680161774158478,0.4358247220516205,0.10934830456972122,0.7943000793457031,-0.24181631207466125,0.4803008437156677,-0.18982240557670593,0.6354444026947021,-0.013478472828865051,0.00971878319978714,-0.11012835800647736,0.6339259147644043,-0.66856849193573,-0.5398175120353699,-0.4551314413547516,-0.08081413805484772,-0.4505857229232788,-0.5036739110946655,-0.2888661324977875,-0.060232702642679214,-0.3900647759437561,-1.0999950170516968,-1.030532956123352,-0.07229426503181458,-0.43497663736343384,-1.0872164964675903,-0.7281562685966492,-1.1691651344299316,-0.6326069831848145,-0.23880690336227417,-0.37467530369758606,0.1467231810092926,-0.20928795635700226,0.5731372237205505,-0.09195134043693542,-0.6791115999221802,0.7268868088722229,-0.6712846159934998,0.06853889673948288,-0.725165605545044,-0.16314244270324707,0.009189032018184662,-0.13333846628665924,0.17153780162334442,0.12954914569854736,0.5588896870613098,0.06914592534303665,-0.6746054887771606,-0.4578879475593567,-0.3896788954734802,-0.5924212336540222,0.3653741776943207,1.0791090726852417,0.03647485375404358,-0.1263168752193451,-0.36895498633384705,0.28297996520996094,0.16652071475982666,0.020201431587338448,-0.1609898954629898,-0.42153942584991455,0.02789229154586792,-0.6624833941459656,0.25928035378456116,0.4466966390609741,-0.9965932369232178,0.9202365875244141,-0.2627120912075043,-0.24247261881828308,0.14713826775550842,0.7526904344558716,0.1675460934638977,0.4217919707298279,-0.6279251575469971,0.05595199018716812,0.40824034810066223,0.25948965549468994,0.3160112500190735,-0.4781707525253296,0.3002890646457672,0.4830711781978607,0.21836143732070923,0.06068366393446922,0.8222085237503052,0.433627724647522,0.06889597326517105,0.6100684404373169,-0.1264880895614624,0.13015542924404144,0.23729529976844788,0.4455564022064209,-0.5648675560951233,-0.44417232275009155,0.49422556161880493,0.49726614356040955,0.7590184807777405,0.035676077008247375,-0.08521740138530731,0.9203752875328064,-0.16369710862636566,-0.6843351125717163,0.16310752928256989,0.25034818053245544,0.693989098072052,-0.7642988562583923,0.07243681699037552,0.05271383374929428,-0.19559568166732788,0.7101039290428162,-0.4426811635494232,0.8883794546127319,-0.7500237226486206,-0.959602952003479,-0.1684882938861847,-0.11004620790481567,-0.2829488515853882,0.8241727352142334,0.4246872067451477,-0.31747326254844666,0.3336113393306732,-0.2627991735935211,0.3079790472984314,-0.055117055773735046,0.2898184657096863,0.02995605394244194,0.42567646503448486,0.3355030417442322,0.8478136658668518,-0.4596612751483917,0.18658052384853363,-0.23369216918945312,1.1628527641296387,0.1360379457473755,0.3666435778141022,0.5809898972511292,-0.5955460071563721,-0.07096006721258163,-0.8831998705863953,0.43061327934265137,-0.42455974221229553,-0.8207241892814636,-0.5406567454338074,0.06969387084245682,0.08433300256729126,-0.7212857007980347,0.2596941590309143,-0.2728476822376251,-0.038992077112197876,-0.15803822875022888,-0.8892415761947632,-0.167563796043396,0.18899156153202057,0.4653834402561188,0.3212834596633911,-0.38391152024269104,0.6208016872406006,-0.36562633514404297,-0.08888030052185059,-0.5472881197929382,0.2859285771846771,0.07472746074199677,0.274677038192749,-0.7269158363342285,0.6721562743186951,-0.17745822668075562,-0.3976999521255493,-0.024188315495848656,-0.2822697162628174,-0.1713271141052246,0.14904749393463135,0.31336504220962524,0.4239168167114258,-0.3947645425796509,0.4846424162387848,-0.2586093544960022,-0.15154872834682465,-1.4521864652633667,0.1670757234096527,-1.7340216636657715,0.3447248935699463,-0.49916672706604004,0.36377260088920593,-1.1988551616668701,0.05855074152350426,-0.45017704367637634,-0.5802239775657654,-0.24927616119384766,0.4170764088630676,0.7620965242385864,0.5917133688926697,-0.49411898851394653,-0.5371187925338745,0.1571900099515915,-0.14234879612922668,-0.39783042669296265,0.29514452815055847,-0.4137495756149292,0.5323235988616943,-0.43692004680633545,0.5682843923568726,0.6631594896316528,-0.1276138722896576,-0.20448541641235352,0.5686458349227905,-0.1707664430141449,-0.15990091860294342,0.08067208528518677,-0.5062454342842102,0.018131278455257416,-0.24725519120693207,-0.48003873229026794,-0.09988823533058167,-0.16804632544517517,0.6282345056533813,0.11194096505641937,0.2965224087238312,0.30138564109802246,0.12662790715694427,0.4695950448513031,0.34701380133628845,-0.26175129413604736,0.24668999016284943,-0.23607350885868073,-0.08343419432640076,-0.14677053689956665,-0.48384565114974976,0.27991995215415955,-0.5912482738494873,0.2811061143875122,-0.22714796662330627,-0.17584514617919922,-0.6347388625144958,0.8022308349609375,-0.0018300667870789766,-0.20386599004268646,0.9042928218841553,-0.7748878002166748,-0.032900869846343994,-1.1976302862167358,0.46682170033454895,-0.6229572892189026,0.5293009877204895,-0.5707970857620239,0.7830450534820557,0.41022518277168274,0.2359415739774704,-0.08025305718183517,1.1046446561813354,-0.23244547843933105,0.799114465713501,0.33674484491348267,0.31431418657302856,-0.30666863918304443,-0.20447656512260437,-0.18113046884536743,0.6185231804847717,-0.36475974321365356,-0.09209144860506058,-0.31523385643959045,-0.14942333102226257,-0.04740820452570915,-0.8444504737854004,0.44137832522392273,0.5328854918479919,-0.31473904848098755,-0.9172913432121277,0.7650439143180847,0.30806252360343933,-0.861173152923584,0.0980406105518341,0.23807524144649506,0.41044801473617554,-0.9827423095703125,-0.1372365951538086,-0.4399765133857727,0.01944732666015625,0.37367334961891174,-0.5200323462486267,0.19238080084323883,0.09042304754257202,-0.01799774542450905,0.6202905178070068,0.6013695001602173,-0.03264365717768669,0.7943506240844727,0.748328685760498,0.657607913017273,0.2875719964504242,0.5025067329406738,-0.2975403368473053,0.39012423157691956,0.5193333625793457,0.7742011547088623,-0.6107035875320435,0.044789738953113556,0.761121392250061,-0.787946343421936,0.7680877447128296,0.18016919493675232,-0.29021984338760376,0.38137367367744446,-0.14225426316261292,0.3782353103160858,-0.4389982223510742,-0.20027701556682587,-0.4361324906349182,0.2554003894329071,-0.2592795491218567,-0.13102936744689941,0.1954450160264969,-0.0020755380392074585,-0.12486518174409866,-0.6612516641616821,0.4303547143936157,-0.09300415962934494,-0.3289910554885864,0.3492805063724518,-0.5217289328575134,0.023800479248166084,0.2000991702079773,-0.22684718668460846,-1.0610873699188232,0.4219542145729065,0.7029066681861877,-0.004858151078224182,-0.4321258068084717,0.3676583766937256,0.7210353016853333,-0.595120906829834,-0.6877059936523438,-0.33226925134658813,-0.8309429883956909,0.24287673830986023,0.49251091480255127,0.5739368796348572,-0.25734958052635193,-0.28560179471969604,0.47062957286834717,-0.1777716726064682,-0.12458936870098114,0.3901985287666321,0.02838776633143425,0.3641631007194519,0.1378207504749298,-0.5126640796661377,1.061083436012268,-0.6953709125518799,-0.7649173736572266,0.0648704543709755,-0.21136786043643951,0.03102797269821167,-0.8435056209564209,0.37066373229026794,-0.3444613218307495,-0.23392680287361145,0.3333471119403839,0.14630886912345886,0.06264244019985199,0.09422629326581955,-0.15949076414108276,0.4473056197166443,-0.24369755387306213,-0.0679355338215828,-0.5611023306846619,0.5026945471763611,1.0344573259353638,-0.45068085193634033,0.09500931203365326,0.32479724287986755,-0.3680154085159302,-0.07523496448993683,-1.0767571926116943,-0.15603642165660858,0.014146067202091217,-0.28387776017189026,0.37237629294395447,-0.013845959678292274,-0.39142245054244995,-0.5225902795791626,-0.3062976598739624,0.286679208278656,0.39928963780403137,0.37655746936798096,-0.12892258167266846,-0.4603206217288971,-0.12696339190006256,0.06480582058429718,-0.4136401116847992,-0.10271880775690079,-0.21112921833992004,0.22792847454547882,0.31697776913642883,0.17938464879989624,-0.8844143152236938,0.575312077999115,-0.38870468735694885,0.09293712675571442,-0.08391354978084564,-0.5822610855102539,-0.9273442625999451,-0.5605359077453613,-0.8970845937728882,-0.05517180636525154,-0.6134440898895264,-0.5905820727348328,0.13911259174346924,0.04523531347513199,-0.15030084550380707,0.04463965818285942,0.4192854166030884,-0.40577298402786255,0.06390849500894547,0.5523488521575928,-0.1161908432841301
maid,0.051164478063583374,-0.1316833347082138,0.5696656107902527,-0.7095760703086853,0.7245592474937439,-0.14850613474845886,1.3660849332809448,-0.042792532593011856,0.10904622822999954,-0.5637414455413818,0.24693109095096588,-1.1456537246704102,0.3255128860473633,0.4667028784751892,-1.1614269018173218,-0.3795830309391022,0.27978515625,-0.27689167857170105,-0.23089256882667542,0.0595327690243721,-0.6956625580787659,0.2408812940120697,-0.6209419965744019,-0.24908030033111572,-0.13744914531707764,0.09654103219509125,0.21406275033950806,0.816144585609436,0.12120305746793747,-0.16582059860229492,0.7528933882713318,0.2845689356327057,0.3273943364620209,-0.09351497888565063,-0.47562381625175476,0.12027208507061005,0.41884148120880127,0.5907955765724182,-0.5279357433319092,-0.12778955698013306,-1.1720763444900513,-0.6286447644233704,0.6170191168785095,0.09313037246465683,-0.32345229387283325,-0.1049506813287735,0.676275908946991,-0.2899650037288666,0.34244614839553833,-0.14013586938381195,-0.6555884480476379,0.2812573313713074,1.125190019607544,-0.7517229318618774,0.35079893469810486,1.2225348949432373,-0.6424168348312378,-0.4212222695350647,-0.47589951753616333,-0.414604127407074,-0.7369598746299744,0.621920108795166,0.3672051429748535,-1.1567087173461914,0.06385736912488937,1.217643141746521,-0.0919022411108017,0.46489816904067993,-0.4500781297683716,0.27122828364372253,-0.08160442113876343,0.0096944160759449,0.15400370955467224,0.08748826384544373,-0.8622316122055054,0.1534881591796875,-0.7229540348052979,-0.07319609820842743,0.056899718940258026,-0.1439475268125534,-1.086872935295105,0.23712840676307678,0.32580283284187317,1.2325173616409302,-0.236208975315094,0.338687539100647,-0.17666026949882507,0.7967967987060547,-0.014017034322023392,0.5518216490745544,-0.31027501821517944,-0.2157784104347229,-0.4490238428115845,-0.4981876611709595,-0.0667334496974945,-0.09139377623796463,1.2954641580581665,-0.05541253462433815,-0.35242220759391785,0.6923912763595581,1.2578898668289185,-0.2325267493724823,0.7383178472518921,0.4008150100708008,-0.636549174785614,-0.6181979179382324,-0.6675916910171509,-0.270331472158432,0.11461633443832397,0.696869969367981,0.6943590044975281,-0.1886751353740692,0.007604851853102446,-1.0480964183807373,-0.21158798038959503,0.8244273662567139,-0.8719421625137329,-0.5465801954269409,0.005830779671669006,0.30728742480278015,1.0515611171722412,-0.7744987607002258,0.6598571538925171,0.8395307660102844,0.03756456822156906,0.10460136830806732,0.3770982027053833,0.6830271482467651,-0.1145494133234024,-0.1416386216878891,0.5821563005447388,0.3835347592830658,0.07000824064016342,-0.9385256171226501,-0.5904295444488525,-0.5967190265655518,-0.10939754545688629,-0.3187335133552551,-1.6498152017593384,0.3301009237766266,-0.14943847060203552,1.1644680500030518,0.8278760313987732,-0.027070896700024605,0.07335324585437775,1.0229421854019165,-0.44754722714424133,-0.41190847754478455,0.031132519245147705,-0.6787493228912354,0.13761669397354126,0.3263840079307556,0.0981246754527092,0.14595967531204224,-0.28506025671958923,-0.6480259895324707,0.5898367762565613,0.8347665667533875,-0.3579270839691162,-0.0493851974606514,-0.6665597558021545,-0.5253914594650269,-0.11881693452596664,0.24767886102199554,-0.35029399394989014,0.31603187322616577,-0.19846458733081818,1.2172048091888428,-0.316127747297287,-0.39153867959976196,-0.08990590274333954,0.15782283246517181,0.7610858082771301,-0.6001473665237427,0.7839661836624146,0.5468259453773499,0.18510979413986206,0.5257745981216431,1.2261524200439453,0.8438218235969543,0.18816180527210236,0.05731033906340599,0.20974275469779968,-0.012285960838198662,1.5764535665512085,0.2663647532463074,0.2020106315612793,-0.39923784136772156,0.04959278553724289,-0.275797039270401,0.3855324387550354,0.05570460110902786,-0.9522992372512817,0.004080282524228096,-0.005140125751495361,-0.07733593881130219,-0.4346271753311157,-0.19036954641342163,-1.012152910232544,-0.3588029444217682,-0.0008060485124588013,-0.5906386971473694,-0.09230071306228638,0.6014546751976013,-0.7363065481185913,0.07693924754858017,0.0610068142414093,-0.09564231336116791,0.3383592665195465,0.2677367925643921,-0.6271979808807373,0.2466292381286621,0.07362467050552368,0.1861078292131424,0.1758536994457245,-0.3417101800441742,0.06662511825561523,-0.23987461626529694,1.0219950675964355,-0.14596647024154663,0.011250689625740051,0.19167223572731018,-0.4858481287956238,0.3602113723754883,-0.541929304599762,1.6246683597564697,0.010533146560192108,-0.2688802182674408,-0.30439916253089905,0.9406639337539673,0.35463184118270874,0.049008119851350784,0.6352508068084717,0.41059303283691406,-0.20375730097293854,-0.052604079246520996,-1.4563947916030884,0.3580166697502136,0.4163539707660675,0.21339155733585358,-0.28756701946258545,0.3710821568965912,0.8979243040084839,0.5513245463371277,0.7584133744239807,-0.033615048974752426,-0.4670450687408447,0.15114973485469818,0.45319679379463196,-0.5769412517547607,0.20766222476959229,-0.4182520806789398,-0.008965983055531979,-1.5524046421051025,-0.7889491319656372,0.30778631567955017,-0.39542216062545776,0.5550626516342163,-0.8749139308929443,0.5711376070976257,0.30394816398620605,0.8378154039382935,0.2738860249519348,0.2429075688123703,-0.4801441729068756,-0.5478935241699219,-0.17170728743076324,0.728826105594635,0.19342803955078125,0.09604240953922272,0.5108811259269714,-0.270223468542099,-0.3432234823703766,0.8075724840164185,-0.25070253014564514,0.3535109758377075,0.13456659018993378,0.29251471161842346,-0.26558902859687805,-0.8853998780250549,0.683399498462677,0.613859236240387,-0.665637195110321,-0.24205923080444336,-0.4034753739833832,-0.8685006499290466,-0.10399003326892853,0.5836107730865479,-0.6905021071434021,-0.527064323425293,-0.17660535871982574,0.07764845341444016,-0.5840588212013245,-1.1515153646469116,0.7932165265083313,-0.4804353415966034,-0.07374399900436401,0.43414220213890076,0.4650159478187561,-0.06958555430173874,-0.035548076033592224,0.44700831174850464,0.9356580376625061,0.027431003749370575,-0.061747193336486816,0.1262921690940857,-0.20116092264652252,0.3026619553565979,-2.8135249614715576,-0.041410937905311584,0.583000898361206,-0.2253764420747757,0.30512329936027527,-0.08663484454154968,0.13779965043067932,-0.5230772495269775,-0.7386928796768188,0.7971123456954956,-0.16542282700538635,-1.2418490648269653,0.9002606272697449,0.3243095278739929,0.41253742575645447,-0.1236266940832138,-0.5009798407554626,-0.6871442794799805,-0.19312027096748352,0.8784483671188354,0.5293280482292175,-0.3629918396472931,-0.486613929271698,-0.07179048657417297,-0.008258022367954254,0.996423065662384,0.15630771219730377,0.221160426735878,-0.9609115123748779,-0.4882516860961914,0.5523311495780945,-0.017813310027122498,0.7435541749000549,-0.25187620520591736,0.3030793070793152,-0.32849830389022827,-0.19077494740486145,-0.14230751991271973,0.16492217779159546,-1.1398543119430542,-0.07906915992498398,0.04798680543899536,0.21756747364997864,0.39201343059539795,0.6394610404968262,-0.053760647773742676,-1.0595694780349731,0.27642104029655457,0.07146076112985611,0.21671076118946075,-0.05167844146490097,0.7170001864433289,0.03608442842960358,-0.8932199478149414,-0.5824581980705261,0.19449114799499512,0.4758260250091553,1.0914183855056763,-0.09969133883714676,0.08791861683130264,-0.5660711526870728,-0.15407921373844147,-0.3544972836971283,-0.59559166431427,0.19267992675304413,-1.0234979391098022,-0.7902266979217529,-0.30289778113365173,-0.4563252329826355,-0.21618179976940155,-0.8803001642227173,-0.9096303582191467,0.04066316410899162,-1.3752816915512085,-0.36428019404411316,0.6821812391281128,0.15381479263305664,-0.20538625121116638,-0.02563999779522419,-1.546864628791809,-0.026440683752298355,-1.47219717502594,0.6275113821029663,-1.053935170173645,-0.49247467517852783,-1.410164713859558,-1.1342511177062988,-0.71079021692276,0.24997738003730774,-0.26868849992752075,0.1395455151796341,0.8073322772979736,0.6194115877151489,-0.4543896019458771,-0.06911510229110718,0.3331514596939087,-0.010355670005083084,0.1636345386505127,0.5687018036842346,-0.42936474084854126,-1.0952506065368652,-0.9167637228965759,1.2831854820251465,-0.784533679485321,0.5463259816169739,-0.20088833570480347,-0.294209361076355,0.16845686733722687,0.4361106753349304,0.9572725892066956,0.7971205115318298,-1.2354190349578857,1.0585365295410156,-0.24223211407661438,-0.9410377144813538,-0.7655925750732422,1.327510952949524,0.5483525991439819,0.3345503509044647,0.28972917795181274,0.2979964017868042,0.814150333404541,0.05019557476043701,0.05504535138607025,-0.22150853276252747,0.23176096379756927,0.937552273273468,0.956451416015625,-0.15938596427440643,-0.7024720907211304,-0.06234469264745712,-0.23289889097213745,-0.2461598813533783,-0.1186554953455925,-0.0009334422647953033,-0.17020533978939056,-0.0814150720834732,-0.6850426197052002,-0.41131576895713806,0.5287546515464783,0.04052305221557617,0.7008703947067261,-0.8456999659538269,-0.2066798359155655,-0.4485955834388733,-0.7046058773994446,0.0854126513004303,0.09778283536434174,-0.06283137202262878,1.1935590505599976,-0.8083716034889221,0.047092363238334656,0.7493708729743958,0.11230074614286423,-0.12946444749832153,-1.123926043510437,0.4706328213214874,0.4426594078540802,-0.46734151244163513,-0.32084566354751587,-0.9030979871749878,-0.1493024230003357,-0.04518605396151543,1.07079017162323,-0.7113500833511353,-0.022877611219882965,0.11272067576646805,-0.6997057199478149,0.12550963461399078,1.3970470428466797,-0.36476755142211914,0.4923848807811737,-0.23884396255016327,0.03552743047475815,-0.7515537738800049,0.44465172290802,-0.13503722846508026,0.6255611777305603,-0.2952786386013031,1.1913772821426392,0.4196876883506775,-0.1372041553258896,-0.6475480198860168,-0.5717117786407471,0.2547420859336853,0.4707915782928467,-0.03924943506717682,-0.6129183173179626,0.8146381378173828,-0.1655714213848114,-0.5462397336959839,1.1165759563446045,-1.004014253616333,-0.6376952528953552,-1.5386322736740112,-1.5892091989517212,0.03084380365908146,0.1844126433134079,0.1846841424703598,0.19934290647506714,0.21386770904064178,0.3589502274990082,0.16151770949363708,0.22265338897705078,0.19068539142608643,-0.053309131413698196,0.4809509515762329,0.6266785264015198,-0.4045313596725464,0.49045324325561523,-0.6502324342727661,-0.7384742498397827,-0.02746470831334591,-0.49569326639175415,-0.23559442162513733,-0.11574673652648926,0.09240816533565521,0.16713304817676544,-0.293013334274292,0.3148122727870941,-1.3749425411224365,-0.8212609887123108,-0.33371347188949585,0.5408766865730286,-1.7664690017700195,-0.614942729473114,-0.10736382752656937,0.5398027300834656,-0.90064537525177,-0.22785058617591858,-0.4203442633152008,0.9032581448554993,-0.06202263385057449,0.14500321447849274,0.41443464159965515,-0.4301861822605133,-0.5310450196266174,-1.1534461975097656,0.6366497874259949,0.4977167248725891,0.06530029326677322,-0.06630344688892365,0.12422686815261841,-0.005677230656147003,-0.280205637216568,-0.19154389202594757,0.01050767581909895,-0.13055795431137085,0.18622948229312897,0.12329569458961487,0.13427892327308655,0.4568944275379181,0.1953565627336502,-0.8513323664665222,0.3946004807949066,0.8895474672317505,0.1284198760986328,0.7898372411727905,0.12283702194690704,-0.08947919309139252,-0.18503744900226593,-0.3893979787826538,0.006969556212425232,0.154873788356781,-0.34421205520629883,0.1563718020915985,0.7517540454864502,0.6655972599983215,-0.4522513151168823,-0.385785847902298,0.04018924757838249,-0.1924540251493454,0.9619004130363464,-0.532929539680481,0.2813885807991028,0.2998337745666504,-0.6075439453125,-0.9436169266700745,1.2869744300842285,-0.7531335353851318,-0.7993924617767334,0.2596469521522522,-0.5849830508232117,-0.36747604608535767,-0.7382599711418152,0.24408361315727234,-0.39651572704315186,-0.213094562292099,-1.0542985200881958,0.7502599358558655,0.6776684522628784,0.4615834653377533,0.5215524435043335,1.2073627710342407,-0.5568931698799133,1.0545710325241089,0.2185823619365692,0.6192152500152588,-0.021167747676372528,-0.14166218042373657,-0.6464371085166931,-0.12395292520523071,0.18114346265792847,0.2844974994659424,0.35191306471824646,-0.3735469579696655,-0.03829474374651909,-1.470623254776001,-0.6355888843536377,-0.4740963876247406,-0.010091826319694519,-0.7638930678367615,1.3787039518356323,0.5988969802856445,-0.39553308486938477,0.20460762083530426,0.2383520007133484,-0.05265231430530548,-0.6113986968994141,0.11668159067630768,0.01902684010565281,0.06392994523048401,0.24889715015888214,0.5073257088661194,-0.0736890584230423,0.9033980369567871,-0.6350868940353394,0.12801478803157806,0.985905110836029,-1.0751566886901855,-0.3050310015678406,0.04170381277799606,-0.648339033126831,0.7181821465492249,-0.2616136074066162,-0.5490192770957947,-0.09417220950126648,0.6741042733192444,0.2211984395980835,-0.503650426864624,0.008169539272785187,-0.30237463116645813,-0.0008497480303049088,0.13472113013267517,0.12618963420391083,0.12001144886016846,-0.058900728821754456,-0.3751414716243744,0.40344199538230896,-0.3368857204914093,-0.3180307447910309,0.5336817502975464,0.5196358561515808,-0.8562948107719421,-0.4511217474937439,0.5690960884094238,-0.0595359168946743,0.11723577231168747,-0.8917688727378845,0.9944244027137756,-0.8108386993408203,-0.37817761301994324,0.8102249503135681,0.02409246563911438,0.3941859304904938,-0.32009822130203247,-0.030356822535395622,-0.21760745346546173,-0.1752208173274994,0.2435094565153122,0.6775717735290527,0.4381251335144043,1.2710084915161133,0.6850069165229797,0.14175458252429962,-0.06439685076475143,-0.6439361572265625,-0.9225144386291504,0.2337343990802765,-0.12220447510480881,0.10799270868301392,-0.4516141712665558,-0.2342861294746399,0.6442024111747742,-0.6223142743110657,0.620235800743103,-0.2929057478904724,-0.21849584579467773,-0.8170062899589539,-0.3251693844795227,0.12020853161811829,0.5288283228874207,0.3702349364757538,-0.10264018177986145,-0.1539200097322464,-1.3386744260787964,1.3513679504394531,-0.15496516227722168,0.6011270880699158,0.45493483543395996,0.5038471221923828,0.32516616582870483,-0.637126088142395,0.6120004057884216,0.02484094351530075,0.8629134297370911,0.20194219052791595,0.26536479592323303,-0.20540718734264374,-0.7613659501075745,0.11958420276641846,0.692107081413269,-1.1109938621520996,0.6748759150505066,-0.13646423816680908,0.02934962511062622,-0.2752736806869507,-0.084082692861557,0.3013744354248047,-0.13149794936180115,-0.5220659375190735,0.6978331208229065,0.799040675163269,0.7495485544204712,-0.3261992931365967,-0.5512738823890686,0.38756752014160156,0.035202786326408386,0.7732546925544739,-0.25956007838249207,-0.6211323142051697,-0.3841567635536194,-0.4032377600669861,-0.0530424639582634,0.6569632887840271,0.26040980219841003,-0.3639545440673828,-0.5244720578193665,0.08714458346366882,-0.9061439037322998,1.4155017137527466,0.06587716192007065,-0.8391253352165222,0.29576730728149414,0.24845674633979797,-0.668267548084259,-0.04249050095677376,-0.597704291343689,0.23285189270973206,-0.28619760274887085,0.2585934102535248,0.18693870306015015,0.10840373486280441,-0.7133405804634094,0.621397078037262,0.34282413125038147,0.02248986065387726,-0.5911431908607483,-0.10712717473506927,0.1378556191921234
