Profession,dim_0,dim_1,dim_2,dim_3,dim_4,dim_5,dim_6,dim_7,dim_8,dim_9,dim_10,dim_11,dim_12,dim_13,dim_14,dim_15,dim_16,dim_17,dim_18,dim_19,dim_20,dim_21,dim_22,dim_23,dim_24,dim_25,dim_26,dim_27,dim_28,dim_29,dim_30,dim_31,dim_32,dim_33,dim_34,dim_35,dim_36,dim_37,dim_38,dim_39,dim_40,dim_41,dim_42,dim_43,dim_44,dim_45,dim_46,dim_47,dim_48,dim_49,dim_50,dim_51,dim_52,dim_53,dim_54,dim_55,dim_56,dim_57,dim_58,dim_59,dim_60,dim_61,dim_62,dim_63,dim_64,dim_65,dim_66,dim_67,dim_68,dim_69,dim_70,dim_71,dim_72,dim_73,dim_74,dim_75,dim_76,dim_77,dim_78,dim_79,dim_80,dim_81,dim_82,dim_83,dim_84,dim_85,dim_86,dim_87,dim_88,dim_89,dim_90,dim_91,dim_92,dim_93,dim_94,dim_95,dim_96,dim_97,dim_98,dim_99,dim_100,dim_101,dim_102,dim_103,dim_104,dim_105,dim_106,dim_107,dim_108,dim_109,dim_110,dim_111,dim_112,dim_113,dim_114,dim_115,dim_116,dim_117,dim_118,dim_119,dim_120,dim_121,dim_122,dim_123,dim_124,dim_125,dim_126,dim_127,dim_128,dim_129,dim_130,dim_131,dim_132,dim_133,dim_134,dim_135,dim_136,dim_137,dim_138,dim_139,dim_140,dim_141,dim_142,dim_143,dim_144,dim_145,dim_146,dim_147,dim_148,dim_149,dim_150,dim_151,dim_152,dim_153,dim_154,dim_155,dim_156,dim_157,dim_158,dim_159,dim_160,dim_161,dim_162,dim_163,dim_164,dim_165,dim_166,dim_167,dim_168,dim_169,dim_170,dim_171,dim_172,dim_173,dim_174,dim_175,dim_176,dim_177,dim_178,dim_179,dim_180,dim_181,dim_182,dim_183,dim_184,dim_185,dim_186,dim_187,dim_188,dim_189,dim_190,dim_191,dim_192,dim_193,dim_194,dim_195,dim_196,dim_197,dim_198,dim_199,dim_200,dim_201,dim_202,dim_203,dim_204,dim_205,dim_206,dim_207,dim_208,dim_209,dim_210,dim_211,dim_212,dim_213,dim_214,dim_215,dim_216,dim_217,dim_218,dim_219,dim_220,dim_221,dim_222,dim_223,dim_224,dim_225,dim_226,dim_227,dim_228,dim_229,dim_230,dim_231,dim_232,dim_233,dim_234,dim_235,dim_236,dim_237,dim_238,dim_239,dim_240,dim_241,dim_242,dim_243,dim_244,dim_245,dim_246,dim_247,dim_248,dim_249,dim_250,dim_251,dim_252,dim_253,dim_254,dim_255,dim_256,dim_257,dim_258,dim_259,dim_260,dim_261,dim_262,dim_263,dim_264,dim_265,dim_266,dim_267,dim_268,dim_269,dim_270,dim_271,dim_272,dim_273,dim_274,dim_275,dim_276,dim_277,dim_278,dim_279,dim_280,dim_281,dim_282,dim_283,dim_284,dim_285,dim_286,dim_287,dim_288,dim_289,dim_290,dim_291,dim_292,dim_293,dim_294,dim_295,dim_296,dim_297,dim_298,dim_299,dim_300,dim_301,dim_302,dim_303,dim_304,dim_305,dim_306,dim_307,dim_308,dim_309,dim_310,dim_311,dim_312,dim_313,dim_314,dim_315,dim_316,dim_317,dim_318,dim_319,dim_320,dim_321,dim_322,dim_323,dim_324,dim_325,dim_326,dim_327,dim_328,dim_329,dim_330,dim_331,dim_332,dim_333,dim_334,dim_335,dim_336,dim_337,dim_338,dim_339,dim_340,dim_341,dim_342,dim_343,dim_344,dim_345,dim_346,dim_347,dim_348,dim_349,dim_350,dim_351,dim_352,dim_353,dim_354,dim_355,dim_356,dim_357,dim_358,dim_359,dim_360,dim_361,dim_362,dim_363,dim_364,dim_365,dim_366,dim_367,dim_368,dim_369,dim_370,dim_371,dim_372,dim_373,dim_374,dim_375,dim_376,dim_377,dim_378,dim_379,dim_380,dim_381,dim_382,dim_383,dim_384,dim_385,dim_386,dim_387,dim_388,dim_389,dim_390,dim_391,dim_392,dim_393,dim_394,dim_395,dim_396,dim_397,dim_398,dim_399,dim_400,dim_401,dim_402,dim_403,dim_404,dim_405,dim_406,dim_407,dim_408,dim_409,dim_410,dim_411,dim_412,dim_413,dim_414,dim_415,dim_416,dim_417,dim_418,dim_419,dim_420,dim_421,dim_422,dim_423,dim_424,dim_425,dim_426,dim_427,dim_428,dim_429,dim_430,dim_431,dim_432,dim_433,dim_434,dim_435,dim_436,dim_437,dim_438,dim_439,dim_440,dim_441,dim_442,dim_443,dim_444,dim_445,dim_446,dim_447,dim_448,dim_449,dim_450,dim_451,dim_452,dim_453,dim_454,dim_455,dim_456,dim_457,dim_458,dim_459,dim_460,dim_461,dim_462,dim_463,dim_464,dim_465,dim_466,dim_467,dim_468,dim_469,dim_470,dim_471,dim_472,dim_473,dim_474,dim_475,dim_476,dim_477,dim_478,dim_479,dim_480,dim_481,dim_482,dim_483,dim_484,dim_485,dim_486,dim_487,dim_488,dim_489,dim_490,dim_491,dim_492,dim_493,dim_494,dim_495,dim_496,dim_497,dim_498,dim_499,dim_500,dim_501,dim_502,dim_503,dim_504,dim_505,dim_506,dim_507,dim_508,dim_509,dim_510,dim_511,dim_512,dim_513,dim_514,dim_515,dim_516,dim_517,dim_518,dim_519,dim_520,dim_521,dim_522,dim_523,dim_524,dim_525,dim_526,dim_527,dim_528,dim_529,dim_530,dim_531,dim_532,dim_533,dim_534,dim_535,dim_536,dim_537,dim_538,dim_539,dim_540,dim_541,dim_542,dim_543,dim_544,dim_545,dim_546,dim_547,dim_548,dim_549,dim_550,dim_551,dim_552,dim_553,dim_554,dim_555,dim_556,dim_557,dim_558,dim_559,dim_560,dim_561,dim_562,dim_563,dim_564,dim_565,dim_566,dim_567,dim_568,dim_569,dim_570,dim_571,dim_572,dim_573,dim_574,dim_575,dim_576,dim_577,dim_578,dim_579,dim_580,dim_581,dim_582,dim_583,dim_584,dim_585,dim_586,dim_587,dim_588,dim_589,dim_590,dim_591,dim_592,dim_593,dim_594,dim_595,dim_596,dim_597,dim_598,dim_599,dim_600,dim_601,dim_602,dim_603,dim_604,dim_605,dim_606,dim_607,dim_608,dim_609,dim_610,dim_611,dim_612,dim_613,dim_614,dim_615,dim_616,dim_617,dim_618,dim_619,dim_620,dim_621,dim_622,dim_623,dim_624,dim_625,dim_626,dim_627,dim_628,dim_629,dim_630,dim_631,dim_632,dim_633,dim_634,dim_635,dim_636,dim_637,dim_638,dim_639,dim_640,dim_641,dim_642,dim_643,dim_644,dim_645,dim_646,dim_647,dim_648,dim_649,dim_650,dim_651,dim_652,dim_653,dim_654,dim_655,dim_656,dim_657,dim_658,dim_659,dim_660,dim_661,dim_662,dim_663,dim_664,dim_665,dim_666,dim_667,dim_668,dim_669,dim_670,dim_671,dim_672,dim_673,dim_674,dim_675,dim_676,dim_677,dim_678,dim_679,dim_680,dim_681,dim_682,dim_683,dim_684,dim_685,dim_686,dim_687,dim_688,dim_689,dim_690,dim_691,dim_692,dim_693,dim_694,dim_695,dim_696,dim_697,dim_698,dim_699,dim_700,dim_701,dim_702,dim_703,dim_704,dim_705,dim_706,dim_707,dim_708,dim_709,dim_710,dim_711,dim_712,dim_713,dim_714,dim_715,dim_716,dim_717,dim_718,dim_719,dim_720,dim_721,dim_722,dim_723,dim_724,dim_725,dim_726,dim_727,dim_728,dim_729,dim_730,dim_731,dim_732,dim_733,dim_734,dim_735,dim_736,dim_737,dim_738,dim_739,dim_740,dim_741,dim_742,dim_743,dim_744,dim_745,dim_746,dim_747,dim_748,dim_749,dim_750,dim_751,dim_752,dim_753,dim_754,dim_755,dim_756,dim_757,dim_758,dim_759,dim_760,dim_761,dim_762,dim_763,dim_764,dim_765,dim_766,dim_767
professor,-0.2874917984008789,-0.7119746804237366,-0.2065117359161377,0.15060804784297943,0.3655147850513458,-0.22131429612636566,0.2214699387550354,0.5509629249572754,0.4786050617694855,-0.06549172103404999,-0.19014394283294678,0.057959072291851044,0.19140975177288055,0.12660765647888184,-0.07960185408592224,0.13744987547397614,0.15609878301620483,-0.28678014874458313,-0.5027576088905334,0.7633849382400513,-1.06918466091156,0.20589888095855713,0.5578434467315674,0.16847552359104156,-0.44069257378578186,-0.08917868137359619,-0.6770533323287964,1.2296087741851807,-0.09658554941415787,0.270958811044693,0.38007721304893494,-0.13495713472366333,-0.2616274356842041,0.13716939091682434,-0.3939787447452545,-0.2386302649974823,-0.19199658930301666,0.47873517870903015,-0.42575815320014954,0.04992859065532684,0.1397373080253601,-0.21575592458248138,-0.3150574266910553,0.8243187665939331,-0.15300138294696808,0.1533816158771515,0.511284351348877,0.22799859941005707,0.6489287614822388,-0.4979138970375061,-0.3952604830265045,0.37991976737976074,-0.1935192197561264,-0.1810469925403595,0.40043801069259644,0.14817564189434052,-0.7025712728500366,-0.5411643981933594,0.4562392830848694,-0.6081695556640625,0.03270407393574715,0.17333869636058807,0.017391182482242584,-0.49935728311538696,0.7124146819114685,0.23273351788520813,-0.25778526067733765,0.22617141902446747,-0.820256233215332,-0.11227428168058395,0.12109261006116867,0.3075655698776245,0.18459662795066833,-0.23011161386966705,0.7167825698852539,-0.18471746146678925,-0.11160759627819061,-0.05784979462623596,-0.03984693065285683,0.18376916646957397,-0.2229500412940979,0.6054538488388062,-0.008152961730957031,0.3386426866054535,-0.005056463181972504,-0.19787803292274475,0.027542270720005035,0.14707854390144348,0.3074501156806946,0.09450596570968628,-0.28095516562461853,-0.41421639919281006,-0.4639708697795868,0.21787813305854797,0.19883672893047333,-0.22323521971702576,0.08021015673875809,-0.511111855506897,-0.20338672399520874,-0.30239665508270264,0.05543060600757599,-1.4786913394927979,-0.23573294281959534,0.5507506728172302,-0.40652376413345337,-0.20488101243972778,-0.4746325612068176,0.22824427485466003,-0.0865718200802803,0.30554020404815674,-0.23391085863113403,-0.00119873508810997,0.016287781298160553,-0.8259066939353943,-0.2073013186454773,0.9685877561569214,0.6856638193130493,-0.8629103899002075,0.20531724393367767,-0.05524913966655731,0.020844940096139908,0.2016562521457672,0.3787841796875,0.5785638093948364,0.14939144253730774,-0.00418037548661232,0.07455479353666306,0.2629321813583374,0.10462059080600739,-0.29892203211784363,0.1238718330860138,0.03479405492544174,0.3374570310115814,0.14018195867538452,-0.5744709968566895,-0.15323999524116516,-0.7003540992736816,-0.10839696228504181,-0.9331479668617249,0.40976566076278687,0.30735325813293457,0.3089335262775421,-0.009919591248035431,-0.46826204657554626,-0.03468750789761543,0.014711335301399231,-0.33205750584602356,-0.1311781406402588,0.3703848123550415,0.037235308438539505,0.002961230231449008,0.10926088690757751,0.23038220405578613,-0.35811787843704224,0.4076556861400604,0.32601264119148254,-0.38693130016326904,0.12501046061515808,-0.3845618963241577,-0.004902268294245005,0.5432665348052979,0.0791596919298172,-0.35543814301490784,0.8772312998771667,-0.4030923545360565,-0.29189708828926086,-0.43452510237693787,0.1821434646844864,0.3584182858467102,-0.2884575128555298,-0.29273128509521484,-0.048048004508018494,1.09876549243927,-0.019831355661153793,0.1216769739985466,0.1818276345729828,0.00014823675155639648,0.25746670365333557,0.6903078556060791,0.5228695869445801,0.04991237819194794,0.004632698372006416,-0.13192902505397797,-0.45183268189430237,0.0005366113036870956,-0.10320305079221725,0.8900263905525208,0.2936302423477173,0.10308732837438583,-0.04219511151313782,-0.10279238969087601,-0.48658594489097595,-0.5064116716384888,0.3216477036476135,0.7354790568351746,0.3134496212005615,-0.14021117985248566,-0.12471172213554382,-0.32993030548095703,0.4164416491985321,0.03641385957598686,-0.6773279309272766,0.11694204062223434,0.2873367667198181,0.06614603102207184,0.47372153401374817,0.03412024304270744,0.28889280557632446,0.601786196231842,0.027216952294111252,-0.40689805150032043,0.3739185035228729,0.04946061223745346,0.21746833622455597,-0.057308655232191086,-0.16622769832611084,-0.4779723286628723,-0.28980687260627747,0.5723106265068054,0.29767322540283203,0.38165560364723206,-0.2644546627998352,-0.2502029538154602,0.44458407163619995,-0.5907835364341736,0.8583009243011475,0.4864594340324402,-0.025798141956329346,0.3097379803657532,0.7109004259109497,0.3491583466529846,-0.025904396548867226,0.38521385192871094,0.8968209624290466,-0.011045865714550018,0.037173815071582794,-0.6865490674972534,0.19380314648151398,0.21201488375663757,0.35209378600120544,-0.2706775367259979,-0.06015726923942566,-0.11353309452533722,0.2407090961933136,0.30147120356559753,0.6620533466339111,0.017611602321267128,0.19725707173347473,0.39804840087890625,-0.3882163465023041,-0.055812738835811615,-0.297196626663208,-0.1307489275932312,0.06468884646892548,0.13776180148124695,0.5206993818283081,-0.2553972005844116,0.18358373641967773,-0.07915133982896805,-0.12491591274738312,0.4421245753765106,0.04328785836696625,0.17929917573928833,-0.2874663472175598,-0.23189739882946014,-0.14685866236686707,0.3195714056491852,-0.1663188338279724,0.20019006729125977,0.14995503425598145,-0.20806363224983215,-0.24371814727783203,0.5533214807510376,0.1412864476442337,-1.0381717681884766,-0.3570629954338074,0.32666242122650146,-0.038525354117155075,0.09224595129489899,-0.16855566203594208,0.358959823846817,0.20042291283607483,-0.44312456250190735,-0.21692904829978943,0.4049566388130188,-0.7573391199111938,0.3619316816329956,0.5381462574005127,0.3917132318019867,-0.3431278467178345,-0.2759067118167877,0.6450813412666321,-0.5003064870834351,-0.8696756362915039,0.5300475358963013,-0.3558524250984192,0.1487116515636444,-0.20263057947158813,0.3778347074985504,0.2572718858718872,-0.7935400009155273,0.21045005321502686,-0.39111122488975525,0.423961341381073,0.06218376010656357,0.13182657957077026,-0.15260012447834015,-0.2846343219280243,-5.895413398742676,-0.1858886182308197,-0.3989674746990204,0.05183514952659607,0.44927048683166504,-0.13709710538387299,0.056063953787088394,0.1048085018992424,-0.5290727615356445,-0.027378909289836884,-0.1881590485572815,-0.5963773131370544,-0.24669958651065826,0.42363864183425903,-0.22000233829021454,-0.013766258955001831,-0.20501741766929626,-0.014702675864100456,-0.4706355929374695,0.5035997629165649,0.0031561851501464844,0.058568183332681656,-0.3673263192176819,-0.1459154188632965,0.006309680640697479,0.3014890253543854,-0.8685795068740845,0.11397510766983032,-0.593873918056488,0.11652012169361115,0.2051078975200653,-0.37810182571411133,0.3868807554244995,0.052980825304985046,0.010662837885320187,0.17384910583496094,-0.5972333550453186,0.09604224562644958,0.12664124369621277,-0.061671994626522064,-0.10621674358844757,-0.2644232511520386,-0.05533461272716522,1.3688815832138062,0.5004773139953613,-0.3121103048324585,-0.1003422886133194,-0.3627660274505615,0.1761370748281479,0.0077076256275177,-0.14172101020812988,-0.05330817028880119,0.7566398978233337,0.18875928223133087,-0.19223685562610626,0.1519061028957367,0.07948559522628784,0.8819974660873413,-0.14001086354255676,-0.7259954214096069,-0.31401050090789795,-0.07745714485645294,-0.2626471519470215,-0.0849946141242981,0.36304259300231934,0.05835317447781563,-0.18029285967350006,-0.5746541619300842,-0.15257488191127777,0.07991477102041245,-0.3002028465270996,-0.0561097078025341,-0.7216516137123108,-1.0301635265350342,-0.5069091320037842,-0.1846356838941574,0.13730597496032715,-0.2788025140762329,-0.49430689215660095,0.17779313027858734,0.08805686235427856,-0.7680848240852356,1.2283525466918945,-0.1844555139541626,0.07445228099822998,-0.8356074690818787,-0.05332125350832939,-0.5322101712226868,0.31781628727912903,0.15751084685325623,0.7850768566131592,0.31388288736343384,0.7506987452507019,-0.36256566643714905,0.19848009943962097,0.6131421327590942,-0.2945810556411743,0.3346685469150543,0.44020742177963257,0.2228504717350006,-0.10649430751800537,-0.2590331733226776,0.27082589268684387,0.11267267912626266,0.6326767802238464,0.2867739200592041,-0.04620217904448509,0.6497942209243774,-0.09289437532424927,0.7243291139602661,0.3253200650215149,-0.10377161204814911,-0.018297208473086357,0.048901572823524475,0.18595828115940094,-0.571964681148529,0.3521435558795929,-0.2522101402282715,0.33646732568740845,-0.22908256947994232,-0.1261688768863678,0.735158383846283,-0.44968390464782715,0.13377954065799713,-0.6272908449172974,0.3397310674190521,-0.14137789607048035,-0.2583788335323334,0.4679104685783386,-0.08325640112161636,-0.08198835700750351,0.12044289708137512,0.3466087281703949,0.25373733043670654,0.09889606386423111,0.37978556752204895,0.16581089794635773,-0.042837876826524734,-0.4009106755256653,-0.06603018939495087,0.17931930720806122,-0.19821351766586304,0.16451935470104218,-0.19409824907779694,0.09922913461923599,-0.10152386128902435,-0.6287065744400024,0.5197048187255859,0.3732975125312805,0.17595024406909943,-0.18210983276367188,0.16008248925209045,-0.32289421558380127,-0.1669584959745407,0.3514733910560608,-0.515620231628418,0.42323771119117737,-0.20447605848312378,-0.3957863748073578,0.18076427280902863,-0.08866898715496063,-0.2823176383972168,0.09829690307378769,-0.03552938997745514,-0.6510689854621887,0.3437991440296173,-0.04770340025424957,0.6403039693832397,0.029561452567577362,0.4014449119567871,-0.13543234765529633,-0.14129772782325745,0.31618428230285645,0.1368497908115387,-0.7387331128120422,-0.03280111402273178,-0.39846858382225037,0.2962662875652313,-0.34137484431266785,0.4503294825553894,0.057113248854875565,0.19349245727062225,-0.5112158060073853,-0.4271579384803772,0.09679123759269714,0.04053044319152832,-0.1920812427997589,0.15582802891731262,-0.12058186531066895,-0.14510396122932434,-1.098509669303894,0.11338745057582855,-0.23025698959827423,0.19245988130569458,-0.2767186760902405,-0.757922351360321,-0.06458647549152374,0.2890367805957794,0.06231451779603958,0.567775547504425,-0.5044880509376526,0.5602758526802063,0.05824212729930878,-0.03366056829690933,-0.28147003054618835,0.44837093353271484,0.5419592261314392,-0.4904356002807617,-0.37449032068252563,0.2549246847629547,-0.6311715841293335,0.1465829461812973,-0.40071171522140503,-0.2715379595756531,0.22754479944705963,0.27560222148895264,0.23801469802856445,-0.1464436948299408,-0.19065457582473755,0.585619330406189,-0.18139953911304474,0.3259027898311615,-0.41042953729629517,0.19784924387931824,-0.03406069427728653,-0.33492571115493774,-0.06164362281560898,0.308145672082901,-0.9834283590316772,-0.33141374588012695,0.23779335618019104,-0.20064465701580048,-0.29465022683143616,0.10817213356494904,0.530627965927124,-0.1761309653520584,0.4068557918071747,-0.528545081615448,0.02361612766981125,0.026991844177246094,0.5046804547309875,0.02461092546582222,-0.40147271752357483,0.20032015442848206,0.2204551249742508,0.2689528167247772,0.34293049573898315,0.5809524655342102,0.23931513726711273,0.24064409732818604,0.021959548816084862,-0.2512534260749817,-0.1346321403980255,-0.2610210180282593,-0.11368300765752792,-0.3497902750968933,-0.23291993141174316,-0.19432973861694336,0.04704759269952774,-0.06942567229270935,-0.3259226381778717,0.37522652745246887,-0.4194612205028534,-0.009661002084612846,-0.43239858746528625,0.34172680974006653,-0.09038403630256653,-0.32764607667922974,0.5018941164016724,0.22268640995025635,-0.17408108711242676,-0.012657513841986656,-0.06067568063735962,-0.5564871430397034,-0.40878739953041077,0.17793849110603333,-0.2516879737377167,-0.18158474564552307,0.4699586033821106,0.36045873165130615,-0.544772744178772,0.4938831329345703,0.26120948791503906,0.23826949298381805,-0.042708590626716614,0.3084210753440857,-0.35022395849227905,0.6173869967460632,-0.3512934446334839,0.016317930072546005,-0.18643005192279816,0.1764741986989975,0.4782302677631378,0.18758703768253326,-0.1402406543493271,0.5854694247245789,0.4075845777988434,-0.24992042779922485,0.16891303658485413,-0.47450098395347595,-0.35120004415512085,-0.02585786208510399,-0.10303619503974915,-0.06897623836994171,-0.10259978473186493,0.07692934572696686,0.31309694051742554,-0.5118334293365479,-0.0814189538359642,-0.3289599120616913,-0.009034857153892517,0.03255655616521835,0.3239881098270416,0.034466490149497986,-0.10113924741744995,-0.3772227466106415,0.29448574781417847,0.07112119346857071,-0.7596770524978638,-0.4799891710281372,-0.13444635272026062,0.5300167202949524,0.17887082695960999,-0.008481827564537525,0.08414198458194733,0.09649649262428284,-0.35009118914604187,0.5467583537101746,0.39957195520401,-0.021552184596657753,0.11634910106658936,0.5257636308670044,-0.18208271265029907,0.1658121794462204,0.38918301463127136,-0.21679246425628662,0.08279414474964142,0.2484467774629593,0.26823198795318604,0.1814790666103363,-0.45229268074035645,0.27371421456336975,-0.2666378319263458,0.7729790210723877,-0.12884603440761566,-0.03436306118965149,0.1288871169090271,-0.20602908730506897,-0.1296961009502411,-0.08372514694929123,-0.23443977534770966,-0.2273954600095749,-0.40944957733154297,-0.3116791844367981,-0.033631231635808945,0.16537714004516602,-0.13318893313407898,-0.06354401260614395,-0.15984763205051422,0.5168823003768921,0.2299385666847229,0.17965060472488403,0.7599214315414429,0.13559657335281372,0.007638432085514069,0.17362967133522034,-0.15789064764976501,-0.07344567775726318,0.31827667355537415,-0.027945149689912796,0.0810285359621048,-0.74150151014328,-0.17160865664482117,0.074053093791008,-0.22259536385536194,0.22543922066688538,0.1475319266319275,-0.455177366733551,0.19820235669612885,1.2737023830413818,0.39521104097366333,0.22830432653427124,-0.39323556423187256,0.38809120655059814,0.22487665712833405,0.09748026728630066,-0.12789645791053772,-0.03318576514720917,-0.4993819296360016,-0.18092474341392517,-0.19215059280395508,-0.003241211175918579,0.17874877154827118,-0.11200492829084396,-0.44100692868232727,-0.39026591181755066,0.3214900493621826,-0.14539209008216858,-0.10299831628799438,0.05593705549836159,-0.1812014877796173,-0.4570596218109131,-0.542244017124176,-0.7356783747673035,-0.42332062125205994,0.4757324159145355,0.4118158221244812,0.05702926218509674,-0.10170920193195343,-0.1771327555179596,0.810083270072937,0.010421033948659897,-0.23812264204025269,-0.1587853878736496,-0.563647449016571,-0.27791035175323486,0.1369168907403946,-0.04735017567873001,0.02198580652475357,-0.19088178873062134,-0.12046550214290619,-0.3236583173274994,0.10724086314439774,-0.12976789474487305,0.4248252511024475,-0.2866170406341553,-0.05587393045425415,0.060593653470277786,0.19463342428207397,-0.08774982392787933,0.28444069623947144,0.09542174637317657,-0.7678641080856323,-0.6804280281066895,0.13362666964530945,-0.3380766212940216,-0.024313539266586304,0.29217928647994995,-0.3785385191440582,-0.5035622715950012,0.136285662651062,0.13459663093090057,-0.8294388651847839,-0.20025967061519623,0.46248239278793335,-0.4596115052700043,0.04411058872938156,-0.1586659699678421,0.13661617040634155,-0.31092846393585205,-0.5581947565078735,-0.4111805260181427,1.004562258720398,-0.21094515919685364,-0.019700728356838226,0.2710627019405365,-0.5400564074516296,-0.1539025604724884,-0.040663618594408035,0.2830010950565338
vet,0.7409209609031677,-0.12878188490867615,0.06525274366140366,-0.08039547502994537,0.37685132026672363,-0.17863436043262482,0.32531630992889404,0.2788075804710388,0.6319569945335388,-0.13921251893043518,0.10920499265193939,0.0992184430360794,0.08944404870271683,-0.3711610436439514,-0.23359106481075287,0.11100788414478302,0.07728180289268494,-0.05151083320379257,0.1429261416196823,0.9802572131156921,-0.4532845914363861,-0.4823971688747406,0.11589858680963516,0.05031026899814606,-0.34529128670692444,0.35184478759765625,-0.1387101262807846,0.6058101058006287,-0.5385990142822266,-0.1277177482843399,0.46341902017593384,-0.07994993031024933,-0.4999181032180786,-0.0562509149312973,-0.010640598833560944,0.4114484488964081,-0.05959794670343399,0.619730532169342,-0.7187624573707581,-0.0743698701262474,0.4020671844482422,-0.6194133758544922,-0.2194301038980484,0.5681053996086121,-0.10529164224863052,0.08544246852397919,0.3515136241912842,-0.3427605628967285,0.9382234215736389,-0.05569959804415703,-0.12456689774990082,-0.223231703042984,-0.9810733199119568,-0.2809922993183136,0.471177339553833,0.2054552435874939,0.290084570646286,-0.24458998441696167,0.028118247166275978,0.08653033524751663,-0.28086405992507935,0.3495631217956543,0.37744948267936707,-0.028168905526399612,0.31298792362213135,-0.41692379117012024,0.1184978261590004,0.17212660610675812,-0.19362907111644745,0.065674789249897,0.333898663520813,0.6662965416908264,-0.039199911057949066,-0.3549380898475647,0.4000397324562073,0.23896270990371704,-0.19573968648910522,0.23149250447750092,-0.02815410867333412,0.3560519516468048,-0.10612110793590546,-0.37195396423339844,-0.318691611289978,0.9935337901115417,0.22722643613815308,-0.1790434718132019,-0.18057069182395935,-0.02542499452829361,-0.010605495423078537,0.5746527910232544,-0.1791740208864212,-0.3478415012359619,-0.5261402726173401,0.05654745548963547,0.11650115251541138,-0.24510130286216736,0.2293262481689453,-0.57639080286026,-0.03901476785540581,-0.14473076164722443,0.13684618473052979,0.6299527287483215,-0.1638631671667099,0.30663859844207764,-0.6120278239250183,-0.434319406747818,-0.4223952889442444,-0.09265061467885971,-0.07964442670345306,0.17766429483890533,-0.32797059416770935,0.008494067937135696,0.08950390666723251,-0.3514840602874756,-0.029312197118997574,0.7167757153511047,-0.05241977795958519,-1.0014166831970215,0.19303733110427856,-0.08747199177742004,-0.22983813285827637,0.33321237564086914,0.10896161198616028,0.8699128031730652,-0.0008771726861596107,0.22070810198783875,-0.11424463242292404,0.029246559366583824,-0.07433770596981049,0.267167329788208,-0.05390826612710953,0.21974316239356995,0.16693636775016785,-0.23184476792812347,-0.19105222821235657,-0.3759695291519165,-0.12509208917617798,-0.19267135858535767,-0.6272212266921997,0.1890600621700287,0.4630352258682251,0.6267039179801941,0.46447235345840454,0.5487484335899353,-0.1639530509710312,0.08745671808719635,-1.000544548034668,-0.12147357314825058,-0.5054770112037659,-0.025264151394367218,0.1908109337091446,0.42107900977134705,0.1005602478981018,-0.9450583457946777,-0.05905485153198242,0.43966051936149597,0.10428193211555481,0.03644111752510071,-0.0013328343629837036,0.048935286700725555,0.8225335478782654,-0.4856036901473999,0.10190586745738983,0.5035138130187988,-0.47863489389419556,-0.4520972967147827,-0.5139312148094177,0.15537942945957184,-0.1672825664281845,-0.05169269070029259,-0.34401410818099976,0.31144699454307556,0.981640100479126,-0.10741676390171051,0.6847519278526306,0.18471764028072357,0.033561352640390396,-0.0923173800110817,0.5127890110015869,-0.03301479294896126,-0.10066761076450348,1.14808189868927,0.06745760142803192,0.08141371607780457,0.7892395257949829,0.34280720353126526,0.8138338327407837,-0.08473076671361923,-0.15268133580684662,0.16554251313209534,-0.2698010206222534,-1.383754849433899,-0.7435185313224792,0.5017496347427368,0.6595718860626221,-0.39140382409095764,0.3104898929595947,0.10970037430524826,-0.9761022329330444,-0.2730017900466919,-0.21085602045059204,-0.9679787755012512,-0.014449335634708405,0.31693217158317566,-0.3168267011642456,0.29454725980758667,0.05074191838502884,-0.16577160358428955,0.29193732142448425,0.23746682703495026,-0.42183932662010193,0.14545801281929016,-0.29528018832206726,0.09866966307163239,0.0655081570148468,0.10405623912811279,-0.4333316385746002,-0.31182724237442017,0.30207687616348267,-0.011796446517109871,0.3427109718322754,-0.3732757568359375,-0.13921183347702026,0.18712854385375977,0.06220702826976776,0.5999549627304077,0.09315653145313263,-0.3584148585796356,0.04572101682424545,0.15647979080677032,0.1185632199048996,0.4046134054660797,-0.34953373670578003,0.5100140571594238,0.056849405169487,-0.06459537148475647,-0.476083904504776,-0.12196891009807587,-0.15286967158317566,-0.05995313450694084,-0.3778037130832672,-0.17158466577529907,0.2876209616661072,0.5344861745834351,0.05430185794830322,0.6160855293273926,-0.0694311112165451,-0.11005979776382446,0.1956366002559662,-0.15947313606739044,0.0760229080915451,-0.3836654722690582,0.541118860244751,-0.2553311288356781,0.13260531425476074,-0.5557880997657776,-0.12366198003292084,0.37234610319137573,-0.269526869058609,-0.006696350872516632,-0.28031256794929504,-0.11940963566303253,0.6605004668235779,-0.5657616853713989,-0.46918341517448425,-0.583472728729248,-0.21343812346458435,-0.005923263728618622,0.2952301800251007,0.3484885096549988,-0.19799312949180603,-0.33688679337501526,0.7248708009719849,0.008603453636169434,-0.5334083437919617,-0.4177742004394531,0.4367354214191437,0.007874018512666225,0.8901075124740601,-0.2658678889274597,0.2651880085468292,0.5471843481063843,-0.07018481194972992,-0.10476847738027573,-0.1833157241344452,-0.21387425065040588,-0.10436255484819412,0.3481714427471161,-0.2813897132873535,-0.771579921245575,0.007298406213521957,0.4123007357120514,-0.5987874865531921,-0.2325855791568756,0.23390711843967438,0.010418757796287537,-0.02460322715342045,0.12614086270332336,0.17784635722637177,-0.28368717432022095,0.5116884708404541,0.5350084900856018,0.6361489295959473,-0.39037030935287476,0.4310336112976074,-0.16213425993919373,-0.12303076684474945,-0.28315356373786926,-5.7800164222717285,-0.19280987977981567,-0.48869049549102783,-0.4218199551105499,0.49612244963645935,-0.08703822642564774,0.3774285316467285,0.2688242793083191,-0.8347048163414001,0.11641748994588852,0.29576435685157776,-0.5200135707855225,0.3580505847930908,0.00944797694683075,0.06517759710550308,-0.19662290811538696,-0.18474635481834412,0.051219116896390915,-0.07879137992858887,0.5208913087844849,0.596622884273529,-0.5808084011077881,-0.08825939148664474,0.07499366253614426,0.3235026001930237,0.9791263937950134,-0.40385887026786804,0.2798108756542206,-0.5497761964797974,0.2262185662984848,-0.3670448660850525,0.44614601135253906,0.20320147275924683,0.5493945479393005,0.11986345052719116,0.22207483649253845,-0.3462494909763336,0.13734400272369385,0.12952417135238647,-0.9572685956954956,0.04958740249276161,0.4409199059009552,-0.005467213690280914,0.6102524995803833,-0.45490843057632446,-0.4776192307472229,0.2066260427236557,0.5320377349853516,0.13066351413726807,0.29825806617736816,-0.4877513349056244,0.10971373319625854,-0.4163007438182831,0.2491842359304428,0.15373435616493225,-0.2296457290649414,0.30151206254959106,0.047125864773988724,-0.5514238476753235,-1.1794754266738892,-0.28260162472724915,-0.35500675439834595,-0.09471513330936432,-0.4390397369861603,-0.3652433753013611,0.003070574253797531,-0.7475324273109436,-0.9969632029533386,-0.0014823181554675102,0.11348231136798859,-0.5670823454856873,-0.6912397146224976,-0.21826671063899994,-1.3279082775115967,-0.45916056632995605,-0.7316107749938965,0.31855759024620056,-0.27413564920425415,-0.10622464865446091,0.16357116401195526,-0.17966125905513763,-0.7784033417701721,0.3813023269176483,-0.0027082525193691254,0.26286593079566956,-0.8229621052742004,0.007825404405593872,-0.02757580205798149,0.07059010863304138,-0.1518399715423584,0.3509378731250763,0.2796934247016907,0.5716685652732849,-0.1848730444908142,-0.44909247756004333,-0.07064065337181091,-0.27510395646095276,0.04019768536090851,0.666796863079071,-0.7223238348960876,0.8295811414718628,-0.7508557438850403,0.502508282661438,-0.06173839047551155,0.048691652715206146,-0.3405231833457947,-0.27902746200561523,0.07100830972194672,0.2990981638431549,0.2741761803627014,0.36265137791633606,-0.5804603695869446,0.6194785237312317,-0.3182007372379303,-0.11639606207609177,0.19572734832763672,0.42969098687171936,0.034069932997226715,-0.02574923262000084,-0.47401756048202515,0.3649299442768097,0.20215792953968048,0.018699511885643005,0.06828869879245758,-0.5268144607543945,0.26537415385246277,0.48812389373779297,-0.26968252658843994,0.2699201703071594,0.0384562611579895,0.5135166645050049,-0.28188085556030273,0.3300032913684845,0.020851686596870422,0.43000802397727966,0.48538386821746826,-0.0022261105477809906,-0.23042888939380646,-0.0956922173500061,0.07355926185846329,0.5200297236442566,0.41664913296699524,0.36433351039886475,0.23654064536094666,0.7785789966583252,-0.2254418581724167,0.12058235704898834,0.5112242698669434,0.3176252841949463,0.18704423308372498,-0.2429451048374176,0.013491012156009674,-0.293768972158432,-0.3002367913722992,0.23733869194984436,-0.2708422541618347,0.5233612656593323,-0.40705785155296326,-0.31786319613456726,-0.3384515345096588,-0.106229268014431,-0.3447730541229248,0.551276445388794,0.25385811924934387,-0.7467688322067261,-0.30068063735961914,0.16946464776992798,0.3577020764350891,-0.6689443588256836,0.385244220495224,0.2600645124912262,0.07099640369415283,0.31515640020370483,0.5229779481887817,-0.4729795753955841,-0.05753113329410553,-0.1526324301958084,0.3370818495750427,-0.20642685890197754,0.7528324127197266,0.0969342291355133,-0.5024129152297974,0.2185118943452835,-0.3018554449081421,0.47221431136131287,-0.07388970255851746,-0.4558275640010834,-0.33798667788505554,-0.03672131150960922,0.2802150249481201,-0.48361921310424805,0.3788529932498932,0.10252462327480316,0.17432540655136108,-0.2795165181159973,-0.5011414885520935,-0.20531511306762695,-0.5787153840065002,0.01568083092570305,0.31769025325775146,-0.17192955315113068,0.36113259196281433,0.031217575073242188,0.060932449996471405,-0.4360024929046631,0.37359619140625,0.1381741762161255,0.27464759349823,-0.30141156911849976,0.39249008893966675,-0.09301348030567169,-0.0937512069940567,-0.08653175830841064,-0.39427438378334045,-0.35224127769470215,0.17345915734767914,0.1854238361120224,0.5125839114189148,-0.35216596722602844,0.2548801302909851,-0.3459309935569763,0.5166999697685242,-0.6315283179283142,-0.04085622355341911,-0.9551563262939453,0.14049170911312103,0.12784624099731445,-0.13233216106891632,-0.8583740592002869,-0.15983706712722778,-0.46552321314811707,-0.36072054505348206,-0.364184707403183,0.2540719509124756,0.15905889868736267,-0.03967181220650673,0.39176610112190247,-0.4428618848323822,0.438215434551239,-0.02627391740679741,-0.024892320856451988,1.0894384384155273,0.2849540412425995,0.22136935591697693,-0.2757134437561035,-0.11615408957004547,0.41105037927627563,-0.14109568297863007,0.2537856698036194,0.726209282875061,0.2568967640399933,-0.396051824092865,-0.2378208488225937,-0.32617998123168945,-0.643610954284668,-0.343515545129776,-0.28553521633148193,0.3714865744113922,0.17885003983974457,0.20563986897468567,0.08671337366104126,-0.045290179550647736,-0.365798681974411,0.12022963166236877,-0.1664266288280487,-0.016009919345378876,-0.49203598499298096,-0.37962424755096436,-0.06205650791525841,0.20508497953414917,-0.10719899088144302,-0.31457966566085815,0.6363769769668579,-0.2538641393184662,0.38942351937294006,-0.18390163779258728,-0.4259157180786133,-0.19700157642364502,0.143718883395195,-0.069170281291008,0.026711788028478622,0.3452363908290863,0.010341212153434753,0.11252561211585999,-0.9236092567443848,0.3212035894393921,-0.35574591159820557,0.4686512351036072,-0.2419952154159546,0.5965237617492676,0.5672560930252075,0.22677044570446014,-0.011204875074326992,0.2573854327201843,-0.16209664940834045,0.4678325355052948,0.05233313888311386,0.26552146673202515,0.5333372354507446,0.3189181983470917,-0.6781128644943237,0.9157581329345703,-0.29636287689208984,-0.011794298887252808,-0.32172709703445435,-0.39988991618156433,0.0755082294344902,-0.40564626455307007,-0.19759654998779297,0.7670848369598389,0.03343326225876808,-0.42488986253738403,0.23444169759750366,0.08187120407819748,-0.28703704476356506,0.1329369693994522,-0.07164934277534485,0.3516971468925476,-0.3411628007888794,-0.37168774008750916,-0.06545311957597733,0.09740898758172989,0.06989195197820663,-0.13029856979846954,0.279521107673645,0.12170159816741943,-0.12738020718097687,0.7772781848907471,0.6057494282722473,-0.25186604261398315,0.4769369065761566,0.7480326890945435,0.15622013807296753,0.21154893934726715,-0.09559199213981628,-0.4048430323600769,0.3511718213558197,0.262536883354187,0.060248903930187225,0.07092569768428802,-0.12017427384853363,0.22339743375778198,-0.22112777829170227,0.9861294627189636,-0.34392249584198,-0.2578473389148712,0.07472038269042969,-0.3393665552139282,0.6846683025360107,0.1563388556241989,0.0021359287202358246,-0.22771359980106354,-0.01453554630279541,-0.9260448813438416,-0.37992778420448303,-0.21424512565135956,0.011439546942710876,-0.26223546266555786,-0.5435033440589905,0.17416265606880188,-0.4224797487258911,-0.268201619386673,0.20289917290210724,-0.5295709371566772,-0.0543176643550396,0.12078643590211868,-0.12242390215396881,-0.4886324405670166,0.5957162380218506,0.06500421464443207,0.13390803337097168,-0.6483224630355835,0.275015652179718,0.5483615398406982,-0.0640016570687294,-0.29962947964668274,0.18828082084655762,-0.5353630185127258,0.22841204702854156,0.43949851393699646,-0.3324947953224182,-0.01117921993136406,-0.1478942632675171,-0.513414740562439,0.04100865125656128,0.4476219415664673,-0.2622565031051636,-0.14485692977905273,0.2870098650455475,0.10073670744895935,-0.029794229194521904,0.5230534076690674,-0.735581636428833,0.1207161471247673,-0.09959350526332855,-0.5729668736457825,0.849041223526001,-0.3739323318004608,-0.06445840746164322,-0.2377452701330185,0.25461941957473755,0.1956104040145874,-0.04130839556455612,-0.04290264472365379,0.20758603513240814,0.2990850806236267,-0.0393826849758625,0.1866672933101654,0.044811367988586426,0.013058438897132874,-0.046300970017910004,0.40945103764533997,-0.2739667594432831,0.6522735357284546,0.14766812324523926,-0.5500408411026001,0.1278759241104126,-0.9038803577423096,0.1762728989124298,-0.012943953275680542,-0.12281490862369537,-0.03866775706410408,-0.16522175073623657,0.3848020136356354,0.1596483737230301,-0.3346081078052521,-0.24186202883720398,0.23035605251789093,0.2927812337875366,0.2712591290473938,-0.35517656803131104,0.1275845617055893,-0.7963973879814148,-0.8919525146484375,0.6896572709083557,-0.49491527676582336,0.400113046169281,0.35619375109672546,0.17261239886283875,-0.2649090886116028,0.1324978470802307,-0.602769672870636,0.5931246876716614,0.25888362526893616,0.442390501499176,-0.22995010018348694,-0.30416011810302734,-0.3766383230686188,-0.09494227916002274,-0.20850640535354614,-0.5582920908927917,0.13057534396648407,0.590028703212738,0.25203195214271545,0.08881908655166626,0.11651752889156342,-0.913407027721405,-0.14974138140678406,0.32308006286621094,0.3085836172103882
paramedic,0.11018914729356766,-0.578497588634491,0.550276517868042,-0.019274231046438217,0.28922542929649353,0.15606200695037842,0.2743089497089386,0.45922955870628357,-0.10664328187704086,-0.1667560189962387,0.23626600205898285,-0.3555167615413666,-0.28928229212760925,0.14005355536937714,-0.13374023139476776,0.9447113871574402,0.011543904431164265,0.08953499794006348,-0.11995100975036621,0.3408431112766266,-0.13889388740062714,-0.4371773302555084,-0.5854827165603638,0.11499380320310593,0.15229211747646332,0.2231789231300354,0.015301530249416828,0.5062991976737976,-0.3501664698123932,-0.4904040992259979,0.6808167099952698,-0.28571221232414246,-0.7783374190330505,0.25207528471946716,0.3974783420562744,0.4084141254425049,-0.23868687450885773,0.4892362654209137,-0.912828266620636,-0.12026441097259521,-1.0798399448394775,-0.8685033321380615,0.3414493501186371,0.6762547492980957,0.01658494584262371,0.43097829818725586,1.2175979614257812,-0.88669353723526,0.7425584197044373,0.12518556416034698,-0.8487865328788757,0.07495347410440445,-0.2634161114692688,-0.37204745411872864,0.3315909206867218,0.4751715362071991,0.17030952870845795,-0.6178574562072754,-1.016933798789978,0.029538562521338463,-0.3481180965900421,0.20152275264263153,0.37583020329475403,-0.8805118203163147,0.3410361111164093,-0.21393680572509766,-0.07580628246068954,0.8829032778739929,-0.9066362380981445,-0.1574428379535675,0.36709022521972656,-0.061222922056913376,0.013630199246108532,-0.505189836025238,-0.384511798620224,0.11180461198091507,-0.23876146972179413,-0.017370129004120827,-0.1607067883014679,0.3604905605316162,-0.644974946975708,0.5918509364128113,-0.3716774880886078,0.7979571223258972,0.45274582505226135,0.4573691189289093,-0.3175883889198303,0.35262027382850647,0.17425322532653809,0.7844027876853943,-0.10492821782827377,0.17477929592132568,-0.33245259523391724,-0.15543709695339203,0.04056604579091072,-0.21347391605377197,0.7648769021034241,-0.7870805859565735,-0.9070382714271545,0.4175204336643219,0.8006720542907715,-0.38116946816444397,-0.015486441552639008,0.00527287507429719,-0.29522904753685,-0.06033429875969887,-0.006351705174893141,0.5734285712242126,0.02234194613993168,1.0242811441421509,0.5449572205543518,-0.3378925323486328,-0.09961208701133728,-0.7957760691642761,0.4925694167613983,0.638540506362915,-0.3035549819469452,-0.22545291483402252,0.10278657078742981,-0.21878665685653687,0.26411688327789307,-0.4690237045288086,0.14712180197238922,1.5233707427978516,0.17789123952388763,0.6470901370048523,-0.36447107791900635,0.032417185604572296,0.5070436596870422,0.6514679789543152,0.9989555478096008,0.4482349455356598,0.21888966858386993,-0.9940205216407776,-0.31549301743507385,-0.494378000497818,-0.19105692207813263,-0.36865687370300293,-0.9988164901733398,0.8898530602455139,0.02817104198038578,0.18073256313800812,0.6977344155311584,1.0935158729553223,0.17850320041179657,-0.37201786041259766,-0.5910148620605469,0.24448734521865845,-0.17220336198806763,0.21499837934970856,-0.42099666595458984,-0.13464586436748505,0.22485095262527466,-0.796989381313324,-0.7555388808250427,-0.2747461795806885,-0.17195867002010345,0.18385465443134308,0.40178075432777405,0.4798506498336792,0.4916205108165741,-0.29155245423316956,0.12011003494262695,-0.05928525701165199,-0.36596807837486267,0.5414778590202332,-0.17837560176849365,0.46829351782798767,-0.4788574278354645,0.5522802472114563,-0.31166815757751465,0.17044448852539062,1.1468778848648071,-0.6090233325958252,0.4428701400756836,0.15955649316310883,-0.18850262463092804,0.11411955207586288,0.49236536026000977,-0.029018668457865715,-0.13357584178447723,1.260806679725647,0.1613152027130127,0.12489518523216248,0.6105501055717468,-0.10616282373666763,1.0097140073776245,0.4355735778808594,-0.4500240087509155,-0.45808669924736023,0.2201629877090454,-0.23448169231414795,-0.9038283824920654,0.4073545038700104,-0.036115407943725586,-0.03893662616610527,-0.01793830655515194,0.5943137407302856,-1.2184303998947144,-0.8401886820793152,0.11213412135839462,-0.24541544914245605,0.172166645526886,0.6643325686454773,-0.23744995892047882,-0.2013622671365738,0.31914564967155457,-0.13290072977542877,-0.17169801890850067,0.1688264161348343,-0.6476777195930481,0.38088783621788025,-0.6491863131523132,-0.05753439664840698,0.11716008931398392,-0.05341281369328499,-0.41481271386146545,0.024473488330841064,0.20344208180904388,-0.3131333887577057,-0.12045858055353165,-0.019500667229294777,-0.5620136857032776,-0.09015875309705734,0.18531352281570435,1.039215087890625,0.2618619501590729,-0.41768893599510193,-0.14650188386440277,0.21099776029586792,-0.02119014598429203,0.798557698726654,0.006272932048887014,0.04795736446976662,-1.1281437873840332,-0.24106699228286743,-1.1967579126358032,-0.4580409526824951,0.8315744400024414,-0.33419010043144226,-0.8727923035621643,-0.006972841918468475,1.191394329071045,0.28837302327156067,0.7378743290901184,0.4501594603061676,-0.30384567379951477,0.297462522983551,0.2991141378879547,-0.1729440689086914,-0.6289989948272705,-0.3849808871746063,-0.1115039512515068,-0.73140549659729,0.08187682181596756,0.2280372828245163,0.13660931587219238,0.06525296717882156,-0.5747249126434326,0.6846724152565002,-0.4788484275341034,0.03380579501390457,0.24002684652805328,0.2680628299713135,-0.9026504158973694,-1.2780927419662476,-0.24087266623973846,0.6556270122528076,-0.355259507894516,0.24598157405853271,-0.33608677983283997,-0.7146551012992859,-0.37893906235694885,0.266139417886734,0.016800642013549805,0.19080793857574463,0.15612486004829407,0.1987190842628479,1.1162238121032715,-0.3028814494609833,0.5403516888618469,0.3791787624359131,-0.08868864178657532,-0.29216527938842773,-0.576152503490448,-0.05758429691195488,-0.07908453792333603,0.5793977379798889,-0.9581095576286316,-0.1668739765882492,-0.5910021662712097,0.3658689558506012,-0.7219933867454529,-0.5537838339805603,0.1860164850950241,0.16390998661518097,-0.10564202815294266,0.18979503214359283,0.9727377891540527,-0.5521541237831116,-0.09032825380563736,0.01010820735245943,0.20504987239837646,0.1452827751636505,-0.45007240772247314,-0.038443610072135925,-0.05478180572390556,-0.6674948334693909,-2.537045478820801,0.002297699451446533,-0.5563614964485168,-0.26163527369499207,0.7232987880706787,0.1742274910211563,-0.2721206247806549,0.7614731192588806,-1.333232045173645,0.1422138512134552,0.06052491068840027,-0.5149202942848206,0.6250430345535278,0.3110790550708771,-0.08852022886276245,0.010256419889628887,-0.11200336366891861,-0.384554386138916,-0.3168061673641205,0.3414059579372406,0.5504924654960632,-1.4294629096984863,-0.1812816858291626,-0.09440433233976364,0.9620314240455627,0.47164270281791687,0.14344607293605804,0.5084626078605652,-0.8306905627250671,-0.000745753466617316,1.0092830657958984,-0.4040755331516266,0.17670375108718872,0.24597418308258057,0.46007153391838074,0.22434167563915253,-0.4107833802700043,-0.338491290807724,-0.5812429785728455,-1.0994645357131958,-0.6884770393371582,-0.37711048126220703,0.25112828612327576,0.1515215039253235,1.023629903793335,-0.7550249695777893,0.12719713151454926,0.7479460835456848,-0.15087752044200897,0.23387904465198517,-0.31987637281417847,0.0928780809044838,-0.27966830134391785,0.08306563645601273,-0.3049861192703247,-0.08041650056838989,0.7902231812477112,0.9825701713562012,-0.5935600996017456,-1.2172622680664062,0.40682101249694824,0.27904650568962097,-0.27593734860420227,-0.07732373476028442,-0.14528465270996094,-0.018460581079125404,-0.6233552098274231,-1.3872575759887695,-0.2416820377111435,-0.31996747851371765,-0.4402535855770111,0.09086611866950989,-1.1108704805374146,-0.5417751669883728,-0.7785015106201172,-0.19404499232769012,0.24803657829761505,-0.10330673307180405,0.029480764642357826,-0.6473548412322998,-0.4183896481990814,-0.06505844742059708,0.2669764459133148,-1.047434687614441,-0.21527500450611115,-0.5338428616523743,-0.5295140147209167,0.08090794831514359,0.19285829365253448,-0.2480829954147339,0.461182564496994,0.2835938632488251,0.2375444620847702,0.5335057377815247,-0.7550897598266602,-0.5278404355049133,-0.471407026052475,0.2675130367279053,0.5902302861213684,-0.8956621289253235,0.20957304537296295,-0.4938117265701294,1.155623435974121,-0.12343009561300278,0.30006757378578186,-0.21556861698627472,-0.9101635813713074,-0.6260890960693359,-0.4691195487976074,-0.07493889331817627,0.5229807496070862,-1.2153350114822388,1.4750925302505493,-0.7360041737556458,-0.5930483341217041,0.521731972694397,0.925974428653717,0.26413244009017944,-0.10997527837753296,-0.8038318753242493,-0.08165136724710464,1.0747915506362915,0.2104729861021042,0.14494861662387848,-0.01885044574737549,0.510932207107544,0.39716649055480957,0.5206478238105774,0.6212322115898132,-0.11315960437059402,0.2895677983760834,-0.6650518774986267,-0.46213844418525696,1.072344183921814,0.6883788108825684,0.3017314672470093,0.1861327439546585,-0.6704766154289246,-0.4037206470966339,0.762749195098877,0.7520176768302917,0.09050080925226212,-0.5202553868293762,-0.6478655338287354,0.22732479870319366,0.24027402698993683,-0.18355844914913177,0.10446911305189133,0.07678983360528946,0.22700633108615875,-0.9126501083374023,0.14416716992855072,-0.46661534905433655,-0.5515865683555603,0.38151273131370544,-0.22315140068531036,0.21804793179035187,-0.22491270303726196,-0.5121230483055115,-1.166882872581482,-0.17685236036777496,-0.10338076949119568,0.38677942752838135,0.7202206254005432,-0.4626978933811188,0.3253519535064697,-0.45454439520835876,-0.03068692423403263,-0.30003416538238525,0.4125722646713257,0.13179270923137665,0.2038753777742386,0.12501563131809235,0.22861458361148834,-0.35735881328582764,0.818396270275116,-0.20074985921382904,0.21186892688274384,-0.6101018786430359,1.2335163354873657,-0.05175933241844177,-0.22012202441692352,-0.11185240000486374,-0.0033108294010162354,0.11233826726675034,0.12688250839710236,0.2659311592578888,-0.2742982804775238,-0.19302332401275635,-0.001967196585610509,-0.5038078427314758,0.9889125823974609,-0.4699024260044098,0.3577127456665039,-0.6235887408256531,-0.8356366157531738,-0.04048179090023041,-1.0810552835464478,0.005915837828069925,0.4542093575000763,-0.10148308426141739,-0.1896945834159851,-0.06749089807271957,0.07453545182943344,-0.6254677176475525,0.14273808896541595,-0.6449130177497864,0.6672253608703613,-0.20518505573272705,0.8819926381111145,-0.24826101958751678,-0.25643181800842285,-0.32386067509651184,-0.18700437247753143,-0.30534425377845764,-0.22118891775608063,0.5056193470954895,-0.2663744390010834,-0.5572393536567688,0.25904539227485657,-0.6595020294189453,0.6229158043861389,-0.49878165125846863,0.3294454514980316,-1.1570953130722046,0.16652117669582367,-0.25559553503990173,0.574709951877594,-0.7389495968818665,0.06300824880599976,-0.7187719941139221,-0.4506933391094208,-0.596342146396637,-0.02512814849615097,0.015902221202850342,0.31860440969467163,0.292892724275589,-0.48886504769325256,0.009884904138743877,-0.08547521382570267,-0.5567646622657776,0.8681100010871887,-0.158350870013237,-0.11080846935510635,-0.11165981739759445,0.09388510137796402,0.20660103857517242,-0.041440993547439575,0.2240966558456421,0.9335612654685974,0.24919815361499786,-0.2716642916202545,-0.11639485508203506,-0.7916118502616882,-0.1678653508424759,-0.7698531746864319,-0.08330237865447998,0.16086265444755554,0.13349498808383942,0.5383308529853821,0.13819147646427155,-0.28666290640830994,-0.1663150191307068,0.5769762396812439,0.42495670914649963,-0.3575250208377838,0.10146387666463852,0.4377811849117279,0.011885665357112885,-0.7078728675842285,0.22008629143238068,-0.04331458732485771,0.8954313397407532,0.010974794626235962,0.19276534020900726,-0.23432905972003937,-0.30530092120170593,-0.592383623123169,0.65772944688797,0.04467901587486267,0.1093568503856659,0.5318862199783325,-0.3850858211517334,0.8266860842704773,-0.4537934362888336,0.41257986426353455,-0.6280144453048706,0.6172990202903748,-0.05543709173798561,0.4464252293109894,0.6913601756095886,0.7091218829154968,0.14668075740337372,0.04725116118788719,0.5763386487960815,0.8345232009887695,0.44112685322761536,0.6018041968345642,0.27568840980529785,0.32835522294044495,-0.2641126215457916,-0.5713548064231873,-0.3968360424041748,-0.141140416264534,0.13230934739112854,-0.09379703551530838,-0.20016391575336456,-0.6190903186798096,0.1360943466424942,0.630164384841919,-0.49945876002311707,-0.736949622631073,0.6720097661018372,0.5674293637275696,-0.9308059811592102,-0.12080518156290054,-0.11188765615224838,0.07471666485071182,-0.4626038074493408,0.03054172545671463,-0.19340582191944122,0.32084476947784424,0.4518544375896454,-0.31259170174598694,0.3201074004173279,0.349050372838974,-0.4952193796634674,0.5957280993461609,0.19700562953948975,-0.14027486741542816,0.1422366499900818,0.1664842665195465,-0.026650557294487953,-0.26399949193000793,-0.2072174996137619,-0.5156270265579224,0.29628583788871765,0.7912325263023376,0.2120445817708969,-0.31072962284088135,-0.6029015183448792,0.10712069272994995,0.25605690479278564,1.255912184715271,0.5140036940574646,0.3635648787021637,0.07003621011972427,-0.4017825126647949,0.6730186343193054,0.1455799788236618,-0.03293496370315552,0.5343366861343384,0.5819051861763,-0.2729471027851105,-0.31376492977142334,-0.1381710022687912,-0.004434216767549515,0.06329187750816345,-0.026808535680174828,0.7098498344421387,-0.0783640518784523,-0.7753446698188782,0.5955526828765869,-1.2388513088226318,-0.5633987784385681,0.03195889666676521,0.6266654133796692,-0.5896599292755127,-0.04166148230433464,0.7748506665229797,-0.4109900891780853,-0.8237774968147278,-0.5881769061088562,0.6625127196311951,-0.5299205183982849,-0.24079205095767975,-0.11493349075317383,-0.08685382455587387,0.0988752469420433,-0.02925415337085724,0.020196715369820595,0.43799707293510437,-0.5482335090637207,0.31759384274482727,-0.37366238236427307,-0.08807193487882614,-0.123047836124897,-0.0020739559549838305,0.7420341372489929,0.0571020245552063,0.13783122599124908,1.1546411514282227,-0.5865182876586914,-0.42321088910102844,-0.5589748024940491,-0.5437788963317871,0.4879446029663086,-0.4686237871646881,0.30243468284606934,-0.655238151550293,-0.27941861748695374,0.4414144456386566,0.05759359523653984,-0.0018377900123596191,-0.10826767235994339,0.1302182376384735,0.5183908939361572,0.0783127099275589,0.12651121616363525,-0.15878720581531525,-0.16128991544246674,1.2786098718643188,-0.5141724944114685,0.7040101885795593,0.2548477351665497,-0.29915085434913635,0.16175557672977448,-0.9001505970954895,-0.3809281587600708,0.3605079650878906,-0.41715359687805176,0.7161725163459778,-0.5290817618370056,0.5847806334495544,-0.663858950138092,-0.26737627387046814,0.36983522772789,0.566135585308075,0.30325770378112793,0.5632225275039673,-0.004049822688102722,0.035556990653276443,-1.0981146097183228,-0.205937460064888,0.19725893437862396,-0.8936143517494202,-0.34732723236083984,0.2255222350358963,-0.8990842700004578,-0.4529726207256317,1.238054633140564,-0.1959686428308487,0.8236270546913147,0.8583202362060547,1.1746324300765991,-0.07523993402719498,-1.3308414220809937,-0.09800020605325699,-0.24442505836486816,-0.4789721667766571,-0.7981314659118652,-0.19595815241336823,0.4485558569431305,0.14843006432056427,0.18062323331832886,-0.20268462598323822,-0.7184421420097351,-0.3190021216869354,0.36088284850120544,0.13507823646068573
chef,0.720287561416626,-0.21500325202941895,0.3037622272968292,0.12244881689548492,0.6925045251846313,-0.2560846507549286,0.153720885515213,-0.07262041419744492,0.771340548992157,-0.5548509359359741,0.288081556558609,-0.12907004356384277,-0.1545202136039734,-0.0788532942533493,-0.6868844628334045,0.10210983455181122,0.1591320037841797,0.26569393277168274,-0.3167473077774048,1.065356731414795,-0.18538351356983185,-0.22748452425003052,-0.36816537380218506,0.16330920159816742,-0.327396422624588,0.25950509309768677,-0.9395514130592346,0.6486508846282959,-0.014416493475437164,-0.4361090362071991,0.6028712391853333,0.11233748495578766,0.08688706904649734,-0.21872106194496155,-0.4138883650302887,-0.13233058154582977,0.15825007855892181,0.5550366640090942,-0.5999273061752319,0.19657813012599945,0.34746840596199036,-0.054449453949928284,0.9620847105979919,0.04778742045164108,0.03830786794424057,0.30271461606025696,0.5005308985710144,0.0484449565410614,0.5084989070892334,-0.21308371424674988,-0.09571179747581482,0.02742421068251133,-0.3792989253997803,-0.5526507496833801,0.08003921806812286,0.546133816242218,-0.6059251427650452,-0.21250730752944946,0.017816221341490746,0.25547611713409424,-0.08758944272994995,0.7725630402565002,0.36793380975723267,-0.6164214611053467,0.23881582915782928,0.04502861574292183,-0.2936556339263916,-0.0773838609457016,-0.5917611122131348,0.29420414566993713,-0.028302615508437157,0.15374578535556793,-0.16435569524765015,-0.12584051489830017,0.19285784661769867,0.3055049180984497,-0.1292482614517212,0.29665613174438477,0.13457168638706207,0.589491605758667,-0.2165178656578064,-0.7349722385406494,-0.1358923614025116,0.9072001576423645,0.1578134298324585,0.656721830368042,-0.5179867148399353,0.1302127242088318,0.0462520532310009,0.6186667680740356,-0.18751530349254608,-0.472800612449646,0.12338124215602875,-0.1971384435892105,-0.018154090270400047,0.012882612645626068,0.6928693056106567,-0.5778685212135315,0.4658213257789612,0.1539662927389145,0.5658760070800781,0.16350749135017395,-0.09360597282648087,0.8263028860092163,-0.6764708161354065,-0.35479971766471863,-0.5393564701080322,0.7147468328475952,0.2566448450088501,-0.04991317540407181,-0.5094066858291626,-0.39131301641464233,-0.21291309595108032,-0.8495961427688599,-0.4026675820350647,0.21493417024612427,0.1188480406999588,-0.4406471252441406,0.1650601327419281,-0.5598264336585999,-0.12025260925292969,0.3288293182849884,0.18174798786640167,1.4137746095657349,0.37848007678985596,-0.5791493058204651,0.2597953975200653,0.07975373417139053,-0.46077999472618103,-0.5841431617736816,0.14729204773902893,0.4241621494293213,0.11834228783845901,-0.07330712676048279,-0.6244949102401733,-0.4012497663497925,-0.04811931028962135,-0.13908563554286957,-0.43136119842529297,-0.09182529151439667,-0.23990792036056519,0.7457254528999329,0.16939891874790192,0.5124887228012085,0.1351262927055359,-0.16412615776062012,-0.32199057936668396,-0.7221266031265259,0.6129336953163147,-0.619452953338623,0.0023855797480791807,0.2724497616291046,-0.17093655467033386,-1.2185173034667969,0.2798061966896057,0.5703641176223755,0.6580018401145935,0.2139960676431656,0.0029026344418525696,-0.19978632032871246,0.2912110984325409,0.3632628619670868,0.17976780235767365,0.31622883677482605,0.25555139780044556,-0.5424633622169495,-0.33829206228256226,0.5163491368293762,-0.15346547961235046,0.3453679382801056,-0.3395611643791199,-0.012254402041435242,0.8329006433486938,0.10640749335289001,0.608721911907196,0.18770945072174072,-0.16500967741012573,-0.0051481761038303375,0.5845582485198975,0.5511783361434937,-0.08096818625926971,0.24657218158245087,0.3202038109302521,-0.5935371518135071,1.106676459312439,-0.04528512805700302,0.5769029855728149,-0.04270727559924126,0.28602513670921326,0.8554190397262573,-0.33915454149246216,-0.6386440992355347,-0.5114621520042419,0.20252354443073273,0.6889025568962097,0.34131723642349243,-0.3200863301753998,0.34493061900138855,-0.3724132180213928,-0.2606057822704315,-0.6835826635360718,-0.5648691654205322,0.09240806102752686,0.21347254514694214,-0.7038838863372803,0.3525983989238739,0.6271825432777405,-0.2912686765193939,0.3603259027004242,-0.12886634469032288,-0.2358379364013672,0.6929360628128052,0.20992904901504517,-0.09294763207435608,-0.31244900822639465,0.15797479450702667,-0.24890267848968506,-0.9919465780258179,0.44685661792755127,-0.059445835649967194,0.5203881859779358,0.3778966963291168,-0.5658653974533081,0.8833332061767578,-0.9408005475997925,0.967049241065979,0.3910401165485382,0.043280765414237976,0.3468213677406311,0.8135461807250977,0.4146201014518738,0.4812759757041931,-0.12490247935056686,0.4679255783557892,0.293088436126709,-0.2188698649406433,-0.24089187383651733,0.14489322900772095,0.6793839335441589,0.4110196530818939,-0.5337878465652466,-0.18480068445205688,0.04892072454094887,0.37478405237197876,-0.3925516903400421,0.9421934485435486,0.14090639352798462,-0.0032801032066345215,0.08785222470760345,-0.4981163740158081,0.18042239546775818,0.1546148657798767,0.294291228055954,-0.5283008217811584,0.23314127326011658,0.0343189463019371,0.06218622252345085,0.3686649203300476,-0.22414132952690125,0.49584558606147766,-0.2110326588153839,0.39855635166168213,0.8059797883033752,-0.3205519914627075,-0.7703672051429749,-0.12573130428791046,-0.28215715289115906,0.22064179182052612,0.6572672128677368,-0.06013965606689453,-0.1715957224369049,-0.7384923100471497,-0.2998248338699341,0.019572965800762177,-1.0498385429382324,-0.336199015378952,0.2392762005329132,0.15289314091205597,0.6274113059043884,-0.8621312975883484,0.412220299243927,0.6195640563964844,0.16092586517333984,0.10580898076295853,-0.5499994158744812,-0.5511035323143005,-0.05709753558039665,-0.026170864701271057,-0.47417792677879333,-0.49826788902282715,-0.056560080498456955,0.45625486969947815,-1.1958922147750854,-1.2085984945297241,0.5389009714126587,-0.2654494643211365,0.41943278908729553,-0.37642359733581543,0.799472451210022,0.006431948859244585,0.42985814809799194,-0.2220057249069214,0.024107933044433594,0.39829567074775696,0.022424999624490738,0.5007081031799316,-0.13065628707408905,0.3081086575984955,-5.2294921875,-0.7335043549537659,-0.2771148383617401,0.18378381431102753,0.49828389286994934,-0.03780876472592354,-0.4048585891723633,-0.41431355476379395,-0.28935137391090393,0.3035739064216614,-0.5003472566604614,-0.695341944694519,0.5105164647102356,0.32774531841278076,-0.3539513647556305,0.43554264307022095,-0.343487948179245,0.0633261501789093,-0.20027075707912445,0.5552570819854736,0.6914876699447632,-0.1777210235595703,-0.041465144604444504,0.16566258668899536,0.0808018147945404,0.6242648363113403,-0.23687732219696045,0.5288499593734741,-1.1979687213897705,0.013958947733044624,0.4346817433834076,-0.03108581155538559,0.13068987429141998,-0.22997413575649261,0.30169612169265747,0.3666746914386749,-0.36339816451072693,0.02005355805158615,0.26826348900794983,-0.2857781648635864,0.5337510108947754,0.40722039341926575,-0.4515797793865204,0.29132527112960815,1.0548497438430786,-0.38887131214141846,-0.4027234613895416,-0.21777518093585968,0.3406507074832916,0.05587129294872284,-0.24236881732940674,0.06119529902935028,-0.08054284751415253,0.5227731466293335,0.39293110370635986,-0.22341257333755493,0.22304505109786987,0.4708634912967682,0.3630370795726776,-0.46047741174697876,-0.14944565296173096,0.02333170361816883,-0.3713764548301697,0.04992397129535675,0.048182420432567596,0.013619807548820972,-0.1819840520620346,-0.2589257061481476,-0.339936763048172,-0.09878132492303848,0.012804599478840828,-0.773491621017456,0.2681424915790558,-1.232925295829773,-0.6692472696304321,-0.22684027254581451,0.15631966292858124,0.19342100620269775,-0.42586731910705566,-0.5346965789794922,0.45157724618911743,-0.446363240480423,0.13369739055633545,-0.5949879884719849,0.11945377290248871,-0.7292272448539734,-0.8643695712089539,-0.3303147852420807,-0.3156598210334778,0.5912075042724609,0.777449369430542,0.4540873169898987,0.8886304497718811,-0.03281930461525917,-0.2655021548271179,1.0289589166641235,-0.4600302577018738,0.15859496593475342,0.08867599070072174,-0.3886176645755768,-0.6872091293334961,-0.44130539894104004,1.3057689666748047,-0.09642985463142395,0.7718115448951721,-0.2742694318294525,0.46805670857429504,0.037158217281103134,-0.26272884011268616,0.5983913540840149,-0.029445985332131386,-0.5742217898368835,-0.2950400114059448,0.2474912852048874,-0.35421323776245117,-0.30248379707336426,0.2556680738925934,0.4452783465385437,-0.26992398500442505,0.2593812346458435,0.026117287576198578,0.5989976525306702,0.0279834121465683,-0.03693200275301933,-0.9285520315170288,0.10847318172454834,0.2562143802642822,-0.17423789203166962,0.43443629145622253,0.21652674674987793,-0.16959704458713531,-0.3230936527252197,0.6590068936347961,0.031004928052425385,0.15219010412693024,0.4612314701080322,0.5537033081054688,-0.7769504189491272,-0.8906787037849426,0.35484546422958374,0.23967306315898895,0.39814871549606323,-0.4879971742630005,0.2586577236652374,-0.3138408660888672,0.5244161486625671,-0.2412831336259842,0.3064734637737274,0.06334452331066132,0.5377438068389893,-0.9544030427932739,0.3335614800453186,0.38961300253868103,-0.0885092169046402,-0.007685557007789612,-0.7593103647232056,0.7230403423309326,-0.33135321736335754,-0.3451038897037506,0.13150763511657715,0.13030372560024261,-0.41005414724349976,-0.08243714272975922,0.5947328805923462,-0.6478716731071472,0.07407842576503754,-0.4036106467247009,0.31461504101753235,-0.24738983809947968,0.7578961849212646,-0.2656925320625305,0.46822917461395264,0.3825364112854004,0.5094867944717407,-0.7862460017204285,-0.5044745206832886,-0.2937264144420624,0.5490355491638184,-0.6670206785202026,0.9050731062889099,0.16662093997001648,-0.28002697229385376,0.3084525465965271,-0.10230404138565063,-0.24547944962978363,-0.7266928553581238,-0.4080699384212494,-0.22468239068984985,-0.024526171386241913,-0.24436041712760925,-0.914502739906311,0.32447710633277893,-0.2665792405605316,0.0895850658416748,0.03315835818648338,-1.0505807399749756,-0.011178221553564072,0.2867267429828644,0.49247080087661743,-0.2415027618408203,0.07099705189466476,0.5162023901939392,-0.12192738056182861,0.04847610741853714,0.6271553039550781,0.27871984243392944,0.22780874371528625,-0.07887958735227585,-0.3935210406780243,0.6921533942222595,-1.0691988468170166,-1.0030027627944946,0.46300458908081055,-0.7297419905662537,-0.002291106153279543,0.4559863209724426,0.1606818437576294,0.08408662676811218,-0.3869439959526062,0.21171876788139343,-0.40495455265045166,0.1573278158903122,-0.7515236139297485,0.058615490794181824,-0.7639709115028381,-0.31656426191329956,-0.17415963113307953,0.7358596324920654,-1.4083397388458252,0.11811424046754837,-0.4415966868400574,-0.02051100879907608,-0.3219968378543854,-0.15840868651866913,0.2998316287994385,0.33165183663368225,0.6335671544075012,-0.5044889450073242,0.39320138096809387,0.1912030577659607,-0.24049527943134308,0.09579600393772125,0.3502752482891083,0.1900823414325714,-0.2991504371166229,-0.513857901096344,-0.11451809108257294,0.013186516240239143,-0.163395956158638,0.17541304230690002,0.13855645060539246,-0.05464690178632736,-0.4289396107196808,-0.47603070735931396,-0.20428994297981262,-0.8745237588882446,0.10329051315784454,0.41700977087020874,-0.28055131435394287,-0.2364559918642044,-0.23112018406391144,0.0893578976392746,0.17030048370361328,0.6571428179740906,-0.27115297317504883,0.028910700231790543,0.2840624749660492,0.21033848822116852,-0.042210422456264496,-0.0029615722596645355,0.44713255763053894,-0.5819403529167175,0.22333255410194397,-0.4678042531013489,0.7589696049690247,-0.11177349835634232,-0.37723508477211,-0.09305719286203384,0.7511128783226013,-0.13978974521160126,-0.05917331948876381,0.1927856057882309,0.45487868785858154,0.20058293640613556,-0.3081967234611511,0.06356533616781235,-0.4681139886379242,0.3910200595855713,-0.24990719556808472,0.5825672745704651,0.2703053057193756,0.17268988490104675,0.8986765146255493,-0.308860719203949,0.045028671622276306,0.5388171672821045,-0.008048228919506073,0.17801040410995483,-0.5298081636428833,-0.00843488797545433,-0.68760746717453,-0.6034783720970154,-0.3955419063568115,0.1146845892071724,-0.4741958975791931,-0.05251607671380043,0.16179105639457703,-1.0602295398712158,-0.367501825094223,-0.03141459450125694,-0.012722086161375046,-0.8421398401260376,0.6231943964958191,-0.14612378180027008,-0.2534227669239044,0.010111302137374878,-0.09448327124118805,0.42336076498031616,-0.7914581298828125,-0.1323542296886444,0.05469604581594467,-0.4231627583503723,0.13572433590888977,-0.09896942228078842,0.4069461226463318,0.6945236921310425,-0.44250068068504333,0.2553509771823883,-0.5658068656921387,-0.8946112394332886,-0.3872072398662567,0.5402317047119141,-0.2956395745277405,0.07161345332860947,-0.5410636067390442,-0.044581905007362366,-0.05519001930952072,0.461518257856369,-0.1317596733570099,0.6540555357933044,0.28752583265304565,0.31867164373397827,-0.1507800817489624,0.5366154313087463,0.026533450931310654,-0.044668685644865036,-0.3238929510116577,-0.3941720128059387,0.8965739011764526,0.2003953903913498,-0.16202472150325775,0.1761314868927002,0.38255029916763306,-0.216937854886055,-0.4140979051589966,0.3489531874656677,-0.5102901458740234,-0.12238109111785889,-0.8889839053153992,-0.12669581174850464,-0.2690306007862091,0.13685277104377747,0.6912631988525391,-0.9140727519989014,0.23760457336902618,0.24874959886074066,-0.8356057405471802,-0.04195687174797058,-0.2502134144306183,0.5006803274154663,0.320205420255661,-0.8399317264556885,0.34350454807281494,0.11061637103557587,-0.1107017993927002,0.03227328136563301,-0.22759747505187988,0.03981299325823784,0.35123491287231445,0.46393153071403503,0.7006728649139404,-0.47525280714035034,-0.6486989259719849,-0.008428394794464111,-0.273892343044281,0.6158096194267273,-0.2165832817554474,-0.3611849546432495,-0.3781762719154358,-0.20815612375736237,0.10153242200613022,0.6102540493011475,0.15349744260311127,-0.34958264231681824,-0.2000047266483307,-0.47757473587989807,-0.02632822096347809,-0.38206979632377625,0.1154584139585495,-0.519131600856781,0.24663297832012177,0.06729114055633545,-0.18767303228378296,-0.325468510389328,0.06913205236196518,0.8365827202796936,0.2599126398563385,0.059916287660598755,-0.5553611516952515,-0.8440974950790405,0.02589123696088791,0.14115913212299347,-0.24057519435882568,-0.30944404006004333,0.17420081794261932,-0.48821744322776794,-0.27471184730529785,-0.07645364850759506,0.007544267922639847,0.025780469179153442,-0.4017186164855957,1.0467808246612549,-0.2208806574344635,0.2004566490650177,0.05511874705553055,-0.075480155646801,-0.1825956553220749,-0.22093795239925385,0.278573602437973,-0.08975512534379959,0.19318875670433044,0.17090196907520294,-0.7100945711135864,-0.47579023241996765,-0.0009069964289665222,-0.04713274538516998,0.41812363266944885,-0.11671537905931473,0.06833087652921677,-0.4771381616592407,0.5621410012245178,0.4576709270477295,0.14266495406627655,0.32213786244392395,-0.6095092296600342,-0.32081860303878784,-0.40893590450286865,-0.3483127951622009,0.1205768808722496,0.015373362228274345,0.09446878731250763,0.032523881644010544,0.5248193740844727,0.16572439670562744,0.12624114751815796,0.43961283564567566,-0.35980424284935,-0.49748846888542175,0.43422481417655945,0.07022429257631302
dentist,0.2600655257701874,0.10397142171859741,0.11921461671590805,-0.048034269362688065,0.7911750078201294,0.06554114818572998,0.4095267057418823,0.6222978830337524,0.545325517654419,-0.21263331174850464,0.22961217164993286,0.19855639338493347,0.2224287986755371,0.09345702826976776,-0.20092782378196716,0.3327839970588684,-0.11569053679704666,0.16501381993293762,0.1804785430431366,0.6399415135383606,-0.20437094569206238,-0.18774013221263885,-0.24181850254535675,0.04738466441631317,-0.3670763075351715,0.33089613914489746,-0.3789028525352478,1.0144070386886597,-0.2913333475589752,-0.6861541271209717,0.3074638843536377,0.09522579610347748,-0.32543784379959106,-0.045357897877693176,0.2364153116941452,-0.268720805644989,0.16830243170261383,0.4277735650539398,-0.9170355796813965,0.2342972308397293,-0.03186393529176712,-0.34230291843414307,0.240714892745018,0.7456198930740356,-0.2470584511756897,0.4070048928260803,0.10002119839191437,0.14416788518428802,0.5528745055198669,-0.4812277853488922,-0.2320285141468048,0.02148638479411602,-0.09417696297168732,-0.34633946418762207,0.283868670463562,-0.023151537403464317,0.09510457515716553,-0.05763385072350502,-0.21831898391246796,-0.1201489120721817,0.017064685001969337,0.13381513953208923,0.38931167125701904,-0.30732396245002747,0.43787288665771484,0.11818578839302063,-0.19432395696640015,0.053943876177072525,-0.5128054618835449,0.06208590045571327,0.44017985463142395,0.6240603923797607,-0.18748167157173157,-0.21712332963943481,0.17080539464950562,0.11641715466976166,-0.6665651202201843,-0.11534282565116882,0.13751186430454254,0.5989688634872437,-0.39792484045028687,-0.6162907481193542,0.23910343647003174,0.3176743686199188,0.3928646147251129,-0.19892774522304535,0.23685409128665924,0.5076054334640503,0.29021403193473816,0.22981002926826477,-0.35147833824157715,-0.34245872497558594,-0.28606435656547546,-0.10637865215539932,-0.25326916575431824,-0.4236631691455841,0.25726833939552307,-0.5051637887954712,-0.0626952201128006,-0.1478438377380371,0.9321936368942261,-0.506769061088562,-0.2441447675228119,0.3457812964916229,-0.24581019580364227,-0.37624648213386536,-0.23926740884780884,0.37265732884407043,0.07169431447982788,0.35537898540496826,-0.39315760135650635,0.04363435134291649,0.20428943634033203,-0.7999382019042969,-0.38218453526496887,0.5168787240982056,-0.19637033343315125,-1.0209898948669434,-0.17536510527133942,-0.2342662662267685,-0.18233777582645416,0.28823399543762207,0.32870057225227356,0.8794106245040894,0.11423434317111969,0.15805070102214813,0.02193285897374153,0.14247342944145203,-0.2534457743167877,0.07714904844760895,0.496297687292099,-0.11368386447429657,0.19864213466644287,-0.36657047271728516,-0.15670689940452576,-0.7014113068580627,-0.2717689871788025,-0.18816839158535004,-0.4625818133354187,0.1763855516910553,0.44349125027656555,0.5702345967292786,0.029578126966953278,0.557975709438324,0.1720021665096283,-0.12255878001451492,-0.5348421931266785,-0.008323909714818,-0.20853915810585022,-0.08879803121089935,-0.14417243003845215,0.5747703313827515,-0.14936408400535583,-0.9469666481018066,0.20814549922943115,0.5452800393104553,0.27509409189224243,0.04044577479362488,-0.259702205657959,0.27795907855033875,0.6035892367362976,-0.3147019147872925,-0.32390227913856506,0.7626413106918335,-0.427802711725235,-0.4378150701522827,-0.5481728911399841,0.019110098481178284,-0.2559845447540283,0.20696619153022766,-0.5469605326652527,0.15253902971744537,0.735354483127594,-0.07445801794528961,0.3325914442539215,0.24727623164653778,0.2350800633430481,-0.05313115566968918,0.5692830085754395,-0.0843237116932869,-0.04260110855102539,0.9799587726593018,-0.3605111241340637,-0.14658983051776886,0.735118567943573,-0.23865455389022827,0.9185449481010437,0.4233459532260895,-0.06869945675134659,0.011767173185944557,-0.27327805757522583,-0.9200237393379211,-0.6031994819641113,0.3120860755443573,0.5278652310371399,0.20644044876098633,-0.681890070438385,0.11892744153738022,-0.902334451675415,-0.2943277060985565,0.056906115263700485,-0.6707237362861633,0.07475221902132034,0.3300459384918213,-0.5701053142547607,-0.06483544409275055,0.026312263682484627,-0.0773748829960823,0.39429497718811035,0.22135032713413239,-0.584414541721344,0.01589437574148178,-0.29725417494773865,0.05581493675708771,-0.18065595626831055,0.12049171328544617,-0.45867180824279785,-0.7008315920829773,0.7371178865432739,-0.24677738547325134,0.410268634557724,-0.47209885716438293,-0.5004109740257263,0.1844252496957779,-0.3548980951309204,0.7735492587089539,0.36917030811309814,-0.315853476524353,0.13961435854434967,0.3010669946670532,0.5620875954627991,0.8092503547668457,0.2064795345067978,0.3654632866382599,0.18662546575069427,-0.045440733432769775,-0.32671287655830383,-0.24742554128170013,0.34331756830215454,0.1637565940618515,-0.6780886054039001,-0.34361717104911804,0.5173460245132446,0.7593502998352051,0.18590831756591797,0.7589254379272461,-0.37284740805625916,0.18439584970474243,-0.01391446590423584,-0.3044266998767853,-0.421889990568161,-0.035474564880132675,-0.0587703213095665,0.035362377762794495,0.7677983045578003,-0.11010932177305222,-0.0790063738822937,0.08247822523117065,-0.031429510563611984,0.11601157486438751,-0.39871326088905334,0.3376477360725403,1.1208404302597046,0.018611982464790344,-0.5270500183105469,-0.18322496116161346,-0.04578690230846405,0.18678027391433716,0.28634271025657654,0.45442283153533936,-0.2107754647731781,-0.2322452962398529,-0.09222066402435303,0.11564972996711731,-0.5098550915718079,-0.190787672996521,0.393810898065567,0.16942599415779114,0.38615018129348755,-0.6380572319030762,-0.013746244832873344,0.847196638584137,-0.24349328875541687,-0.20516832172870636,-0.39200466871261597,-0.17437617480754852,0.03456132486462593,0.8752444982528687,-0.3032383918762207,-0.3359243869781494,-0.10633987188339233,0.6795293092727661,-0.5376285910606384,-0.8922275304794312,0.7453163862228394,0.17122702300548553,0.11636468768119812,-0.40610814094543457,0.3701378405094147,-0.5929414629936218,0.7601709365844727,-0.18627162277698517,0.2195458710193634,-0.01760951802134514,0.1669081747531891,0.34690988063812256,0.06699775904417038,-0.37733718752861023,-5.693228721618652,-0.37404924631118774,-0.8781436681747437,-0.19567547738552094,0.558962345123291,-0.2539118826389313,-0.3559529185295105,0.4186241924762726,-0.6129903197288513,0.2513907551765442,-0.22752487659454346,-0.2748572826385498,-0.04077658802270889,0.32963162660598755,-0.040590208023786545,-0.17545980215072632,-0.1623626947402954,0.2547053396701813,-0.33525556325912476,0.41291964054107666,0.40018579363822937,-0.9088249206542969,0.15752778947353363,0.07136304676532745,0.02968241274356842,1.3969390392303467,-0.47913670539855957,0.22785280644893646,-0.4836023449897766,0.13206616044044495,0.024755489081144333,0.3642541468143463,0.06027688831090927,0.39719751477241516,0.20712725818157196,0.3663088083267212,-0.33007603883743286,0.0868910402059555,0.562512218952179,-0.811583399772644,0.1572084128856659,0.42894989252090454,-0.0874476507306099,0.653772234916687,0.4953707456588745,-0.31322136521339417,-0.23105768859386444,0.6545323133468628,-0.01082417368888855,0.49393004179000854,-0.23929081857204437,0.39628443121910095,-0.13824871182441711,0.6607667803764343,-0.0659993588924408,0.030758880078792572,-0.06013164296746254,0.5923009514808655,-0.5826036930084229,-0.7156023979187012,-0.23308230936527252,-0.04589889943599701,-0.33837535977363586,-0.38440263271331787,-0.3120594620704651,0.09744950383901596,-0.3447781503200531,-0.9036977291107178,-0.7110148072242737,0.05133172869682312,-0.25592154264450073,-0.9941624999046326,-0.4442295432090759,-1.0367976427078247,-0.6725565195083618,-0.2929622530937195,-0.19923833012580872,-0.08889041841030121,-0.2073160707950592,0.30735889077186584,0.04370161145925522,-0.34979739785194397,0.5892246961593628,-0.3759510815143585,0.05393173545598984,-0.44436559081077576,-0.0665554404258728,-0.19919155538082123,-0.034207120537757874,0.2068416178226471,0.26814526319503784,0.4074004590511322,0.17626416683197021,-0.3557579219341278,-0.3439258933067322,-0.04905904829502106,-0.44695350527763367,0.42511892318725586,0.8619256615638733,-0.3380033075809479,0.05702913552522659,-0.49478238821029663,0.5790790915489197,0.24152728915214539,0.007503833621740341,-0.22621026635169983,-0.23988980054855347,0.033670391887426376,-0.5852223634719849,0.17687344551086426,0.36326858401298523,-0.6854475736618042,0.5141902565956116,-0.22645536065101624,-0.055814050137996674,-0.18083085119724274,0.418363481760025,0.028098640963435173,0.3553905189037323,-0.4066484272480011,-0.046605780720710754,0.3704818785190582,0.45547592639923096,0.16733594238758087,-0.5437217950820923,0.46709030866622925,0.4387739896774292,0.2634689509868622,0.3765878677368164,0.4254920482635498,0.3016981780529022,0.023417577147483826,0.5645276308059692,0.006404019892215729,0.15241128206253052,0.45238515734672546,0.1357869803905487,-0.6267960071563721,-0.6280035972595215,0.16420623660087585,0.5357555747032166,0.22626115381717682,0.03087112307548523,-0.06081966683268547,0.9143715500831604,-0.015911787748336792,-0.6538590788841248,0.20075860619544983,0.32052579522132874,0.5257444977760315,-0.6511983871459961,0.10142215341329575,-0.04977547749876976,-0.1579047441482544,0.46544235944747925,-0.38225364685058594,0.826622724533081,-0.3819006681442261,-0.6263332366943359,-0.13551758229732513,0.11127477884292603,-0.4380244314670563,0.6407703757286072,0.2950959801673889,-0.6268886923789978,0.2656184434890747,-0.20276057720184326,0.5822226405143738,-0.1771300733089447,0.1849527359008789,0.058156367391347885,0.3462412357330322,0.3839547634124756,0.6381593942642212,-0.6039496660232544,0.13799148797988892,-0.1922338753938675,0.8254669308662415,0.15186218917369843,0.3588055670261383,0.41456344723701477,-0.5087981820106506,0.12793539464473724,-0.6469863653182983,0.4013110399246216,-0.5766003727912903,-0.5991759896278381,-0.3341936469078064,-0.21793462336063385,0.09617434442043304,-0.487321674823761,0.22727328538894653,0.02851857617497444,0.16004954278469086,0.08974112570285797,-0.7464500665664673,-0.052017372101545334,0.2967175245285034,0.36812347173690796,0.39845308661460876,-0.3652656078338623,0.3680382966995239,-0.356792688369751,-0.1457468420267105,-0.28289341926574707,0.4831010103225708,-0.035310596227645874,0.07776869833469391,-0.7420282363891602,0.5308861136436462,-0.1811857521533966,-0.1105935275554657,-0.06449396908283234,-0.4443770945072174,-0.008290096186101437,0.035954415798187256,0.3171362578868866,0.3246622383594513,-0.2985667586326599,0.35760799050331116,-0.04426954686641693,0.09501445293426514,-1.0596339702606201,0.12578274309635162,-1.21484375,0.1492072343826294,-0.2389238178730011,0.29706165194511414,-0.9376981258392334,0.023892154917120934,-0.4367578327655792,-0.5948798060417175,-0.273084431886673,0.12317197769880295,0.5526512265205383,0.37687647342681885,0.07186771929264069,-0.39841151237487793,0.1676928699016571,-0.14969122409820557,-0.3101096749305725,0.41588398814201355,-0.3548014760017395,0.3503139913082123,-0.23447869718074799,0.1533568948507309,0.4822350740432739,-0.08513924479484558,0.004810454323887825,0.516982913017273,-0.07328490167856216,-0.12455639988183975,0.010561243630945683,-0.39217647910118103,-0.08079437166452408,-0.5060710310935974,-0.45136409997940063,-0.08994853496551514,-0.2126678228378296,0.27524879574775696,-0.10780858993530273,0.1556614190340042,0.24218571186065674,-0.07640749216079712,0.29750844836235046,0.2414553463459015,-0.04323191940784454,0.07580751180648804,-0.15120427310466766,-0.1439598649740219,0.35096123814582825,-0.41121965646743774,0.3208480477333069,-0.42725563049316406,0.39395448565483093,-0.1978951394557953,-0.29320499300956726,-0.28042182326316833,0.8227606415748596,0.14307992160320282,-0.48410966992378235,0.4696265161037445,-0.31007277965545654,0.08560240268707275,-0.7950197458267212,0.37928637862205505,-0.42490050196647644,0.5911615490913391,-0.4646145701408386,0.640649676322937,0.3654695153236389,0.23805275559425354,-0.110664002597332,0.70566725730896,-0.3024651110172272,0.887811005115509,0.13925701379776,0.20570805668830872,-0.0023216023109853268,-0.002502473071217537,-0.3327670991420746,0.607636034488678,-0.3082970082759857,-0.054005008190870285,-0.4979029893875122,-0.02598210610449314,0.09643711894750595,-0.6051681041717529,0.1764744520187378,0.4886787533760071,-0.051749590784311295,-0.48007041215896606,0.45960763096809387,0.030963828787207603,-0.6083225607872009,-0.1228470504283905,0.22102399170398712,0.6463728547096252,-0.6073826551437378,-0.2614286541938782,-0.30814406275749207,-0.023258253931999207,0.10694599896669388,-0.4666344225406647,0.09357402473688126,-0.02669074758887291,0.13734757900238037,0.725624680519104,0.38385438919067383,-0.2519654929637909,0.38670065999031067,0.5806959271430969,0.5719051957130432,-0.09998769313097,0.30302271246910095,-0.2712480127811432,0.23630304634571075,0.42862236499786377,0.2719912827014923,-0.2059740424156189,0.0592837780714035,0.5767713785171509,-0.9504525661468506,0.7998412251472473,0.16361427307128906,-0.3112034499645233,0.266574501991272,-0.1907804310321808,0.33822280168533325,-0.22732755541801453,-0.07762568444013596,-0.5301660895347595,0.20498313009738922,-0.255940318107605,-0.17684148252010345,0.09294359385967255,-0.27575910091400146,-0.24222621321678162,-0.6709666848182678,0.4008544087409973,-0.10451975464820862,-0.2452276200056076,0.31862854957580566,-0.5110767483711243,-0.20422278344631195,0.031579338014125824,-0.27913710474967957,-0.658196210861206,0.45051050186157227,0.4329468607902527,-0.1323646605014801,-0.47842472791671753,0.20773984491825104,0.6542583703994751,-0.40957167744636536,-0.4325668215751648,-0.15284745395183563,-0.4234088957309723,0.29117146134376526,0.792268693447113,0.5130029320716858,-0.03629329055547714,-0.43198564648628235,0.3003421425819397,-0.056008778512477875,-0.03677810728549957,0.2369130253791809,-0.1190086379647255,0.28825992345809937,-0.02230076491832733,-0.36996209621429443,0.655876874923706,-0.5767809152603149,-0.24621471762657166,-0.01579168438911438,-0.1573387086391449,0.11221427470445633,-0.6819026470184326,0.1832619607448578,-0.3713177442550659,-0.15804411470890045,0.2975825369358063,0.12628602981567383,-0.19060352444648743,0.035713374614715576,-0.06985896080732346,0.332372784614563,-0.15577352046966553,0.015690922737121582,-0.40085452795028687,0.3859698474407196,0.6946451663970947,-0.2779535949230194,-0.007727414835244417,0.2752835154533386,-0.5382885932922363,-0.26905080676078796,-0.6952316761016846,0.04922156035900116,-0.22772762179374695,-0.21224945783615112,0.2729276716709137,-0.09659348428249359,-0.27059242129325867,-0.25482267141342163,-0.13263791799545288,0.11864135414361954,0.05994187667965889,0.32142823934555054,-0.11884103715419769,-0.22371269762516022,-0.008969180285930634,-0.2140149027109146,-0.5044865012168884,0.23720934987068176,-0.3347029685974121,0.20586112141609192,0.061626795679330826,0.24467647075653076,-0.576391339302063,0.29705917835235596,-0.14220890402793884,0.33653706312179565,0.0191908311098814,0.4120258688926697,-0.516221821308136,-0.5200066566467285,-0.585028886795044,0.19814151525497437,-0.5778797268867493,-0.3867693841457367,0.1571999490261078,0.14411702752113342,0.06165258586406708,-0.06021120026707649,0.15365739166736603,-0.6175079345703125,-0.04412323608994484,0.22365233302116394,-0.12425941228866577
maid,0.26159143447875977,-0.32807713747024536,0.48999547958374023,-0.2702791392803192,0.7940327525138855,-0.30460336804389954,1.0716779232025146,-0.45746347308158875,0.22468599677085876,-0.6087455749511719,0.2806551456451416,-0.8503349423408508,0.3415184020996094,0.07607690989971161,-1.1130598783493042,-0.07940542697906494,0.09338557720184326,-0.3048148453235626,0.01906239055097103,0.5536121129989624,-0.4896831512451172,0.43864840269088745,-0.2799106240272522,-0.18675434589385986,-0.2601070702075958,0.15770938992500305,-0.3395668566226959,0.7944753766059875,-0.10828743875026703,-0.12297436594963074,0.5006820559501648,0.013019170612096786,0.24786272644996643,0.27115556597709656,-0.5886481404304504,0.037971898913383484,0.13343633711338043,0.5949155688285828,-0.5434943437576294,-0.25616419315338135,-0.7642845511436462,-0.4801212251186371,0.48049837350845337,0.39768385887145996,-0.3350435495376587,0.20576134324073792,0.764539897441864,-0.16276726126670837,0.08997052162885666,0.17790421843528748,-0.5944249629974365,0.7060554027557373,0.6101186871528625,-0.6216607689857483,0.30528515577316284,1.1034396886825562,-0.436489462852478,-0.4660585820674896,-0.3643467128276825,-0.14131176471710205,-0.5504226088523865,0.31602996587753296,0.2185204029083252,-0.8964881896972656,0.09254558384418488,0.6724440455436707,0.2270580679178238,0.37927186489105225,-0.5775294899940491,0.24496279656887054,0.3951284885406494,0.32391777634620667,-0.06411372125148773,-0.1354566514492035,-0.6309446692466736,0.04102744162082672,-0.8067014217376709,-0.2809572219848633,0.020883876830339432,0.20827865600585938,-0.8297038674354553,0.10472076386213303,0.1807171106338501,1.0215086936950684,-0.2128409445285797,0.20242933928966522,-0.29173770546913147,0.4532545208930969,-0.1374308317899704,0.29815158247947693,-0.2519054114818573,-0.4717347025871277,-0.5445225834846497,-0.2981704771518707,0.01815994828939438,-0.2490825057029724,0.9243990182876587,-0.30391639471054077,-0.1092265248298645,0.45154765248298645,1.224348783493042,-0.3339052200317383,0.34373462200164795,0.5907609462738037,-0.6251106858253479,-0.6161072850227356,-0.5018129348754883,0.009693611413240433,0.16104966402053833,0.29884782433509827,0.3067537844181061,-0.2503841817378998,0.012908410280942917,-0.8136957883834839,0.046518802642822266,0.6328052282333374,-0.5313794016838074,-0.5657082796096802,0.26861608028411865,0.14103475213050842,0.8468572497367859,-0.26729699969291687,0.295633465051651,1.0613009929656982,0.11189141869544983,0.09949873387813568,0.366818368434906,0.3483864367008209,-0.19829055666923523,-0.18309569358825684,0.3879666030406952,0.14057062566280365,-0.01865244284272194,-0.288877010345459,-0.4699350595474243,-0.8022395968437195,-0.113401859998703,-0.1917646825313568,-1.062184453010559,0.4722353518009186,0.0012665241956710815,1.1363118886947632,0.743236243724823,-0.10736972093582153,0.11863939464092255,0.49513739347457886,-0.28866684436798096,-0.4952149987220764,0.235641747713089,-0.6299850344657898,0.2276989072561264,0.29745757579803467,0.023665901273489,0.14089243113994598,0.10248463600873947,-0.039763569831848145,0.2039031833410263,0.42505204677581787,-0.46219587326049805,0.11772368848323822,-0.2979166507720947,-0.05812517926096916,-0.1317925602197647,0.2405455857515335,-0.028035975992679596,0.06590832769870758,-0.4763725996017456,0.8499524593353271,-0.23788021504878998,-0.32191136479377747,-0.27065566182136536,0.049027301371097565,0.6185823678970337,-0.4025586247444153,0.4908817708492279,0.36414849758148193,0.12344849109649658,0.3278683125972748,0.9257473349571228,0.44723471999168396,0.17372161149978638,0.11694636940956116,0.19133631885051727,-0.06909368187189102,1.2840300798416138,0.26208165287971497,0.3451281189918518,-0.2721289396286011,0.44520679116249084,-0.2069556713104248,0.22319604456424713,-0.03905854374170303,-0.8656916618347168,0.25248056650161743,0.2479274868965149,0.13556507229804993,-0.32951658964157104,0.025292813777923584,-0.8227527737617493,-0.19066274166107178,-0.25087904930114746,-0.6911435127258301,-0.16389742493629456,0.45293229818344116,-0.4834291338920593,0.31703609228134155,0.30984240770339966,0.07444142550230026,0.4849972128868103,0.31712445616722107,-0.8453937768936157,0.08711390942335129,0.08164197206497192,-0.10963058471679688,0.014043028466403484,-0.1656551957130432,-0.028358809649944305,0.032373517751693726,0.9217771291732788,0.036395419389009476,0.38735076785087585,0.043487273156642914,-0.4052315056324005,0.5003997087478638,-0.6977413892745972,1.2543604373931885,0.11881652474403381,-0.3773065507411957,0.1309615969657898,0.8666906952857971,0.6135995984077454,0.1241350993514061,0.07124985754489899,0.40373650193214417,0.04855174571275711,-0.10396004468202591,-1.1587190628051758,0.41937631368637085,0.4902535676956177,0.21577046811580658,-0.5456396341323853,0.2633369266986847,0.7155099511146545,0.37279048562049866,0.529301106929779,0.5410193204879761,-0.3396972119808197,0.03203865885734558,0.23355987668037415,-0.7110628485679626,-0.0721183493733406,-0.022048383951187134,0.08137401938438416,-1.183715581893921,-0.45245763659477234,0.20488107204437256,-0.32666411995887756,0.13493837416172028,-0.5909627676010132,0.4871405065059662,-0.09798158705234528,0.5159517526626587,0.6948963403701782,-0.10633008927106857,-0.5206686854362488,-0.37486734986305237,-0.0396377295255661,0.4676436483860016,0.33817166090011597,0.027856629341840744,0.3870209753513336,-0.1887250393629074,-0.2513219118118286,0.4661751985549927,-0.42721930146217346,0.26691532135009766,0.21446281671524048,0.19721457362174988,0.3315180242061615,-0.7628782987594604,0.3650866448879242,0.5037983059883118,-0.29140913486480713,-0.24331054091453552,0.03180524334311485,-0.8057381510734558,-0.05732781067490578,0.6838968396186829,-0.46720290184020996,-0.21529626846313477,-0.20854488015174866,0.14524850249290466,-0.8359655141830444,-1.1337250471115112,0.9002350568771362,-0.25784629583358765,-0.10305052250623703,-0.045491576194763184,0.47732850909233093,0.04468410834670067,-0.07260791212320328,0.44003283977508545,0.44891706109046936,0.07653558254241943,0.2612849473953247,0.2921660840511322,-0.40930843353271484,0.32079753279685974,-4.840707302093506,0.00896262377500534,0.4351606070995331,-0.09732195734977722,0.25249242782592773,-0.07356979697942734,-0.1488996297121048,-0.2847888767719269,-0.5464345812797546,0.8891960978507996,-0.08954818546772003,-0.8579317927360535,0.5754479765892029,0.41395580768585205,0.15255941450595856,-0.0885947197675705,-0.27087822556495667,-0.34912776947021484,-0.41399946808815,0.543601393699646,0.3466046154499054,-0.26503312587738037,-0.3690153658390045,-0.018479283899068832,0.029329799115657806,0.6614161729812622,-0.012770719826221466,0.21004220843315125,-0.8601393699645996,-0.3362863063812256,0.5584500432014465,-0.0818302184343338,0.751442551612854,-0.05036357045173645,0.6598192453384399,-0.17430168390274048,0.01844843477010727,-0.24260157346725464,0.140416219830513,-1.1080580949783325,0.19297705590724945,0.18215104937553406,-0.14350418746471405,0.4404420852661133,0.3805990219116211,-0.2834494411945343,-0.6436731815338135,0.5946165323257446,0.28207889199256897,-0.06235869601368904,-0.2505412697792053,0.5195483565330505,0.24358411133289337,-0.4575774371623993,-0.23572847247123718,0.11841926723718643,0.35221195220947266,1.1260132789611816,-0.12317205965518951,-0.23311574757099152,-0.5683628916740417,-0.10520099848508835,-0.31671032309532166,-0.3748825490474701,-0.008607566356658936,-0.6186280250549316,-0.6915459036827087,-0.2915942072868347,-0.08254971355199814,-0.3369063138961792,-0.6248113512992859,-0.8751926422119141,0.028937790542840958,-1.2161166667938232,-0.4575914442539215,0.5803455710411072,0.33345112204551697,-0.008913427591323853,-0.26460814476013184,-1.3124334812164307,-0.06809689849615097,-0.9761061072349548,0.8407931327819824,-0.7525190711021423,-0.0744234025478363,-1.1497374773025513,-0.8888614773750305,-0.8241787552833557,0.17322063446044922,0.014895368367433548,0.1846935898065567,0.6041643023490906,0.6598456501960754,-0.3152063488960266,-0.15449979901313782,0.39032846689224243,-0.16077415645122528,0.23649495840072632,0.6445962190628052,-0.5869192481040955,-0.4122396409511566,-0.5368335247039795,1.1963666677474976,-0.5775578618049622,0.7204397320747375,0.016418544575572014,-0.18516433238983154,0.1725636124610901,0.1157587319612503,0.8234232068061829,0.49756571650505066,-0.8976625800132751,0.6409754753112793,0.07732415199279785,-0.7549011707305908,-0.8282642960548401,0.9915425777435303,0.22956320643424988,0.2638553977012634,0.3153740465641022,0.19308513402938843,0.5814566016197205,0.10747308284044266,-0.09030723571777344,-0.4618617296218872,0.31646308302879333,0.5551013946533203,1.0910595655441284,-0.013904276303946972,-0.5573588609695435,-0.17615275084972382,-0.170767679810524,-0.1596291959285736,0.10058733075857162,0.21546471118927002,-0.006881869398057461,-0.12014813721179962,-0.5847071409225464,-0.6258673071861267,0.44158560037612915,0.22598017752170563,0.29671332240104675,-0.5511718988418579,0.032837435603141785,-0.12235293537378311,-0.686962902545929,0.025436043739318848,0.29387325048446655,0.14559556543827057,0.8511096835136414,-0.6766281127929688,0.21521812677383423,0.480273962020874,0.1396769881248474,-0.23029780387878418,-1.1299318075180054,0.5782619714736938,0.42337456345558167,-0.5448404550552368,0.16847364604473114,-0.3928998112678528,-0.6788575649261475,-0.14901258051395416,0.7847059369087219,-0.9092294573783875,0.012760233134031296,-0.03926701843738556,-0.0836874321103096,-0.009603757411241531,1.1375906467437744,-0.07817898690700531,0.6101321578025818,-0.10220764577388763,0.021549705415964127,-0.6821919083595276,0.14991061389446259,-0.38996103405952454,0.7049927115440369,-0.2821585536003113,1.2826642990112305,0.3062651753425598,-0.0725039392709732,-0.14303119480609894,-0.2991987466812134,0.16308636963367462,0.28633353114128113,0.07667168229818344,-0.3181964159011841,0.3501577079296112,-0.11758115142583847,-0.5329095125198364,0.7093161344528198,-0.8396488428115845,-0.4225110113620758,-0.7541921734809875,-1.3005346059799194,-0.10379006713628769,0.33503592014312744,0.34055736660957336,0.225759357213974,-0.07539626210927963,0.04612399637699127,0.09111405164003372,-0.09740924090147018,0.15466544032096863,0.3215228319168091,0.38955241441726685,0.3582201600074768,-0.4302299916744232,0.5709934234619141,-0.7017399668693542,-0.578191876411438,-0.21102765202522278,-0.44566187262535095,-0.10185442119836807,-0.27426090836524963,0.14359305799007416,0.3101820647716522,-0.4749975800514221,0.21271848678588867,-0.8173763155937195,-0.21184946596622467,-0.44888025522232056,0.21550437808036804,-1.5477221012115479,-0.47564637660980225,-0.09669271111488342,0.20794017612934113,-0.7656168937683105,0.02928311936557293,-0.18785914778709412,0.3808651566505432,0.0575517863035202,-0.19132788479328156,0.12826332449913025,-0.3174092769622803,-0.17405976355075836,-0.8128057718276978,0.40711382031440735,0.3978945314884186,0.23138050734996796,0.052917271852493286,-0.09956356883049011,0.14602217078208923,-0.2774766981601715,-0.3900401294231415,-0.011482257395982742,-0.09100501239299774,0.08752743154764175,0.08334921300411224,0.17529280483722687,0.3752172887325287,0.18634536862373352,-0.6660022735595703,0.2568340301513672,0.47997602820396423,0.14188914000988007,0.6617925763130188,-0.06440094113349915,-0.17691582441329956,-0.38721027970314026,-0.5400820970535278,0.20390623807907104,0.24286019802093506,-0.4855745732784271,0.18637248873710632,0.5088363885879517,0.283608615398407,-0.3323010206222534,-0.17979833483695984,0.35075926780700684,-0.0701996237039566,0.7219008207321167,-0.41113629937171936,0.5855830907821655,-0.22170805931091309,-0.6018671989440918,-0.4787454307079315,1.042238473892212,-0.3480840027332306,-0.7985413670539856,0.11389574408531189,-0.037708815187215805,-0.098261758685112,-0.6758756041526794,0.45979079604148865,-0.4628904163837433,-0.10347188264131546,-0.45138776302337646,0.4681771397590637,0.4596487283706665,0.3739025592803955,0.5504279136657715,0.49664101004600525,-0.40297484397888184,1.220275640487671,-0.07708626240491867,0.3863109052181244,-0.07256665080785751,0.08425410091876984,-0.7021582126617432,-0.38480839133262634,0.07391101121902466,0.18086528778076172,-0.11080639064311981,-0.3096389174461365,0.044906921684741974,-1.1568114757537842,-0.6969136595726013,-0.4867866635322571,0.1281486600637436,-0.5227681398391724,1.0268338918685913,0.21753376722335815,-0.6370465159416199,0.059478357434272766,0.183026522397995,0.5769814848899841,-0.3765507936477661,-0.20734678208827972,0.037420280277729034,0.0682777687907219,0.13602742552757263,0.11615966260433197,0.15253061056137085,0.7575958967208862,-0.21444210410118103,0.38394907116889954,0.6673746705055237,-1.0448323488235474,-0.0578889362514019,-0.09053531289100647,-0.45003819465637207,0.15594065189361572,0.04480273649096489,-0.3299782872200012,0.0369548574090004,0.6164159178733826,-0.2460113763809204,-0.31833985447883606,-0.0034408122301101685,-0.18869610130786896,-0.027074245736002922,0.34137099981307983,0.2403232902288437,0.002076040953397751,-0.23162560164928436,-0.4892340898513794,0.09497341513633728,-0.03231353685259819,-0.17679116129875183,0.16672834753990173,0.42281198501586914,-1.0922383069992065,-0.4105960428714752,0.7787874341011047,-0.49824655055999756,0.04765961319208145,-0.731081485748291,0.48436063528060913,-0.6951534748077393,-0.3214074671268463,0.7124297618865967,-0.24958497285842896,0.1329212784767151,-0.3064954876899719,-0.34097886085510254,0.06626076251268387,-0.00969049334526062,0.17257283627986908,0.2380020171403885,-0.18157745897769928,1.0118556022644043,0.7445201873779297,0.27850988507270813,-0.05488275736570358,-0.3631935119628906,-0.6848664283752441,0.16046270728111267,0.35456582903862,0.6074581146240234,-0.4707821011543274,-0.19608068466186523,0.3363446295261383,-0.3960554599761963,0.458632230758667,-0.44350436329841614,-0.23990920186042786,-0.37975120544433594,-0.2696351408958435,0.23418185114860535,0.5488224029541016,0.15999124944210052,0.04854528605937958,-0.25016242265701294,-1.1838719844818115,0.8945826888084412,-0.35469964146614075,0.237773135304451,0.036163080483675,0.2827199101448059,0.24125653505325317,-0.44415557384490967,0.288504958152771,-0.06753362715244293,0.7996420860290527,0.14521145820617676,0.3729146420955658,-0.1883034110069275,-0.6082097887992859,0.285507470369339,0.4634435474872589,-0.715399444103241,0.6419324278831482,-0.03167925775051117,-0.19406452775001526,-0.4059576094150543,-0.026271669194102287,0.3220827579498291,-0.31593191623687744,-0.5791325569152832,0.7145165801048279,0.6855588555335999,0.4974813163280487,0.07396946102380753,-0.4521753191947937,0.27507802844047546,-0.35062214732170105,0.5787509083747864,-0.4171229600906372,-0.46668463945388794,-0.34347301721572876,-0.3133237659931183,-0.11099743843078613,0.5478017926216125,-0.1637301743030548,-0.1450994312763214,-0.5937454104423523,0.1516510248184204,-0.5181122422218323,0.9213152527809143,0.1546742469072342,-0.4422241747379303,0.30295631289482117,0.27107709646224976,-0.5325831770896912,-0.22767210006713867,-0.4484931528568268,0.6262608170509338,-0.27986836433410645,0.27041691541671753,0.1632392257452011,0.38768184185028076,-0.4345119893550873,0.621972382068634,0.0027226991951465607,-0.295022189617157,-0.5467653274536133,0.07500067353248596,-0.03817219287157059
